{"learner":{"attributes":{},"feature_names":["day_of_week","hour_of_day"],"feature_types":[],"gradient_booster":{"model":{"cats":{"enc":[],"feature_segments":[],"sorted_idx":[]},"gbtree_model_param":{"num_parallel_tree":"1","num_trees":"50"},"iteration_indptr":[0,1,2,3,4,5,6,7,8,9,10,11,12,13,14,15,16,17,18,19,20,21,22,23,24,25,26,27,28,29,30,31,32,33,34,35,36,37,38,39,40,41,42,43,44,45,46,47,48,49,50],"tree_info":[0,0,0,0,0,0,0,0,0,0,0,0,0,0,0,0,0,0,0,0,0,0,0,0,0,0,0,0,0,0,0,0,0,0,0,0,0,0,0,0,0,0,0,0,0,0,0,0,0,0],"trees":[{"base_weights":[5.4289563E-7,-1.0205447E1,1.2974296E0,-1.0725622E1,-6.6349425E0,3.1350667E0,-3.5449982E0,-1.2041684E0,-9.436838E-1,-2.9704878E-1,-8.287018E-1,-2.2605143E0,3.9807076E0,-1.6828792E0,-7.1017237E0,2.8720546E-1,-7.5622666E-1,4.4324628E-1,1.9750951E-1,-4.1277567E-1,1.0636344E-2,-1.0402158E0,-4.789241E-1],"categories":[],"categories_nodes":[],"categories_segments":[],"categories_sizes":[],"default_left":[0,0,0,0,0,0,0,0,0,0,0,0,0,0,0,0,0,0,0,0,0,0,0],"id":0,"left_children":[1,3,5,7,9,11,13,-1,-1,-1,-1,15,17,19,21,-1,-1,-1,-1,-1,-1,-1,-1],"loss_changes":[6.1278625E4,8.9834375E2,3.654887E4,6.5640234E2,3.9310596E2,1.3592225E4,7.472093E3,0E0,0E0,0E0,0E0,1.1015208E4,2.3234102E3,3.2506763E3,2.9114746E3,0E0,0E0,0E0,0E0,0E0,0E0,0E0,0E0],"parents":[2147483647,0,0,1,1,2,2,3,3,4,4,5,5,6,6,11,11,12,12,13,13,14,14],"right_children":[2,4,6,8,10,12,14,-1,-1,-1,-1,16,18,20,22,-1,-1,-1,-1,-1,-1,-1,-1],"split_conditions":[4E0,3E0,1.9E1,5E0,2E0,7E0,2.2E1,-1.2041684E0,-9.436838E-1,-2.9704878E-1,-8.287018E-1,5E0,7E0,4E0,4E0,2.8720546E-1,-7.5622666E-1,4.4324628E-1,1.9750951E-1,-4.1277567E-1,1.0636344E-2,-1.0402158E0,-4.789241E-1],"split_indices":[1,1,1,0,0,1,1,0,0,0,0,0,0,0,0,0,0,0,0,0,0,0,0],"split_type":[0,0,0,0,0,0,0,0,0,0,0,0,0,0,0,0,0,0,0,0,0,0,0],"sum_hessian":[4.626E3,5.21E2,4.105E3,4.53E2,6.8E1,2.976E3,1.129E3,2.2E2,2.33E2,2.2E1,4.6E1,4.03E2,2.573E3,7.42E2,3.87E2,2.05E2,1.98E2,2.099E3,4.74E2,3.13E2,4.29E2,1.58E2,2.29E2],"tree_param":{"num_deleted":"0","num_feature":"2","num_nodes":"23","size_leaf_vector":"1"}},{"base_weights":[-1.0851152E-3,-9.191174E0,1.1672605E0,-9.657791E0,-5.9877634E0,2.8216178E0,-3.1921988E0,-1.0842965E0,-8.4971875E-1,-2.6863545E-1,-7.475948E-1,-2.035624E0,3.582886E0,-1.5151324E0,-6.395467E0,2.586243E-1,-6.8098396E-1,4.547467E-1,2.7846187E-1,-3.716295E-1,9.575176E-3,-9.368486E-1,-4.3123993E-1],"categories":[],"categories_nodes":[],"categories_segments":[],"categories_sizes":[],"default_left":[0,0,0,0,0,0,0,0,0,0,0,0,0,0,0,0,0,0,0,0,0,0,0],"id":1,"left_children":[1,3,5,7,9,11,13,-1,-1,-1,-1,15,17,19,21,-1,-1,-1,-1,-1,-1,-1,-1],"loss_changes":[4.9691758E4,7.224375E2,2.9621902E4,5.3235156E2,3.1892114E2,1.101524E4,6.0607754E3,0E0,0E0,0E0,0E0,8.93219E3,1.9692969E3,2.6348984E3,2.3624824E3,0E0,0E0,0E0,0E0,0E0,0E0,0E0,0E0],"parents":[2147483647,0,0,1,1,2,2,3,3,4,4,5,5,6,6,11,11,12,12,13,13,14,14],"right_children":[2,4,6,8,10,12,14,-1,-1,-1,-1,16,18,20,22,-1,-1,-1,-1,-1,-1,-1,-1],"split_conditions":[4E0,3E0,1.9E1,5E0,2E0,7E0,2.2E1,-1.0842965E0,-8.4971875E-1,-2.6863545E-1,-7.475948E-1,5E0,5E0,4E0,4E0,2.586243E-1,-6.8098396E-1,4.547467E-1,2.7846187E-1,-3.716295E-1,9.575176E-3,-9.368486E-1,-4.3123993E-1],"split_indices":[1,1,1,0,0,1,1,0,0,0,0,0,0,0,0,0,0,0,0,0,0,0,0],"split_type":[0,0,0,0,0,0,0,0,0,0,0,0,0,0,0,0,0,0,0,0,0,0,0],"sum_hessian":[4.626E3,5.21E2,4.105E3,4.53E2,6.8E1,2.976E3,1.129E3,2.2E2,2.33E2,2.2E1,4.6E1,4.03E2,2.573E3,7.42E2,3.87E2,2.05E2,1.98E2,1.163E3,1.41E3,3.13E2,4.29E2,1.58E2,2.29E2],"tree_param":{"num_deleted":"0","num_feature":"2","num_nodes":"23","size_leaf_vector":"1"}},{"base_weights":[-1.9206862E-3,-8.277708E0,1.0501891E0,-8.696272E0,-5.403715E0,2.1403792E0,-4.3975196E0,-9.7635746E-1,-7.6510996E-1,-2.4293983E-1,-6.744259E-1,-1.8331071E0,2.6713989E0,-7.2378707E0,-2.565913E0,2.3288743E-1,-6.1322784E-1,3.4657285E-1,1.4867446E-2,-5.4380196E-1,-8.43753E-1,-9.494908E-2,-3.8830343E-1],"categories":[],"categories_nodes":[],"categories_segments":[],"categories_sizes":[],"default_left":[0,0,0,0,0,0,0,0,0,0,0,0,0,0,0,0,0,0,0,0,0,0,0],"id":2,"left_children":[1,3,5,7,9,11,13,-1,-1,-1,-1,15,17,19,21,-1,-1,-1,-1,-1,-1,-1,-1],"loss_changes":[4.029616E4,5.809453E2,2.4395102E4,4.3173828E2,2.5873242E2,7.2253125E3,3.5450781E3,0E0,0E0,0E0,0E0,7.243082E3,6.0491836E3,5.327842E2,8.862451E2,0E0,0E0,0E0,0E0,0E0,0E0,0E0,0E0],"parents":[2147483647,0,0,1,1,2,2,3,3,4,4,5,5,6,6,11,11,12,12,13,13,14,14],"right_children":[2,4,6,8,10,12,14,-1,-1,-1,-1,16,18,20,22,-1,-1,-1,-1,-1,-1,-1,-1],"split_conditions":[4E0,3E0,2.1E1,5E0,2E0,7E0,4E0,-9.7635746E-1,-7.6510996E-1,-2.4293983E-1,-6.744259E-1,5E0,1.8E1,2.2E1,2.2E1,2.3288743E-1,-6.1322784E-1,3.4657285E-1,1.4867446E-2,-5.4380196E-1,-8.43753E-1,-9.494908E-2,-3.8830343E-1],"split_indices":[1,1,1,0,0,1,0,0,0,0,0,0,1,1,1,0,0,0,0,0,0,0,0],"split_type":[0,0,0,0,0,0,0,0,0,0,0,0,0,0,0,0,0,0,0,0,0,0,0],"sum_hessian":[4.626E3,5.21E2,4.105E3,4.53E2,6.8E1,3.421E3,6.84E2,2.2E2,2.33E2,2.2E1,4.6E1,4.03E2,3.018E3,2.67E2,4.17E2,2.05E2,1.98E2,2.295E3,7.23E2,1.09E2,1.58E2,1.88E2,2.29E2],"tree_param":{"num_deleted":"0","num_feature":"2","num_nodes":"23","size_leaf_vector":"1"}},{"base_weights":[-2.7117047E-3,-7.455031E0,9.4470996E-1,-7.83048E0,-4.8766384E0,1.9263357E0,-3.9604988E0,-8.7916356E-1,-6.889259E-1,-2.1970211E-1,-6.084182E-1,-1.6507376E0,2.4043784E0,-6.519261E0,-2.3104777E0,2.0971178E-1,-5.522132E-1,3.1193066E-1,1.3382723E-2,-4.8991615E-1,-7.599083E-1,-8.5504435E-2,-3.496419E-1],"categories":[],"categories_nodes":[],"categories_segments":[],"categories_sizes":[],"default_left":[0,0,0,0,0,0,0,0,0,0,0,0,0,0,0,0,0,0,0,0,0,0,0],"id":3,"left_children":[1,3,5,7,9,11,13,-1,-1,-1,-1,15,17,19,21,-1,-1,-1,-1,-1,-1,-1,-1],"loss_changes":[3.2675926E4,4.6713672E2,1.9778346E4,3.5014453E2,2.0990002E2,5.8555674E3,2.8770146E3,0E0,0E0,0E0,0E0,5.8733887E3,4.9002695E3,4.316162E2,7.185027E2,0E0,0E0,0E0,0E0,0E0,0E0,0E0,0E0],"parents":[2147483647,0,0,1,1,2,2,3,3,4,4,5,5,6,6,11,11,12,12,13,13,14,14],"right_children":[2,4,6,8,10,12,14,-1,-1,-1,-1,16,18,20,22,-1,-1,-1,-1,-1,-1,-1,-1],"split_conditions":[4E0,3E0,2.1E1,5E0,2E0,7E0,4E0,-8.7916356E-1,-6.889259E-1,-2.1970211E-1,-6.084182E-1,5E0,1.8E1,2.2E1,2.2E1,2.0971178E-1,-5.522132E-1,3.1193066E-1,1.3382723E-2,-4.8991615E-1,-7.599083E-1,-8.5504435E-2,-3.496419E-1],"split_indices":[1,1,1,0,0,1,0,0,0,0,0,0,1,1,1,0,0,0,0,0,0,0,0],"split_type":[0,0,0,0,0,0,0,0,0,0,0,0,0,0,0,0,0,0,0,0,0,0,0],"sum_hessian":[4.626E3,5.21E2,4.105E3,4.53E2,6.8E1,3.421E3,6.84E2,2.2E2,2.33E2,2.2E1,4.6E1,4.03E2,3.018E3,2.67E2,4.17E2,2.05E2,1.98E2,2.295E3,7.23E2,1.09E2,1.58E2,1.88E2,2.29E2],"tree_param":{"num_deleted":"0","num_feature":"2","num_nodes":"23","size_leaf_vector":"1"}},{"base_weights":[-3.3262798E-3,-6.714118E0,8.498244E-1,-7.050886E0,-4.400976E0,2.076311E0,-2.382123E0,-7.91645E-1,-6.2032783E-1,-1.9868717E-1,-5.488709E-1,-6.237991E-1,2.8562233E0,-1.1837174E0,-4.6708684E0,2.5927186E-1,-3.9859557E-1,3.1754908E-1,1.4529714E-1,-3.0053645E-1,1.49261495E-2,-6.843954E-1,-3.148297E-1],"categories":[],"categories_nodes":[],"categories_segments":[],"categories_sizes":[],"default_left":[0,0,0,0,0,0,0,0,0,0,0,0,0,0,0,0,0,0,0,0,0,0,0],"id":4,"left_children":[1,3,5,7,9,11,13,-1,-1,-1,-1,15,17,19,21,-1,-1,-1,-1,-1,-1,-1,-1],"loss_changes":[2.6496748E4,3.7560156E2,1.6280885E4,2.839746E2,1.7028186E2,6.2708936E3,3.0938872E3,0E0,0E0,0E0,0E0,7.234378E3,1.0302949E3,1.8046139E3,1.2622197E3,0E0,0E0,0E0,0E0,0E0,0E0,0E0,0E0],"parents":[2147483647,0,0,1,1,2,2,3,3,4,4,5,5,6,6,11,11,12,12,13,13,14,14],"right_children":[2,4,6,8,10,12,14,-1,-1,-1,-1,16,18,20,22,-1,-1,-1,-1,-1,-1,-1,-1],"split_conditions":[4E0,3E0,1.9E1,5E0,2E0,9E0,2.2E1,-7.91645E-1,-6.2032783E-1,-1.9868717E-1,-5.488709E-1,5E0,7E0,4E0,4E0,2.5927186E-1,-3.9859557E-1,3.1754908E-1,1.4529714E-1,-3.0053645E-1,1.49261495E-2,-6.843954E-1,-3.148297E-1],"split_indices":[1,1,1,0,0,1,1,0,0,0,0,0,0,0,0,0,0,0,0,0,0,0,0],"split_type":[0,0,0,0,0,0,0,0,0,0,0,0,0,0,0,0,0,0,0,0,0,0,0],"sum_hessian":[4.626E3,5.21E2,4.105E3,4.53E2,6.8E1,2.976E3,1.129E3,2.2E2,2.33E2,2.2E1,4.6E1,6.67E2,2.309E3,7.42E2,3.87E2,3.41E2,3.26E2,1.88E3,4.29E2,3.13E2,4.29E2,1.58E2,2.29E2],"tree_param":{"num_deleted":"0","num_feature":"2","num_nodes":"23","size_leaf_vector":"1"}},{"base_weights":[-3.6680829E-3,-6.046843E0,7.646079E-1,-6.3489075E0,-3.9717126E0,1.5700262E0,-3.2600722E0,-7.1283865E-1,-5.585601E-1,-1.7968225E-1,-4.951516E-1,-2.072483E0,1.9143219E0,-5.346278E0,-1.9147056E0,6.787421E-2,-5.2273554E-1,2.4633348E-1,8.87124E-3,-4.1158953E-1,-6.1638623E-1,-1.3630325E-1,-3.9387217E-1],"categories":[],"categories_nodes":[],"categories_segments":[],"categories_sizes":[],"default_left":[0,0,0,0,0,0,0,0,0,0,0,0,0,0,0,0,0,0,0,0,0,0,0],"id":5,"left_children":[1,3,5,7,9,11,13,-1,-1,-1,-1,15,17,19,21,-1,-1,-1,-1,-1,-1,-1,-1],"loss_changes":[2.1486979E4,3.0198828E2,1.3314927E4,2.3030469E2,1.3813953E2,4.295499E3,1.9123613E3,0E0,0E0,0E0,0E0,2.5727578E3,3.133921E3,2.4422217E2,4.6136816E2,0E0,0E0,0E0,0E0,0E0,0E0,0E0,0E0],"parents":[2147483647,0,0,1,1,2,2,3,3,4,4,5,5,6,6,11,11,12,12,13,13,14,14],"right_children":[2,4,6,8,10,12,14,-1,-1,-1,-1,16,18,20,22,-1,-1,-1,-1,-1,-1,-1,-1],"split_conditions":[4E0,3E0,2.1E1,5E0,2E0,6E0,4E0,-7.1283865E-1,-5.585601E-1,-1.7968225E-1,-4.951516E-1,5E0,1.8E1,2.2E1,2.3E1,6.787421E-2,-5.2273554E-1,2.4633348E-1,8.87124E-3,-4.1158953E-1,-6.1638623E-1,-1.3630325E-1,-3.9387217E-1],"split_indices":[1,1,1,0,0,1,0,0,0,0,0,0,1,1,1,0,0,0,0,0,0,0,0],"split_type":[0,0,0,0,0,0,0,0,0,0,0,0,0,0,0,0,0,0,0,0,0,0,0],"sum_hessian":[4.626E3,5.21E2,4.105E3,4.53E2,6.8E1,3.421E3,6.84E2,2.2E2,2.33E2,2.2E1,4.6E1,2.95E2,3.126E3,2.67E2,4.17E2,1.58E2,1.37E2,2.403E3,7.23E2,1.09E2,1.58E2,3.29E2,8.8E1],"tree_param":{"num_deleted":"0","num_feature":"2","num_nodes":"23","size_leaf_vector":"1"}},{"base_weights":[-4.1015046E-3,-5.4458876E0,6.8771935E-1,-5.7168174E0,-3.5843217E0,1.6895769E0,-1.9522961E0,-6.4187735E-1,-5.0294275E0,-1.624953E-1,-4.4668993E-1,-6.0765326E-1,2.3531528E0,-3.578873E0,-7.8431964E-1,-4.5045456E-1,-5.221624E-1,2.1710384E-1,-3.5119495E-1,2.6414493E-1,1.08655035E-1,-1.9447699E-1,-4.815486E-1,1.889912E-2,-2.6005778E-1],"categories":[],"categories_nodes":[],"categories_segments":[],"categories_sizes":[],"default_left":[0,0,0,0,0,0,0,0,0,0,0,0,0,0,0,0,0,0,0,0,0,0,0,0,0],"id":6,"left_children":[1,3,5,7,9,11,13,-1,15,-1,-1,17,19,21,23,-1,-1,-1,-1,-1,-1,-1,-1,-1,-1],"loss_changes":[1.7423201E4,2.4278125E2,1.0863338E4,1.8678027E2,1.1206287E2,4.5395283E3,2.1439707E3,0E0,8.496094E-2,0E0,0E0,5.398481E3,8.406426E2,9.4443066E2,1.1654608E3,0E0,0E0,0E0,0E0,0E0,0E0,0E0,0E0,0E0,0E0],"parents":[2147483647,0,0,1,1,2,2,3,3,4,4,5,5,6,6,8,8,11,11,12,12,13,13,14,14],"right_children":[2,4,6,8,10,12,14,-1,16,-1,-1,18,20,22,24,-1,-1,-1,-1,-1,-1,-1,-1,-1,-1],"split_conditions":[4E0,3E0,1.9E1,5E0,2E0,9E0,4E0,-6.4187735E-1,1E0,-1.624953E-1,-4.4668993E-1,5E0,7E0,2.1E1,2.2E1,-4.5045456E-1,-5.221624E-1,2.1710384E-1,-3.5119495E-1,2.6414493E-1,1.08655035E-1,-1.9447699E-1,-4.815486E-1,1.889912E-2,-2.6005778E-1],"split_indices":[1,1,1,0,0,1,0,0,1,0,0,0,0,1,1,0,0,0,0,0,0,0,0,0,0],"split_type":[0,0,0,0,0,0,0,0,0,0,0,0,0,0,0,0,0,0,0,0,0,0,0,0,0],"sum_hessian":[4.626E3,5.21E2,4.105E3,4.53E2,6.8E1,2.976E3,1.129E3,2.2E2,2.33E2,2.2E1,4.6E1,6.67E2,2.309E3,4.71E2,6.58E2,6.9E1,1.64E2,3.41E2,3.26E2,1.88E3,4.29E2,2.04E2,2.67E2,4.29E2,2.29E2],"tree_param":{"num_deleted":"0","num_feature":"2","num_nodes":"25","size_leaf_vector":"1"}},{"base_weights":[-4.3185935E-3,-3.7937021E0,8.080484E-1,-5.1486917E0,-2.0932653E0,1.8888423E0,-1.7578783E0,-5.779801E-1,-4.530641E-1,1.607428E-1,-4.2991467E0,2.7897449E0,1.1463954E0,-4.602413E0,-1.2069207E0,-3.3176225E-2,1.532304E-1,-3.618359E-1,-4.9699885E-1,2.2973393E-1,4.3041158E-1,-3.5070282E-1,1.5959848E-1,-3.516868E-1,-5.2437526E-1,-2.999132E-2,-3.0028793E-1],"categories":[],"categories_nodes":[],"categories_segments":[],"categories_sizes":[],"default_left":[0,0,0,0,0,0,0,0,0,0,0,0,0,0,0,0,0,0,0,0,0,0,0,0,0,0,0],"id":7,"left_children":[1,3,5,7,9,11,13,-1,-1,15,17,19,21,23,25,-1,-1,-1,-1,-1,-1,-1,-1,-1,-1,-1,-1],"loss_changes":[1.4246684E4,1.8716514E3,1.0572129E4,1.5090039E2,1.8105264E3,1.7907178E3,1.7654019E3,0E0,0E0,1.22774E2,6.6049805E1,8.9313574E2,3.085213E3,1.0896362E2,1.543342E3,0E0,0E0,0E0,0E0,0E0,0E0,0E0,0E0,0E0,0E0,0E0,0E0],"parents":[2147483647,0,0,1,1,2,2,3,3,4,4,5,5,6,6,9,9,10,10,11,11,12,12,13,13,14,14],"right_children":[2,4,6,8,10,12,14,-1,-1,16,18,20,22,24,26,-1,-1,-1,-1,-1,-1,-1,-1,-1,-1,-1,-1],"split_conditions":[6E0,3E0,1.9E1,5E0,5E0,5E0,2E0,-5.779801E-1,-4.530641E-1,4E0,7E0,4E0,8E0,2.1E1,2.2E1,-3.3176225E-2,1.532304E-1,-3.618359E-1,-4.9699885E-1,2.2973393E-1,4.3041158E-1,-3.5070282E-1,1.5959848E-1,-3.516868E-1,-5.2437526E-1,-2.999132E-2,-3.0028793E-1],"split_indices":[1,1,1,0,0,0,0,0,0,0,0,0,1,1,1,0,0,0,0,0,0,0,0,0,0,0,0],"split_type":[0,0,0,0,0,0,0,0,0,0,0,0,0,0,0,0,0,0,0,0,0,0,0,0,0,0,0],"sum_hessian":[4.626E3,8.16E2,3.81E3,4.53E2,3.63E2,2.681E3,1.129E3,2.2E2,2.33E2,1.8E2,1.83E2,1.21E3,1.471E3,1.82E2,9.47E2,1.33E2,4.7E1,9.4E1,8.9E1,9.15E2,2.95E2,1.29E2,1.342E3,7E1,1.12E2,6.3E2,3.17E2],"tree_param":{"num_deleted":"0","num_feature":"2","num_nodes":"27","size_leaf_vector":"1"}},{"base_weights":[-4.428818E-3,-3.4164982E0,7.270498E-1,-4.6360936E0,-1.8859684E0,1.7001326E0,-1.5831581E0,-5.204436E-1,-4.0795135E0,1.4533195E-1,-3.8739E0,2.511315E0,1.0316257E0,-2.9770756E0,-5.8238083E-1,-3.6139342E-1,-4.2523074E-1,-2.988334E-2,1.3822658E-1,-3.260332E-1,-4.4785115E-1,1.17988825E-1,2.984119E-1,-3.1590226E-1,1.4365049E-1,-2.1074234E-1,-4.675779E-1,8.539218E-2,-1.4125311E-1],"categories":[],"categories_nodes":[],"categories_segments":[],"categories_sizes":[],"default_left":[0,0,0,0,0,0,0,0,0,0,0,0,0,0,0,0,0,0,0,0,0,0,0,0,0,0,0,0,0],"id":8,"left_children":[1,3,5,7,9,11,13,-1,15,17,19,21,23,25,27,-1,-1,-1,-1,-1,-1,-1,-1,-1,-1,-1,-1,-1,-1],"loss_changes":[1.155081E4,1.516291E3,8.56991E3,1.2238086E2,1.4704264E3,1.4518066E3,1.574617E3,0E0,3.4575195E0,9.9855034E1,5.3657227E1,7.588076E2,2.5020889E3,6.8742285E2,7.869629E2,0E0,0E0,0E0,0E0,0E0,0E0,0E0,0E0,0E0,0E0,0E0,0E0,0E0,0E0],"parents":[2147483647,0,0,1,1,2,2,3,3,4,4,5,5,6,6,8,8,9,9,10,10,11,11,12,12,13,13,14,14],"right_children":[2,4,6,8,10,12,14,-1,16,18,20,22,24,26,28,-1,-1,-1,-1,-1,-1,-1,-1,-1,-1,-1,-1,-1,-1],"split_conditions":[6E0,3E0,1.9E1,5E0,5E0,5E0,4E0,-5.204436E-1,1E0,4E0,7E0,2E0,8E0,2.2E1,2.1E1,-3.6139342E-1,-4.2523074E-1,-2.988334E-2,1.3822658E-1,-3.260332E-1,-4.4785115E-1,1.17988825E-1,2.984119E-1,-3.1590226E-1,1.4365049E-1,-2.1074234E-1,-4.675779E-1,8.539218E-2,-1.4125311E-1],"split_indices":[1,1,1,0,0,0,0,0,1,0,0,0,1,1,1,0,0,0,0,0,0,0,0,0,0,0,0,0,0],"split_type":[0,0,0,0,0,0,0,0,0,0,0,0,0,0,0,0,0,0,0,0,0,0,0,0,0,0,0,0,0],"sum_hessian":[4.626E3,8.16E2,3.81E3,4.53E2,3.63E2,2.681E3,1.129E3,2.2E2,2.33E2,1.8E2,1.83E2,1.21E3,1.471E3,4.71E2,6.58E2,6.9E1,1.64E2,1.33E2,4.7E1,9.4E1,8.9E1,3.18E2,8.92E2,1.29E2,1.342E3,3.13E2,1.58E2,2.41E2,4.17E2],"tree_param":{"num_deleted":"0","num_feature":"2","num_nodes":"29","size_leaf_vector":"1"}},{"base_weights":[-4.518076E-3,-3.0772629E0,6.5421635E-1,-4.1753635E0,-1.6991999E0,1.5302105E0,-1.4254919E0,-4.686348E-1,-3.6749237E0,1.3139743E-1,-3.4907157E0,1.8459413E0,1.3842411E-1,-3.0562828E0,-7.286032E-1,-3.257704E-1,-3.829654E-1,-2.6917294E-2,1.24691896E-1,-2.9377306E-1,-4.0356365E-1,2.2605272E-1,1.3296407E-1,-3.2604906E-1,6.7560494E-2,-2.17221E-1,-4.7973815E-1,5.454089E-2,-1.5345027E-1],"categories":[],"categories_nodes":[],"categories_segments":[],"categories_sizes":[],"default_left":[0,0,0,0,0,0,0,0,0,0,0,0,0,0,0,0,0,0,0,0,0,0,0,0,0,0,0,0,0],"id":9,"left_children":[1,3,5,7,9,11,13,-1,15,17,19,21,23,25,27,-1,-1,-1,-1,-1,-1,-1,-1,-1,-1,-1,-1,-1,-1],"loss_changes":[9.367629E3,1.2292324E3,6.9451074E3,9.887305E1,1.1942129E3,1.1782954E3,1.2819954E3,0E0,2.630371E0,8.1214554E1,4.35896E1,4.6490967E2,9.096411E2,5.098479E2,8.150304E2,0E0,0E0,0E0,0E0,0E0,0E0,0E0,0E0,0E0,0E0,0E0,0E0,0E0,0E0],"parents":[2147483647,0,0,1,1,2,2,3,3,4,4,5,5,6,6,8,8,9,9,10,10,11,11,12,12,13,13,14,14],"right_children":[2,4,6,8,10,12,14,-1,16,18,20,22,24,26,28,-1,-1,-1,-1,-1,-1,-1,-1,-1,-1,-1,-1,-1,-1],"split_conditions":[6E0,3E0,1.9E1,5E0,5E0,7E0,3E0,-4.686348E-1,1E0,4E0,7E0,5E0,9E0,2.2E1,2.1E1,-3.257704E-1,-3.829654E-1,-2.6917294E-2,1.24691896E-1,-2.9377306E-1,-4.0356365E-1,2.2605272E-1,1.3296407E-1,-3.2604906E-1,6.7560494E-2,-2.17221E-1,-4.7973815E-1,5.454089E-2,-1.5345027E-1],"split_indices":[1,1,1,0,0,0,0,0,1,0,0,0,1,1,1,0,0,0,0,0,0,0,0,0,0,0,0,0,0],"split_type":[0,0,0,0,0,0,0,0,0,0,0,0,0,0,0,0,0,0,0,0,0,0,0,0,0,0,0,0,0],"sum_hessian":[4.626E3,8.16E2,3.81E3,4.53E2,3.63E2,2.681E3,1.129E3,2.2E2,2.33E2,1.8E2,1.83E2,2.185E3,4.96E2,3.37E2,7.92E2,6.9E1,1.64E2,1.33E2,4.7E1,9.4E1,8.9E1,1.21E3,9.75E2,6.7E1,4.29E2,2.25E2,1.12E2,3.07E2,4.85E2],"tree_param":{"num_deleted":"0","num_feature":"2","num_nodes":"29","size_leaf_vector":"1"}},{"base_weights":[-4.600545E-3,-2.7717116E0,5.886123E-1,-3.7604203E0,-1.5309272E0,1.529487E0,-1.0182422E0,-4.219834E-1,-3.3104599E0,1.1879787E-1,-3.1454341E0,1.098056E0,2.4776328E0,-2.3100047E0,-1.5484318E-1,-2.9365876E-1,-3.449009E-1,-2.4245644E-2,1.1248245E-1,-2.6470503E-1,-3.6365572E-1,1.4431293E-1,-2.9606381E-2,2.9851478E-1,1.4299706E-1,-1.3735431E-1,-3.3391806E-1,4.4072095E-2,-1.749246E-1],"categories":[],"categories_nodes":[],"categories_segments":[],"categories_sizes":[],"default_left":[0,0,0,0,0,0,0,0,0,0,0,0,0,0,0,0,0,0,0,0,0,0,0,0,0,0,0,0,0],"id":10,"left_children":[1,3,5,7,9,11,13,-1,15,17,19,21,23,25,27,-1,-1,-1,-1,-1,-1,-1,-1,-1,-1,-1,-1,-1,-1],"loss_changes":[7.5967866E3,9.965176E2,5.7632134E3,7.988037E1,9.6988513E2,9.806587E2,1.5699939E3,0E0,1.9926758E0,6.605382E1,3.541101E1,7.9612305E2,3.9504102E2,5.389873E2,8.0315686E2,0E0,0E0,0E0,0E0,0E0,0E0,0E0,0E0,0E0,0E0,0E0,0E0,0E0,0E0],"parents":[2147483647,0,0,1,1,2,2,3,3,4,4,5,5,6,6,8,8,9,9,10,10,11,11,12,12,13,13,14,14],"right_children":[2,4,6,8,10,12,14,-1,16,18,20,22,24,26,28,-1,-1,-1,-1,-1,-1,-1,-1,-1,-1,-1,-1,-1,-1],"split_conditions":[6E0,3E0,1.8E1,5E0,5E0,1.5E1,4E0,-4.219834E-1,1E0,4E0,7E0,7E0,1.7E1,2.1E1,2.2E1,-2.9365876E-1,-3.449009E-1,-2.4245644E-2,1.1248245E-1,-2.6470503E-1,-3.6365572E-1,1.4431293E-1,-2.9606381E-2,2.9851478E-1,1.4299706E-1,-1.3735431E-1,-3.3391806E-1,4.4072095E-2,-1.749246E-1],"split_indices":[1,1,1,0,0,1,0,0,1,0,0,0,1,1,1,0,0,0,0,0,0,0,0,0,0,0,0,0,0],"split_type":[0,0,0,0,0,0,0,0,0,0,0,0,0,0,0,0,0,0,0,0,0,0,0,0,0,0,0,0,0],"sum_hessian":[4.626E3,8.16E2,3.81E3,4.53E2,3.63E2,2.403E3,1.407E3,2.2E2,2.33E2,1.8E2,1.83E2,1.653E3,7.5E2,5.63E2,8.44E2,6.9E1,1.64E2,1.33E2,4.7E1,9.4E1,8.9E1,1.325E3,3.28E2,5.04E2,2.46E2,2.96E2,2.67E2,6.15E2,2.29E2],"tree_param":{"num_deleted":"0","num_feature":"2","num_nodes":"29","size_leaf_vector":"1"}},{"base_weights":[-4.496673E-3,-3.241514E0,4.0702978E-1,-3.3867145E0,-2.2391596E0,8.5119313E-1,-1.812436E0,-3.79976E-1,-2.9821427E0,-1.360266E-1,-2.6216146E-1,-4.1989425E-1,1.1590825E0,-3.0065084E0,-1.0425225E0,-2.647124E-1,-3.1061983E-1,1.439415E-1,-2.363209E-1,1.5958034E-1,-6.8232254E-3,-2.270193E-1,-3.4970003E-1,-6.379597E-2,-2.5308737E-1],"categories":[],"categories_nodes":[],"categories_segments":[],"categories_sizes":[],"default_left":[0,0,0,0,0,0,0,0,0,0,0,0,0,0,0,0,0,0,0,0,0,0,0,0,0],"id":11,"left_children":[1,3,5,7,9,11,13,-1,15,-1,-1,17,19,21,23,-1,-1,-1,-1,-1,-1,-1,-1,-1,-1],"loss_changes":[6.1650303E3,6.839014E1,4.0492593E3,6.453467E1,1.962741E1,1.3397012E3,6.266084E2,0E0,1.5029297E0,0E0,0E0,2.417035E3,1.4767725E3,8.885132E1,2.5007642E2,0E0,0E0,0E0,0E0,0E0,0E0,0E0,0E0,0E0,0E0],"parents":[2147483647,0,0,1,1,2,2,3,3,4,4,5,5,6,6,8,8,11,11,12,12,13,13,14,14],"right_children":[2,4,6,8,10,12,14,-1,16,-1,-1,18,20,22,24,-1,-1,-1,-1,-1,-1,-1,-1,-1,-1],"split_conditions":[4E0,3E0,2.1E1,5E0,2E0,9E0,4E0,-3.79976E-1,1E0,-1.360266E-1,-2.6216146E-1,5E0,1.8E1,2.2E1,2.3E1,-2.647124E-1,-3.1061983E-1,1.439415E-1,-2.363209E-1,1.5958034E-1,-6.8232254E-3,-2.270193E-1,-3.4970003E-1,-6.379597E-2,-2.5308737E-1],"split_indices":[1,1,1,0,0,1,0,0,1,0,0,0,1,1,1,0,0,0,0,0,0,0,0,0,0],"split_type":[0,0,0,0,0,0,0,0,0,0,0,0,0,0,0,0,0,0,0,0,0,0,0,0,0],"sum_hessian":[4.626E3,5.21E2,4.105E3,4.53E2,6.8E1,3.421E3,6.84E2,2.2E2,2.33E2,2.2E1,4.6E1,6.67E2,2.754E3,2.67E2,4.17E2,6.9E1,1.64E2,3.41E2,3.26E2,2.031E3,7.23E2,1.09E2,1.58E2,3.29E2,8.8E1],"tree_param":{"num_deleted":"0","num_feature":"2","num_nodes":"25","size_leaf_vector":"1"}},{"base_weights":[-4.5196423E-3,-2.2792578E0,4.831386E-1,-3.0501473E0,-1.3115021E0,1.249571E0,-8.258006E-1,-3.4215036E-1,-2.686387E0,-1.7115978E-3,-2.5928094E0,1.900547E0,7.268788E-1,-1.9344192E0,-8.4869646E-2,-2.3861933E-1,-2.7974612E-1,1.0983999E-1,-3.7379555E-2,-2.1439548E-1,-3.0377918E-1,6.824429E-2,2.3655036E-1,-2.6524934E-1,1.0905534E-1,-1.4537981E-1,-3.1494996E-1,7.495304E-2,-9.390285E-2],"categories":[],"categories_nodes":[],"categories_segments":[],"categories_sizes":[],"default_left":[0,0,0,0,0,0,0,0,0,0,0,0,0,0,0,0,0,0,0,0,0,0,0,0,0,0,0,0,0],"id":12,"left_children":[1,3,5,7,9,11,13,-1,15,17,19,21,23,25,27,-1,-1,-1,-1,-1,-1,-1,-1,-1,-1,-1,-1,-1,-1],"loss_changes":[5.133808E3,6.055083E2,3.8242778E3,5.2137207E1,6.108765E2,8.166035E2,1.1563809E3,0E0,1.1270752E0,7.449999E1,3.0237915E1,6.043965E2,1.6435964E3,3.247937E2,6.0294385E2,0E0,0E0,0E0,0E0,0E0,0E0,0E0,0E0,0E0,0E0,0E0,0E0,0E0,0E0],"parents":[2147483647,0,0,1,1,2,2,3,3,4,4,5,5,6,6,8,8,9,9,10,10,11,11,12,12,13,13,14,14],"right_children":[2,4,6,8,10,12,14,-1,16,18,20,22,24,26,28,-1,-1,-1,-1,-1,-1,-1,-1,-1,-1,-1,-1,-1,-1],"split_conditions":[6E0,3E0,1.8E1,5E0,5E0,5E0,4E0,-3.4215036E-1,1E0,2E0,7E0,2E0,8E0,2.2E1,2.1E1,-2.3861933E-1,-2.7974612E-1,1.0983999E-1,-3.7379555E-2,-2.1439548E-1,-3.0377918E-1,6.824429E-2,2.3655036E-1,-2.6524934E-1,1.0905534E-1,-1.4537981E-1,-3.1494996E-1,7.495304E-2,-9.390285E-2],"split_indices":[1,1,1,0,0,0,0,0,1,0,0,0,1,1,1,0,0,0,0,0,0,0,0,0,0,0,0,0,0],"split_type":[0,0,0,0,0,0,0,0,0,0,0,0,0,0,0,0,0,0,0,0,0,0,0,0,0,0,0,0,0],"sum_hessian":[4.626E3,8.16E2,3.81E3,4.53E2,3.63E2,2.403E3,1.407E3,2.2E2,2.33E2,1.8E2,1.83E2,1.069E3,1.334E3,5.63E2,8.44E2,6.9E1,1.64E2,4.5E1,1.35E2,9.4E1,8.9E1,2.96E2,7.73E2,1.29E2,1.205E3,4.05E2,1.58E2,4.27E2,4.17E2],"tree_param":{"num_deleted":"0","num_feature":"2","num_nodes":"29","size_leaf_vector":"1"}},{"base_weights":[-4.4214823E-3,-2.0529308E0,4.3473795E-1,-2.638806E0,-1.0127966E0,1.1246756E0,-7.4356097E-1,-2.747028E0,-1.8884931E0,1.9184686E-1,-2.3934162E0,7.5903124E-1,1.928472E0,-1.7417933E0,-7.640524E-2,-3.0809015E-1,-2.4199636E-1,-1.3352187E-1,-2.1190636E-1,3.1789002E-1,-3.3669084E-2,-1.8315776E-1,-2.8978053E-1,1.0458161E-1,-3.9913226E-2,2.3814435E-1,9.9454865E-2,-2.7012646E-1,-1.1905893E-1,3.97623E-2,-1.3456444E-1],"categories":[],"categories_nodes":[],"categories_segments":[],"categories_sizes":[],"default_left":[0,0,0,0,0,0,0,0,0,0,0,0,0,0,0,0,0,0,0,0,0,0,0,0,0,0,0,0,0,0,0],"id":13,"left_children":[1,3,5,7,9,11,13,15,17,19,21,23,25,27,29,-1,-1,-1,-1,-1,-1,-1,-1,-1,-1,-1,-1,-1,-1,-1,-1],"loss_changes":[4.163445E3,4.9519824E2,3.0989998E3,3.7198486E1,4.927529E2,7.0508057E2,9.375617E2,4.212036E1,5.972824E0,2.520948E2,3.379956E1,5.4978326E2,3.1533545E2,2.9506335E2,5.0893365E2,0E0,0E0,0E0,0E0,0E0,0E0,0E0,0E0,0E0,0E0,0E0,0E0,0E0,0E0,0E0,0E0],"parents":[2147483647,0,0,1,1,2,2,3,3,4,4,5,5,6,6,7,7,8,8,9,9,10,10,11,11,12,12,13,13,14,14],"right_children":[2,4,6,8,10,12,14,16,18,20,22,24,26,28,30,-1,-1,-1,-1,-1,-1,-1,-1,-1,-1,-1,-1,-1,-1,-1,-1],"split_conditions":[6E0,4E0,1.8E1,3E0,5E0,1.5E1,4E0,5E0,2E0,2E0,7E0,7E0,1.7E1,2E0,2.2E1,-3.0809015E-1,-2.4199636E-1,-1.3352187E-1,-2.1190636E-1,3.1789002E-1,-3.3669084E-2,-1.8315776E-1,-2.8978053E-1,1.0458161E-1,-3.9913226E-2,2.3814435E-1,9.9454865E-2,-2.7012646E-1,-1.1905893E-1,3.97623E-2,-1.3456444E-1],"split_indices":[1,1,1,1,0,1,0,0,0,0,0,0,1,0,1,0,0,0,0,0,0,0,0,0,0,0,0,0,0,0,0],"split_type":[0,0,0,0,0,0,0,0,0,0,0,0,0,0,0,0,0,0,0,0,0,0,0,0,0,0,0,0,0,0,0],"sum_hessian":[4.626E3,8.16E2,3.81E3,5.21E2,2.95E2,2.403E3,1.407E3,4.53E2,6.8E1,1.58E2,1.37E2,1.653E3,7.5E2,5.63E2,8.44E2,2.2E2,2.33E2,2.2E1,4.6E1,2.3E1,1.35E2,6.7E1,7E1,1.325E3,3.28E2,5.04E2,2.46E2,2.04E2,3.59E2,6.15E2,2.29E2],"tree_param":{"num_deleted":"0","num_feature":"2","num_nodes":"31","size_leaf_vector":"1"}},{"base_weights":[-4.231384E-3,-1.8489648E0,3.9124262E-1,-2.376641E0,-9.121544E-1,7.778932E-1,-1.3743743E0,-2.473537E0,-1.7046499E0,1.7444985E-1,-2.1575017E0,1.0123754E0,-1.7656463E-3,-2.2814543E0,-7.895134E-1,-2.66997E-1,-2.0231345E-1,-1.20750204E-1,-1.911666E-1,2.8742558E-1,-3.0326918E-2,-1.6511132E-1,-2.6121062E-1,1.5770054E-1,5.5906713E-2,-9.1950774E-2,6.3508295E-2,-2.8292763E-1,-1.8700099E-1,-4.458958E-2,-2.0547302E-1],"categories":[],"categories_nodes":[],"categories_segments":[],"categories_sizes":[],"default_left":[0,0,0,0,0,0,0,0,0,0,0,0,0,0,0,0,0,0,0,0,0,0,0,0,0,0,0,0,0,0,0],"id":14,"left_children":[1,3,5,7,9,11,13,15,17,19,21,23,25,27,29,-1,-1,-1,-1,-1,-1,-1,-1,-1,-1,-1,-1,-1,-1,-1,-1],"loss_changes":[3.3763242E3,4.0170166E2,2.6027502E3,2.9772705E1,4.009234E2,5.716677E2,3.6160205E2,3.4765625E1,4.7929688E0,2.0594171E2,2.7455566E1,6.1442554E2,4.23735E2,5.5115845E1,1.8080963E2,0E0,0E0,0E0,0E0,0E0,0E0,0E0,0E0,0E0,0E0,0E0,0E0,0E0,0E0,0E0,0E0],"parents":[2147483647,0,0,1,1,2,2,3,3,4,4,5,5,6,6,7,7,8,8,9,9,10,10,11,11,12,12,13,13,14,14],"right_children":[2,4,6,8,10,12,14,16,18,20,22,24,26,28,30,-1,-1,-1,-1,-1,-1,-1,-1,-1,-1,-1,-1,-1,-1,-1,-1],"split_conditions":[6E0,4E0,2.1E1,3E0,5E0,1.8E1,4E0,7E0,2E0,2E0,7E0,5E0,4E0,2E0,2.3E1,-2.66997E-1,-2.0231345E-1,-1.20750204E-1,-1.911666E-1,2.8742558E-1,-3.0326918E-2,-1.6511132E-1,-2.6121062E-1,1.5770054E-1,5.5906713E-2,-9.1950774E-2,6.3508295E-2,-2.8292763E-1,-1.8700099E-1,-4.458958E-2,-2.0547302E-1],"split_indices":[1,1,1,1,0,1,0,0,0,0,0,0,0,0,1,0,0,0,0,0,0,0,0,0,0,0,0,0,0,0,0],"split_type":[0,0,0,0,0,0,0,0,0,0,0,0,0,0,0,0,0,0,0,0,0,0,0,0,0,0,0,0,0,0,0],"sum_hessian":[4.626E3,8.16E2,3.81E3,5.21E2,2.95E2,3.126E3,6.84E2,4.53E2,6.8E1,1.58E2,1.37E2,2.403E3,7.23E2,2.67E2,4.17E2,3.12E2,1.41E2,2.2E1,4.6E1,2.3E1,1.35E2,6.7E1,7E1,1.069E3,1.334E3,2.96E2,4.27E2,1.12E2,1.55E2,3.29E2,8.8E1],"tree_param":{"num_deleted":"0","num_feature":"2","num_nodes":"31","size_leaf_vector":"1"}},{"base_weights":[-4.129138E-3,-1.6652318E0,3.5197818E-1,-2.1404736E0,-8.215107E-1,7.0016325E-1,-1.2379878E0,-2.227217E0,-1.5387055E0,1.5862168E-1,-1.9448407E0,8.8237673E-1,-2.2570871E-1,-2.0550623E0,-7.1116E-1,-2.5084168E-1,-1.9521217E-1,-1.0920016E-1,-1.7245668E-1,2.5988057E-1,-2.7316535E-2,-1.4884298E-1,-2.3545745E-1,-1.914326E-2,1.06971584E-1,-2.5362143E-1,1.2549683E-2,-1.5035948E-1,-2.423656E-1,-4.0144093E-2,-1.8515661E-1],"categories":[],"categories_nodes":[],"categories_segments":[],"categories_sizes":[],"default_left":[0,0,0,0,0,0,0,0,0,0,0,0,0,0,0,0,0,0,0,0,0,0,0,0,0,0,0,0,0,0,0],"id":15,"left_children":[1,3,5,7,9,11,13,15,17,19,21,23,25,27,29,-1,-1,-1,-1,-1,-1,-1,-1,-1,-1,-1,-1,-1,-1,-1,-1],"loss_changes":[2.737599E3,3.2583545E2,2.1106455E3,2.3821045E1,3.2620807E2,5.27744E2,2.934021E2,3.0223389E1,3.8455048E0,1.6823862E2,2.2302368E1,5.2585254E2,4.182214E2,5.08313E1,1.4689659E2,0E0,0E0,0E0,0E0,0E0,0E0,0E0,0E0,0E0,0E0,0E0,0E0,0E0,0E0,0E0,0E0],"parents":[2147483647,0,0,1,1,2,2,3,3,4,4,5,5,6,6,7,7,8,8,9,9,10,10,11,11,12,12,13,13,14,14],"right_children":[2,4,6,8,10,12,14,16,18,20,22,24,26,28,30,-1,-1,-1,-1,-1,-1,-1,-1,-1,-1,-1,-1,-1,-1,-1,-1],"split_conditions":[6E0,4E0,2.1E1,3E0,5E0,7E0,4E0,5E0,2E0,2E0,7E0,2E0,9E0,2.2E1,2.3E1,-2.5084168E-1,-1.9521217E-1,-1.0920016E-1,-1.7245668E-1,2.5988057E-1,-2.7316535E-2,-1.4884298E-1,-2.3545745E-1,-1.914326E-2,1.06971584E-1,-2.5362143E-1,1.2549683E-2,-1.5035948E-1,-2.423656E-1,-4.0144093E-2,-1.8515661E-1],"split_indices":[1,1,1,1,0,0,0,0,0,0,0,0,1,1,1,0,0,0,0,0,0,0,0,0,0,0,0,0,0,0,0],"split_type":[0,0,0,0,0,0,0,0,0,0,0,0,0,0,0,0,0,0,0,0,0,0,0,0,0,0,0,0,0,0,0],"sum_hessian":[4.626E3,8.16E2,3.81E3,5.21E2,2.95E2,3.126E3,6.84E2,4.53E2,6.8E1,1.58E2,1.37E2,2.612E3,5.14E2,2.67E2,4.17E2,2.2E2,2.33E2,2.2E1,4.6E1,2.3E1,1.35E2,6.7E1,7E1,3.88E2,2.224E3,6.7E1,4.47E2,1.09E2,1.58E2,3.29E2,8.8E1],"tree_param":{"num_deleted":"0","num_feature":"2","num_nodes":"31","size_leaf_vector":"1"}},{"base_weights":[-4.0730718E-3,-1.4997851E0,3.1657788E-1,-1.9278202E0,-7.3987234E-1,8.4499943E-1,-5.858667E-1,-2.0054777E0,-1.3889167E0,1.442221E-1,-1.7531415E0,5.194768E-1,1.5608042E0,-2.1144602E0,-3.2511294E-1,-2.1701372E-1,-1.6284083E-1,-9.875489E-2,-1.5557794E-1,2.3497538E-1,-2.4604985E-2,-1.3417758E-1,-2.1224335E-1,7.4061684E-2,-3.7338383E-2,2.178858E-1,1.0071563E-1,-8.9378E-2,-2.2563246E-1,2.9700783E-3,-1.3137755E-1],"categories":[],"categories_nodes":[],"categories_segments":[],"categories_sizes":[],"default_left":[0,0,0,0,0,0,0,0,0,0,0,0,0,0,0,0,0,0,0,0,0,0,0,0,0,0,0,0,0,0,0],"id":16,"left_children":[1,3,5,7,9,11,13,15,17,19,21,23,25,27,29,-1,-1,-1,-1,-1,-1,-1,-1,-1,-1,-1,-1,-1,-1,-1,-1],"loss_changes":[2.2195906E3,2.6431873E2,1.8178511E3,1.906018E1,2.6541724E2,5.593467E2,5.6052246E2,2.4654175E1,3.0847473E0,1.3743855E2,1.8116302E1,3.268542E2,2.5478577E2,3.348346E1,4.223914E2,0E0,0E0,0E0,0E0,0E0,0E0,0E0,0E0,0E0,0E0,0E0,0E0,0E0,0E0,0E0,0E0],"parents":[2147483647,0,0,1,1,2,2,3,3,4,4,5,5,6,6,7,7,8,8,9,9,10,10,11,11,12,12,13,13,14,14],"right_children":[2,4,6,8,10,12,14,16,18,20,22,24,26,28,30,-1,-1,-1,-1,-1,-1,-1,-1,-1,-1,-1,-1,-1,-1,-1,-1],"split_conditions":[6E0,4E0,1.8E1,3E0,5E0,1.5E1,2E0,7E0,2E0,2E0,7E0,7E0,5E0,1.9E1,2.2E1,-2.1701372E-1,-1.6284083E-1,-9.875489E-2,-1.5557794E-1,2.3497538E-1,-2.4604985E-2,-1.3417758E-1,-2.1224335E-1,7.4061684E-2,-3.7338383E-2,2.178858E-1,1.0071563E-1,-8.9378E-2,-2.2563246E-1,2.9700783E-3,-1.3137755E-1],"split_indices":[1,1,1,1,0,1,0,0,0,0,0,0,0,1,1,0,0,0,0,0,0,0,0,0,0,0,0,0,0,0,0],"split_type":[0,0,0,0,0,0,0,0,0,0,0,0,0,0,0,0,0,0,0,0,0,0,0,0,0,0,0,0,0,0,0],"sum_hessian":[4.626E3,8.16E2,3.81E3,5.21E2,2.95E2,2.403E3,1.407E3,4.53E2,6.8E1,1.58E2,1.37E2,1.653E3,7.5E2,2.04E2,1.203E3,3.12E2,1.41E2,2.2E1,4.6E1,2.3E1,1.35E2,6.7E1,7E1,1.325E3,3.28E2,3.53E2,3.97E2,2.2E1,1.82E2,8.86E2,3.17E2],"tree_param":{"num_deleted":"0","num_feature":"2","num_nodes":"31","size_leaf_vector":"1"}},{"base_weights":[-3.8513858E-3,-1.3507493E0,2.8489682E-1,-1.736253E0,-6.6634476E-1,6.338348E-1,-8.233792E-1,-1.9422753E0,-1.5512543E0,1.3112275E-1,-1.5803374E0,8.145787E-1,-2.0443347E-1,-1.5510148E0,-3.06375E-1,-2.0426781E-1,-8.9308776E-2,-1.2819766E-1,-1.6332363E-1,2.1245687E-1,-2.2162598E-2,-1.2095713E-1,-1.9131792E-1,-1.0005957E-2,9.8150335E-2,-2.2495337E-1,1.0643985E-2,-2.1847783E-1,-1.203478E-1,-6.034953E-3,-1.5385886E-1],"categories":[],"categories_nodes":[],"categories_segments":[],"categories_sizes":[],"default_left":[0,0,0,0,0,0,0,0,0,0,0,0,0,0,0,0,0,0,0,0,0,0,0,0,0,0,0,0,0,0,0],"id":17,"left_children":[1,3,5,7,9,11,13,15,17,19,21,23,25,27,29,-1,-1,-1,-1,-1,-1,-1,-1,-1,-1,-1,-1,-1,-1,-1,-1],"loss_changes":[1.7998915E3,2.1440076E2,1.4743102E3,1.6882446E1,2.1595552E2,4.3939954E2,3.4298688E2,2.3773682E1,4.0874634E0,1.1227736E2,1.4715973E1,3.6422974E2,3.2765952E2,8.084778E1,1.6209555E2,0E0,0E0,0E0,0E0,0E0,0E0,0E0,0E0,0E0,0E0,0E0,0E0,0E0,0E0,0E0,0E0],"parents":[2147483647,0,0,1,1,2,2,3,3,4,4,5,5,6,6,7,7,8,8,9,9,10,10,11,11,12,12,13,13,14,14],"right_children":[2,4,6,8,10,12,14,16,18,20,22,24,26,28,30,-1,-1,-1,-1,-1,-1,-1,-1,-1,-1,-1,-1,-1,-1,-1,-1],"split_conditions":[6E0,4E0,2E1,5E0,5E0,7E0,4E0,3E0,1E0,2E0,7E0,2E0,9E0,2E0,2.3E1,-2.0426781E-1,-8.9308776E-2,-1.2819766E-1,-1.6332363E-1,2.1245687E-1,-2.2162598E-2,-1.2095713E-1,-1.9131792E-1,-1.0005957E-2,9.8150335E-2,-2.2495337E-1,1.0643985E-2,-2.1847783E-1,-1.203478E-1,-6.034953E-3,-1.5385886E-1],"split_indices":[1,1,1,0,0,0,0,1,1,0,0,0,1,0,1,0,0,0,0,0,0,0,0,0,0,0,0,0,0,0,0],"split_type":[0,0,0,0,0,0,0,0,0,0,0,0,0,0,0,0,0,0,0,0,0,0,0,0,0,0,0,0,0,0,0],"sum_hessian":[4.626E3,8.16E2,3.81E3,5.21E2,2.95E2,2.898E3,9.12E2,2.42E2,2.79E2,1.58E2,1.37E2,2.384E3,5.14E2,3.78E2,5.34E2,2.2E2,2.2E1,6.9E1,2.1E2,2.3E1,1.35E2,6.7E1,7E1,3.68E2,2.016E3,6.7E1,4.47E2,1.32E2,2.46E2,4.46E2,8.8E1],"tree_param":{"num_deleted":"0","num_feature":"2","num_nodes":"31","size_leaf_vector":"1"}},{"base_weights":[-3.7541687E-3,-1.2165399E0,2.5624314E-1,-1.5637487E0,-6.001225E-1,6.988735E-1,-4.9967992E-1,-1.7492559E0,-1.3971701E0,1.1920706E-1,-1.4245666E0,4.080614E-1,1.3384266E0,-1.1704775E0,-5.1360965E-2,-1.8393348E-1,-8.076619E-2,-1.1556102E-1,-1.4706868E-1,1.9209634E-1,-1.9962646E-2,-1.0903932E-1,-1.7245558E-1,5.8313448E-2,-2.9879257E-2,1.7398408E-1,5.123028E-2,-1.7603579E-1,-8.313221E-2,4.9175162E-2,-7.077833E-2],"categories":[],"categories_nodes":[],"categories_segments":[],"categories_sizes":[],"default_left":[0,0,0,0,0,0,0,0,0,0,0,0,0,0,0,0,0,0,0,0,0,0,0,0,0,0,0,0,0,0,0],"id":18,"left_children":[1,3,5,7,9,11,13,15,17,19,21,23,25,27,29,-1,-1,-1,-1,-1,-1,-1,-1,-1,-1,-1,-1,-1,-1,-1,-1],"loss_changes":[1.459302E3,1.7392053E2,1.2754889E3,1.3686523E1,1.7571172E2,4.4657324E2,4.2336948E2,1.9125122E1,3.2728882E0,9.1722664E1,1.1953827E1,2.0485855E2,2.4815356E2,1.11371155E2,3.0160004E2,0E0,0E0,0E0,0E0,0E0,0E0,0E0,0E0,0E0,0E0,0E0,0E0,0E0,0E0,0E0,0E0],"parents":[2147483647,0,0,1,1,2,2,3,3,4,4,5,5,6,6,7,7,8,8,9,9,10,10,11,11,12,12,13,13,14,14],"right_children":[2,4,6,8,10,12,14,16,18,20,22,24,26,28,30,-1,-1,-1,-1,-1,-1,-1,-1,-1,-1,-1,-1,-1,-1,-1,-1],"split_conditions":[6E0,4E0,1.8E1,5E0,5E0,1.5E1,4E0,3E0,1E0,2E0,7E0,7E0,1.7E1,2E0,6E0,-1.8393348E-1,-8.076619E-2,-1.1556102E-1,-1.4706868E-1,1.9209634E-1,-1.9962646E-2,-1.0903932E-1,-1.7245558E-1,5.8313448E-2,-2.9879257E-2,1.7398408E-1,5.123028E-2,-1.7603579E-1,-8.313221E-2,4.9175162E-2,-7.077833E-2],"split_indices":[1,1,1,0,0,1,0,1,1,0,0,0,1,0,0,0,0,0,0,0,0,0,0,0,0,0,0,0,0,0,0],"split_type":[0,0,0,0,0,0,0,0,0,0,0,0,0,0,0,0,0,0,0,0,0,0,0,0,0,0,0,0,0,0,0],"sum_hessian":[4.626E3,8.16E2,3.81E3,5.21E2,2.95E2,2.403E3,1.407E3,2.42E2,2.79E2,1.58E2,1.37E2,1.653E3,7.5E2,5.63E2,8.44E2,2.2E2,2.2E1,6.9E1,2.1E2,2.3E1,1.35E2,6.7E1,7E1,1.325E3,3.28E2,5.04E2,2.46E2,2.04E2,3.59E2,4.62E2,3.82E2],"tree_param":{"num_deleted":"0","num_feature":"2","num_nodes":"31","size_leaf_vector":"1"}},{"base_weights":[-3.5223197E-3,-1.0956653E0,2.3061159E-1,-1.4684805E0,-6.276605E-1,4.7448763E-1,-8.830102E-1,-1.5995189E0,-1.1693009E0,2.3825155E-3,-1.24402E0,6.049749E-1,-1.8849845E-1,-1.4317751E0,-5.290581E-1,-1.4400001E-1,-1.6545549E-1,-6.0922187E-3,-1.3830134E-1,-3.7830826E-2,1.0650946E-1,-1.0283774E-1,-1.4578202E-1,-2.2766301E-2,7.5027436E-2,1.9107478E-2,-1.6548808E-1,-9.9569045E-2,-1.724464E-1,-2.9909706E-2,-1.3757782E-1],"categories":[],"categories_nodes":[],"categories_segments":[],"categories_sizes":[],"default_left":[0,0,0,0,0,0,0,0,0,0,0,0,0,0,0,0,0,0,0,0,0,0,0,0,0,0,0,0,0,0,0],"id":19,"left_children":[1,3,5,7,9,11,13,15,17,19,21,23,25,27,29,-1,-1,-1,-1,-1,-1,-1,-1,-1,-1,-1,-1,-1,-1,-1,-1],"loss_changes":[1.1834124E3,1.416278E2,1.0354319E3,1.5928284E1,1.4135619E2,2.7063483E2,1.322945E2,3.652954E-1,3.355191E1,7.3629135E1,6.9840393E0,3.162962E2,2.8696494E2,3.2489746E1,8.097839E1,0E0,0E0,0E0,0E0,0E0,0E0,0E0,0E0,0E0,0E0,0E0,0E0,0E0,0E0,0E0,0E0],"parents":[2147483647,0,0,1,1,2,2,3,3,4,4,5,5,6,6,7,7,8,8,9,9,10,10,11,11,12,12,13,13,14,14],"right_children":[2,4,6,8,10,12,14,16,18,20,22,24,26,28,30,-1,-1,-1,-1,-1,-1,-1,-1,-1,-1,-1,-1,-1,-1,-1,-1],"split_conditions":[6E0,3E0,2.1E1,7E0,5E0,7E0,4E0,2E0,1E0,4E0,7E0,2E0,1.7E1,2.2E1,2.3E1,-1.4400001E-1,-1.6545549E-1,-6.0922187E-3,-1.3830134E-1,-3.7830826E-2,1.0650946E-1,-1.0283774E-1,-1.4578202E-1,-2.2766301E-2,7.5027436E-2,1.9107478E-2,-1.6548808E-1,-9.9569045E-2,-1.724464E-1,-2.9909706E-2,-1.3757782E-1],"split_indices":[1,1,1,0,0,0,0,0,1,0,0,0,1,1,1,0,0,0,0,0,0,0,0,0,0,0,0,0,0,0,0],"split_type":[0,0,0,0,0,0,0,0,0,0,0,0,0,0,0,0,0,0,0,0,0,0,0,0,0,0,0,0,0,0,0],"sum_hessian":[4.626E3,8.16E2,3.81E3,4.53E2,3.63E2,3.126E3,6.84E2,3.12E2,1.41E2,1.8E2,1.83E2,2.612E3,5.14E2,2.67E2,4.17E2,8.7E1,2.25E2,2.3E1,1.18E2,1.33E2,4.7E1,9.4E1,8.9E1,3.88E2,2.224E3,4.09E2,1.05E2,1.09E2,1.58E2,3.29E2,8.8E1],"tree_param":{"num_deleted":"0","num_feature":"2","num_nodes":"31","size_leaf_vector":"1"}},{"base_weights":[-3.4224396E-3,-9.868746E-1,2.0741037E-1,-1.2693154E0,-4.8545253E-1,5.7995236E-1,-4.2881E-1,-1.4298811E0,-1.1254339E0,1.7731248E-1,-6.822306E-1,1.0266433E0,2.2149599E-1,-1.009761E0,-4.0543534E-2,-1.4999728E-1,-6.942223E-2,-9.309705E-2,-1.1846141E-1,-1.9214077E-2,-1.1602739E-1,1.611334E-2,1.3574311E-1,-2.557752E-1,5.208996E-2,-1.49568E-1,-7.302522E-2,1.0986953E-2,-1.9093195E-1],"categories":[],"categories_nodes":[],"categories_segments":[],"categories_sizes":[],"default_left":[0,0,0,0,0,0,0,0,0,0,0,0,0,0,0,0,0,0,0,0,0,0,0,0,0,0,0,0,0],"id":20,"left_children":[1,3,5,7,9,11,13,15,17,-1,19,21,23,25,27,-1,-1,-1,-1,-1,-1,-1,-1,-1,-1,-1,-1,-1,-1],"loss_changes":[9.595853E2,1.1508899E2,9.035272E2,1.0450195E1,1.3276346E2,3.8469904E2,3.175528E2,1.1488617E1,2.1195068E0,0E0,6.373664E1,3.0612244E2,1.1122084E3,7.550958E1,2.377294E2,0E0,0E0,0E0,0E0,0E0,0E0,0E0,0E0,0E0,0E0,0E0,0E0,0E0,0E0],"parents":[2147483647,0,0,1,1,2,2,3,3,4,4,5,5,6,6,7,7,8,8,10,10,11,11,12,12,13,13,14,14],"right_children":[2,4,6,8,10,12,14,16,18,-1,20,22,24,26,28,-1,-1,-1,-1,-1,-1,-1,-1,-1,-1,-1,-1,-1,-1],"split_conditions":[6E0,4E0,1.8E1,5E0,2E0,5E0,4E0,3E0,1E0,1.7731248E-1,5E0,2E0,8E0,2E0,7E0,-1.4999728E-1,-6.942223E-2,-9.309705E-2,-1.1846141E-1,-1.9214077E-2,-1.1602739E-1,1.611334E-2,1.3574311E-1,-2.557752E-1,5.208996E-2,-1.49568E-1,-7.302522E-2,1.0986953E-2,-1.9093195E-1],"split_indices":[1,1,1,0,0,0,0,1,1,0,0,0,1,0,0,0,0,0,0,0,0,0,0,0,0,0,0,0,0],"split_type":[0,0,0,0,0,0,0,0,0,0,0,0,0,0,0,0,0,0,0,0,0,0,0,0,0,0,0,0,0],"sum_hessian":[4.626E3,8.16E2,3.81E3,5.21E2,2.95E2,2.403E3,1.407E3,2.42E2,2.79E2,2.3E1,2.72E2,1.069E3,1.334E3,5.63E2,8.44E2,2.2E2,2.2E1,6.9E1,2.1E2,1.35E2,1.37E2,2.96E2,7.73E2,1.29E2,1.205E3,2.04E2,3.59E2,7.82E2,6.2E1],"tree_param":{"num_deleted":"0","num_feature":"2","num_nodes":"29","size_leaf_vector":"1"}},{"base_weights":[-3.2622628E-3,-8.886631E-1,1.8655032E-1,-1.1930047E0,-5.0663084E-1,4.3691596E-1,-6.0862654E-1,-1.3040346E0,-9.3986857E-1,2.760924E-3,-1.0049639E0,7.9592794E-1,1.2610692E-1,-1.098333E0,-2.6057538E-1,-1.1493436E-1,-1.3584982E-1,3.413415E-3,-1.1284081E-1,-3.471789E-2,9.796187E-2,-8.111246E-2,-1.19840585E-1,4.8152406E-2,1.734912E-1,-2.3039441E-1,3.475519E-2,-1.51916E-1,-8.672873E-2,1.2694322E-2,-7.829225E-2],"categories":[],"categories_nodes":[],"categories_segments":[],"categories_sizes":[],"default_left":[0,0,0,0,0,0,0,0,0,0,0,0,0,0,0,0,0,0,0,0,0,0,0,0,0,0,0,0,0,0,0],"id":21,"left_children":[1,3,5,7,9,11,13,15,17,19,21,23,25,27,29,-1,-1,-1,-1,-1,-1,-1,-1,-1,-1,-1,-1,-1,-1,-1,-1],"loss_changes":[7.7778046E2,9.438678E1,7.589787E2,1.1534302E1,9.240299E1,3.2338214E2,1.5532816E2,1.0756836E0,2.6115112E1,6.2213406E1,5.9273224E0,3.9623578E2,8.375813E2,3.5532715E1,1.0839368E2,0E0,0E0,0E0,0E0,0E0,0E0,0E0,0E0,0E0,0E0,0E0,0E0,0E0,0E0,0E0,0E0],"parents":[2147483647,0,0,1,1,2,2,3,3,4,4,5,5,6,6,7,7,8,8,9,9,10,10,11,11,12,12,13,13,14,14],"right_children":[2,4,6,8,10,12,14,16,18,20,22,24,26,28,30,-1,-1,-1,-1,-1,-1,-1,-1,-1,-1,-1,-1,-1,-1,-1,-1],"split_conditions":[6E0,3E0,2E1,7E0,5E0,5E0,4E0,2E0,1E0,4E0,7E0,4E0,8E0,2E0,6E0,-1.1493436E-1,-1.3584982E-1,3.413415E-3,-1.1284081E-1,-3.471789E-2,9.796187E-2,-8.111246E-2,-1.19840585E-1,4.8152406E-2,1.734912E-1,-2.3039441E-1,3.475519E-2,-1.51916E-1,-8.672873E-2,1.2694322E-2,-7.829225E-2],"split_indices":[1,1,1,0,0,0,0,0,1,0,0,0,1,0,0,0,0,0,0,0,0,0,0,0,0,0,0,0,0,0,0],"split_type":[0,0,0,0,0,0,0,0,0,0,0,0,0,0,0,0,0,0,0,0,0,0,0,0,0,0,0,0,0,0,0],"sum_hessian":[4.626E3,8.16E2,3.81E3,4.53E2,3.63E2,2.898E3,9.12E2,3.12E2,1.41E2,1.8E2,1.83E2,1.344E3,1.554E3,3.78E2,5.34E2,8.7E1,2.25E2,2.3E1,1.18E2,1.33E2,4.7E1,9.4E1,8.9E1,1.008E3,3.36E2,1.29E2,1.425E3,1.32E2,2.46E2,3.07E2,2.27E2],"tree_param":{"num_deleted":"0","num_feature":"2","num_nodes":"31","size_leaf_vector":"1"}},{"base_weights":[-3.1039594E-3,-8.004063E-1,1.6782208E-1,-1.0744977E0,-4.5634615E-1,4.8263973E-1,-3.698125E-1,-1.1744323E0,-8.466524E-1,2.8341198E-3,-9.0555966E-1,2.2907998E-1,1.0404363E0,-8.5159105E-1,-4.780904E-2,-1.0357153E-1,-1.2232494E-1,3.0863285E-3,-1.01651564E-1,-3.1272043E-2,8.836982E-2,-7.30866E-2,-1.07989684E-1,3.579553E-2,-2.9103471E-2,1.6626135E-1,6.0649253E-2,-1.2659347E-1,-6.1327975E-2,8.966218E-3,-1.755621E-1],"categories":[],"categories_nodes":[],"categories_segments":[],"categories_sizes":[],"default_left":[0,0,0,0,0,0,0,0,0,0,0,0,0,0,0,0,0,0,0,0,0,0,0,0,0,0,0,0,0,0,0],"id":22,"left_children":[1,3,5,7,9,11,13,15,17,19,21,23,25,27,29,-1,-1,-1,-1,-1,-1,-1,-1,-1,-1,-1,-1,-1,-1,-1,-1],"loss_changes":[6.307007E2,7.655597E1,6.452163E2,9.343018E0,7.508484E1,3.397708E2,2.1838846E2,8.526306E-1,2.1197563E1,5.058723E1,4.81456E0,1.10971695E2,2.0175397E2,5.491455E1,1.9854225E2,0E0,0E0,0E0,0E0,0E0,0E0,0E0,0E0,0E0,0E0,0E0,0E0,0E0,0E0,0E0,0E0],"parents":[2147483647,0,0,1,1,2,2,3,3,4,4,5,5,6,6,7,7,8,8,9,9,10,10,11,11,12,12,13,13,14,14],"right_children":[2,4,6,8,10,12,14,16,18,20,22,24,26,28,30,-1,-1,-1,-1,-1,-1,-1,-1,-1,-1,-1,-1,-1,-1,-1,-1],"split_conditions":[6E0,3E0,1.8E1,7E0,5E0,1.5E1,4E0,2E0,1E0,4E0,7E0,7E0,1.6E1,2E0,7E0,-1.0357153E-1,-1.2232494E-1,3.0863285E-3,-1.01651564E-1,-3.1272043E-2,8.836982E-2,-7.30866E-2,-1.07989684E-1,3.579553E-2,-2.9103471E-2,1.6626135E-1,6.0649253E-2,-1.2659347E-1,-6.1327975E-2,8.966218E-3,-1.755621E-1],"split_indices":[1,1,1,0,0,1,0,0,1,0,0,0,1,0,0,0,0,0,0,0,0,0,0,0,0,0,0,0,0,0,0],"split_type":[0,0,0,0,0,0,0,0,0,0,0,0,0,0,0,0,0,0,0,0,0,0,0,0,0,0,0,0,0,0,0],"sum_hessian":[4.626E3,8.16E2,3.81E3,4.53E2,3.63E2,2.403E3,1.407E3,3.12E2,1.41E2,1.8E2,1.83E2,1.653E3,7.5E2,5.63E2,8.44E2,8.7E1,2.25E2,2.3E1,1.18E2,1.33E2,4.7E1,9.4E1,8.9E1,1.325E3,3.28E2,3.07E2,4.43E2,2.04E2,3.59E2,7.82E2,6.2E1],"tree_param":{"num_deleted":"0","num_feature":"2","num_nodes":"31","size_leaf_vector":"1"}},{"base_weights":[-2.9165954E-3,-7.209145E-1,1.5100816E-1,-9.677626E-1,-4.1105202E-1,3.3097783E-1,-6.707673E-1,-1.1092641E0,-8.299866E-1,2.8662814E-3,-8.159877E-1,5.630488E-1,1.2236376E-1,-3.0416104E-1,-9.5060724E-1,-9.3332075E-2,-1.21653095E-1,-6.716812E-2,-8.921162E-2,-2.8168175E-2,7.971699E-2,-6.5854855E-2,-9.731069E-2,2.885063E-2,1.4132552E-1,-2.0868793E-1,3.1135602E-2,-1.066048E-3,-9.312131E-2,-1.347304E-1,-3.6461003E-2],"categories":[],"categories_nodes":[],"categories_segments":[],"categories_sizes":[],"default_left":[0,0,0,0,0,0,0,0,0,0,0,0,0,0,0,0,0,0,0,0,0,0,0,0,0,0,0,0,0,0,0],"id":23,"left_children":[1,3,5,7,9,11,13,15,17,19,21,23,25,27,29,-1,-1,-1,-1,-1,-1,-1,-1,-1,-1,-1,-1,-1,-1,-1,-1],"loss_changes":[5.1147403E2,6.209366E1,5.638485E2,7.930298E0,6.1012486E1,1.513194E2,6.998578E1,3.035492E0,1.7022705E0,4.113372E1,3.9107208E0,3.4505057E2,6.88739E2,5.483403E1,8.970447E1,0E0,0E0,0E0,0E0,0E0,0E0,0E0,0E0,0E0,0E0,0E0,0E0,0E0,0E0,0E0,0E0],"parents":[2147483647,0,0,1,1,2,2,3,3,4,4,5,5,6,6,7,7,8,8,9,9,10,10,11,11,12,12,13,13,14,14],"right_children":[2,4,6,8,10,12,14,16,18,20,22,24,26,28,30,-1,-1,-1,-1,-1,-1,-1,-1,-1,-1,-1,-1,-1,-1,-1,-1],"split_conditions":[6E0,3E0,2.1E1,5E0,5E0,5E0,2.2E1,2E0,1E0,4E0,7E0,4E0,8E0,6E0,5E0,-9.3332075E-2,-1.21653095E-1,-6.716812E-2,-8.921162E-2,-2.8168175E-2,7.971699E-2,-6.5854855E-2,-9.731069E-2,2.885063E-2,1.4132552E-1,-2.0868793E-1,3.1135602E-2,-1.066048E-3,-9.312131E-2,-1.347304E-1,-3.6461003E-2],"split_indices":[1,1,1,0,0,0,1,0,1,0,0,0,1,0,0,0,0,0,0,0,0,0,0,0,0,0,0,0,0,0,0],"split_type":[0,0,0,0,0,0,0,0,0,0,0,0,0,0,0,0,0,0,0,0,0,0,0,0,0,0,0,0,0,0,0],"sum_hessian":[4.626E3,8.16E2,3.81E3,4.53E2,3.63E2,3.126E3,6.84E2,2.2E2,2.33E2,1.8E2,1.83E2,1.479E3,1.647E3,2.97E2,3.87E2,8.7E1,1.33E2,6.9E1,1.64E2,1.33E2,4.7E1,9.4E1,8.9E1,1.119E3,3.6E2,1.29E2,1.518E3,2.03E2,9.4E1,2.3E2,1.57E2],"tree_param":{"num_deleted":"0","num_feature":"2","num_nodes":"31","size_leaf_vector":"1"}},{"base_weights":[-2.7882254E-3,-6.4941436E-1,1.3583584E-1,-8.366661E-1,-3.1699938E-1,4.057261E-1,-3.2506758E-1,-9.140245E-1,-6.5753335E-1,1.6934352E-1,-4.925797E-1,1.8244503E-1,8.969394E-1,-7.4395686E-1,-4.5092914E-2,-9.5709346E-2,-6.261318E-2,9.227483E-3,-7.8317E-2,-3.2112915E-2,-9.758456E-2,2.9160583E-2,-2.5807062E-2,1.3997138E-1,4.474945E-2,-1.10668235E-1,-5.353383E-2,8.115731E-3,-1.6134872E-1],"categories":[],"categories_nodes":[],"categories_segments":[],"categories_sizes":[],"default_left":[0,0,0,0,0,0,0,0,0,0,0,0,0,0,0,0,0,0,0,0,0,0,0,0,0,0,0,0,0],"id":24,"left_children":[1,3,5,7,9,11,13,15,17,-1,19,21,23,25,27,-1,-1,-1,-1,-1,-1,-1,-1,-1,-1,-1,-1,-1,-1],"loss_changes":[4.1484302E2,5.0589172E1,4.7419498E2,6.6325684E0,1.0531998E2,2.635038E2,1.650944E2,3.8892822E0,1.5239014E1,0E0,2.2306381E1,7.9611206E1,1.690766E2,4.208612E1,1.6744951E2,0E0,0E0,0E0,0E0,0E0,0E0,0E0,0E0,0E0,0E0,0E0,0E0,0E0,0E0],"parents":[2147483647,0,0,1,1,2,2,3,3,4,4,5,5,6,6,7,7,8,8,10,10,11,11,12,12,13,13,14,14],"right_children":[2,4,6,8,10,12,14,16,18,-1,20,22,24,26,28,-1,-1,-1,-1,-1,-1,-1,-1,-1,-1,-1,-1,-1,-1],"split_conditions":[6E0,4E0,1.8E1,7E0,2E0,1.5E1,4E0,3E0,1E0,1.6934352E-1,7E0,7E0,5E0,2E0,7E0,-9.5709346E-2,-6.261318E-2,9.227483E-3,-7.8317E-2,-3.2112915E-2,-9.758456E-2,2.9160583E-2,-2.5807062E-2,1.3997138E-1,4.474945E-2,-1.10668235E-1,-5.353383E-2,8.115731E-3,-1.6134872E-1],"split_indices":[1,1,1,0,0,1,0,1,1,0,0,0,0,0,0,0,0,0,0,0,0,0,0,0,0,0,0,0,0],"split_type":[0,0,0,0,0,0,0,0,0,0,0,0,0,0,0,0,0,0,0,0,0,0,0,0,0,0,0,0,0],"sum_hessian":[4.626E3,8.16E2,3.81E3,5.21E2,2.95E2,2.403E3,1.407E3,3.61E2,1.6E2,2.3E1,2.72E2,1.653E3,7.5E2,5.63E2,8.44E2,3.12E2,4.9E1,2.3E1,1.37E2,2.02E2,7E1,1.325E3,3.28E2,3.53E2,3.97E2,2.04E2,3.59E2,7.82E2,6.2E1],"tree_param":{"num_deleted":"0","num_feature":"2","num_nodes":"29","size_leaf_vector":"1"}},{"base_weights":[-2.5782462E-3,-5.8470273E-1,1.22217946E-1,-7.8614247E-1,-3.3185014E-1,2.75746E-1,-5.7881033E-1,-9.040342E-1,-6.7144066E-1,1.2907133E-2,-6.6918284E-1,-2.9496863E-1,3.566997E-1,-2.5154725E-1,-8.286701E-1,-7.464276E-2,-1.0007906E-1,-7.54045E-2,-5.4264016E-2,-2.5142167E-2,7.5055614E-2,-5.5294335E-2,-7.844447E-2,2.2058444E-1,-4.7278777E-2,7.4613735E-2,9.843354E-3,2.7027607E-3,-8.4710225E-2,-1.16175674E-1,-3.364443E-2],"categories":[],"categories_nodes":[],"categories_segments":[],"categories_sizes":[],"default_left":[0,0,0,0,0,0,0,0,0,0,0,0,0,0,0,0,0,0,0,0,0,0,0,0,0,0,0,0,0,0,0],"id":25,"left_children":[1,3,5,7,9,11,13,15,17,19,21,23,25,27,29,-1,-1,-1,-1,-1,-1,-1,-1,-1,-1,-1,-1,-1,-1,-1,-1],"loss_changes":[3.3620874E2,4.135266E1,4.1032794E2,5.5321655E0,4.234107E1,1.4457721E2,5.580391E1,2.623108E0,2.0804596E0,3.548042E1,2.031479E0,1.7402826E2,2.7541122E2,4.9463074E1,6.3223206E1,0E0,0E0,0E0,0E0,0E0,0E0,0E0,0E0,0E0,0E0,0E0,0E0,0E0,0E0,0E0,0E0],"parents":[2147483647,0,0,1,1,2,2,3,3,4,4,5,5,6,6,7,7,8,8,9,9,10,10,11,11,12,12,13,13,14,14],"right_children":[2,4,6,8,10,12,14,16,18,20,22,24,26,28,30,-1,-1,-1,-1,-1,-1,-1,-1,-1,-1,-1,-1,-1,-1,-1,-1],"split_conditions":[6E0,3E0,2.1E1,5E0,5E0,2E0,2.2E1,2E0,2E0,4E0,7E0,7E0,5E0,6E0,5E0,-7.464276E-2,-1.0007906E-1,-7.54045E-2,-5.4264016E-2,-2.5142167E-2,7.5055614E-2,-5.5294335E-2,-7.844447E-2,2.2058444E-1,-4.7278777E-2,7.4613735E-2,9.843354E-3,2.7027607E-3,-8.4710225E-2,-1.16175674E-1,-3.364443E-2],"split_indices":[1,1,1,0,0,0,1,0,1,0,0,1,0,0,0,0,0,0,0,0,0,0,0,0,0,0,0,0,0,0,0],"split_type":[0,0,0,0,0,0,0,0,0,0,0,0,0,0,0,0,0,0,0,0,0,0,0,0,0,0,0,0,0,0,0],"sum_hessian":[4.626E3,8.16E2,3.81E3,4.53E2,3.63E2,3.126E3,6.84E2,2.2E2,2.33E2,1.8E2,1.83E2,3.88E2,2.738E3,2.97E2,3.87E2,8.7E1,1.33E2,1.39E2,9.4E1,1.33E2,4.7E1,9.4E1,8.9E1,2.5E1,3.63E2,1.091E3,1.647E3,2.03E2,9.4E1,2.3E2,1.57E2],"tree_param":{"num_deleted":"0","num_feature":"2","num_nodes":"31","size_leaf_vector":"1"}},{"base_weights":[-2.39882E-3,-5.2670765E-1,1.1000284E-1,-7.0819867E-1,-2.9889557E-1,3.388128E-1,-2.8074226E-1,-8.144215E-1,-6.048506E-1,5.8452284E-1,-4.2534807E-1,1.3546862E-1,7.862062E-1,-6.571049E-1,-2.9204665E-2,-6.726332E-2,-9.014584E-2,-6.79179E-2,-4.8894726E-2,-4.5381565E-2,1.5552421E-1,-1.818797E-2,-6.029913E-2,2.2906074E-2,-2.4215637E-2,1.3410042E-1,3.9957564E-2,-9.362204E-2,-4.963389E-2,3.413121E-2,-4.770377E-2],"categories":[],"categories_nodes":[],"categories_segments":[],"categories_sizes":[],"default_left":[0,0,0,0,0,0,0,0,0,0,0,0,0,0,0,0,0,0,0,0,0,0,0,0,0,0,0,0,0,0,0],"id":26,"left_children":[1,3,5,7,9,11,13,15,17,19,21,23,25,27,29,-1,-1,-1,-1,-1,-1,-1,-1,-1,-1,-1,-1,-1,-1,-1,-1],"loss_changes":[2.727418E2,3.35679E1,3.4082278E2,4.4913635E0,4.0911232E1,2.1859702E2,1.3327527E2,2.1209717E0,1.6837997E0,4.7070812E1,1.3687241E1,5.8512333E1,1.6055505E2,2.4843307E1,1.4037337E2,0E0,0E0,0E0,0E0,0E0,0E0,0E0,0E0,0E0,0E0,0E0,0E0,0E0,0E0,0E0,0E0],"parents":[2147483647,0,0,1,1,2,2,3,3,4,4,5,5,6,6,7,7,8,8,9,9,10,10,11,11,12,12,13,13,14,14],"right_children":[2,4,6,8,10,12,14,16,18,20,22,24,26,28,30,-1,-1,-1,-1,-1,-1,-1,-1,-1,-1,-1,-1,-1,-1,-1,-1],"split_conditions":[6E0,3E0,1.8E1,5E0,2E0,1.5E1,4E0,2E0,2E0,4E0,5E0,7E0,1.6E1,2E0,6E0,-6.726332E-2,-9.014584E-2,-6.79179E-2,-4.8894726E-2,-4.5381565E-2,1.5552421E-1,-1.818797E-2,-6.029913E-2,2.2906074E-2,-2.4215637E-2,1.3410042E-1,3.9957564E-2,-9.362204E-2,-4.963389E-2,3.413121E-2,-4.770377E-2],"split_indices":[1,1,1,0,0,1,0,0,1,1,0,0,1,0,0,0,0,0,0,0,0,0,0,0,0,0,0,0,0,0,0],"split_type":[0,0,0,0,0,0,0,0,0,0,0,0,0,0,0,0,0,0,0,0,0,0,0,0,0,0,0,0,0,0,0],"sum_hessian":[4.626E3,8.16E2,3.81E3,4.53E2,3.63E2,2.403E3,1.407E3,2.2E2,2.33E2,4.5E1,3.18E2,1.653E3,7.5E2,5.63E2,8.44E2,8.7E1,1.33E2,1.39E2,9.4E1,2.2E1,2.3E1,1.35E2,1.83E2,1.325E3,3.28E2,3.07E2,4.43E2,2.04E2,3.59E2,4.62E2,3.82E2],"tree_param":{"num_deleted":"0","num_feature":"2","num_nodes":"31","size_leaf_vector":"1"}},{"base_weights":[-2.2076394E-3,-3.790082E-1,1.2806804E-1,6.732758E-2,-8.0851495E-1,3.9189932E-1,-2.527794E-1,-3.9929354E-1,1.0838914E0,-5.453574E-1,-1.3818213E0,-3.592961E-1,4.9604753E-1,-7.5281516E-2,-7.192035E-1,-7.0611194E-2,7.212886E-3,2.3554106E-1,6.30484E-2,-4.043346E-2,-5.7215698E-2,-1.9035366E-1,-2.4731627E-2,-1.1778849E-2,-1.3133107E-1,1.2677574E-1,3.8449675E-2,1.2968037E-3,-1.4174409E-1,-1.0094438E-1,-2.9031282E-2],"categories":[],"categories_nodes":[],"categories_segments":[],"categories_sizes":[],"default_left":[0,0,0,0,0,0,0,0,0,0,0,0,0,0,0,0,0,0,0,0,0,0,0,0,0,0,0,0,0,0,0],"id":27,"left_children":[1,3,5,7,9,11,13,15,17,19,21,23,25,27,29,-1,-1,-1,-1,-1,-1,-1,-1,-1,-1,-1,-1,-1,-1,-1,-1],"loss_changes":[2.2717848E2,2.2799078E2,3.4564792E2,2.7745325E2,9.067355E1,1.5915308E2,1.1651317E2,5.8051994E1,1.0459395E2,1.3446503E0,1.1198804E2,5.6984943E1,1.5317401E2,1.2095068E2,4.8005707E1,0E0,0E0,0E0,0E0,0E0,0E0,0E0,0E0,0E0,0E0,0E0,0E0,0E0,0E0,0E0,0E0],"parents":[2147483647,0,0,1,1,2,2,3,3,4,4,5,5,6,6,7,7,8,8,9,9,10,10,11,11,12,12,13,13,14,14],"right_children":[2,4,6,8,10,12,14,16,18,20,22,24,26,28,30,-1,-1,-1,-1,-1,-1,-1,-1,-1,-1,-1,-1,-1,-1,-1,-1],"split_conditions":[9E0,5E0,1.8E1,5E0,6E0,2E0,2.2E1,4E0,7E0,1E0,8E0,1.7E1,3E0,7E0,5E0,-7.0611194E-2,7.212886E-3,2.3554106E-1,6.30484E-2,-4.043346E-2,-5.7215698E-2,-1.9035366E-1,-2.4731627E-2,-1.1778849E-2,-1.3133107E-1,1.2677574E-1,3.8449675E-2,1.2968037E-3,-1.4174409E-1,-1.0094438E-1,-2.9031282E-2],"split_indices":[1,0,1,1,1,0,1,1,1,1,1,1,0,0,0,0,0,0,0,0,0,0,0,0,0,0,0,0,0,0,0],"split_type":[0,0,0,0,0,0,0,0,0,0,0,0,0,0,0,0,0,0,0,0,0,0,0,0,0,0,0,0,0,0,0],"sum_hessian":[4.626E3,1.188E3,3.438E3,5.83E2,6.05E2,2.031E3,1.407E3,4E2,1.83E2,4.16E2,1.89E2,2.47E2,1.784E3,1.02E3,3.87E2,2.42E2,1.58E2,4.7E1,1.36E2,6.9E1,3.47E2,1.29E2,6E1,1.98E2,4.9E1,2.24E2,1.56E3,9.58E2,6.2E1,2.3E2,1.57E2],"tree_param":{"num_deleted":"0","num_feature":"2","num_nodes":"31","size_leaf_vector":"1"}},{"base_weights":[-2.0575211E-3,-3.4117275E-1,1.151888E-1,6.099736E-2,-7.281797E-1,2.87702E-1,-3.624191E-1,-3.595223E-1,9.771245E-1,-4.9105588E-1,-1.2447715E0,-4.1500637E-1,3.8941348E-1,-6.037527E-1,-3.8685452E-2,-6.3579135E-2,6.4961235E-3,2.1247773E-1,5.6789488E-2,-5.0418016E-2,-2.4431042E-2,-1.7146473E-1,-2.229907E-2,-1.060679E-2,-9.155289E-2,6.894838E-2,2.0394592E-2,-3.610865E-2,-9.089363E-2,7.009649E-2,-5.7054497E-2],"categories":[],"categories_nodes":[],"categories_segments":[],"categories_sizes":[],"default_left":[0,0,0,0,0,0,0,0,0,0,0,0,0,0,0,0,0,0,0,0,0,0,0,0,0,0,0,0,0,0,0],"id":28,"left_children":[1,3,5,7,9,11,13,15,17,19,21,23,25,27,29,-1,-1,-1,-1,-1,-1,-1,-1,-1,-1,-1,-1,-1,-1,-1,-1],"loss_changes":[1.840089E2,1.8510349E2,2.834561E2,2.2533699E2,7.362143E1,1.8077519E2,7.1307304E1,4.7067238E1,8.5209564E1,1.2272186E0,9.083856E1,4.938471E1,1.2274191E2,3.8404007E1,1.5421545E2,0E0,0E0,0E0,0E0,0E0,0E0,0E0,0E0,0E0,0E0,0E0,0E0,0E0,0E0,0E0,0E0],"parents":[2147483647,0,0,1,1,2,2,3,3,4,4,5,5,6,6,7,7,8,8,9,9,10,10,11,11,12,12,13,13,14,14],"right_children":[2,4,6,8,10,12,14,16,18,20,22,24,26,28,30,-1,-1,-1,-1,-1,-1,-1,-1,-1,-1,-1,-1,-1,-1,-1,-1],"split_conditions":[9E0,5E0,2E1,5E0,6E0,2E0,5E0,4E0,7E0,5E0,8E0,1.7E1,5E0,2.2E1,6E0,-6.3579135E-2,6.4961235E-3,2.1247773E-1,5.6789488E-2,-5.0418016E-2,-2.4431042E-2,-1.7146473E-1,-2.229907E-2,-1.060679E-2,-9.155289E-2,6.894838E-2,2.0394592E-2,-3.610865E-2,-9.089363E-2,7.009649E-2,-5.7054497E-2],"split_indices":[1,0,1,1,1,0,0,1,1,1,1,1,0,1,0,0,0,0,0,0,0,0,0,0,0,0,0,0,0,0,0],"split_type":[0,0,0,0,0,0,0,0,0,0,0,0,0,0,0,0,0,0,0,0,0,0,0,0,0,0,0,0,0,0,0],"sum_hessian":[4.626E3,1.188E3,3.438E3,5.83E2,6.05E2,2.526E3,9.12E2,4E2,1.83E2,4.16E2,1.89E2,3.19E2,2.207E3,5.22E2,3.9E2,2.42E2,1.58E2,4.7E1,1.36E2,3.94E2,2.2E1,1.29E2,6E1,1.98E2,1.21E2,8.42E2,1.365E3,2.92E2,2.3E2,1.63E2,2.27E2],"tree_param":{"num_deleted":"0","num_feature":"2","num_nodes":"31","size_leaf_vector":"1"}},{"base_weights":[-1.8916193E-3,-3.0710304E-1,1.0363274E-1,5.526081E-2,-6.55805E-1,3.2278654E-1,-2.1271963E-1,-3.2371256E-1,8.808753E-1,-4.4212985E-1,-1.121314E0,1.3133225E-1,6.491801E-1,-5.268794E-1,-2.7801897E-3,-5.724738E-2,5.850564E-3,1.9167253E-1,5.1152E-2,-3.1478114E-2,-4.664755E-2,-1.5445013E-1,-2.0105748E-2,3.4125805E-2,-1.8918708E-2,1.0862868E-1,2.5876576E-2,-9.848123E-2,-4.3553483E-2,1.0143788E-2,-1.2980178E-1],"categories":[],"categories_nodes":[],"categories_segments":[],"categories_sizes":[],"default_left":[0,0,0,0,0,0,0,0,0,0,0,0,0,0,0,0,0,0,0,0,0,0,0,0,0,0,0,0,0,0,0],"id":29,"left_children":[1,3,5,7,9,11,13,15,17,19,21,23,25,27,29,-1,-1,-1,-1,-1,-1,-1,-1,-1,-1,-1,-1,-1,-1,-1,-1],"loss_changes":[1.490547E2,1.5027467E2,2.384939E2,1.830105E2,5.9781708E1,1.2689331E2,9.286252E1,3.8160995E1,6.941736E1,1.1460266E0,7.368323E1,8.632428E1,1.2787909E2,2.3163025E1,1.141958E2,0E0,0E0,0E0,0E0,0E0,0E0,0E0,0E0,0E0,0E0,0E0,0E0,0E0,0E0,0E0,0E0],"parents":[2147483647,0,0,1,1,2,2,3,3,4,4,5,5,6,6,7,7,8,8,9,9,10,10,11,11,12,12,13,13,14,14],"right_children":[2,4,6,8,10,12,14,16,18,20,22,24,26,28,30,-1,-1,-1,-1,-1,-1,-1,-1,-1,-1,-1,-1,-1,-1,-1,-1],"split_conditions":[9E0,5E0,1.8E1,5E0,6E0,1.5E1,4E0,4E0,7E0,1E0,8E0,1.2E1,5E0,1.9E1,7E0,-5.724738E-2,5.850564E-3,1.9167253E-1,5.1152E-2,-3.1478114E-2,-4.664755E-2,-1.5445013E-1,-2.0105748E-2,3.4125805E-2,-1.8918708E-2,1.0862868E-1,2.5876576E-2,-9.848123E-2,-4.3553483E-2,1.0143788E-2,-1.2980178E-1],"split_indices":[1,0,1,1,1,1,0,1,1,1,1,1,0,1,0,0,0,0,0,0,0,0,0,0,0,0,0,0,0,0,0],"split_type":[0,0,0,0,0,0,0,0,0,0,0,0,0,0,0,0,0,0,0,0,0,0,0,0,0,0,0,0,0,0,0],"sum_hessian":[4.626E3,1.188E3,3.438E3,5.83E2,6.05E2,2.031E3,1.407E3,4E2,1.83E2,4.16E2,1.89E2,1.281E3,7.5E2,5.63E2,8.44E2,2.42E2,1.58E2,4.7E1,1.36E2,6.9E1,3.47E2,1.29E2,6E1,7.74E2,5.07E2,3.53E2,3.97E2,9.2E1,4.71E2,7.82E2,6.2E1],"tree_param":{"num_deleted":"0","num_feature":"2","num_nodes":"31","size_leaf_vector":"1"}},{"base_weights":[-1.7400639E-3,5.1255204E-2,-5.808591E-1,-2.7644417E-1,1.7890373E-1,-4.022046E-1,-1.0175238E0,5.00627E-2,-5.906415E-1,-5.269613E-1,2.7978787E-1,-8.3522564E-1,4.496898E-1,-6.088783E-1,-1.3036386E0,-2.9146938E-2,7.9410784E-2,-3.9810427E-2,-1.0101014E-1,-1.4293238E-2,-9.394331E-2,6.458563E-2,2.2248346E-2,-5.550253E-2,-1.595879E-1,9.645721E-2,-8.571535E-3,-9.0937845E-2,-2.960431E-2,-2.0448391E-1,-9.287752E-2],"categories":[],"categories_nodes":[],"categories_segments":[],"categories_sizes":[],"default_left":[0,0,0,0,0,0,0,0,0,0,0,0,0,0,0,0,0,0,0,0,0,0,0,0,0,0,0,0,0,0,0],"id":30,"left_children":[1,3,5,7,9,11,13,15,17,19,21,23,25,27,29,-1,-1,-1,-1,-1,-1,-1,-1,-1,-1,-1,-1,-1,-1,-1,-1],"loss_changes":[1.4203503E2,1.774101E2,2.9859451E1,1.22006195E2,2.1748218E2,1.0255761E2,1.2301231E1,1.4863478E2,4.8539413E1,6.0374947E1,5.5886795E1,3.8331146E1,2.5995724E1,4.243122E0,1.6160988E1,0E0,0E0,0E0,0E0,0E0,0E0,0E0,0E0,0E0,0E0,0E0,0E0,0E0,0E0,0E0,0E0],"parents":[2147483647,0,0,1,1,2,2,3,3,4,4,5,5,6,6,7,7,8,8,9,9,10,10,11,11,12,12,13,13,14,14],"right_children":[2,4,6,8,10,12,14,16,18,20,22,24,26,28,30,-1,-1,-1,-1,-1,-1,-1,-1,-1,-1,-1,-1,-1,-1,-1,-1],"split_conditions":[2.2E1,9E0,2.3E1,5E0,2E0,5E0,5E0,5E0,6E0,1.7E1,3E0,4E0,6E0,2E0,6E0,-2.9146938E-2,7.9410784E-2,-3.9810427E-2,-1.0101014E-1,-1.4293238E-2,-9.394331E-2,6.458563E-2,2.2248346E-2,-5.550253E-2,-1.595879E-1,9.645721E-2,-8.571535E-3,-9.0937845E-2,-2.960431E-2,-2.0448391E-1,-9.287752E-2],"split_indices":[1,1,1,0,0,0,0,1,1,1,0,0,0,0,0,0,0,0,0,0,0,0,0,0,0,0,0,0,0,0,0],"split_type":[0,0,0,0,0,0,0,0,0,0,0,0,0,0,0,0,0,0,0,0,0,0,0,0,0,0,0,0,0,0,0],"sum_hessian":[4.626E3,4.239E3,3.87E2,1.188E3,3.051E3,2.76E2,1.11E2,5.83E2,6.05E2,3.81E2,2.67E3,1.83E2,9.3E1,4.7E1,6.4E1,4E2,1.83E2,4.16E2,1.89E2,1.98E2,1.83E2,3.6E2,2.31E3,1.35E2,4.8E1,4.7E1,4.6E1,2.3E1,2.4E1,2E1,4.4E1],"tree_param":{"num_deleted":"0","num_feature":"2","num_nodes":"31","size_leaf_vector":"1"}},{"base_weights":[-1.7082957E-3,4.6103034E-2,-5.241782E-1,-2.4887581E-1,1.6100596E-1,-3.6244342E-1,-9.195028E-1,4.5142494E-2,-5.318095E-1,-4.7454834E-1,2.5184113E-1,-7.528721E-1,4.0565574E-1,-5.5050194E-1,-1.1778495E0,-2.6239524E-2,7.151288E-2,-3.583891E-2,-9.096227E-2,-1.2871052E-2,-8.460005E-2,3.528269E-2,4.8333346E-3,-4.9993098E-2,-1.4395481E-1,8.701243E-2,-7.7326107E-3,-8.222296E-2,-2.676233E-2,-1.8500926E-1,-8.379617E-2],"categories":[],"categories_nodes":[],"categories_segments":[],"categories_sizes":[],"default_left":[0,0,0,0,0,0,0,0,0,0,0,0,0,0,0,0,0,0,0,0,0,0,0,0,0,0,0,0,0,0,0],"id":31,"left_children":[1,3,5,7,9,11,13,15,17,19,21,23,25,27,29,-1,-1,-1,-1,-1,-1,-1,-1,-1,-1,-1,-1,-1,-1,-1,-1],"loss_changes":[1.1560654E2,1.4375035E2,2.4474571E1,9.893415E1,1.7631354E2,8.3374374E1,1.0028587E1,1.2051854E2,3.937944E1,4.896367E1,5.4875687E1,3.1239029E1,2.1154293E1,3.4695177E0,1.3301353E1,0E0,0E0,0E0,0E0,0E0,0E0,0E0,0E0,0E0,0E0,0E0,0E0,0E0,0E0,0E0,0E0],"parents":[2147483647,0,0,1,1,2,2,3,3,4,4,5,5,6,6,7,7,8,8,9,9,10,10,11,11,12,12,13,13,14,14],"right_children":[2,4,6,8,10,12,14,16,18,20,22,24,26,28,30,-1,-1,-1,-1,-1,-1,-1,-1,-1,-1,-1,-1,-1,-1,-1,-1],"split_conditions":[2.2E1,9E0,2.3E1,5E0,2E0,5E0,5E0,5E0,6E0,1.7E1,1.8E1,4E0,6E0,2E0,6E0,-2.6239524E-2,7.151288E-2,-3.583891E-2,-9.096227E-2,-1.2871052E-2,-8.460005E-2,3.528269E-2,4.8333346E-3,-4.9993098E-2,-1.4395481E-1,8.701243E-2,-7.7326107E-3,-8.222296E-2,-2.676233E-2,-1.8500926E-1,-8.379617E-2],"split_indices":[1,1,1,0,0,0,0,1,1,1,1,0,0,0,0,0,0,0,0,0,0,0,0,0,0,0,0,0,0,0,0],"split_type":[0,0,0,0,0,0,0,0,0,0,0,0,0,0,0,0,0,0,0,0,0,0,0,0,0,0,0,0,0,0,0],"sum_hessian":[4.626E3,4.239E3,3.87E2,1.188E3,3.051E3,2.76E2,1.11E2,5.83E2,6.05E2,3.81E2,2.67E3,1.83E2,9.3E1,4.7E1,6.4E1,4E2,1.83E2,4.16E2,1.89E2,1.98E2,1.83E2,1.784E3,8.86E2,1.35E2,4.8E1,4.7E1,4.6E1,2.3E1,2.4E1,2E1,4.4E1],"tree_param":{"num_deleted":"0","num_feature":"2","num_nodes":"31","size_leaf_vector":"1"}},{"base_weights":[-1.6736285E-3,4.1460283E-2,-4.7302958E-1,-2.3637156E-1,1.4224136E-1,-8.4345967E-1,-3.196541E-1,4.0705964E-2,-5.323E-1,-4.2734867E-1,2.2186096E-1,-2.6645014E-1,-1.776581E-1,-6.91662E-2,-8.45183E-1,-4.603034E-2,3.965673E-2,-3.7019234E-2,-1.6475919E-1,-1.1590442E-2,-7.618599E-2,3.9185748E-2,1.1177772E-2,-2.240786E-3,-7.4343264E-2,-4.989579E-2,3.659336E-2,-2.4193177E-2,-1.06419995E-1],"categories":[],"categories_nodes":[],"categories_segments":[],"categories_sizes":[],"default_left":[0,0,0,0,0,0,0,0,0,0,0,0,0,0,0,0,0,0,0,0,0,0,0,0,0,0,0,0,0],"id":32,"left_children":[1,3,5,7,9,11,13,15,17,19,21,23,-1,25,27,-1,-1,-1,-1,-1,-1,-1,-1,-1,-1,-1,-1,-1,-1],"loss_changes":[9.409311E1,1.1875443E2,2.1774567E1,9.259414E1,1.4122568E2,6.0368065E1,3.6273808E1,1.0430381E2,9.810541E1,3.970906E1,5.106349E1,8.248018E0,0E0,3.5339016E1,1.1501411E1,0E0,0E0,0E0,0E0,0E0,0E0,0E0,0E0,0E0,0E0,0E0,0E0,0E0,0E0],"parents":[2147483647,0,0,1,1,2,2,3,3,4,4,5,5,6,6,7,7,8,8,9,9,10,10,11,11,13,13,14,14],"right_children":[2,4,6,8,10,12,14,16,18,20,22,24,-1,26,28,-1,-1,-1,-1,-1,-1,-1,-1,-1,-1,-1,-1,-1,-1],"split_conditions":[2.2E1,8E0,3E0,5E0,2E0,2E0,2.3E1,4E0,7E0,1.7E1,5E0,2.3E1,-1.776581E-1,5E0,5E0,-4.603034E-2,3.965673E-2,-3.7019234E-2,-1.6475919E-1,-1.1590442E-2,-7.618599E-2,3.9185748E-2,1.1177772E-2,-2.240786E-3,-7.4343264E-2,-4.989579E-2,3.659336E-2,-2.4193177E-2,-1.06419995E-1],"split_indices":[1,1,0,0,0,0,1,1,1,1,0,1,0,0,0,0,0,0,0,0,0,0,0,0,0,0,0,0,0],"split_type":[0,0,0,0,0,0,0,0,0,0,0,0,0,0,0,0,0,0,0,0,0,0,0,0,0,0,0,0,0],"sum_hessian":[4.626E3,4.239E3,3.87E2,1.128E3,3.111E3,1.12E2,2.75E2,5.83E2,5.45E2,3.81E2,2.73E3,7E1,4.2E1,1.87E2,8.8E1,2.42E2,3.41E2,4.77E2,6.8E1,1.98E2,1.83E2,1.072E3,1.658E3,4.7E1,2.3E1,9.4E1,9.3E1,2.4E1,6.4E1],"tree_param":{"num_deleted":"0","num_feature":"2","num_nodes":"29","size_leaf_vector":"1"}},{"base_weights":[-1.6453465E-3,5.3487565E-2,-3.1899923E-1,-2.1291897E-1,1.603151E-1,-2.3441146E-1,-7.496634E-1,3.662405E-2,-4.794395E-1,-3.371359E-1,2.2855945E-1,-1.434417E-1,-5.127552E-1,-4.5000324E-1,-9.594176E-1,-2.2406777E-2,6.0456317E-2,-3.332506E-2,-1.48522E-1,-1.043717E-2,-6.609595E-2,3.0054554E-2,-8.1763035E-3,-3.614681E-2,6.490097E-2,-7.0880584E-2,-1.0557304E-2,-6.7218706E-2,-2.1870667E-2,-1.5725416E-1,-6.5197274E-2],"categories":[],"categories_nodes":[],"categories_segments":[],"categories_sizes":[],"default_left":[0,0,0,0,0,0,0,0,0,0,0,0,0,0,0,0,0,0,0,0,0,0,0,0,0,0,0,0,0,0,0],"id":33,"left_children":[1,3,5,7,9,11,13,15,17,19,21,23,25,27,29,-1,-1,-1,-1,-1,-1,-1,-1,-1,-1,-1,-1,-1,-1,-1,-1],"loss_changes":[8.097403E1,1.1225014E2,2.4778076E1,7.510547E1,9.56413E1,1.4460625E1,6.608017E0,8.66008E1,7.978558E1,2.5558357E1,5.5335693E1,7.521907E1,1.1180962E1,2.319725E0,1.1227364E1,0E0,0E0,0E0,0E0,0E0,0E0,0E0,0E0,0E0,0E0,0E0,0E0,0E0,0E0,0E0,0E0],"parents":[2147483647,0,0,1,1,2,2,3,3,4,4,5,5,6,6,7,7,8,8,9,9,10,10,11,11,12,12,13,13,14,14],"right_children":[2,4,6,8,10,12,14,16,18,20,22,24,26,28,30,-1,-1,-1,-1,-1,-1,-1,-1,-1,-1,-1,-1,-1,-1,-1,-1],"split_conditions":[2.1E1,8E0,2.3E1,5E0,2E0,6E0,5E0,5E0,7E0,1.7E1,7E0,5E0,2.2E1,2E0,6E0,-2.2406777E-2,6.0456317E-2,-3.332506E-2,-1.48522E-1,-1.043717E-2,-6.609595E-2,3.0054554E-2,-8.1763035E-3,-3.614681E-2,6.490097E-2,-7.0880584E-2,-1.0557304E-2,-6.7218706E-2,-2.1870667E-2,-1.5725416E-1,-6.5197274E-2],"split_indices":[1,1,1,0,0,0,0,1,1,1,0,0,1,0,0,0,0,0,0,0,0,0,0,0,0,0,0,0,0,0,0],"split_type":[0,0,0,0,0,0,0,0,0,0,0,0,0,0,0,0,0,0,0,0,0,0,0,0,0,0,0,0,0,0,0],"sum_hessian":[4.626E3,3.942E3,6.84E2,1.128E3,2.814E3,5.73E2,1.11E2,5.83E2,5.45E2,3.39E2,2.475E3,4.33E2,1.4E2,4.7E1,6.4E1,4E2,1.83E2,4.77E2,6.8E1,1.98E2,1.41E2,2.009E3,4.66E2,3.4E2,9.3E1,9.4E1,4.6E1,2.3E1,2.4E1,2E1,4.4E1],"tree_param":{"num_deleted":"0","num_feature":"2","num_nodes":"31","size_leaf_vector":"1"}},{"base_weights":[-1.6021939E-3,5.7947785E-2,-2.439095E-1,-7.310925E-2,3.1770134E-1,-4.0468007E-1,-2.8239602E-2,-3.3596304E-1,-1.3908093E-2,7.7709115E-1,4.6156733E-3,-2.9392818E-1,-5.434057E-1,5.6943846E-1,-4.5802453E-1,-3.9413583E-2,-2.0537112E-2,6.854143E-3,-2.5895705E-2,1.6048123E-1,5.261388E-2,2.115607E-2,-1.23905055E-1,-4.7302667E-2,2.5230048E-2,-3.841889E-2,-8.8274926E-2,8.560153E-2,-1.4227757E-1,-5.3248685E-2,-3.400704E-2],"categories":[],"categories_nodes":[],"categories_segments":[],"categories_sizes":[],"default_left":[0,0,0,0,0,0,0,0,0,0,0,0,0,0,0,0,0,0,0,0,0,0,0,0,0,0,0,0,0,0,0],"id":34,"left_children":[1,3,5,7,9,11,13,15,17,19,21,23,25,27,29,-1,-1,-1,-1,-1,-1,-1,-1,-1,-1,-1,-1,-1,-1,-1,-1],"loss_changes":[6.677894E1,1.2649122E2,3.1645367E1,3.8431606E1,1.7920656E2,7.875717E0,1.00698166E2,3.3680458E0,4.076956E1,1.0405356E2,1.9123106E2,2.8783161E1,1.2141602E1,9.484918E1,1.821476E0,0E0,0E0,0E0,0E0,0E0,0E0,0E0,0E0,0E0,0E0,0E0,0E0,0E0,0E0,0E0,0E0],"parents":[2147483647,0,0,1,1,2,2,3,3,4,4,5,5,6,6,7,7,8,8,9,9,10,10,11,11,12,12,13,13,14,14],"right_children":[2,4,6,8,10,12,14,16,18,20,22,24,26,28,30,-1,-1,-1,-1,-1,-1,-1,-1,-1,-1,-1,-1,-1,-1,-1,-1],"split_conditions":[2E1,1.5E1,5E0,3E0,1.7E1,2.2E1,6E0,7E0,1.2E1,3E0,7E0,4E0,4E0,2.3E1,2.2E1,-3.9413583E-2,-2.0537112E-2,6.854143E-3,-2.5895705E-2,1.6048123E-1,5.261388E-2,2.115607E-2,-1.23905055E-1,-4.7302667E-2,2.5230048E-2,-3.841889E-2,-8.8274926E-2,8.560153E-2,-1.4227757E-1,-5.3248685E-2,-3.400704E-2],"split_indices":[1,1,0,1,1,1,0,0,1,0,0,0,0,1,1,0,0,0,0,0,0,0,0,0,0,0,0,0,0,0,0],"split_type":[0,0,0,0,0,0,0,0,0,0,0,0,0,0,0,0,0,0,0,0,0,0,0,0,0,0,0,0,0,0,0],"sum_hessian":[4.626E3,3.714E3,9.12E2,2.469E3,1.245E3,5.22E2,3.9E2,4.53E2,2.016E3,5.04E2,7.41E2,2.92E2,2.3E2,1.63E2,2.27E2,3.12E2,1.41E2,1.509E3,5.07E2,1.16E2,3.88E2,6.36E2,1.05E2,2.2E2,7.2E1,1.58E2,7.2E1,1.43E2,2E1,1.37E2,9E1],"tree_param":{"num_deleted":"0","num_feature":"2","num_nodes":"31","size_leaf_vector":"1"}},{"base_weights":[-1.4986835E-3,5.2161213E-2,-2.1983933E-1,-6.583058E-2,2.8601962E-1,-3.6449674E-1,-2.5783941E-2,-3.024988E-1,-1.2527059E-2,8.885367E-1,8.808428E-2,-5.625204E-1,-2.9414698E-1,5.1214886E-1,-4.1260496E-1,-3.5484813E-2,-1.8497879E-2,6.169126E-3,-2.3311196E-2,6.506386E-2,2.4661879E-1,5.494076E-2,-3.7935473E-2,-8.812258E-2,-2.583362E-2,-6.5080123E-4,-4.8961367E-2,7.71008E-2,-1.287273E-1,-4.796244E-2,-3.0643702E-2],"categories":[],"categories_nodes":[],"categories_segments":[],"categories_sizes":[],"default_left":[0,0,0,0,0,0,0,0,0,0,0,0,0,0,0,0,0,0,0,0,0,0,0,0,0,0,0,0,0,0,0],"id":35,"left_children":[1,3,5,7,9,11,13,15,17,19,21,23,25,27,29,-1,-1,-1,-1,-1,-1,-1,-1,-1,-1,-1,-1,-1,-1,-1,-1],"loss_changes":[5.4222034E1,1.02528206E2,2.5619923E1,3.1155874E1,1.4851897E2,7.120407E0,8.1572044E1,2.7274132E0,3.303558E1,1.1399403E2,2.0269485E2,1.2956886E1,2.181166E1,7.738316E1,1.4753151E0,0E0,0E0,0E0,0E0,0E0,0E0,0E0,0E0,0E0,0E0,0E0,0E0,0E0,0E0,0E0,0E0],"parents":[2147483647,0,0,1,1,2,2,3,3,4,4,5,5,6,6,7,7,8,8,9,9,10,10,11,11,12,12,13,13,14,14],"right_children":[2,4,6,8,10,12,14,16,18,20,22,24,26,28,30,-1,-1,-1,-1,-1,-1,-1,-1,-1,-1,-1,-1,-1,-1,-1,-1],"split_conditions":[2E1,1.5E1,5E0,3E0,1.6E1,2.1E1,6E0,7E0,1.2E1,7E0,5E0,3E0,2.2E1,2.3E1,2.2E1,-3.5484813E-2,-1.8497879E-2,6.169126E-3,-2.3311196E-2,6.506386E-2,2.4661879E-1,5.494076E-2,-3.7935473E-2,-8.812258E-2,-2.583362E-2,-6.5080123E-4,-4.8961367E-2,7.71008E-2,-1.287273E-1,-4.796244E-2,-3.0643702E-2],"split_indices":[1,1,0,1,1,1,0,0,1,0,0,0,1,1,1,0,0,0,0,0,0,0,0,0,0,0,0,0,0,0,0],"split_type":[0,0,0,0,0,0,0,0,0,0,0,0,0,0,0,0,0,0,0,0,0,0,0,0,0,0,0,0,0,0,0],"sum_hessian":[4.626E3,3.714E3,9.12E2,2.469E3,1.245E3,5.22E2,3.9E2,4.53E2,2.016E3,3.07E2,9.38E2,1.35E2,3.87E2,1.63E2,2.27E2,3.12E2,1.41E2,1.509E3,5.07E2,2.68E2,3.9E1,4.72E2,4.66E2,6.5E1,7E1,1.57E2,2.3E2,1.43E2,2E1,1.37E2,9E1],"tree_param":{"num_deleted":"0","num_feature":"2","num_nodes":"31","size_leaf_vector":"1"}},{"base_weights":[-1.3565016E-3,3.9917696E-2,-2.3893724E-1,-1.2589696E-1,1.5464061E-1,-1.7658979E-1,-5.563347E-1,-5.518922E-2,-3.6496207E-1,-1.614594E-1,3.3250213E-1,-1.1221245E-1,-3.734917E-1,-2.9637095E-1,-7.3974884E-1,-4.4516643E-4,-6.769468E-2,-4.6550572E-2,1.16343215E-1,9.854662E-3,-6.818234E-2,1.1929553E-1,1.3447995E-2,-2.5964797E-2,4.2382713E-2,-5.3852584E-2,-3.1965456E-3,-5.240297E-2,-6.596375E-3,-1.16467595E-1,-5.250107E-2],"categories":[],"categories_nodes":[],"categories_segments":[],"categories_sizes":[],"default_left":[0,0,0,0,0,0,0,0,0,0,0,0,0,0,0,0,0,0,0,0,0,0,0,0,0,0,0,0,0,0,0],"id":36,"left_children":[1,3,5,7,9,11,13,15,17,19,21,23,25,27,29,-1,-1,-1,-1,-1,-1,-1,-1,-1,-1,-1,-1,-1,-1,-1,-1],"loss_changes":[4.538169E1,7.5026146E1,1.3457172E1,2.7245615E1,1.3110722E2,7.234125E0,5.1210327E0,3.9303875E1,5.7092266E1,1.1371732E2,2.5405968E2,3.4409615E1,7.9300365E0,2.4832354E0,5.31966E0,0E0,0E0,0E0,0E0,0E0,0E0,0E0,0E0,0E0,0E0,0E0,0E0,0E0,0E0,0E0,0E0],"parents":[2147483647,0,0,1,1,2,2,3,3,4,4,5,5,6,6,7,7,8,8,9,9,10,10,11,11,12,12,13,13,14,14],"right_children":[2,4,6,8,10,12,14,16,18,20,22,24,26,28,30,-1,-1,-1,-1,-1,-1,-1,-1,-1,-1,-1,-1,-1,-1,-1,-1],"split_conditions":[2.1E1,1.1E1,2.3E1,7E0,4E0,6E0,5E0,1E1,1E1,3E0,5E0,5E0,2.2E1,2E0,6E0,-4.4516643E-4,-6.769468E-2,-4.6550572E-2,1.16343215E-1,9.854662E-3,-6.818234E-2,1.1929553E-1,1.3447995E-2,-2.5964797E-2,4.2382713E-2,-5.3852584E-2,-3.1965456E-3,-5.240297E-2,-6.596375E-3,-1.16467595E-1,-5.250107E-2],"split_indices":[1,1,1,0,0,0,0,1,1,0,0,0,1,0,0,0,0,0,0,0,0,0,0,0,0,0,0,0,0,0,0],"split_type":[0,0,0,0,0,0,0,0,0,0,0,0,0,0,0,0,0,0,0,0,0,0,0,0,0,0,0,0,0,0,0],"sum_hessian":[4.626E3,3.942E3,6.84E2,1.612E3,2.33E3,5.73E2,1.11E2,1.245E3,3.67E2,8.39E2,1.491E3,4.33E2,1.4E2,4.7E1,6.4E1,1.152E3,9.3E1,3.45E2,2.2E1,5.6E2,2.79E2,2.78E2,1.213E3,3.4E2,9.3E1,9.4E1,4.6E1,2.3E1,2.4E1,2E1,4.4E1],"tree_param":{"num_deleted":"0","num_feature":"2","num_nodes":"31","size_leaf_vector":"1"}},{"base_weights":[-1.2626536E-3,-1.6217002E-1,5.065666E-2,5.3590883E-2,-3.9265025E-1,-3.5325143E-1,1.1053718E-1,-1.6602725E-1,5.319239E-1,-2.5596195E-1,-1.3338728E-1,-6.720471E-1,-2.5243062E-1,1.643569E-1,-3.52017E-1,-3.4485403E-2,5.3236536E-3,1.4709206E-1,1.9904975E-2,-2.0257821E-2,-6.108824E-2,-2.3680532E-2,-2.2702534E-1,4.1754074E-2,-4.9410358E-2,4.709996E-2,1.17599275E-2,-1.4570397E-1,-1.7858224E-2],"categories":[],"categories_nodes":[],"categories_segments":[],"categories_sizes":[],"default_left":[0,0,0,0,0,0,0,0,0,0,0,0,0,0,0,0,0,0,0,0,0,0,0,0,0,0,0,0,0],"id":37,"left_children":[1,3,5,7,9,11,13,15,17,19,-1,21,23,25,27,-1,-1,-1,-1,-1,-1,-1,-1,-1,-1,-1,-1,-1,-1],"loss_changes":[3.86631E1,5.6164658E1,8.466664E1,6.1437866E1,6.990372E1,1.4358192E1,7.593642E1,1.5741663E1,5.7219673E1,8.932911E0,0E0,7.458785E1,5.6066628E1,3.9101387E1,6.0684284E1,0E0,0E0,0E0,0E0,0E0,0E0,0E0,0E0,0E0,0E0,0E0,0E0,0E0,0E0],"parents":[2147483647,0,0,1,1,2,2,3,3,4,4,5,5,6,6,7,7,8,8,9,9,11,11,12,12,13,13,14,14],"right_children":[2,4,6,8,10,12,14,16,18,20,-1,22,24,26,28,-1,-1,-1,-1,-1,-1,-1,-1,-1,-1,-1,-1,-1,-1],"split_conditions":[8E0,5E0,2E0,5E0,7E0,1.3E1,2.2E1,3E0,7E0,6E0,-1.3338728E-1,1.2E1,1.7E1,3E0,3E0,-3.4485403E-2,5.3236536E-3,1.4709206E-1,1.9904975E-2,-2.0257821E-2,-6.108824E-2,-2.3680532E-2,-2.2702534E-1,4.1754074E-2,-4.9410358E-2,4.709996E-2,1.17599275E-2,-1.4570397E-1,-1.7858224E-2],"split_indices":[1,0,0,1,1,1,1,1,1,1,0,1,1,0,0,0,0,0,0,0,0,0,0,0,0,0,0,0,0],"split_type":[0,0,0,0,0,0,0,0,0,0,0,0,0,0,0,0,0,0,0,0,0,0,0,0,0,0,0,0,0],"sum_hessian":[4.626E3,1.128E3,3.498E3,5.83E2,5.45E2,4.51E2,3.047E3,4E2,1.83E2,4.77E2,6.8E1,1.07E2,3.44E2,2.73E3,3.17E2,2.2E2,1.8E2,4.7E1,1.36E2,4.16E2,6.1E1,8.5E1,2.2E1,9.1E1,2.53E2,3.6E2,2.37E3,4.2E1,2.75E2],"tree_param":{"num_deleted":"0","num_feature":"2","num_nodes":"29","size_leaf_vector":"1"}},{"base_weights":[-1.2317309E-3,4.086903E-2,-1.7253852E-1,-5.4851405E-2,2.3058702E-1,-2.926275E-1,-1.1466704E-2,-8.899973E-3,-2.3230773E-1,6.0978293E-1,-2.780184E-2,-5.2417755E-1,-2.1071146E-1,4.471008E-1,-3.412632E-1,-1.0548516E-2,4.3497697E-2,-5.9018195E-2,2.0281931E-2,1.3297382E-1,3.9167363E-2,1.5127788E-2,-1.1037073E-1,-8.212843E-2,-2.4061097E-2,1.4448637E-3,-3.6380492E-2,6.603903E-2,-1.0367464E-1,-4.11192E-2,-2.3146719E-2],"categories":[],"categories_nodes":[],"categories_segments":[],"categories_sizes":[],"default_left":[0,0,0,0,0,0,0,0,0,0,0,0,0,0,0,0,0,0,0,0,0,0,0,0,0,0,0,0,0,0,0],"id":38,"left_children":[1,3,5,7,9,11,13,15,17,19,21,23,25,27,29,-1,-1,-1,-1,-1,-1,-1,-1,-1,-1,-1,-1,-1,-1,-1,-1],"loss_changes":[3.3377655E1,6.747664E1,1.7656761E1,2.0139233E1,1.2210002E2,9.809639E0,5.9285053E1,8.420351E1,7.9225845E1,7.877881E1,1.4313022E2,1.1260323E1,1.3379822E1,5.2588867E1,1.6553822E0,0E0,0E0,0E0,0E0,0E0,0E0,0E0,0E0,0E0,0E0,0E0,0E0,0E0,0E0,0E0,0E0],"parents":[2147483647,0,0,1,1,2,2,3,3,4,4,5,5,6,6,7,7,8,8,9,9,10,10,11,11,12,12,13,13,14,14],"right_children":[2,4,6,8,10,12,14,16,18,20,22,24,26,28,30,-1,-1,-1,-1,-1,-1,-1,-1,-1,-1,-1,-1,-1,-1,-1,-1],"split_conditions":[2E1,1.5E1,5E0,1.2E1,1.7E1,2.1E1,6E0,1.1E1,6E0,3E0,7E0,3E0,2.2E1,2.3E1,2.2E1,-1.0548516E-2,4.3497697E-2,-5.9018195E-2,2.0281931E-2,1.3297382E-1,3.9167363E-2,1.5127788E-2,-1.1037073E-1,-8.212843E-2,-2.4061097E-2,1.4448637E-3,-3.6380492E-2,6.603903E-2,-1.0367464E-1,-4.11192E-2,-2.3146719E-2],"split_indices":[1,1,0,1,1,1,0,1,0,0,0,0,1,1,1,0,0,0,0,0,0,0,0,0,0,0,0,0,0,0,0],"split_type":[0,0,0,0,0,0,0,0,0,0,0,0,0,0,0,0,0,0,0,0,0,0,0,0,0,0,0,0,0,0,0],"sum_hessian":[4.626E3,3.714E3,9.12E2,2.469E3,1.245E3,5.22E2,3.9E2,1.962E3,5.07E2,5.04E2,7.41E2,1.35E2,3.87E2,1.63E2,2.27E2,1.612E3,3.5E2,2.78E2,2.29E2,1.16E2,3.88E2,6.36E2,1.05E2,6.5E1,7E1,1.57E2,2.3E2,1.43E2,2E1,1.37E2,9E1],"tree_param":{"num_deleted":"0","num_feature":"2","num_nodes":"31","size_leaf_vector":"1"}},{"base_weights":[-1.1457469E-3,3.6801204E-2,-1.5555076E-1,-4.936871E-2,2.0759003E-1,-2.636345E-1,-1.0580543E-2,-7.993347E-3,-2.0915309E-1,7.008314E-1,4.5581583E-2,-4.7254044E-1,-1.8973029E-1,4.0216124E-1,-3.0741858E-1,-9.494351E-3,3.9160382E-2,-8.733776E-2,5.322226E-4,4.8080806E-2,2.1629678E-1,4.453318E-2,-3.594022E-2,-7.404002E-2,-2.168886E-2,1.301302E-3,-3.2758188E-2,5.948099E-2,-9.380084E-2,-3.7037045E-2,-2.085749E-2],"categories":[],"categories_nodes":[],"categories_segments":[],"categories_sizes":[],"default_left":[0,0,0,0,0,0,0,0,0,0,0,0,0,0,0,0,0,0,0,0,0,0,0,0,0,0,0,0,0,0,0],"id":39,"left_children":[1,3,5,7,9,11,13,15,17,19,21,23,25,27,29,-1,-1,-1,-1,-1,-1,-1,-1,-1,-1,-1,-1,-1,-1,-1,-1],"loss_changes":[2.711624E1,5.4683376E1,1.4302937E1,1.6327835E1,9.9535E1,7.9849586E0,4.802796E1,6.824169E1,7.237421E1,9.804491E1,1.5217696E2,9.1525345E0,1.0848273E1,4.2899757E1,1.3414555E0,0E0,0E0,0E0,0E0,0E0,0E0,0E0,0E0,0E0,0E0,0E0,0E0,0E0,0E0,0E0,0E0],"parents":[2147483647,0,0,1,1,2,2,3,3,4,4,5,5,6,6,7,7,8,8,9,9,10,10,11,11,12,12,13,13,14,14],"right_children":[2,4,6,8,10,12,14,16,18,20,22,24,26,28,30,-1,-1,-1,-1,-1,-1,-1,-1,-1,-1,-1,-1,-1,-1,-1,-1],"split_conditions":[2E1,1.5E1,5E0,1.2E1,1.6E1,2.1E1,6E0,1.1E1,1.3E1,7E0,5E0,3E0,2.2E1,2.3E1,2.2E1,-9.494351E-3,3.9160382E-2,-8.733776E-2,5.322226E-4,4.8080806E-2,2.1629678E-1,4.453318E-2,-3.594022E-2,-7.404002E-2,-2.168886E-2,1.301302E-3,-3.2758188E-2,5.948099E-2,-9.380084E-2,-3.7037045E-2,-2.085749E-2],"split_indices":[1,1,0,1,1,1,0,1,1,0,0,0,1,1,1,0,0,0,0,0,0,0,0,0,0,0,0,0,0,0,0],"split_type":[0,0,0,0,0,0,0,0,0,0,0,0,0,0,0,0,0,0,0,0,0,0,0,0,0,0,0,0,0,0,0],"sum_hessian":[4.626E3,3.714E3,9.12E2,2.469E3,1.245E3,5.22E2,3.9E2,1.962E3,5.07E2,3.07E2,9.38E2,1.35E2,3.87E2,1.63E2,2.27E2,1.612E3,3.5E2,1.23E2,3.84E2,2.68E2,3.9E1,4.72E2,4.66E2,6.5E1,7E1,1.57E2,2.3E2,1.43E2,2E1,1.37E2,9E1],"tree_param":{"num_deleted":"0","num_feature":"2","num_nodes":"31","size_leaf_vector":"1"}},{"base_weights":[-1.0317686E-3,-1.0248569E-1,5.7654068E-2,-7.2317687E-3,-2.9365626E-1,4.4194704E-1,-3.5473093E-2,1.3967974E-1,-3.4179547E-1,-1.0049778E0,-1.5287963E-1,8.609973E-1,-4.3232393E-1,-3.337721E-1,5.4233253E-2,-6.5941163E-3,7.209288E-2,-5.087548E-2,1.7326558E-1,2.179616E-2,-1.3869868E-1,2.2260493E-2,-2.4560435E-2,2.087463E-2,2.980311E-1,-1.17324434E-1,-2.1473093E-2,-2.1053484E-2,-1.18266545E-1,2.639539E-2,-1.8075632E-2],"categories":[],"categories_nodes":[],"categories_segments":[],"categories_sizes":[],"default_left":[0,0,0,0,0,0,0,0,0,0,0,0,0,0,0,0,0,0,0,0,0,0,0,0,0,0,0,0,0,0,0],"id":40,"left_children":[1,3,5,7,9,11,13,15,17,19,21,23,25,27,29,-1,-1,-1,-1,-1,-1,-1,-1,-1,-1,-1,-1,-1,-1,-1,-1],"loss_changes":[2.7554642E1,3.0881605E1,1.0494643E2,5.5736122E1,5.632388E1,2.0993213E2,6.3196842E1,9.42269E1,1.2071823E2,4.3749474E1,1.6488155E1,5.343374E2,2.9734825E1,5.687096E1,8.954412E1,0E0,0E0,0E0,0E0,0E0,0E0,0E0,0E0,0E0,0E0,0E0,0E0,0E0,0E0,0E0,0E0],"parents":[2147483647,0,0,1,1,2,2,3,3,4,4,5,5,6,6,7,7,8,8,9,9,10,10,11,11,12,12,13,13,14,14],"right_children":[2,4,6,8,10,12,14,16,18,20,22,24,26,28,30,-1,-1,-1,-1,-1,-1,-1,-1,-1,-1,-1,-1,-1,-1,-1,-1],"split_conditions":[4E0,1.8E1,5E0,3E0,1.9E1,1.9E1,8E0,1.4E1,1.7E1,2E0,2E1,1.6E1,2E1,7E0,1.6E1,-6.5941163E-3,7.209288E-2,-5.087548E-2,1.7326558E-1,2.179616E-2,-1.3869868E-1,2.2260493E-2,-2.4560435E-2,2.087463E-2,2.980311E-1,-1.17324434E-1,-2.1473093E-2,-2.1053484E-2,-1.18266545E-1,2.639539E-2,-1.8075632E-2],"split_indices":[0,1,0,0,1,1,1,1,1,0,1,1,1,1,1,0,0,0,0,0,0,0,0,0,0,0,0,0,0,0,0],"split_type":[0,0,0,0,0,0,0,0,0,0,0,0,0,0,0,0,0,0,0,0,0,0,0,0,0,0,0,0,0,0,0],"sum_hessian":[4.626E3,1.695E3,2.931E3,1.132E3,5.63E2,5.71E2,2.36E3,7.87E2,3.45E2,9.2E1,4.71E2,3.86E2,1.85E2,5.45E2,1.815E3,5.82E2,2.05E2,3.2E2,2.5E1,2.2E1,7E1,9.3E1,3.78E2,2.96E2,9E1,4.1E1,1.44E2,4.77E2,6.8E1,9.59E2,8.56E2],"tree_param":{"num_deleted":"0","num_feature":"2","num_nodes":"31","size_leaf_vector":"1"}},{"base_weights":[-9.032057E-4,-1.7887607E-1,2.7296476E-2,2.5163054E-1,-3.518259E-1,-1.7282383E-1,8.952966E-2,-1.486451E-1,8.513386E-1,-4.2860577E-1,6.622673E-2,7.891726E-4,-3.0065024E-1,1.2968849E-1,-2.5563782E-1,1.4680329E-2,-2.1593144E-2,1.2254583E-1,8.401054E-3,-2.2497278E-2,-6.4651E-2,2.6629213E-2,-3.3666354E-2,-2.450646E-2,4.9066972E-2,-1.8952556E-2,-1.06611334E-1,4.0403396E-2,8.786293E-3,-1.2232039E-1,-1.039676E-2],"categories":[],"categories_nodes":[],"categories_segments":[],"categories_sizes":[],"default_left":[0,0,0,0,0,0,0,0,0,0,0,0,0,0,0,0,0,0,0,0,0,0,0,0,0,0,0,0,0,0,0],"id":41,"left_children":[1,3,5,7,9,11,13,15,17,19,21,23,25,27,29,-1,-1,-1,-1,-1,-1,-1,-1,-1,-1,-1,-1,-1,-1,-1,-1],"loss_changes":[2.3226768E1,4.7219208E1,4.9769703E1,4.3815376E1,1.4536694E1,2.1038567E1,4.2283062E1,2.21846E0,2.085334E1,1.680484E1,5.8125634E0,4.8657158E1,4.624172E1,3.1301773E1,4.653963E1,0E0,0E0,0E0,0E0,0E0,0E0,0E0,0E0,0E0,0E0,0E0,0E0,0E0,0E0,0E0,0E0],"parents":[2147483647,0,0,1,1,2,2,3,3,4,4,5,5,6,6,7,7,8,8,9,9,10,10,11,11,12,12,13,13,14,14],"right_children":[2,4,6,8,10,12,14,16,18,20,22,24,26,28,30,-1,-1,-1,-1,-1,-1,-1,-1,-1,-1,-1,-1,-1,-1,-1,-1],"split_conditions":[2E0,8E0,8E0,4E0,2.2E1,5E0,2.2E1,2E0,7E0,1.7E1,2.3E1,5E0,7E0,3E0,3E0,1.4680329E-2,-2.1593144E-2,1.2254583E-1,8.401054E-3,-2.2497278E-2,-6.4651E-2,2.6629213E-2,-3.3666354E-2,-2.450646E-2,4.9066972E-2,-1.8952556E-2,-1.06611334E-1,4.0403396E-2,8.786293E-3,-1.2232039E-1,-1.039676E-2],"split_indices":[0,1,1,1,1,0,1,1,1,1,1,1,1,0,0,0,0,0,0,0,0,0,0,0,0,0,0,0,0,0,0],"split_type":[0,0,0,0,0,0,0,0,0,0,0,0,0,0,0,0,0,0,0,0,0,0,0,0,0,0,0,0,0,0,0],"sum_hessian":[4.626E3,6.32E2,3.994E3,1.81E2,4.51E2,9.47E2,3.047E3,1.09E2,7.2E1,3.81E2,7E1,4.02E2,5.45E2,2.73E3,3.17E2,2E1,8.9E1,4.8E1,2.4E1,1.98E2,1.83E2,4.7E1,2.3E1,2.68E2,1.34E2,4.77E2,6.8E1,3.6E2,2.37E3,4.2E1,2.75E2],"tree_param":{"num_deleted":"0","num_feature":"2","num_nodes":"31","size_leaf_vector":"1"}},{"base_weights":[-8.466302E-4,-9.266467E-2,5.226532E-2,-1.5446592E-2,-2.6392174E-1,3.9404973E-1,-3.0561004E-2,1.18231915E-1,-2.9044193E-1,2.5409114E-1,-5.3110105E-1,7.704148E-1,-3.9115104E-1,-2.7081534E-1,4.1690886E-2,-7.1540223E-3,6.547316E-2,-8.770516E-2,-2.097482E-2,-3.611174E-2,8.464767E-2,-1.3697296E-1,4.675577E-3,1.8368978E-2,2.6768646E-1,-1.0672899E-1,-1.9260632E-2,-1.2246424E-2,-7.4459694E-2,2.2880768E-2,-1.6796349E-2],"categories":[],"categories_nodes":[],"categories_segments":[],"categories_sizes":[],"default_left":[0,0,0,0,0,0,0,0,0,0,0,0,0,0,0,0,0,0,0,0,0,0,0,0,0,0,0,0,0,0,0],"id":42,"left_children":[1,3,5,7,9,11,13,15,17,19,21,23,25,27,29,-1,-1,-1,-1,-1,-1,-1,-1,-1,-1,-1,-1,-1,-1,-1,-1],"loss_changes":[2.2569033E1,2.2424068E1,8.301329E1,4.3044674E1,7.307297E1,1.6934003E2,4.099549E1,8.027523E1,1.7945621E1,6.5905E1,1.6870738E2,4.3239172E2,2.4763784E1,3.8284977E1,7.127985E1,0E0,0E0,0E0,0E0,0E0,0E0,0E0,0E0,0E0,0E0,0E0,0E0,0E0,0E0,0E0,0E0],"parents":[2147483647,0,0,1,1,2,2,3,3,4,4,5,5,6,6,7,7,8,8,9,9,10,10,11,11,12,12,13,13,14,14],"right_children":[2,4,6,8,10,12,14,16,18,20,22,24,26,28,30,-1,-1,-1,-1,-1,-1,-1,-1,-1,-1,-1,-1,-1,-1,-1,-1],"split_conditions":[4E0,3E0,5E0,1.8E1,1E1,1.9E1,8E0,1.4E1,1.9E1,5E0,1.7E1,1.6E1,2E1,6E0,1.6E1,-7.1540223E-3,6.547316E-2,-8.770516E-2,-2.097482E-2,-3.611174E-2,8.464767E-2,-1.3697296E-1,4.675577E-3,1.8368978E-2,2.6768646E-1,-1.0672899E-1,-1.9260632E-2,-1.2246424E-2,-7.4459694E-2,2.2880768E-2,-1.6796349E-2],"split_indices":[0,0,0,1,1,1,1,1,1,1,1,1,1,1,1,0,0,0,0,0,0,0,0,0,0,0,0,0,0,0,0],"split_type":[0,0,0,0,0,0,0,0,0,0,0,0,0,0,0,0,0,0,0,0,0,0,0,0,0,0,0,0,0,0,0],"sum_hessian":[4.626E3,1.695E3,2.931E3,1.169E3,5.26E2,5.71E2,2.36E3,7.87E2,3.82E2,1.79E2,3.47E2,3.86E2,1.85E2,5.45E2,1.815E3,5.82E2,2.05E2,4.5E1,3.37E2,8.8E1,9.1E1,1.41E2,2.06E2,2.96E2,9E1,4.1E1,1.44E2,4.16E2,1.29E2,9.59E2,8.56E2],"tree_param":{"num_deleted":"0","num_feature":"2","num_nodes":"31","size_leaf_vector":"1"}},{"base_weights":[-7.738023E-4,-1.6044919E-1,2.4526646E-2,2.3426391E-1,-3.1902736E-1,-1.3809574E-1,7.9379E-2,-1.2675448E-1,7.750551E-1,-3.9239126E-1,8.0184385E-2,-4.671075E-3,-2.2659746E-1,1.6684073E-1,-5.0354015E-2,1.396353E-2,-1.875037E-2,1.11242235E-1,8.281319E-3,-2.2028774E-2,-5.763924E-2,2.6075557E-2,-2.8429901E-2,-2.1268291E-2,4.098464E-2,-1.1024703E-2,-4.8076343E-2,6.081098E-2,1.0313003E-2,-3.6720445E-4,-8.957581E-2],"categories":[],"categories_nodes":[],"categories_segments":[],"categories_sizes":[],"default_left":[0,0,0,0,0,0,0,0,0,0,0,0,0,0,0,0,0,0,0,0,0,0,0,0,0,0,0,0,0,0,0],"id":43,"left_children":[1,3,5,7,9,11,13,15,17,19,21,23,25,27,29,-1,-1,-1,-1,-1,-1,-1,-1,-1,-1,-1,-1,-1,-1,-1,-1],"loss_changes":[1.8696362E1,3.969603E1,3.5647243E1,3.5631115E1,1.3269516E1,1.1901722E1,3.3912262E1,1.8063091E0,1.695628E1,1.1969921E1,4.7470117E0,3.4835655E1,1.786782E1,5.0119984E1,4.7512726E1,0E0,0E0,0E0,0E0,0E0,0E0,0E0,0E0,0E0,0E0,0E0,0E0,0E0,0E0,0E0,0E0],"parents":[2147483647,0,0,1,1,2,2,3,3,4,4,5,5,6,6,7,7,8,8,9,9,10,10,11,11,12,12,13,13,14,14],"right_children":[2,4,6,8,10,12,14,16,18,20,22,24,26,28,30,-1,-1,-1,-1,-1,-1,-1,-1,-1,-1,-1,-1,-1,-1,-1,-1],"split_conditions":[2E0,8E0,9E0,4E0,2.2E1,5E0,1.8E1,2E0,7E0,1.7E1,2.3E1,5E0,6E0,3E0,7E0,1.396353E-2,-1.875037E-2,1.11242235E-1,8.281319E-3,-2.2028774E-2,-5.763924E-2,2.6075557E-2,-2.8429901E-2,-2.1268291E-2,4.098464E-2,-1.1024703E-2,-4.8076343E-2,6.081098E-2,1.0313003E-2,-3.6720445E-4,-8.957581E-2],"split_indices":[0,1,1,1,1,0,1,1,1,1,1,1,1,0,0,0,0,0,0,0,0,0,0,0,0,0,0,0,0,0,0],"split_type":[0,0,0,0,0,0,0,0,0,0,0,0,0,0,0,0,0,0,0,0,0,0,0,0,0,0,0,0,0,0,0],"sum_hessian":[4.626E3,6.32E2,3.994E3,1.81E2,4.51E2,1.007E3,2.987E3,1.09E2,7.2E1,3.81E2,7E1,4.02E2,6.05E2,1.784E3,1.203E3,2E1,8.9E1,4.8E1,2.4E1,1.98E2,1.83E2,4.7E1,2.3E1,2.68E2,1.34E2,4.16E2,1.89E2,2.24E2,1.56E3,1.141E3,6.2E1],"tree_param":{"num_deleted":"0","num_feature":"2","num_nodes":"31","size_leaf_vector":"1"}},{"base_weights":[-7.019372E-4,-8.6710066E-2,4.904925E-2,-1.681622E-2,-2.4171782E-1,3.517706E-1,-2.4311895E-2,9.306044E-2,-2.4283709E-1,2.2629693E-1,-4.8309982E-1,6.892754E-1,-3.5234836E-1,-2.0435537E-1,5.2305467E-2,-8.077526E-3,5.845806E-2,-7.635025E-2,-1.7125886E-2,-3.043823E-2,7.372116E-2,-1.2439623E-1,4.1178255E-3,6.640701E-3,2.1619172E-1,-9.627442E-2,-1.7311407E-2,-4.0808428E-2,3.790029E-2,1.8244905E-2,-1.0725614E-2],"categories":[],"categories_nodes":[],"categories_segments":[],"categories_sizes":[],"default_left":[0,0,0,0,0,0,0,0,0,0,0,0,0,0,0,0,0,0,0,0,0,0,0,0,0,0,0,0,0,0,0],"id":44,"left_children":[1,3,5,7,9,11,13,15,17,19,21,23,25,27,29,-1,-1,-1,-1,-1,-1,-1,-1,-1,-1,-1,-1,-1,-1,-1,-1],"loss_changes":[1.9803217E1,1.8370548E1,6.512237E1,2.9078869E1,5.964469E1,1.3617496E2,3.2579403E1,6.737689E1,1.4143009E1,4.9028126E1,1.3886963E2,3.5483682E2,2.0182451E1,8.394176E1,3.4428696E1,0E0,0E0,0E0,0E0,0E0,0E0,0E0,0E0,0E0,0E0,0E0,0E0,0E0,0E0,0E0,0E0],"parents":[2147483647,0,0,1,1,2,2,3,3,4,4,5,5,6,6,7,7,8,8,9,9,10,10,11,11,12,12,13,13,14,14],"right_children":[2,4,6,8,10,12,14,16,18,20,22,24,26,28,30,-1,-1,-1,-1,-1,-1,-1,-1,-1,-1,-1,-1,-1,-1,-1,-1],"split_conditions":[4E0,3E0,5E0,1.8E1,1E1,1.9E1,6E0,1.4E1,1.9E1,5E0,1.7E1,1.4E1,2E1,1.9E1,7E0,-8.077526E-3,5.845806E-2,-7.635025E-2,-1.7125886E-2,-3.043823E-2,7.372116E-2,-1.2439623E-1,4.1178255E-3,6.640701E-3,2.1619172E-1,-9.627442E-2,-1.7311407E-2,-4.0808428E-2,3.790029E-2,1.8244905E-2,-1.0725614E-2],"split_indices":[0,0,0,1,1,1,0,1,1,1,1,1,1,1,0,0,0,0,0,0,0,0,0,0,0,0,0,0,0,0,0],"split_type":[0,0,0,0,0,0,0,0,0,0,0,0,0,0,0,0,0,0,0,0,0,0,0,0,0,0,0,0,0,0,0],"sum_hessian":[4.626E3,1.695E3,2.931E3,1.169E3,5.26E2,5.71E2,2.36E3,7.87E2,3.82E2,1.79E2,3.47E2,3.86E2,1.85E2,7.04E2,1.656E3,5.82E2,2.05E2,4.5E1,3.37E2,8.8E1,9.1E1,1.41E2,2.06E2,2.72E2,1.14E2,4.1E1,1.44E2,5.22E2,1.82E2,9.12E2,7.44E2],"tree_param":{"num_deleted":"0","num_feature":"2","num_nodes":"31","size_leaf_vector":"1"}},{"base_weights":[-6.333244E-4,-7.810992E-2,4.418282E-2,-1.5171403E-2,-2.1769238E-1,3.1678408E-1,-2.187906E-2,8.381831E-2,-2.1879731E-1,2.0390788E-1,-4.351359E-1,6.209231E-1,-3.1772447E-1,-1.8392429E-1,4.7079157E-2,-7.2711506E-3,5.26406E-2,-6.8881206E-2,-1.5418348E-2,-2.7428595E-2,6.6429205E-2,-1.1204429E-1,3.7080147E-3,1.3689049E-2,2.1938546E-1,-7.222801E-2,-9.443193E-3,-3.673544E-2,3.4131E-2,-1.6321791E-2,1.31229265E-2],"categories":[],"categories_nodes":[],"categories_segments":[],"categories_sizes":[],"default_left":[0,0,0,0,0,0,0,0,0,0,0,0,0,0,0,0,0,0,0,0,0,0,0,0,0,0,0,0,0,0,0],"id":45,"left_children":[1,3,5,7,9,11,13,15,17,19,21,23,25,27,29,-1,-1,-1,-1,-1,-1,-1,-1,-1,-1,-1,-1,-1,-1,-1,-1],"loss_changes":[1.6069332E1,1.4896246E1,5.2808002E1,2.3601877E1,4.8401062E1,1.1058116E2,2.63913E1,5.4629475E1,1.1525297E1,3.9809723E1,1.1265885E2,2.9434216E2,1.6733965E1,6.8047745E1,2.9344559E1,0E0,0E0,0E0,0E0,0E0,0E0,0E0,0E0,0E0,0E0,0E0,0E0,0E0,0E0,0E0,0E0],"parents":[2147483647,0,0,1,1,2,2,3,3,4,4,5,5,6,6,7,7,8,8,9,9,10,10,11,11,12,12,13,13,14,14],"right_children":[2,4,6,8,10,12,14,16,18,20,22,24,26,28,30,-1,-1,-1,-1,-1,-1,-1,-1,-1,-1,-1,-1,-1,-1,-1,-1],"split_conditions":[4E0,3E0,5E0,1.8E1,1E1,1.9E1,6E0,1.4E1,1.9E1,5E0,1.7E1,1.6E1,2.1E1,1.9E1,9E0,-7.2711506E-3,5.26406E-2,-6.8881206E-2,-1.5418348E-2,-2.7428595E-2,6.6429205E-2,-1.1204429E-1,3.7080147E-3,1.3689049E-2,2.1938546E-1,-7.222801E-2,-9.443193E-3,-3.673544E-2,3.4131E-2,-1.6321791E-2,1.31229265E-2],"split_indices":[0,0,0,1,1,1,0,1,1,1,1,1,1,1,1,0,0,0,0,0,0,0,0,0,0,0,0,0,0,0,0],"split_type":[0,0,0,0,0,0,0,0,0,0,0,0,0,0,0,0,0,0,0,0,0,0,0,0,0,0,0,0,0,0,0],"sum_hessian":[4.626E3,1.695E3,2.931E3,1.169E3,5.26E2,5.71E2,2.36E3,7.87E2,3.82E2,1.79E2,3.47E2,3.86E2,1.85E2,7.04E2,1.656E3,5.82E2,2.05E2,4.5E1,3.37E2,8.8E1,9.1E1,1.41E2,2.06E2,2.96E2,9E1,6.5E1,1.2E2,5.22E2,1.82E2,4.73E2,1.183E3],"tree_param":{"num_deleted":"0","num_feature":"2","num_nodes":"31","size_leaf_vector":"1"}},{"base_weights":[-5.6188623E-4,4.372963E-2,-8.020058E-2,-2.6521932E-2,3.8724968E-1,-2.493154E-2,-8.8710195E-1,1.7755516E-2,-1.9756545E-1,2.3248842E-1,1.1827561E0,-3.4138775E-1,3.7109207E-2,-9.4088085E-2,-5.9133142E-2,-5.483756E-3,3.5130218E-2,-7.3399566E-2,-2.4279973E-3,8.8871256E-2,-1.7546356E-3,1.8830733E-1,5.0379235E-2,-1.10505916E-1,-1.53461145E-2,4.7454964E-2,-2.2295674E-3],"categories":[],"categories_nodes":[],"categories_segments":[],"categories_sizes":[],"default_left":[0,0,0,0,0,0,0,0,0,0,0,0,0,0,0,0,0,0,0,0,0,0,0,0,0,0,0],"id":46,"left_children":[1,3,5,7,9,11,13,15,17,19,21,23,25,-1,-1,-1,-1,-1,-1,-1,-1,-1,-1,-1,-1,-1,-1],"loss_changes":[1.632441E1,7.178128E1,7.374077E1,1.8709734E1,6.1897385E1,3.0424465E1,1.1296844E0,4.754973E1,4.720361E1,6.958502E1,3.8041504E1,3.6283016E1,3.368856E1,0E0,0E0,0E0,0E0,0E0,0E0,0E0,0E0,0E0,0E0,0E0,0E0,0E0,0E0],"parents":[2147483647,0,0,1,1,2,2,3,3,4,4,5,5,6,6,7,7,8,8,9,9,10,10,11,11,12,12],"right_children":[2,4,6,8,10,12,14,16,18,20,22,24,26,-1,-1,-1,-1,-1,-1,-1,-1,-1,-1,-1,-1,-1,-1],"split_conditions":[1.7E1,1.5E1,7E0,1.2E1,7E0,2E0,1.9E1,1.1E1,1.3E1,3E0,1.6E1,1.8E1,1.8E1,-9.4088085E-2,-5.9133142E-2,-5.483756E-3,3.5130218E-2,-7.3399566E-2,-2.4279973E-3,8.8871256E-2,-1.7546356E-3,1.8830733E-1,5.0379235E-2,-1.10505916E-1,-1.53461145E-2,4.7454964E-2,-2.2295674E-3],"split_indices":[1,1,0,1,0,0,1,1,1,0,1,1,1,0,0,0,0,0,0,0,0,0,0,0,0,0,0],"split_type":[0,0,0,0,0,0,0,0,0,0,0,0,0,0,0,0,0,0,0,0,0,0,0,0,0,0,0],"sum_hessian":[4.626E3,2.973E3,1.653E3,2.469E3,5.04E2,1.548E3,1.05E2,1.962E3,5.07E2,4.23E2,8.1E1,2.53E2,1.295E3,8.7E1,1.8E1,1.612E3,3.5E2,1.23E2,3.84E2,1.16E2,3.07E2,3.9E1,4.2E1,4.9E1,2.04E2,1.54E2,1.141E3],"tree_param":{"num_deleted":"0","num_feature":"2","num_nodes":"27","size_leaf_vector":"1"}},{"base_weights":[-4.956999E-4,8.064331E-3,-3.456439E-1,-6.9076635E-2,5.3440128E-2,-5.289803E-2,-5.565079E-1,8.234125E-2,-1.2485781E-1,-1.0880086E-1,1.4464349E-1,-2.1115888E-2,1.011483E-2,-8.71689E-2,-3.9705653E-2,-1.4128334E-2,5.699559E-2,-4.008126E-2,-3.4333747E-3,-1.6468151E-3,-1.9931579E-2,6.1448265E-2,7.5319186E-3],"categories":[],"categories_nodes":[],"categories_segments":[],"categories_sizes":[],"default_left":[0,0,0,0,0,0,0,0,0,0,0,0,0,0,0,0,0,0,0,0,0,0,0],"id":47,"left_children":[1,3,5,7,9,11,13,15,17,19,21,-1,-1,-1,-1,-1,-1,-1,-1,-1,-1,-1,-1],"loss_changes":[1.36731615E1,1.5811194E1,6.8842716E0,1.414089E1,4.2098194E1,1.1915745E0,2.920536E0,4.9258747E1,3.0537443E1,8.554786E0,5.9266003E1,0E0,0E0,0E0,0E0,0E0,0E0,0E0,0E0,0E0,0E0,0E0,0E0],"parents":[2147483647,0,0,1,1,2,2,3,3,4,4,5,5,6,6,7,7,8,8,9,9,10,10],"right_children":[2,4,6,8,10,12,14,16,18,20,22,-1,-1,-1,-1,-1,-1,-1,-1,-1,-1,-1,-1],"split_conditions":[2.3E1,4E0,5E0,8E0,1.1E1,2E0,6E0,5E0,1.3E1,6E0,1.2E1,-2.1115888E-2,1.011483E-2,-8.71689E-2,-3.9705653E-2,-1.4128334E-2,5.699559E-2,-4.008126E-2,-3.4333747E-3,-1.6468151E-3,-1.9931579E-2,6.1448265E-2,7.5319186E-3],"split_indices":[1,0,0,1,1,0,0,1,1,1,1,0,0,0,0,0,0,0,0,0,0,0,0],"split_type":[0,0,0,0,0,0,0,0,0,0,0,0,0,0,0,0,0,0,0,0,0,0,0],"sum_hessian":[4.626E3,4.515E3,1.11E2,1.672E3,2.843E3,4.7E1,6.4E1,4.5E2,1.222E3,1.023E3,1.82E3,2.3E1,2.4E1,2E1,4.4E1,3.09E2,1.41E2,3.01E2,9.21E2,5.07E2,5.16E2,2.33E2,1.587E3],"tree_param":{"num_deleted":"0","num_feature":"2","num_nodes":"23","size_leaf_vector":"1"}},{"base_weights":[-4.659264E-4,3.9735794E-2,-7.275096E-2,-2.2780731E-2,3.45431E-1,-2.243801E-2,-8.072983E-1,1.7723193E-2,-1.7925006E-1,2.0643075E-1,1.0599515E0,-3.0272338E-1,3.251178E-2,-8.553085E-2,-5.4244597E-2,-4.128515E-3,2.8884208E-2,-4.282005E-2,1.2351701E-2,8.040049E-2,-2.1240062E-3,1.6921304E-1,4.472282E-2,-9.9339865E-2,-1.3278933E-2,2.1458825E-2,-8.782621E-3],"categories":[],"categories_nodes":[],"categories_segments":[],"categories_sizes":[],"default_left":[0,0,0,0,0,0,0,0,0,0,0,0,0,0,0,0,0,0,0,0,0,0,0,0,0,0,0],"id":48,"left_children":[1,3,5,7,9,11,13,15,17,19,21,23,25,-1,-1,-1,-1,-1,-1,-1,-1,-1,-1,-1,-1,-1,-1],"loss_changes":[1.3448874E1,5.684399E1,6.1109173E1,1.56571045E1,4.9937057E1,2.3866955E1,8.838959E-1,3.1416536E1,3.834288E1,5.7702354E1,3.1005981E1,2.9679874E1,2.8415133E1,0E0,0E0,0E0,0E0,0E0,0E0,0E0,0E0,0E0,0E0,0E0,0E0,0E0,0E0],"parents":[2147483647,0,0,1,1,2,2,3,3,4,4,5,5,6,6,7,7,8,8,9,9,10,10,11,11,12,12],"right_children":[2,4,6,8,10,12,14,16,18,20,22,24,26,-1,-1,-1,-1,-1,-1,-1,-1,-1,-1,-1,-1,-1,-1],"split_conditions":[1.7E1,1.5E1,7E0,1.2E1,7E0,2E0,1.9E1,1.1E1,6E0,3E0,1.6E1,1.8E1,2E1,-8.553085E-2,-5.4244597E-2,-4.128515E-3,2.8884208E-2,-4.282005E-2,1.2351701E-2,8.040049E-2,-2.1240062E-3,1.6921304E-1,4.472282E-2,-9.9339865E-2,-1.3278933E-2,2.1458825E-2,-8.782621E-3],"split_indices":[1,1,0,1,0,0,1,1,0,0,1,1,1,0,0,0,0,0,0,0,0,0,0,0,0,0,0],"split_type":[0,0,0,0,0,0,0,0,0,0,0,0,0,0,0,0,0,0,0,0,0,0,0,0,0,0,0],"sum_hessian":[4.626E3,2.973E3,1.653E3,2.469E3,5.04E2,1.548E3,1.05E2,1.962E3,5.07E2,4.23E2,8.1E1,2.53E2,1.295E3,8.7E1,1.8E1,1.612E3,3.5E2,2.78E2,2.29E2,1.16E2,3.07E2,3.9E1,4.2E1,4.9E1,2.04E2,5.15E2,7.8E2],"tree_param":{"num_deleted":"0","num_feature":"2","num_nodes":"27","size_leaf_vector":"1"}},{"base_weights":[-4.091888E-4,3.5858702E-2,-6.562097E-2,-2.050489E-2,3.1146705E-1,-2.0258943E-2,-7.278867E-1,1.596363E-2,-1.6138521E-1,1.8597288E-1,9.565653E-1,-2.728943E-1,2.92701E-2,-7.7074915E-2,-4.9105596E-2,-3.7158865E-3,2.6003947E-2,-6.28927E-2,-1.0381154E-3,7.242917E-2,-1.9122161E-3,1.5271483E-1,4.0354475E-2,-8.96045E-2,-1.1957514E-2,4.031947E-2,-2.1507116E-3],"categories":[],"categories_nodes":[],"categories_segments":[],"categories_sizes":[],"default_left":[0,0,0,0,0,0,0,0,0,0,0,0,0,0,0,0,0,0,0,0,0,0,0,0,0,0,0],"id":49,"left_children":[1,3,5,7,9,11,13,15,17,19,21,23,25,-1,-1,-1,-1,-1,-1,-1,-1,-1,-1,-1,-1,-1,-1],"loss_changes":[1.0945643E1,4.6205322E1,4.967426E1,1.2692688E1,4.070492E1,1.9390295E1,6.975403E-1,2.546176E1,3.585863E1,4.682621E1,2.5258339E1,2.4160252E1,2.4615627E1,0E0,0E0,0E0,0E0,0E0,0E0,0E0,0E0,0E0,0E0,0E0,0E0,0E0,0E0],"parents":[2147483647,0,0,1,1,2,2,3,3,4,4,5,5,6,6,7,7,8,8,9,9,10,10,11,11,12,12],"right_children":[2,4,6,8,10,12,14,16,18,20,22,24,26,-1,-1,-1,-1,-1,-1,-1,-1,-1,-1,-1,-1,-1,-1],"split_conditions":[1.7E1,1.5E1,7E0,1.2E1,7E0,2E0,1.9E1,1.1E1,1.3E1,3E0,1.6E1,1.8E1,1.8E1,-7.7074915E-2,-4.9105596E-2,-3.7158865E-3,2.6003947E-2,-6.28927E-2,-1.0381154E-3,7.242917E-2,-1.9122161E-3,1.5271483E-1,4.0354475E-2,-8.96045E-2,-1.1957514E-2,4.031947E-2,-2.1507116E-3],"split_indices":[1,1,0,1,0,0,1,1,1,0,1,1,1,0,0,0,0,0,0,0,0,0,0,0,0,0,0],"split_type":[0,0,0,0,0,0,0,0,0,0,0,0,0,0,0,0,0,0,0,0,0,0,0,0,0,0,0],"sum_hessian":[4.626E3,2.973E3,1.653E3,2.469E3,5.04E2,1.548E3,1.05E2,1.962E3,5.07E2,4.23E2,8.1E1,2.53E2,1.295E3,8.7E1,1.8E1,1.612E3,3.5E2,1.23E2,3.84E2,1.16E2,3.07E2,3.9E1,4.2E1,4.9E1,2.04E2,1.54E2,1.141E3],"tree_param":{"num_deleted":"0","num_feature":"2","num_nodes":"27","size_leaf_vector":"1"}}]},"name":"gbtree"},"learner_model_param":{"base_score":"[1.3923692E1]","boost_from_average":"1","num_class":"0","num_feature":"2","num_target":"1"},"objective":{"name":"reg:squarederror","reg_loss_param":{"scale_pos_weight":"1"}}},"version":[3,2,0]}