{"learner":{"attributes":{},"feature_names":["day_of_week","hour_of_day"],"feature_types":[],"gradient_booster":{"model":{"cats":{"enc":[],"feature_segments":[],"sorted_idx":[]},"gbtree_model_param":{"num_parallel_tree":"1","num_trees":"50"},"iteration_indptr":[0,1,2,3,4,5,6,7,8,9,10,11,12,13,14,15,16,17,18,19,20,21,22,23,24,25,26,27,28,29,30,31,32,33,34,35,36,37,38,39,40,41,42,43,44,45,46,47,48,49,50],"tree_info":[0,0,0,0,0,0,0,0,0,0,0,0,0,0,0,0,0,0,0,0,0,0,0,0,0,0,0,0,0,0,0,0,0,0,0,0,0,0,0,0,0,0,0,0,0,0,0,0,0,0],"trees":[{"base_weights":[4.3324474E-7,-1.0305867E1,1.3215232E0,-1.0814599E1,-6.720375E0,2.8247342E0,-4.1145196E0,-1.2152623E0,-9.4413435E-1,-2.0414591E-1,-9.066455E-1,-2.6664507E0,3.6218767E0,-7.2338266E0,-1.8246866E0,2.556338E-1,-7.4598783E-1,4.2160717E-1,7.8255706E-2,-4.964386E-1,-1.0582566E0,-5.533973E-3,-4.0614587E-1],"categories":[],"categories_nodes":[],"categories_segments":[],"categories_sizes":[],"default_left":[0,0,0,0,0,0,0,0,0,0,0,0,0,0,0,0,0,0,0,0,0,0,0],"id":0,"left_children":[1,3,5,7,9,11,13,-1,-1,-1,-1,15,17,19,21,-1,-1,-1,-1,-1,-1,-1,-1],"loss_changes":[6.3030766E4,8.8677734E2,3.3531195E4,7.2865234E2,7.279346E2,1.4078162E4,6.3366553E3,0E0,0E0,0E0,0E0,1.0233375E4,4.732418E3,2.8049766E3,2.0339945E3,0E0,0E0,0E0,0E0,0E0,0E0,0E0,0E0],"parents":[2147483647,0,0,1,1,2,2,3,3,4,4,5,5,6,6,11,11,12,12,13,13,14,14],"right_children":[2,4,6,8,10,12,14,-1,-1,-1,-1,16,18,20,22,-1,-1,-1,-1,-1,-1,-1,-1],"split_conditions":[4E0,3E0,2E1,5E0,2E0,7E0,4E0,-1.2152623E0,-9.4413435E-1,-2.0414591E-1,-9.066455E-1,5E0,1.8E1,2.2E1,2.2E1,2.556338E-1,-7.4598783E-1,4.2160717E-1,7.8255706E-2,-4.964386E-1,-1.0582566E0,-5.533973E-3,-4.0614587E-1],"split_indices":[1,1,1,0,0,1,0,0,0,0,0,0,1,1,1,0,0,0,0,0,0,0,0],"split_type":[0,0,0,0,0,0,0,0,0,0,0,0,0,0,0,0,0,0,0,0,0,0,0],"sum_hessian":[4.626E3,5.25E2,4.101E3,4.58E2,6.7E1,3.213E3,8.88E2,2.28E2,2.3E2,2.3E1,4.4E1,4.07E2,2.806E3,3.75E2,5.13E2,1.95E2,2.12E2,2.32E3,4.86E2,2.25E2,1.5E2,2.87E2,2.26E2],"tree_param":{"num_deleted":"0","num_feature":"2","num_nodes":"23","size_leaf_vector":"1"}},{"base_weights":[-1.1292213E-3,-9.281498E0,1.1888939E0,-9.7378435E0,-6.0646725E0,2.767613E0,-3.0480719E0,-1.0942668E0,-8.5012954E-1,-1.8458189E-1,-8.1799567E-1,-2.4010072E0,3.583271E0,-5.789545E0,-1.0894055E0,2.3020087E-1,-6.717393E-1,4.6254942E-1,2.70278E-1,-2.8483436E-1,-8.1065255E-1,2.8460959E-2,-3.6571017E-1],"categories":[],"categories_nodes":[],"categories_segments":[],"categories_sizes":[],"default_left":[0,0,0,0,0,0,0,0,0,0,0,0,0,0,0,0,0,0,0,0,0,0,0],"id":1,"left_children":[1,3,5,7,9,11,13,-1,-1,-1,-1,15,17,19,21,-1,-1,-1,-1,-1,-1,-1,-1],"loss_changes":[5.1110945E4,7.1310156E2,2.7446623E4,5.908047E2,5.917385E2,1.2609711E4,5.975462E3,0E0,0E0,0E0,0E0,8.297877E3,2.356918E3,3.1389355E3,2.2978035E3,0E0,0E0,0E0,0E0,0E0,0E0,0E0,0E0],"parents":[2147483647,0,0,1,1,2,2,3,3,4,4,5,5,6,6,11,11,12,12,13,13,14,14],"right_children":[2,4,6,8,10,12,14,-1,-1,-1,-1,16,18,20,22,-1,-1,-1,-1,-1,-1,-1,-1],"split_conditions":[4E0,3E0,1.9E1,5E0,2E0,7E0,4E0,-1.0942668E0,-8.5012954E-1,-1.8458189E-1,-8.1799567E-1,5E0,5E0,2.1E1,2.2E1,2.3020087E-1,-6.717393E-1,4.6254942E-1,2.70278E-1,-2.8483436E-1,-8.1065255E-1,2.8460959E-2,-3.6571017E-1],"split_indices":[1,1,1,0,0,1,0,0,0,0,0,0,0,1,1,0,0,0,0,0,0,0,0],"split_type":[0,0,0,0,0,0,0,0,0,0,0,0,0,0,0,0,0,0,0,0,0,0,0],"sum_hessian":[4.626E3,5.25E2,4.101E3,4.58E2,6.7E1,2.988E3,1.113E3,2.28E2,2.3E2,2.3E1,4.4E1,4.07E2,2.581E3,4.63E2,6.5E2,1.95E2,2.12E2,1.18E3,1.401E3,2.05E2,2.58E2,4.24E2,2.26E2],"tree_param":{"num_deleted":"0","num_feature":"2","num_nodes":"23","size_leaf_vector":"1"}},{"base_weights":[-1.8998489E-3,-8.358951E0,1.0697263E0,-8.768295E0,-5.4729486E0,2.083737E0,-4.279497E0,-9.853179E-1,-7.654847E-1,-1.6689281E-1,-7.3801386E-1,-2.1619885E0,2.6524982E0,-7.299003E0,-2.2938118E0,2.0729823E-1,-6.0488075E-1,3.4373373E-1,1.258179E-2,-5.255144E-1,-8.7260336E-1,-1.519072E-1,-4.873774E-1],"categories":[],"categories_nodes":[],"categories_segments":[],"categories_sizes":[],"default_left":[0,0,0,0,0,0,0,0,0,0,0,0,0,0,0,0,0,0,0,0,0,0,0],"id":2,"left_children":[1,3,5,7,9,11,13,-1,-1,-1,-1,15,17,19,21,-1,-1,-1,-1,-1,-1,-1,-1],"loss_changes":[4.144666E4,5.7341406E2,2.2258863E4,4.7903125E2,4.8102234E2,8.334397E3,3.904503E3,0E0,0E0,0E0,0E0,6.728449E3,6.031965E3,7.0955664E2,7.8412134E2,0E0,0E0,0E0,0E0,0E0,0E0,0E0,0E0],"parents":[2147483647,0,0,1,1,2,2,3,3,4,4,5,5,6,6,11,11,12,12,13,13,14,14],"right_children":[2,4,6,8,10,12,14,-1,-1,-1,-1,16,18,20,22,-1,-1,-1,-1,-1,-1,-1,-1],"split_conditions":[4E0,3E0,2.1E1,5E0,2E0,7E0,4E0,-9.853179E-1,-7.654847E-1,-1.6689281E-1,-7.3801386E-1,5E0,1.8E1,2.2E1,2.3E1,2.0729823E-1,-6.0488075E-1,3.4373373E-1,1.258179E-2,-5.255144E-1,-8.7260336E-1,-1.519072E-1,-4.873774E-1],"split_indices":[1,1,1,0,0,1,0,0,0,0,0,0,1,1,1,0,0,0,0,0,0,0,0],"split_type":[0,0,0,0,0,0,0,0,0,0,0,0,0,0,0,0,0,0,0,0,0,0,0],"sum_hessian":[4.626E3,5.25E2,4.101E3,4.58E2,6.7E1,3.448E3,6.53E2,2.28E2,2.3E2,2.3E1,4.4E1,4.07E2,3.041E3,2.58E2,3.95E2,1.95E2,2.12E2,2.32E3,7.21E2,1.08E2,1.5E2,3.05E2,9E1],"tree_param":{"num_deleted":"0","num_feature":"2","num_nodes":"23","size_leaf_vector":"1"}},{"base_weights":[-2.7330397E-3,-7.5281043E0,9.6224695E-1,-7.89528E0,-4.938961E0,2.2524297E0,-2.500337E0,-8.872164E-1,-6.892676E-1,-1.508989E-1,-6.658525E-1,-9.234254E-1,3.1934671E0,-4.8141007E0,-8.473618E-1,2.521583E-1,-4.1045615E-1,3.5872248E-1,1.830785E-1,-3.3344018E-1,-7.859209E-1,3.0907229E-2,-3.0087587E-1],"categories":[],"categories_nodes":[],"categories_segments":[],"categories_sizes":[],"default_left":[0,0,0,0,0,0,0,0,0,0,0,0,0,0,0,0,0,0,0,0,0,0,0],"id":3,"left_children":[1,3,5,7,9,11,13,-1,-1,-1,-1,15,17,19,21,-1,-1,-1,-1,-1,-1,-1,-1],"loss_changes":[3.3607742E4,4.6105664E2,1.8330766E4,3.8840625E2,3.9102002E2,8.935871E3,4.256518E3,0E0,0E0,0E0,0E0,7.506333E3,1.2307539E3,2.0645059E3,1.628113E3,0E0,0E0,0E0,0E0,0E0,0E0,0E0,0E0],"parents":[2147483647,0,0,1,1,2,2,3,3,4,4,5,5,6,6,11,11,12,12,13,13,14,14],"right_children":[2,4,6,8,10,12,14,-1,-1,-1,-1,16,18,20,22,-1,-1,-1,-1,-1,-1,-1,-1],"split_conditions":[4E0,3E0,1.9E1,5E0,2E0,9E0,4E0,-8.872164E-1,-6.892676E-1,-1.508989E-1,-6.658525E-1,5E0,1.7E1,2.2E1,2.2E1,2.521583E-1,-4.1045615E-1,3.5872248E-1,1.830785E-1,-3.3344018E-1,-7.859209E-1,3.0907229E-2,-3.0087587E-1],"split_indices":[1,1,1,0,0,1,0,0,0,0,0,0,1,1,1,0,0,0,0,0,0,0,0],"split_type":[0,0,0,0,0,0,0,0,0,0,0,0,0,0,0,0,0,0,0,0,0,0,0],"sum_hessian":[4.626E3,5.25E2,4.101E3,4.58E2,6.7E1,2.988E3,1.113E3,2.28E2,2.3E2,2.3E1,4.4E1,6.83E2,2.305E3,4.63E2,6.5E2,3.28E2,3.55E2,1.787E3,5.18E2,3.13E2,1.5E2,4.24E2,2.26E2],"tree_param":{"num_deleted":"0","num_feature":"2","num_nodes":"23","size_leaf_vector":"1"}},{"base_weights":[-3.1945624E-3,-6.779844E0,8.6577684E-1,-7.1091866E0,-4.4570756E0,1.6977941E0,-3.523357E0,-7.988821E-1,-6.2063926E-1,-1.3643774E-1,-6.0074687E-1,-1.8540051E0,2.1736114E0,-5.9802933E0,-1.9075239E0,1.6158701E-1,-5.0382376E-1,2.808129E-1,1.3082984E-2,-4.40407E-1,-7.0784926E-1,-1.251009E-1,-4.0941834E-1],"categories":[],"categories_nodes":[],"categories_segments":[],"categories_sizes":[],"default_left":[0,0,0,0,0,0,0,0,0,0,0,0,0,0,0,0,0,0,0,0,0,0,0],"id":4,"left_children":[1,3,5,7,9,11,13,-1,-1,-1,-1,15,17,19,21,-1,-1,-1,-1,-1,-1,-1,-1],"loss_changes":[2.725295E4,3.7069922E2,1.4985811E4,3.1492188E2,3.178567E2,5.832866E3,2.5849717E3,0E0,0E0,0E0,0E0,4.5160884E3,3.9426113E3,4.1715625E2,5.6336584E2,0E0,0E0,0E0,0E0,0E0,0E0,0E0,0E0],"parents":[2147483647,0,0,1,1,2,2,3,3,4,4,5,5,6,6,11,11,12,12,13,13,14,14],"right_children":[2,4,6,8,10,12,14,-1,-1,-1,-1,16,18,20,22,-1,-1,-1,-1,-1,-1,-1,-1],"split_conditions":[4E0,3E0,2.1E1,5E0,2E0,7E0,4E0,-7.988821E-1,-6.2063926E-1,-1.3643774E-1,-6.0074687E-1,5E0,1.8E1,2.2E1,2.3E1,1.6158701E-1,-5.0382376E-1,2.808129E-1,1.3082984E-2,-4.40407E-1,-7.0784926E-1,-1.251009E-1,-4.0941834E-1],"split_indices":[1,1,1,0,0,1,0,0,0,0,0,0,1,1,1,0,0,0,0,0,0,0,0],"split_type":[0,0,0,0,0,0,0,0,0,0,0,0,0,0,0,0,0,0,0,0,0,0,0],"sum_hessian":[4.626E3,5.25E2,4.101E3,4.58E2,6.7E1,3.448E3,6.53E2,2.28E2,2.3E2,2.3E1,4.4E1,4.07E2,3.041E3,2.58E2,3.95E2,1.95E2,2.12E2,2.32E3,7.21E2,1.08E2,1.5E2,3.05E2,9E1],"tree_param":{"num_deleted":"0","num_feature":"2","num_nodes":"23","size_leaf_vector":"1"}},{"base_weights":[-3.7156525E-3,-6.1059594E0,7.7877676E-1,-6.4013605E0,-4.022209E0,1.8334036E0,-2.0516167E0,-7.193427E-1,-5.5884403E-1,-1.233625E-1,-5.4200715E-1,-8.3453566E-1,2.623966E0,-4.6031675E0,-9.7175074E-1,2.0608978E-1,-3.5080275E-1,3.3369687E-1,2.0283738E-1,-3.4730923E-1,-6.8116665E-1,6.4440034E-2,-2.1295753E-1],"categories":[],"categories_nodes":[],"categories_segments":[],"categories_sizes":[],"default_left":[0,0,0,0,0,0,0,0,0,0,0,0,0,0,0,0,0,0,0,0,0,0,0],"id":5,"left_children":[1,3,5,7,9,11,13,-1,-1,-1,-1,15,17,19,21,-1,-1,-1,-1,-1,-1,-1,-1],"loss_changes":[2.2098494E4,2.9802734E2,1.2248268E4,2.5534375E2,2.5838147E2,6.306508E3,3.0649678E3,0E0,0E0,0E0,0E0,5.302017E3,9.724951E2,8.024409E2,1.4684084E3,0E0,0E0,0E0,0E0,0E0,0E0,0E0,0E0],"parents":[2147483647,0,0,1,1,2,2,3,3,4,4,5,5,6,6,11,11,12,12,13,13,14,14],"right_children":[2,4,6,8,10,12,14,-1,-1,-1,-1,16,18,20,22,-1,-1,-1,-1,-1,-1,-1,-1],"split_conditions":[4E0,3E0,1.9E1,5E0,2E0,9E0,3E0,-7.193427E-1,-5.5884403E-1,-1.233625E-1,-5.4200715E-1,5E0,5E0,2.2E1,2.1E1,2.0608978E-1,-3.5080275E-1,3.3369687E-1,2.0283738E-1,-3.4730923E-1,-6.8116665E-1,6.4440034E-2,-2.1295753E-1],"split_indices":[1,1,1,0,0,1,0,0,0,0,0,0,0,1,1,0,0,0,0,0,0,0,0],"split_type":[0,0,0,0,0,0,0,0,0,0,0,0,0,0,0,0,0,0,0,0,0,0,0],"sum_hessian":[4.626E3,5.25E2,4.101E3,4.58E2,6.7E1,2.988E3,1.113E3,2.28E2,2.3E2,2.3E1,4.4E1,6.83E2,2.305E3,3.3E2,7.83E2,3.28E2,3.55E2,1.047E3,1.258E3,2.2E2,1.1E2,3.27E2,4.56E2],"tree_param":{"num_deleted":"0","num_feature":"2","num_nodes":"23","size_leaf_vector":"1"}},{"base_weights":[-3.9338465E-3,-5.4990582E0,7.007077E-1,-5.764009E0,-3.629773E0,1.5192324E0,-2.2592916E0,-6.4772254E-1,-5.032016E-1,-1.1154025E-1,-4.890109E-1,-1.5856628E0,1.9699906E0,-4.085886E0,-9.1871023E-1,1.2500693E-1,-4.1876245E-1,2.3067968E-1,3.6075585E-2,-2.9073665E-1,-5.8227044E-1,1.4160953E-2,-2.2599147E-1],"categories":[],"categories_nodes":[],"categories_segments":[],"categories_sizes":[],"default_left":[0,0,0,0,0,0,0,0,0,0,0,0,0,0,0,0,0,0,0,0,0,0,0],"id":6,"left_children":[1,3,5,7,9,11,13,-1,-1,-1,-1,15,17,19,21,-1,-1,-1,-1,-1,-1,-1,-1],"loss_changes":[1.7920027E4,2.3958887E2,9.941894E3,2.0703711E2,2.1003418E2,4.5012993E3,2.1731392E3,0E0,0E0,0E0,0E0,3.015649E3,1.5205635E3,7.526953E2,7.312822E2,0E0,0E0,0E0,0E0,0E0,0E0,0E0,0E0],"parents":[2147483647,0,0,1,1,2,2,3,3,4,4,5,5,6,6,11,11,12,12,13,13,14,14],"right_children":[2,4,6,8,10,12,14,-1,-1,-1,-1,16,18,20,22,-1,-1,-1,-1,-1,-1,-1,-1],"split_conditions":[4E0,3E0,2E1,5E0,2E0,7E0,4E0,-6.4772254E-1,-5.032016E-1,-1.1154025E-1,-4.890109E-1,5E0,1.8E1,2.2E1,2.2E1,1.2500693E-1,-4.1876245E-1,2.3067968E-1,3.6075585E-2,-2.9073665E-1,-5.8227044E-1,1.4160953E-2,-2.2599147E-1],"split_indices":[1,1,1,0,0,1,0,0,0,0,0,0,1,1,1,0,0,0,0,0,0,0,0],"split_type":[0,0,0,0,0,0,0,0,0,0,0,0,0,0,0,0,0,0,0,0,0,0,0],"sum_hessian":[4.626E3,5.25E2,4.101E3,4.58E2,6.7E1,3.213E3,8.88E2,2.28E2,2.3E2,2.3E1,4.4E1,4.07E2,2.806E3,3.75E2,5.13E2,1.95E2,2.12E2,2.32E3,4.86E2,2.25E2,1.5E2,2.87E2,2.26E2],"tree_param":{"num_deleted":"0","num_feature":"2","num_nodes":"23","size_leaf_vector":"1"}},{"base_weights":[-4.1596177E-3,-3.8260274E0,8.188277E-1,-5.1901155E0,-2.0858548E0,1.849564E0,-1.6754746E0,-5.832331E-1,-4.5309925E0,4.50954E-1,-4.4887004E0,2.7657459E0,1.0876222E0,-3.3430173E0,-4.8436067E-1,-4.022965E-1,-4.7140104E-1,2.1600138E-1,-1.1359514E-2,-3.7730837E-1,-5.178862E-1,2.2862354E-1,3.483275E-1,-3.177557E-1,1.5379618E-1,-2.4180646E-1,-5.2442896E-1,3.449595E-2,-2.0349188E-1],"categories":[],"categories_nodes":[],"categories_segments":[],"categories_sizes":[],"default_left":[0,0,0,0,0,0,0,0,0,0,0,0,0,0,0,0,0,0,0,0,0,0,0,0,0,0,0,0,0],"id":7,"left_children":[1,3,5,7,9,11,13,-1,15,17,19,21,23,25,27,-1,-1,-1,-1,-1,-1,-1,-1,-1,-1,-1,-1,-1,-1],"loss_changes":[1.4556662E4,1.9356484E3,9.793345E3,1.6786816E2,2.2086167E3,1.8783105E3,2.2110452E3,0E0,2.5136719E0,1.710235E2,7.232373E1,4.1282422E2,2.8341943E3,8.033032E2,8.3782886E2,0E0,0E0,0E0,0E0,0E0,0E0,0E0,0E0,0E0,0E0,0E0,0E0,0E0,0E0],"parents":[2147483647,0,0,1,1,2,2,3,3,4,4,5,5,6,6,8,8,9,9,10,10,11,11,12,12,13,13,14,14],"right_children":[2,4,6,8,10,12,14,-1,16,18,20,22,24,26,28,-1,-1,-1,-1,-1,-1,-1,-1,-1,-1,-1,-1,-1,-1],"split_conditions":[6E0,3E0,1.9E1,5E0,5E0,5E0,4E0,-5.832331E-1,1E0,2E0,7E0,1.4E1,8E0,2.2E1,2.2E1,-4.022965E-1,-4.7140104E-1,2.1600138E-1,-1.1359514E-2,-3.7730837E-1,-5.178862E-1,2.2862354E-1,3.483275E-1,-3.177557E-1,1.5379618E-1,-2.4180646E-1,-5.2442896E-1,3.449595E-2,-2.0349188E-1],"split_indices":[1,1,1,0,0,0,0,0,1,0,0,1,1,1,1,0,0,0,0,0,0,0,0,0,0,0,0,0,0],"split_type":[0,0,0,0,0,0,0,0,0,0,0,0,0,0,0,0,0,0,0,0,0,0,0,0,0,0,0,0,0],"sum_hessian":[4.626E3,8.19E2,3.807E3,4.58E2,3.61E2,2.694E3,1.113E3,2.28E2,2.3E2,1.76E2,1.85E2,1.222E3,1.472E3,4.63E2,6.5E2,6.7E1,1.63E2,4.3E1,1.33E2,9.4E1,9.1E1,7.35E2,4.87E2,1.4E2,1.332E3,3.13E2,1.5E2,4.24E2,2.26E2],"tree_param":{"num_deleted":"0","num_feature":"2","num_nodes":"29","size_leaf_vector":"1"}},{"base_weights":[-4.320625E-3,-4.4740863E0,5.688391E-1,-4.6742783E0,-3.0569978E0,1.1291088E0,-2.386725E0,-5.2516446E0,-4.0816755E0,-1.21551156E-1,-3.9711905E-1,-6.7266834E-1,1.5742593E0,-4.0675697E0,-1.2813576E0,-5.469375E-1,-4.7114345E-1,-3.626585E-1,-4.2454836E-1,1.5579413E-1,-2.732213E-1,2.2520538E-1,3.347592E-2,-3.1218088E-1,-4.723334E-1,-7.500466E-2,-3.0538836E-1],"categories":[],"categories_nodes":[],"categories_segments":[],"categories_sizes":[],"default_left":[0,0,0,0,0,0,0,0,0,0,0,0,0,0,0,0,0,0,0,0,0,0,0,0,0,0,0],"id":8,"left_children":[1,3,5,7,9,11,13,15,17,-1,-1,19,21,23,25,-1,-1,-1,-1,-1,-1,-1,-1,-1,-1,-1,-1],"loss_changes":[1.1856409E4,1.3493066E2,6.79525E3,1.3561133E2,1.0964911E2,2.7673706E3,1.2098882E3,1.1660156E0,1.8237305E0,0E0,0E0,3.1465798E3,2.3230347E3,1.4588525E2,3.7064746E2,0E0,0E0,0E0,0E0,0E0,0E0,0E0,0E0,0E0,0E0,0E0,0E0],"parents":[2147483647,0,0,1,1,2,2,3,3,4,4,5,5,6,6,7,7,8,8,11,11,12,12,13,13,14,14],"right_children":[2,4,6,8,10,12,14,16,18,-1,-1,20,22,24,26,-1,-1,-1,-1,-1,-1,-1,-1,-1,-1,-1,-1],"split_conditions":[4E0,3E0,2.1E1,5E0,2E0,9E0,4E0,2E0,1E0,-1.21551156E-1,-3.9711905E-1,5E0,1.7E1,2.2E1,2.3E1,-5.469375E-1,-4.7114345E-1,-3.626585E-1,-4.2454836E-1,1.5579413E-1,-2.732213E-1,2.2520538E-1,3.347592E-2,-3.1218088E-1,-4.723334E-1,-7.500466E-2,-3.0538836E-1],"split_indices":[1,1,1,0,0,1,0,1,1,0,0,0,1,1,1,0,0,0,0,0,0,0,0,0,0,0,0],"split_type":[0,0,0,0,0,0,0,0,0,0,0,0,0,0,0,0,0,0,0,0,0,0,0,0,0,0,0],"sum_hessian":[4.626E3,5.25E2,4.101E3,4.58E2,6.7E1,3.448E3,6.53E2,2.28E2,2.3E2,2.3E1,4.4E1,6.83E2,2.765E3,2.58E2,3.95E2,1.56E2,7.2E1,6.7E1,1.63E2,3.28E2,3.55E2,1.787E3,9.78E2,1.08E2,1.5E2,3.05E2,9E1],"tree_param":{"num_deleted":"0","num_feature":"2","num_nodes":"27","size_leaf_vector":"1"}},{"base_weights":[-4.611733E-3,-3.1439695E0,6.714067E-1,-4.2107835E0,-1.7826117E0,1.520577E0,-1.3835175E0,-4.730926E0,-3.676916E0,2.881399E-1,-3.7435818E0,2.3124924E0,8.620345E-1,-3.2608485E0,-5.891551E-1,-4.9259216E-1,-4.246745E-1,-3.1474695E-1,-3.791549E-1,1.9416443E-1,-2.5695208E-2,-3.1020138E-1,-4.3653795E-1,1.849527E-1,3.0059966E-1,-2.5907716E-1,1.2266133E-1,-2.5876376E-1,-4.5718288E-1,5.9179183E-2,-1.4354603E-1],"categories":[],"categories_nodes":[],"categories_segments":[],"categories_sizes":[],"default_left":[0,0,0,0,0,0,0,0,0,0,0,0,0,0,0,0,0,0,0,0,0,0,0,0,0,0,0,0,0,0,0],"id":9,"left_children":[1,3,5,7,9,11,13,15,17,19,21,23,25,27,29,-1,-1,-1,-1,-1,-1,-1,-1,-1,-1,-1,-1,-1,-1,-1,-1],"loss_changes":[9.821824E3,1.1833921E3,6.64699E3,1.1006299E2,1.4710455E3,1.4034756E3,1.6593662E3,7.0166016E-1,2.0859375E0,1.6003111E2,6.065869E1,3.8710645E2,1.8574198E3,2.8029932E2,7.844116E2,0E0,0E0,0E0,0E0,0E0,0E0,0E0,0E0,0E0,0E0,0E0,0E0,0E0,0E0,0E0,0E0],"parents":[2147483647,0,0,1,1,2,2,3,3,4,4,5,5,6,6,7,7,8,8,9,9,10,10,11,11,12,12,13,13,14,14],"right_children":[2,4,6,8,10,12,14,16,18,20,22,24,26,28,30,-1,-1,-1,-1,-1,-1,-1,-1,-1,-1,-1,-1,-1,-1,-1,-1],"split_conditions":[6E0,3E0,1.9E1,5E0,5E0,5E0,3E0,2E0,6E0,2E0,7E0,1.4E1,8E0,2.2E1,2.1E1,-4.9259216E-1,-4.246745E-1,-3.1474695E-1,-3.791549E-1,1.9416443E-1,-2.5695208E-2,-3.1020138E-1,-4.3653795E-1,1.849527E-1,3.0059966E-1,-2.5907716E-1,1.2266133E-1,-2.5876376E-1,-4.5718288E-1,5.9179183E-2,-1.4354603E-1],"split_indices":[1,1,1,0,0,0,0,1,0,0,0,1,1,1,1,0,0,0,0,0,0,0,0,0,0,0,0,0,0,0,0],"split_type":[0,0,0,0,0,0,0,0,0,0,0,0,0,0,0,0,0,0,0,0,0,0,0,0,0,0,0,0,0,0,0],"sum_hessian":[4.626E3,8.19E2,3.807E3,4.58E2,3.61E2,2.694E3,1.113E3,2.28E2,2.3E2,1.76E2,1.85E2,1.222E3,1.472E3,3.3E2,7.83E2,1.56E2,7.2E1,4.6E1,1.84E2,4.3E1,1.33E2,9.4E1,9.1E1,7.35E2,4.87E2,1.4E2,1.332E3,2.2E2,1.1E2,3.27E2,4.56E2],"tree_param":{"num_deleted":"0","num_feature":"2","num_nodes":"31","size_leaf_vector":"1"}},{"base_weights":[-4.7212625E-3,-2.8322427E0,6.041475E-1,-3.6437337E0,-1.3757122E0,1.3686489E0,-1.2458842E0,-3.7932153E0,-2.5811486E0,4.9942517E-1,-3.3996236E0,1.6908345E0,-6.6703066E-2,-2.5590386E0,-3.0802E-1,-4.261839E-1,-3.3122286E-1,-1.2850988E-1,-3.2150164E-1,5.139317E-1,-2.3144906E-2,-2.6389167E-1,-4.1661844E-1,2.0816405E-1,1.20089926E-1,-3.2211733E-1,4.9541563E-2,-3.8183957E-1,-1.8246329E-1,6.59149E-3,-2.609882E-1],"categories":[],"categories_nodes":[],"categories_segments":[],"categories_sizes":[],"default_left":[0,0,0,0,0,0,0,0,0,0,0,0,0,0,0,0,0,0,0,0,0,0,0,0,0,0,0,0,0,0,0],"id":10,"left_children":[1,3,5,7,9,11,13,15,17,19,21,23,25,27,29,-1,-1,-1,-1,-1,-1,-1,-1,-1,-1,-1,-1,-1,-1,-1,-1],"loss_changes":[7.967506E3,9.641958E2,5.3875566E3,7.3757324E1,1.1212559E3,1.246415E3,1.3711705E3,8.934326E1,5.1732025E1,5.234308E2,7.1809814E1,4.1892432E2,8.7932324E2,4.2217627E2,5.605181E2,0E0,0E0,0E0,0E0,0E0,0E0,0E0,0E0,0E0,0E0,0E0,0E0,0E0,0E0,0E0,0E0],"parents":[2147483647,0,0,1,1,2,2,3,3,4,4,5,5,6,6,7,7,8,8,9,9,10,10,11,11,12,12,13,13,14,14],"right_children":[2,4,6,8,10,12,14,16,18,20,22,24,26,28,30,-1,-1,-1,-1,-1,-1,-1,-1,-1,-1,-1,-1,-1,-1,-1,-1],"split_conditions":[6E0,4E0,1.9E1,3E0,5E0,7E0,4E0,5E0,2E0,2E0,7E0,5E0,9E0,2E0,2.3E1,-4.261839E-1,-3.3122286E-1,-1.2850988E-1,-3.2150164E-1,5.139317E-1,-2.3144906E-2,-2.6389167E-1,-4.1661844E-1,2.0816405E-1,1.20089926E-1,-3.2211733E-1,4.9541563E-2,-3.8183957E-1,-1.8246329E-1,6.59149E-3,-2.609882E-1],"split_indices":[1,1,1,1,0,0,0,0,0,0,0,0,1,0,1,0,0,0,0,0,0,0,0,0,0,0,0,0,0,0,0],"split_type":[0,0,0,0,0,0,0,0,0,0,0,0,0,0,0,0,0,0,0,0,0,0,0,0,0,0,0,0,0,0,0],"sum_hessian":[4.626E3,8.19E2,3.807E3,5.25E2,2.94E2,2.694E3,1.113E3,4.58E2,6.7E1,1.53E2,1.41E2,2.2E3,4.94E2,4.63E2,6.5E2,2.28E2,2.3E2,2.3E1,4.4E1,2E1,1.33E2,7.3E1,6.8E1,1.222E3,9.78E2,7.4E1,4.2E2,1.69E2,2.94E2,5.6E2,9E1],"tree_param":{"num_deleted":"0","num_feature":"2","num_nodes":"31","size_leaf_vector":"1"}},{"base_weights":[-4.716118E-3,-2.5507224E0,5.4353225E-1,-3.2816558E0,-1.2387842E0,1.2318045E0,-1.1220307E0,-3.4155438E0,-2.3296516E0,4.5266956E-1,-3.064454E0,1.5218999E0,-6.058339E-2,-2.3043509E0,-2.7760905E-1,-3.837516E-1,-2.9824394E-1,-1.1619438E-1,-2.900659E-1,4.6498585E-1,-2.0847699E-2,-2.3785917E-1,-3.755604E-1,1.19798295E-1,2.029459E-1,-2.9033512E-1,4.4599183E-2,-1.6662623E-1,-3.6159766E-1,7.740378E-2,-9.567605E-2],"categories":[],"categories_nodes":[],"categories_segments":[],"categories_sizes":[],"default_left":[0,0,0,0,0,0,0,0,0,0,0,0,0,0,0,0,0,0,0,0,0,0,0,0,0,0,0,0,0,0,0],"id":11,"left_children":[1,3,5,7,9,11,13,15,17,19,21,23,25,27,29,-1,-1,-1,-1,-1,-1,-1,-1,-1,-1,-1,-1,-1,-1,-1,-1],"loss_changes":[6.4599556E3,7.8226514E2,4.366724E3,5.908789E1,9.123579E2,1.01049097E3,1.1115519E3,7.244092E1,4.196994E1,4.2831277E2,5.837976E1,3.5942822E2,7.1413226E2,3.8231177E2,4.6570258E2,0E0,0E0,0E0,0E0,0E0,0E0,0E0,0E0,0E0,0E0,0E0,0E0,0E0,0E0,0E0,0E0],"parents":[2147483647,0,0,1,1,2,2,3,3,4,4,5,5,6,6,7,7,8,8,9,9,10,10,11,11,12,12,13,13,14,14],"right_children":[2,4,6,8,10,12,14,16,18,20,22,24,26,28,30,-1,-1,-1,-1,-1,-1,-1,-1,-1,-1,-1,-1,-1,-1,-1,-1],"split_conditions":[6E0,4E0,1.9E1,3E0,5E0,7E0,4E0,5E0,2E0,2E0,7E0,1.5E1,9E0,2.2E1,2.1E1,-3.837516E-1,-2.9824394E-1,-1.1619438E-1,-2.900659E-1,4.6498585E-1,-2.0847699E-2,-2.3785917E-1,-3.755604E-1,1.19798295E-1,2.029459E-1,-2.9033512E-1,4.4599183E-2,-1.6662623E-1,-3.6159766E-1,7.740378E-2,-9.567605E-2],"split_indices":[1,1,1,1,0,0,0,0,0,0,0,1,1,1,1,0,0,0,0,0,0,0,0,0,0,0,0,0,0,0,0],"split_type":[0,0,0,0,0,0,0,0,0,0,0,0,0,0,0,0,0,0,0,0,0,0,0,0,0,0,0,0,0,0,0],"sum_hessian":[4.626E3,8.19E2,3.807E3,5.25E2,2.94E2,2.694E3,1.113E3,4.58E2,6.7E1,1.53E2,1.41E2,2.2E3,4.94E2,4.63E2,6.5E2,2.28E2,2.3E2,2.3E1,4.4E1,2E1,1.33E2,7.3E1,6.8E1,1.345E3,8.55E2,7.4E1,4.2E2,3.13E2,1.5E2,2.55E2,3.95E2],"tree_param":{"num_deleted":"0","num_feature":"2","num_nodes":"31","size_leaf_vector":"1"}},{"base_weights":[-4.617883E-3,-2.2971838E0,4.890556E-1,-2.9555593E0,-1.11548E0,1.2267919E0,-8.172274E-1,-3.0754755E0,-2.102661E0,4.1028616E-1,-2.7623284E0,8.081357E-1,2.1304746E0,-2.2700047E0,-2.7614745E-1,-3.4554407E-1,-2.6854864E-1,-1.05059065E-1,-2.6170394E-1,4.2070135E-1,-1.8778523E-2,-2.1439472E-1,-3.3854863E-1,1.0782732E-1,-3.3065554E-2,2.8971216E-1,5.9783824E-2,-1.757928E-1,-3.4628534E-1,1.7912513E-2,-1.531802E-1],"categories":[],"categories_nodes":[],"categories_segments":[],"categories_sizes":[],"default_left":[0,0,0,0,0,0,0,0,0,0,0,0,0,0,0,0,0,0,0,0,0,0,0,0,0,0,0,0,0,0,0],"id":12,"left_children":[1,3,5,7,9,11,13,15,17,19,21,23,25,27,29,-1,-1,-1,-1,-1,-1,-1,-1,-1,-1,-1,-1,-1,-1,-1,-1],"loss_changes":[5.237865E3,6.34667E2,3.6707427E3,4.7330566E1,7.423816E2,9.1913965E2,1.0802178E3,5.873633E1,3.404959E1,3.5048E2,4.746118E1,5.125609E2,9.0301074E2,2.2175208E2,5.7365436E2,0E0,0E0,0E0,0E0,0E0,0E0,0E0,0E0,0E0,0E0,0E0,0E0,0E0,0E0,0E0,0E0],"parents":[2147483647,0,0,1,1,2,2,3,3,4,4,5,5,6,6,7,7,8,8,9,9,10,10,11,11,12,12,13,13,14,14],"right_children":[2,4,6,8,10,12,14,16,18,20,22,24,26,28,30,-1,-1,-1,-1,-1,-1,-1,-1,-1,-1,-1,-1,-1,-1,-1,-1],"split_conditions":[6E0,4E0,1.8E1,3E0,5E0,1.5E1,3E0,5E0,2E0,2E0,7E0,7E0,1.7E1,2.2E1,2.2E1,-3.4554407E-1,-2.6854864E-1,-1.05059065E-1,-2.6170394E-1,4.2070135E-1,-1.8778523E-2,-2.1439472E-1,-3.3854863E-1,1.0782732E-1,-3.3065554E-2,2.8971216E-1,5.9783824E-2,-1.757928E-1,-3.4628534E-1,1.7912513E-2,-1.531802E-1],"split_indices":[1,1,1,1,0,1,0,0,0,0,0,0,1,1,1,0,0,0,0,0,0,0,0,0,0,0,0,0,0,0,0],"split_type":[0,0,0,0,0,0,0,0,0,0,0,0,0,0,0,0,0,0,0,0,0,0,0,0,0,0,0,0,0,0,0],"sum_hessian":[4.626E3,8.19E2,3.807E3,5.25E2,2.94E2,2.433E3,1.374E3,4.58E2,6.7E1,1.53E2,1.41E2,1.664E3,7.69E2,3.72E2,1.002E3,2.28E2,2.3E2,2.3E1,4.4E1,2E1,1.33E2,7.3E1,6.8E1,1.345E3,3.19E2,5.12E2,2.57E2,2.62E2,1.1E2,7.36E2,2.66E2],"tree_param":{"num_deleted":"0","num_feature":"2","num_nodes":"31","size_leaf_vector":"1"}},{"base_weights":[-4.451443E-3,-2.0688457E0,4.4008845E-1,-2.661868E0,-1.0044439E0,1.1042864E0,-7.359829E-1,-2.769266E0,-1.8977884E0,3.718675E-1,-2.4899895E0,7.273665E-1,1.9178805E0,-2.044404E0,-2.4866776E-1,-3.1114057E-1,-2.4181004E-1,-9.499094E-2,-2.361151E-1,3.8063455E-1,-1.6914671E-2,-1.9324498E-1,-3.0518442E-1,9.705253E-2,-2.9769305E-2,2.6079732E-1,5.3828605E-2,-1.5828036E-1,-3.1196877E-1,3.9383564E-2,-1.01715945E-1],"categories":[],"categories_nodes":[],"categories_segments":[],"categories_sizes":[],"default_left":[0,0,0,0,0,0,0,0,0,0,0,0,0,0,0,0,0,0,0,0,0,0,0,0,0,0,0,0,0,0,0],"id":13,"left_children":[1,3,5,7,9,11,13,15,17,19,21,23,25,27,29,-1,-1,-1,-1,-1,-1,-1,-1,-1,-1,-1,-1,-1,-1,-1,-1],"loss_changes":[4.2471343E3,5.149221E2,2.9754102E3,3.7908203E1,6.040751E2,7.450149E2,8.7620996E2,4.7624023E1,2.762355E1,2.8679144E2,3.858484E1,4.1529382E2,7.316731E2,1.802013E2,4.9564032E2,0E0,0E0,0E0,0E0,0E0,0E0,0E0,0E0,0E0,0E0,0E0,0E0,0E0,0E0,0E0,0E0],"parents":[2147483647,0,0,1,1,2,2,3,3,4,4,5,5,6,6,7,7,8,8,9,9,10,10,11,11,12,12,13,13,14,14],"right_children":[2,4,6,8,10,12,14,16,18,20,22,24,26,28,30,-1,-1,-1,-1,-1,-1,-1,-1,-1,-1,-1,-1,-1,-1,-1,-1],"split_conditions":[6E0,4E0,1.8E1,3E0,5E0,1.5E1,3E0,5E0,2E0,2E0,7E0,7E0,1.7E1,2.2E1,2.1E1,-3.1114057E-1,-2.4181004E-1,-9.499094E-2,-2.361151E-1,3.8063455E-1,-1.6914671E-2,-1.9324498E-1,-3.0518442E-1,9.705253E-2,-2.9769305E-2,2.6079732E-1,5.3828605E-2,-1.5828036E-1,-3.1196877E-1,3.9383564E-2,-1.01715945E-1],"split_indices":[1,1,1,1,0,1,0,0,0,0,0,0,1,1,1,0,0,0,0,0,0,0,0,0,0,0,0,0,0,0,0],"split_type":[0,0,0,0,0,0,0,0,0,0,0,0,0,0,0,0,0,0,0,0,0,0,0,0,0,0,0,0,0,0,0],"sum_hessian":[4.626E3,8.19E2,3.807E3,5.25E2,2.94E2,2.433E3,1.374E3,4.58E2,6.7E1,1.53E2,1.41E2,1.664E3,7.69E2,3.72E2,1.002E3,2.28E2,2.3E2,2.3E1,4.4E1,2E1,1.33E2,7.3E1,6.8E1,1.345E3,3.19E2,5.12E2,2.57E2,2.62E2,1.1E2,5.46E2,4.56E2],"tree_param":{"num_deleted":"0","num_feature":"2","num_nodes":"31","size_leaf_vector":"1"}},{"base_weights":[-4.258877E-3,-1.8632038E0,3.9604026E-1,-2.3973622E0,-9.0445626E-1,9.940151E-1,-6.62772E-1,-2.493544E0,-1.712879E0,3.370423E-1,-2.2445009E0,1.5848262E0,5.104836E-1,-2.4538362E0,-3.735264E-1,-2.801624E-1,-2.1773374E-1,-8.588766E-2,-2.130283E-1,3.4438363E-1,-1.5235855E-2,-1.7418163E-1,-2.7510828E-1,1.1327078E-1,2.504755E-1,-2.3938504E-1,8.513174E-2,-1.1133823E-2,-2.742549E-1,2.2152847E-2,-1.0727129E-1],"categories":[],"categories_nodes":[],"categories_segments":[],"categories_sizes":[],"default_left":[0,0,0,0,0,0,0,0,0,0,0,0,0,0,0,0,0,0,0,0,0,0,0,0,0,0,0,0,0,0,0],"id":14,"left_children":[1,3,5,7,9,11,13,15,17,19,21,23,25,27,29,-1,-1,-1,-1,-1,-1,-1,-1,-1,-1,-1,-1,-1,-1,-1,-1],"loss_changes":[3.4438462E3,4.1777246E2,2.4116675E3,3.0358398E1,4.9153717E2,6.945261E2,7.114125E2,3.8614258E1,2.2409882E1,2.3467673E2,3.136853E1,4.525913E2,1.3284976E3,1.288695E2,4.9326202E2,0E0,0E0,0E0,0E0,0E0,0E0,0E0,0E0,0E0,0E0,0E0,0E0,0E0,0E0,0E0,0E0],"parents":[2147483647,0,0,1,1,2,2,3,3,4,4,5,5,6,6,7,7,8,8,9,9,10,10,11,11,12,12,13,13,14,14],"right_children":[2,4,6,8,10,12,14,16,18,20,22,24,26,28,30,-1,-1,-1,-1,-1,-1,-1,-1,-1,-1,-1,-1,-1,-1,-1,-1],"split_conditions":[6E0,4E0,1.8E1,3E0,5E0,5E0,2E0,5E0,2E0,2E0,7E0,1.4E1,8E0,1.9E1,2.1E1,-2.801624E-1,-2.1773374E-1,-8.588766E-2,-2.130283E-1,3.4438363E-1,-1.5235855E-2,-1.7418163E-1,-2.7510828E-1,1.1327078E-1,2.504755E-1,-2.3938504E-1,8.513174E-2,-1.1133823E-2,-2.742549E-1,2.2152847E-2,-1.0727129E-1],"split_indices":[1,1,1,1,0,0,0,0,0,0,0,1,1,1,1,0,0,0,0,0,0,0,0,0,0,0,0,0,0,0,0],"split_type":[0,0,0,0,0,0,0,0,0,0,0,0,0,0,0,0,0,0,0,0,0,0,0,0,0,0,0,0,0,0,0],"sum_hessian":[4.626E3,8.19E2,3.807E3,5.25E2,2.94E2,2.433E3,1.374E3,4.58E2,6.7E1,1.53E2,1.41E2,1.094E3,1.339E3,1.9E2,1.184E3,2.28E2,2.3E2,2.3E1,4.4E1,2E1,1.33E2,7.3E1,6.8E1,7.35E2,3.59E2,1.4E2,1.199E3,2.1E1,1.69E2,6.4E2,5.44E2],"tree_param":{"num_deleted":"0","num_feature":"2","num_nodes":"31","size_leaf_vector":"1"}},{"base_weights":[-4.066264E-3,-1.6780015E0,3.5639358E-1,-2.1591408E0,-8.144178E-1,8.9469904E-1,-5.9676427E-1,-2.2452743E0,-1.5459868E0,3.054755E-1,-2.0232146E0,1.4266754E0,4.5931938E-1,-1.4344575E0,-3.825563E-2,-2.522685E-1,-1.9605461E-1,-7.765674E-2,-1.9219886E-1,3.1158525E-1,-1.3723636E-2,-1.5699883E-1,-2.4799614E-1,1.01959005E-1,2.2549759E-1,-2.1561635E-1,7.6625586E-2,-7.6001205E-2,-2.189298E-1,6.274913E-2,-8.289491E-2],"categories":[],"categories_nodes":[],"categories_segments":[],"categories_sizes":[],"default_left":[0,0,0,0,0,0,0,0,0,0,0,0,0,0,0,0,0,0,0,0,0,0,0,0,0,0,0,0,0,0,0],"id":15,"left_children":[1,3,5,7,9,11,13,15,17,19,21,23,25,27,29,-1,-1,-1,-1,-1,-1,-1,-1,-1,-1,-1,-1,-1,-1,-1,-1],"loss_changes":[2.792467E3,3.3895483E2,1.954381E3,2.4308594E1,3.9996643E2,5.630875E2,6.432512E2,3.1309082E1,1.8180054E1,1.9203242E2,2.5501831E1,3.6692285E2,1.0773867E3,2.7834033E2,4.35328E2,0E0,0E0,0E0,0E0,0E0,0E0,0E0,0E0,0E0,0E0,0E0,0E0,0E0,0E0,0E0,0E0],"parents":[2147483647,0,0,1,1,2,2,3,3,4,4,5,5,6,6,7,7,8,8,9,9,10,10,11,11,12,12,13,13,14,14],"right_children":[2,4,6,8,10,12,14,16,18,20,22,24,26,28,30,-1,-1,-1,-1,-1,-1,-1,-1,-1,-1,-1,-1,-1,-1,-1,-1],"split_conditions":[6E0,4E0,1.8E1,3E0,5E0,5E0,4E0,5E0,2E0,2E0,7E0,1.4E1,8E0,2.1E1,6E0,-2.522685E-1,-1.9605461E-1,-7.765674E-2,-1.9219886E-1,3.1158525E-1,-1.3723636E-2,-1.5699883E-1,-2.4799614E-1,1.01959005E-1,2.2549759E-1,-2.1561635E-1,7.6625586E-2,-7.6001205E-2,-2.189298E-1,6.274913E-2,-8.289491E-2],"split_indices":[1,1,1,1,0,0,0,0,0,0,0,1,1,1,0,0,0,0,0,0,0,0,0,0,0,0,0,0,0,0,0],"split_type":[0,0,0,0,0,0,0,0,0,0,0,0,0,0,0,0,0,0,0,0,0,0,0,0,0,0,0,0,0,0,0],"sum_hessian":[4.626E3,8.19E2,3.807E3,5.25E2,2.94E2,2.433E3,1.374E3,4.58E2,6.7E1,1.53E2,1.41E2,1.094E3,1.339E3,5.49E2,8.25E2,2.28E2,2.3E2,2.3E1,4.4E1,2E1,1.33E2,7.3E1,6.8E1,7.35E2,3.59E2,1.4E2,1.199E3,2.91E2,2.58E2,4.48E2,3.77E2],"tree_param":{"num_deleted":"0","num_feature":"2","num_nodes":"31","size_leaf_vector":"1"}},{"base_weights":[-3.8654811E-3,-1.5112079E0,3.2072085E-1,-1.9445922E0,-7.333392E-1,6.208618E-1,-1.1276975E0,-2.0217237E0,-1.3953565E0,2.76862E-1,-1.8237451E0,7.96347E-1,-2.7609414E-1,-1.9712132E0,-5.731563E-1,-2.271518E-1,-1.7653404E-1,-7.021463E-2,-1.7340608E-1,2.819105E-1,-1.2361538E-2,-1.4151113E-1,-2.2355592E-1,1.04551986E-1,2.8411804E-2,-2.3197661E-1,7.0523196E-3,-1.8235485E-1,-3.6446294E-1,-1.7997408E-2,-1.888987E-1],"categories":[],"categories_nodes":[],"categories_segments":[],"categories_sizes":[],"default_left":[0,0,0,0,0,0,0,0,0,0,0,0,0,0,0,0,0,0,0,0,0,0,0,0,0,0,0,0,0,0,0],"id":16,"left_children":[1,3,5,7,9,11,13,15,17,19,21,23,25,27,29,-1,-1,-1,-1,-1,-1,-1,-1,-1,-1,-1,-1,-1,-1,-1,-1],"loss_changes":[2.2643035E3,2.7500916E2,1.6561508E3,1.9462036E1,3.2545612E2,4.968247E2,3.0478796E2,2.5385742E1,1.4748383E1,1.5713757E2,2.073236E1,3.3652783E2,3.6639197E2,5.735382E1,2.0453508E2,0E0,0E0,0E0,0E0,0E0,0E0,0E0,0E0,0E0,0E0,0E0,0E0,0E0,0E0,0E0,0E0],"parents":[2147483647,0,0,1,1,2,2,3,3,4,4,5,5,6,6,7,7,8,8,9,9,10,10,11,11,12,12,13,13,14,14],"right_children":[2,4,6,8,10,12,14,16,18,20,22,24,26,28,30,-1,-1,-1,-1,-1,-1,-1,-1,-1,-1,-1,-1,-1,-1,-1,-1],"split_conditions":[6E0,4E0,2.1E1,3E0,5E0,7E0,4E0,5E0,2E0,2E0,7E0,1.7E1,9E0,2.3E1,2.3E1,-2.271518E-1,-1.7653404E-1,-7.021463E-2,-1.7340608E-1,2.819105E-1,-1.2361538E-2,-1.4151113E-1,-2.2355592E-1,1.04551986E-1,2.8411804E-2,-2.3197661E-1,7.0523196E-3,-1.8235485E-1,-3.6446294E-1,-1.7997408E-2,-1.888987E-1],"split_indices":[1,1,1,1,0,0,0,0,0,0,0,1,1,1,1,0,0,0,0,0,0,0,0,0,0,0,0,0,0,0,0],"split_type":[0,0,0,0,0,0,0,0,0,0,0,0,0,0,0,0,0,0,0,0,0,0,0,0,0,0,0,0,0,0,0],"sum_hessian":[4.626E3,8.19E2,3.807E3,5.25E2,2.94E2,3.154E3,6.53E2,4.58E2,6.7E1,1.53E2,1.41E2,2.638E3,5.16E2,2.58E2,3.95E2,2.28E2,2.3E2,2.3E1,4.4E1,2E1,1.33E2,7.3E1,6.8E1,1.774E3,8.64E2,7.4E1,4.42E2,2.39E2,1.9E1,3.05E2,9E1],"tree_param":{"num_deleted":"0","num_feature":"2","num_nodes":"31","size_leaf_vector":"1"}},{"base_weights":[-3.8219173E-3,-1.360993E0,2.8842705E-1,-1.7513635E0,-6.6032904E-1,5.5874693E-1,-1.0160799E0,-1.8204309E0,-1.2594036E0,2.5092617E-1,-1.6439415E0,8.0011183E-1,2.1453595E-2,-1.7762032E0,-5.163628E-1,-2.0453583E-1,-1.5895703E-1,-6.3485764E-2,-1.5645081E-1,2.5506195E-1,-1.1134612E-2,-1.2755126E-1,-2.015243E-1,4.4607945E-2,1.9476047E-1,2.55739E-2,-1.7409667E-1,-1.6419534E-1,-3.2983896E-1,-1.6203517E-2,-1.7021637E-1],"categories":[],"categories_nodes":[],"categories_segments":[],"categories_sizes":[],"default_left":[0,0,0,0,0,0,0,0,0,0,0,0,0,0,0,0,0,0,0,0,0,0,0,0,0,0,0,0,0,0,0],"id":17,"left_children":[1,3,5,7,9,11,13,15,17,19,21,23,25,27,29,-1,-1,-1,-1,-1,-1,-1,-1,-1,-1,-1,-1,-1,-1,-1,-1],"loss_changes":[1.8356083E3,2.2312854E2,1.3433986E3,1.5580078E1,2.648275E2,4.09135E2,2.475025E2,2.058313E1,1.1964287E1,1.2858376E2,1.6854858E1,8.8353674E2,4.0468344E2,4.7511658E1,1.6610835E2,0E0,0E0,0E0,0E0,0E0,0E0,0E0,0E0,0E0,0E0,0E0,0E0,0E0,0E0,0E0,0E0],"parents":[2147483647,0,0,1,1,2,2,3,3,4,4,5,5,6,6,7,7,8,8,9,9,10,10,11,11,12,12,13,13,14,14],"right_children":[2,4,6,8,10,12,14,16,18,20,22,24,26,28,30,-1,-1,-1,-1,-1,-1,-1,-1,-1,-1,-1,-1,-1,-1,-1,-1],"split_conditions":[6E0,4E0,2.1E1,3E0,5E0,1.7E1,4E0,5E0,2E0,2E0,7E0,1.5E1,7E0,2.3E1,2.3E1,-2.0453583E-1,-1.5895703E-1,-6.3485764E-2,-1.5645081E-1,2.5506195E-1,-1.1134612E-2,-1.2755126E-1,-2.015243E-1,4.4607945E-2,1.9476047E-1,2.55739E-2,-1.7409667E-1,-1.6419534E-1,-3.2983896E-1,-1.6203517E-2,-1.7021637E-1],"split_indices":[1,1,1,1,0,1,0,0,0,0,0,1,0,1,1,0,0,0,0,0,0,0,0,0,0,0,0,0,0,0,0],"split_type":[0,0,0,0,0,0,0,0,0,0,0,0,0,0,0,0,0,0,0,0,0,0,0,0,0,0,0,0,0,0,0],"sum_hessian":[4.626E3,8.19E2,3.807E3,5.25E2,2.94E2,3.154E3,6.53E2,4.58E2,6.7E1,1.53E2,1.41E2,2.176E3,9.78E2,2.58E2,3.95E2,2.28E2,2.3E2,2.3E1,4.4E1,2E1,1.33E2,7.3E1,6.8E1,1.664E3,5.12E2,8.64E2,1.14E2,2.39E2,1.9E1,3.05E2,9E1],"tree_param":{"num_deleted":"0","num_feature":"2","num_nodes":"31","size_leaf_vector":"1"}},{"base_weights":[-3.711458E-3,-1.2257092E0,2.5942978E-1,-1.5773364E0,-5.945851E-1,6.624017E-1,-4.5409238E-1,-1.1952958E0,-1.6513644E0,2.27417E-1,-1.4818649E0,1.1115966E0,2.9484135E-1,-1.1455344E0,6.860644E-3,-1.4784746E-1,-3.6675017E-2,-1.7412458E-1,-1.1366977E-1,2.3077033E-1,-1.0029515E-2,-1.0338558E-1,-1.7292275E-1,7.688135E-2,1.8093097E-1,-1.9756159E-1,5.613744E-2,-1.8433087E-1,-7.7214435E-2,5.8777224E-2,-6.831821E-2],"categories":[],"categories_nodes":[],"categories_segments":[],"categories_sizes":[],"default_left":[0,0,0,0,0,0,0,0,0,0,0,0,0,0,0,0,0,0,0,0,0,0,0,0,0,0,0,0,0,0,0],"id":18,"left_children":[1,3,5,7,9,11,13,15,17,19,21,23,25,27,29,-1,-1,-1,-1,-1,-1,-1,-1,-1,-1,-1,-1,-1,-1,-1,-1],"loss_changes":[1.488167E3,1.8103674E2,1.0952126E3,1.2902344E1,2.1549405E2,4.015409E2,4.38251E2,2.0339523E1,1.8282104E1,1.0521866E2,1.3948761E1,2.6049377E2,8.120125E2,1.4187482E2,3.3150684E2,0E0,0E0,0E0,0E0,0E0,0E0,0E0,0E0,0E0,0E0,0E0,0E0,0E0,0E0,0E0,0E0],"parents":[2147483647,0,0,1,1,2,2,3,3,4,4,5,5,6,6,7,7,8,8,9,9,10,10,11,11,12,12,13,13,14,14],"right_children":[2,4,6,8,10,12,14,16,18,20,22,24,26,28,30,-1,-1,-1,-1,-1,-1,-1,-1,-1,-1,-1,-1,-1,-1,-1,-1],"split_conditions":[6E0,4E0,1.8E1,1E0,5E0,5E0,4E0,7E0,3E0,2E0,6E0,1.4E1,8E0,2E0,6E0,-1.4784746E-1,-3.6675017E-2,-1.7412458E-1,-1.1366977E-1,2.3077033E-1,-1.0029515E-2,-1.0338558E-1,-1.7292275E-1,7.688135E-2,1.8093097E-1,-1.9756159E-1,5.613744E-2,-1.8433087E-1,-7.7214435E-2,5.8777224E-2,-6.831821E-2],"split_indices":[1,1,1,1,0,0,0,0,1,0,0,1,1,0,0,0,0,0,0,0,0,0,0,0,0,0,0,0,0,0,0],"split_type":[0,0,0,0,0,0,0,0,0,0,0,0,0,0,0,0,0,0,0,0,0,0,0,0,0,0,0,0,0,0,0],"sum_hessian":[4.626E3,8.19E2,3.807E3,5.25E2,2.94E2,2.433E3,1.374E3,8.8E1,4.37E2,1.53E2,1.41E2,1.094E3,1.339E3,5.49E2,8.25E2,6.5E1,2.3E1,3.7E2,6.7E1,2E1,1.33E2,5.2E1,8.9E1,7.35E2,3.59E2,1.4E2,1.199E3,1.9E2,3.59E2,4.48E2,3.77E2],"tree_param":{"num_deleted":"0","num_feature":"2","num_nodes":"31","size_leaf_vector":"1"}},{"base_weights":[-3.4877146E-3,-1.1037819E0,2.3344631E-1,-1.4205006E0,-5.3531486E-1,4.6203557E-1,-8.6966157E-1,-1.0778394E0,-1.4868851E0,2.0610903E-1,-1.3356245E0,6.083882E-1,-2.8590763E-1,-1.4784942E0,-4.6926427E-1,-1.332867E-1,-3.3160325E-2,-1.703027E-1,-1.289408E-1,2.0879224E-1,-9.0340115E-3,-1.0279633E-1,-1.6462229E-1,7.9138346E-2,2.321744E-2,-2.0279174E-1,9.660396E-4,-1.0154094E-1,-1.8029827E-1,-1.5255101E-2,-1.5290995E-1],"categories":[],"categories_nodes":[],"categories_segments":[],"categories_sizes":[],"default_left":[0,0,0,0,0,0,0,0,0,0,0,0,0,0,0,0,0,0,0,0,0,0,0,0,0,0,0,0,0,0,0],"id":19,"left_children":[1,3,5,7,9,11,13,15,17,19,21,23,25,27,29,-1,-1,-1,-1,-1,-1,-1,-1,-1,-1,-1,-1,-1,-1,-1,-1],"loss_changes":[1.2065034E3,1.4687573E2,9.606217E2,1.0362427E1,1.7531902E2,3.455312E2,1.5873502E2,1.6495682E1,1.6499329E1,8.6099365E1,1.1877136E1,1.8149915E2,2.6621378E2,3.7088074E1,1.3268964E2,0E0,0E0,0E0,0E0,0E0,0E0,0E0,0E0,0E0,0E0,0E0,0E0,0E0,0E0,0E0,0E0],"parents":[2147483647,0,0,1,1,2,2,3,3,4,4,5,5,6,6,7,7,8,8,9,9,10,10,11,11,12,12,13,13,14,14],"right_children":[2,4,6,8,10,12,14,16,18,20,22,24,26,28,30,-1,-1,-1,-1,-1,-1,-1,-1,-1,-1,-1,-1,-1,-1,-1,-1],"split_conditions":[6E0,4E0,2.1E1,1E0,5E0,7E0,4E0,7E0,2E0,2E0,7E0,1.7E1,9E0,2.2E1,2.3E1,-1.332867E-1,-3.3160325E-2,-1.703027E-1,-1.289408E-1,2.0879224E-1,-9.0340115E-3,-1.0279633E-1,-1.6462229E-1,7.9138346E-2,2.321744E-2,-2.0279174E-1,9.660396E-4,-1.0154094E-1,-1.8029827E-1,-1.5255101E-2,-1.5290995E-1],"split_indices":[1,1,1,1,0,0,0,0,1,0,0,1,1,1,1,0,0,0,0,0,0,0,0,0,0,0,0,0,0,0,0],"split_type":[0,0,0,0,0,0,0,0,0,0,0,0,0,0,0,0,0,0,0,0,0,0,0,0,0,0,0,0,0,0,0],"sum_hessian":[4.626E3,8.19E2,3.807E3,5.25E2,2.94E2,3.154E3,6.53E2,8.8E1,4.37E2,1.53E2,1.41E2,2.638E3,5.16E2,2.58E2,3.95E2,6.5E1,2.3E1,2.05E2,2.32E2,2E1,1.33E2,7.3E1,6.8E1,1.774E3,8.64E2,7.4E1,4.42E2,1.08E2,1.5E2,3.05E2,9E1],"tree_param":{"num_deleted":"0","num_feature":"2","num_nodes":"31","size_leaf_vector":"1"}},{"base_weights":[-3.3727332E-3,-9.940542E-1,2.0995767E-1,-1.3330941E0,-5.6142056E-1,6.016263E-1,-3.126358E-1,-1.5176013E0,-1.1444135E0,1.162155E-1,-1.2032493E0,3.025129E-1,1.5712602E0,-1.4060353E0,-1.286147E-1,-1.6874437E-1,-1.1315345E-1,-6.8438224E-2,-1.2551002E-1,-1.677414E-2,1.03292786E-1,-8.3156414E-2,-1.3412797E-1,4.466544E-2,-3.047277E-2,3.148191E-1,1.1077044E-1,-3.9463233E-2,-1.7904268E-1,1.0990649E-2,-9.592042E-2],"categories":[],"categories_nodes":[],"categories_segments":[],"categories_sizes":[],"default_left":[0,0,0,0,0,0,0,0,0,0,0,0,0,0,0,0,0,0,0,0,0,0,0,0,0,0,0,0,0,0,0],"id":20,"left_children":[1,3,5,7,9,11,13,15,17,19,21,23,25,27,29,-1,-1,-1,-1,-1,-1,-1,-1,-1,-1,-1,-1,-1,-1,-1,-1],"loss_changes":[9.780904E2,1.19529175E2,7.7962274E2,1.4242371E1,1.5758316E2,6.309212E2,3.2819165E2,1.3106262E1,1.0903412E1,4.624757E1,8.427124E0,1.4587119E2,3.715133E2,9.065552E1,2.7706766E2,0E0,0E0,0E0,0E0,0E0,0E0,0E0,0E0,0E0,0E0,0E0,0E0,0E0,0E0,0E0,0E0],"parents":[2147483647,0,0,1,1,2,2,3,3,4,4,5,5,6,6,7,7,8,8,9,9,10,10,11,11,12,12,13,13,14,14],"right_children":[2,4,6,8,10,12,14,16,18,20,22,24,26,28,30,-1,-1,-1,-1,-1,-1,-1,-1,-1,-1,-1,-1,-1,-1,-1,-1],"split_conditions":[6E0,3E0,1.7E1,5E0,5E0,1.5E1,2E0,2E0,6E0,4E0,6E0,7E0,3E0,1.9E1,2.2E1,-1.6874437E-1,-1.1315345E-1,-6.8438224E-2,-1.2551002E-1,-1.677414E-2,1.03292786E-1,-8.3156414E-2,-1.3412797E-1,4.466544E-2,-3.047277E-2,3.148191E-1,1.1077044E-1,-3.9463233E-2,-1.7904268E-1,1.0990649E-2,-9.592042E-2],"split_indices":[1,1,1,0,0,1,0,1,0,0,0,0,0,1,1,0,0,0,0,0,0,0,0,0,0,0,0,0,0,0,0],"split_type":[0,0,0,0,0,0,0,0,0,0,0,0,0,0,0,0,0,0,0,0,0,0,0,0,0,0,0,0,0,0,0],"sum_hessian":[4.626E3,8.19E2,3.807E3,4.58E2,3.61E2,2.176E3,1.631E3,2.28E2,2.3E2,1.76E2,1.85E2,1.664E3,5.12E2,2.34E2,1.397E3,1.56E2,7.2E1,4.6E1,1.84E2,1.35E2,4.1E1,5.2E1,1.33E2,1.345E3,3.19E2,1.15E2,3.97E2,6.5E1,1.69E2,1.086E3,3.11E2],"tree_param":{"num_deleted":"0","num_feature":"2","num_nodes":"31","size_leaf_vector":"1"}},{"base_weights":[-3.137356E-3,-8.9538854E-1,1.8899739E-1,-1.2008214E0,-5.056397E-1,3.7567315E-1,-7.118452E-1,-8.523735E-1,-1.2811745E0,1.0508264E-1,-1.0840925E0,4.9988973E-1,-2.591106E-1,-1.2276192E0,-3.727106E-1,-1.084124E-1,-1.795441E-2,-1.3866892E-1,-1.14251696E-1,-1.5109077E-2,9.320946E-2,-7.4997656E-2,-1.20815255E-1,6.384522E-2,2.1497848E-2,1.1402607E-2,-1.5644583E-1,-1.11909285E-1,-2.4685545E-1,1.2742202E-2,-1.03152506E-1],"categories":[],"categories_nodes":[],"categories_segments":[],"categories_sizes":[],"default_left":[0,0,0,0,0,0,0,0,0,0,0,0,0,0,0,0,0,0,0,0,0,0,0,0,0,0,0,0,0,0,0],"id":21,"left_children":[1,3,5,7,9,11,13,15,17,19,21,23,25,27,29,-1,-1,-1,-1,-1,-1,-1,-1,-1,-1,-1,-1,-1,-1,-1,-1],"loss_changes":[7.9338715E2,9.7007324E1,6.406416E2,1.17595215E1,1.2799912E2,2.4890338E2,1.1393802E2,1.3682991E1,3.8435059E0,3.763978E1,6.8036957E0,1.04045166E2,2.5199515E2,3.2118073E1,1.3061127E2,0E0,0E0,0E0,0E0,0E0,0E0,0E0,0E0,0E0,0E0,0E0,0E0,0E0,0E0,0E0,0E0],"parents":[2147483647,0,0,1,1,2,2,3,3,4,4,5,5,6,6,7,7,8,8,9,9,10,10,11,11,12,12,13,13,14,14],"right_children":[2,4,6,8,10,12,14,16,18,20,22,24,26,28,30,-1,-1,-1,-1,-1,-1,-1,-1,-1,-1,-1,-1,-1,-1,-1,-1],"split_conditions":[6E0,3E0,2.1E1,1E0,5E0,7E0,4E0,7E0,2E0,4E0,6E0,1.7E1,1.7E1,2.3E1,6E0,-1.084124E-1,-1.795441E-2,-1.3866892E-1,-1.14251696E-1,-1.5109077E-2,9.320946E-2,-7.4997656E-2,-1.20815255E-1,6.384522E-2,2.1497848E-2,1.1402607E-2,-1.5644583E-1,-1.11909285E-1,-2.4685545E-1,1.2742202E-2,-1.03152506E-1],"split_indices":[1,1,1,1,0,0,0,0,1,0,0,1,1,1,0,0,0,0,0,0,0,0,0,0,0,0,0,0,0,0,0],"split_type":[0,0,0,0,0,0,0,0,0,0,0,0,0,0,0,0,0,0,0,0,0,0,0,0,0,0,0,0,0,0,0],"sum_hessian":[4.626E3,8.19E2,3.807E3,4.58E2,3.61E2,3.154E3,6.53E2,8.8E1,3.7E2,1.76E2,1.85E2,2.638E3,5.16E2,2.58E2,3.95E2,6.5E1,2.3E1,2.05E2,1.65E2,1.35E2,4.1E1,5.2E1,1.33E2,1.774E3,8.64E2,4.02E2,1.14E2,2.39E2,1.9E1,2.25E2,1.7E2],"tree_param":{"num_deleted":"0","num_feature":"2","num_nodes":"31","size_leaf_vector":"1"}},{"base_weights":[-3.0407626E-3,-6.787678E-1,2.1652786E-1,-2.0449784E-1,-1.172289E0,6.286083E-1,-2.5376028E-1,-1.2394603E0,4.6939683E-1,-9.627389E-1,-2.6134121E0,3.503172E-1,1.3597279E0,-1.2149792E0,-9.200049E-2,-1.3860355E-1,-9.072446E-2,2.3250734E-2,1.17742315E-1,-5.9781652E-2,-1.0531362E-1,-1.8585853E-1,-3.746707E-1,5.428299E-2,3.0162756E-3,2.7727914E-1,9.4446376E-2,-3.7693925E-2,-1.5331888E-1,2.6060105E-3,-1.4093727E-1],"categories":[],"categories_nodes":[],"categories_segments":[],"categories_sizes":[],"default_left":[0,0,0,0,0,0,0,0,0,0,0,0,0,0,0,0,0,0,0,0,0,0,0,0,0,0,0,0,0,0,0],"id":22,"left_children":[1,3,5,7,9,11,13,15,17,19,21,23,25,27,29,-1,-1,-1,-1,-1,-1,-1,-1,-1,-1,-1,-1,-1,-1,-1,-1],"loss_changes":[6.866478E2,2.6542096E2,6.7709076E2,4.0510614E2,1.6538898E2,3.7837366E2,2.536423E2,9.893585E0,5.8765083E1,1.5435608E1,5.2917328E1,8.318921E1,2.984068E2,6.2090088E1,2.1746732E2,0E0,0E0,0E0,0E0,0E0,0E0,0E0,0E0,0E0,0E0,0E0,0E0,0E0,0E0,0E0,0E0],"parents":[2147483647,0,0,1,1,2,2,3,3,4,4,5,5,6,6,7,7,8,8,9,9,10,10,11,11,12,12,13,13,14,14],"right_children":[2,4,6,8,10,12,14,16,18,20,22,24,26,28,30,-1,-1,-1,-1,-1,-1,-1,-1,-1,-1,-1,-1,-1,-1,-1,-1],"split_conditions":[8E0,5E0,1.7E1,3E0,7E0,1.5E1,2E0,2E0,4E0,6E0,6E0,1.2E1,3E0,1.9E1,7E0,-1.3860355E-1,-9.072446E-2,2.3250734E-2,1.17742315E-1,-5.9781652E-2,-1.0531362E-1,-1.8585853E-1,-3.746707E-1,5.428299E-2,3.0162756E-3,2.7727914E-1,9.4446376E-2,-3.7693925E-2,-1.5331888E-1,2.6060105E-3,-1.4093727E-1],"split_indices":[1,0,1,1,1,1,0,1,0,0,0,1,0,1,0,0,0,0,0,0,0,0,0,0,0,0,0,0,0,0,0],"split_type":[0,0,0,0,0,0,0,0,0,0,0,0,0,0,0,0,0,0,0,0,0,0,0,0,0,0,0,0,0,0,0],"sum_hessian":[4.626E3,1.134E3,3.492E3,5.79E2,5.55E2,1.861E3,1.631E3,2.28E2,3.51E2,4.86E2,6.9E1,1.349E3,5.12E2,2.34E2,1.397E3,1.56E2,7.2E1,2.64E2,8.7E1,9.8E1,3.88E2,4.3E1,2.6E1,8.42E2,5.07E2,1.15E2,3.97E2,6.5E1,1.69E2,1.283E3,1.14E2],"tree_param":{"num_deleted":"0","num_feature":"2","num_nodes":"31","size_leaf_vector":"1"}},{"base_weights":[-2.8910213E-3,-6.116081E-1,1.9490366E-1,-1.8420033E-1,-1.0563651E0,4.2678124E-1,-4.847769E-1,-1.046349E0,4.7672874E-1,-8.6680394E-1,-2.3600783E0,5.6597805E-1,7.7841386E-2,-9.8706836E-1,-1.1639876E-1,-1.2483149E-1,-7.051512E-2,8.640715E-2,1.3921367E-2,-5.3863883E-2,-9.480933E-2,-1.6769509E-1,-3.385913E-1,3.1532813E-2,1.2244798E-1,3.2369047E-2,-1.269661E-1,-9.226049E-2,-2.0883887E-1,1.2521327E-2,-1.2408724E-1],"categories":[],"categories_nodes":[],"categories_segments":[],"categories_sizes":[],"default_left":[0,0,0,0,0,0,0,0,0,0,0,0,0,0,0,0,0,0,0,0,0,0,0,0,0,0,0,0,0,0,0],"id":23,"left_children":[1,3,5,7,9,11,13,15,17,19,21,23,25,27,29,-1,-1,-1,-1,-1,-1,-1,-1,-1,-1,-1,-1,-1,-1,-1,-1],"loss_changes":[5.572146E2,2.1556052E2,5.50713E2,3.309939E2,1.3536041E2,1.2648425E2,1.6437965E2,1.6485168E1,4.2891205E1,1.2480682E1,4.337628E1,3.0694342E2,2.4688496E2,2.4767334E1,1.3980217E2,0E0,0E0,0E0,0E0,0E0,0E0,0E0,0E0,0E0,0E0,0E0,0E0,0E0,0E0,0E0,0E0],"parents":[2147483647,0,0,1,1,2,2,3,3,4,4,5,5,6,6,7,7,8,8,9,9,10,10,11,11,12,12,13,13,14,14],"right_children":[2,4,6,8,10,12,14,16,18,20,22,24,26,28,30,-1,-1,-1,-1,-1,-1,-1,-1,-1,-1,-1,-1,-1,-1,-1,-1],"split_conditions":[8E0,5E0,2E1,4E0,7E0,1.7E1,4E0,2E0,3E0,6E0,6E0,1.5E1,7E0,2.3E1,2.3E1,-1.2483149E-1,-7.051512E-2,8.640715E-2,1.3921367E-2,-5.3863883E-2,-9.480933E-2,-1.6769509E-1,-3.385913E-1,3.1532813E-2,1.2244798E-1,3.2369047E-2,-1.269661E-1,-9.226049E-2,-2.0883887E-1,1.2521327E-2,-1.2408724E-1],"split_indices":[1,0,1,1,1,1,0,1,0,0,0,1,0,1,1,0,0,0,0,0,0,0,0,0,0,0,0,0,0,0,0],"split_type":[0,0,0,0,0,0,0,0,0,0,0,0,0,0,0,0,0,0,0,0,0,0,0,0,0,0,0,0,0,0,0],"sum_hessian":[4.626E3,1.134E3,3.492E3,5.79E2,5.55E2,2.604E3,8.88E2,2.51E2,3.28E2,4.86E2,6.9E1,1.861E3,7.43E2,3.75E2,5.13E2,1.56E2,9.5E1,1.52E2,1.76E2,9.8E1,3.88E2,4.3E1,2.6E1,1.349E3,5.12E2,6.29E2,1.14E2,3.56E2,1.9E1,4.23E2,9E1],"tree_param":{"num_deleted":"0","num_feature":"2","num_nodes":"31","size_leaf_vector":"1"}},{"base_weights":[-2.8402468E-3,-5.3075033E-1,1.8383601E-1,-1.6594417E-1,-8.6576116E-1,5.3959185E-1,-2.0603852E-1,-1.0093071E0,3.8319236E-1,-9.5190644E-1,-2.1559407E-1,3.1295094E-1,1.1022705E0,-1.0476255E0,-6.442264E-2,-1.1242785E-1,-7.4821375E-2,1.6122742E-2,1.047255E-1,-7.8042865E-2,-2.1313031E-1,2.2531003E-2,-1.00776844E-1,5.221306E-2,-4.317047E-4,2.3765104E-1,7.2811455E-2,-3.7169587E-2,-1.3038829E-1,1.3425382E-2,-7.5639986E-2],"categories":[],"categories_nodes":[],"categories_segments":[],"categories_sizes":[],"default_left":[0,0,0,0,0,0,0,0,0,0,0,0,0,0,0,0,0,0,0,0,0,0,0,0,0,0,0,0,0,0,0],"id":24,"left_children":[1,3,5,7,9,11,13,15,17,19,21,23,25,27,29,-1,-1,-1,-1,-1,-1,-1,-1,-1,-1,-1,-1,-1,-1,-1,-1],"loss_changes":[4.5608044E2,1.476131E2,4.743269E2,2.689972E2,3.5080322E1,2.2767157E2,1.944377E2,6.0329742E0,5.1715473E1,1.1078223E2,2.6422531E1,8.468529E1,2.428498E2,4.0220123E1,1.9229797E2,0E0,0E0,0E0,0E0,0E0,0E0,0E0,0E0,0E0,0E0,0E0,0E0,0E0,0E0,0E0,0E0],"parents":[2147483647,0,0,1,1,2,2,3,3,4,4,5,5,6,6,7,7,8,8,9,9,10,10,11,11,12,12,13,13,14,14],"right_children":[2,4,6,8,10,12,14,16,18,20,22,24,26,28,30,-1,-1,-1,-1,-1,-1,-1,-1,-1,-1,-1,-1,-1,-1,-1,-1],"split_conditions":[9E0,5E0,1.7E1,3E0,8E0,1.5E1,2E0,2E0,4E0,7E0,7E0,1.2E1,3E0,1.9E1,2.2E1,-1.1242785E-1,-7.4821375E-2,1.6122742E-2,1.047255E-1,-7.8042865E-2,-2.1313031E-1,2.2531003E-2,-1.00776844E-1,5.221306E-2,-4.317047E-4,2.3765104E-1,7.2811455E-2,-3.7169587E-2,-1.3038829E-1,1.3425382E-2,-7.5639986E-2],"split_indices":[1,0,1,1,1,1,0,1,0,1,0,1,0,1,1,0,0,0,0,0,0,0,0,0,0,0,0,0,0,0,0],"split_type":[0,0,0,0,0,0,0,0,0,0,0,0,0,0,0,0,0,0,0,0,0,0,0,0,0,0,0,0,0,0,0],"sum_hessian":[4.626E3,1.208E3,3.418E3,5.79E2,6.29E2,1.787E3,1.631E3,2.28E2,3.51E2,5.55E2,7.4E1,1.275E3,5.12E2,2.34E2,1.397E3,1.56E2,7.2E1,2.64E2,8.7E1,4.86E2,6.9E1,4.8E1,2.6E1,7.68E2,5.07E2,1.15E2,3.97E2,6.5E1,1.69E2,1.086E3,3.11E2],"tree_param":{"num_deleted":"0","num_feature":"2","num_nodes":"31","size_leaf_vector":"1"}},{"base_weights":[-2.6220346E-3,-4.7803572E-1,1.6549079E-1,-1.494642E-1,-7.797713E-1,4.8583484E-1,-1.8557575E-1,-8.529851E-1,3.8985714E-1,-8.572394E-1,-1.9507776E-1,2.3619203E-1,9.257208E-1,-9.435759E-1,-5.802525E-2,-1.0125667E-1,-5.831173E-2,7.62212E-2,6.5788487E-3,-7.0254594E-2,-1.9212177E-1,2.0323923E-2,-9.1072425E-2,4.6998486E-2,-2.4515254E-2,2.1409073E-1,6.5901525E-2,-3.3508897E-2,-1.1742616E-1,1.2084033E-2,-6.810024E-2],"categories":[],"categories_nodes":[],"categories_segments":[],"categories_sizes":[],"default_left":[0,0,0,0,0,0,0,0,0,0,0,0,0,0,0,0,0,0,0,0,0,0,0,0,0,0,0,0,0,0,0],"id":25,"left_children":[1,3,5,7,9,11,13,15,17,19,21,23,25,27,29,-1,-1,-1,-1,-1,-1,-1,-1,-1,-1,-1,-1,-1,-1,-1,-1],"loss_changes":[3.6988348E2,1.1974582E2,3.84598E2,2.2039835E2,2.8368683E1,1.961294E2,1.5773239E2,1.0262161E1,3.96498E1,9.016257E1,2.1564156E1,1.2863008E2,2.082799E2,3.2593292E1,1.5586026E2,0E0,0E0,0E0,0E0,0E0,0E0,0E0,0E0,0E0,0E0,0E0,0E0,0E0,0E0,0E0,0E0],"parents":[2147483647,0,0,1,1,2,2,3,3,4,4,5,5,6,6,7,7,8,8,9,9,10,10,11,11,12,12,13,13,14,14],"right_children":[2,4,6,8,10,12,14,16,18,20,22,24,26,28,30,-1,-1,-1,-1,-1,-1,-1,-1,-1,-1,-1,-1,-1,-1,-1,-1],"split_conditions":[9E0,5E0,1.7E1,4E0,8E0,1.4E1,2E0,2E0,3E0,7E0,7E0,1.2E1,3E0,1.9E1,2.2E1,-1.0125667E-1,-5.831173E-2,7.62212E-2,6.5788487E-3,-7.0254594E-2,-1.9212177E-1,2.0323923E-2,-9.1072425E-2,4.6998486E-2,-2.4515254E-2,2.1409073E-1,6.5901525E-2,-3.3508897E-2,-1.1742616E-1,1.2084033E-2,-6.810024E-2],"split_indices":[1,0,1,1,1,1,0,1,0,1,0,1,0,1,1,0,0,0,0,0,0,0,0,0,0,0,0,0,0,0,0],"split_type":[0,0,0,0,0,0,0,0,0,0,0,0,0,0,0,0,0,0,0,0,0,0,0,0,0,0,0,0,0,0,0],"sum_hessian":[4.626E3,1.208E3,3.418E3,5.79E2,6.29E2,1.787E3,1.631E3,2.51E2,3.28E2,5.55E2,7.4E1,1.141E3,6.46E2,2.34E2,1.397E3,1.56E2,9.5E1,1.52E2,1.76E2,4.86E2,6.9E1,4.8E1,2.6E1,7.68E2,3.73E2,1.15E2,5.31E2,6.5E1,1.69E2,1.086E3,3.11E2],"tree_param":{"num_deleted":"0","num_feature":"2","num_nodes":"31","size_leaf_vector":"1"}},{"base_weights":[-2.4278285E-3,-5.5326957E-1,1.16188936E-1,-7.0730776E-1,-3.5642755E-1,2.3691182E-1,-4.663751E-1,-4.160309E-1,-7.7527624E-1,7.014209E-1,-5.0122035E-1,3.2556272E-1,-2.1606046E-1,-3.3596882E-1,-1.1082392E0,-6.23399E-2,1.7156577E-2,-8.432255E-2,-6.843694E-2,-2.2523522E-2,1.7270556E-1,-3.2475963E-2,-7.4241795E-2,1.7184071E-2,4.3791723E-2,5.643113E-3,-1.1690869E-1,-7.228612E-2,-3.142583E-3,-6.575861E-2,-1.7209396E-1],"categories":[],"categories_nodes":[],"categories_segments":[],"categories_sizes":[],"default_left":[0,0,0,0,0,0,0,0,0,0,0,0,0,0,0,0,0,0,0,0,0,0,0,0,0,0,0,0,0,0,0],"id":26,"left_children":[1,3,5,7,9,11,13,15,17,19,21,23,25,27,29,-1,-1,-1,-1,-1,-1,-1,-1,-1,-1,-1,-1,-1,-1,-1,-1],"loss_changes":[3.023881E2,2.4611282E1,2.679226E2,8.764587E0,5.5798687E1,1.2676378E2,5.436949E1,1.0951492E1,1.7145844E0,4.220706E1,1.33361435E1,4.5503845E1,1.3432657E2,6.4192116E1,2.9241013E1,0E0,0E0,0E0,0E0,0E0,0E0,0E0,0E0,0E0,0E0,0E0,0E0,0E0,0E0,0E0,0E0],"parents":[2147483647,0,0,1,1,2,2,3,3,4,4,5,5,6,6,7,7,8,8,9,9,10,10,11,11,12,12,13,13,14,14],"right_children":[2,4,6,8,10,12,14,16,18,20,22,24,26,28,30,-1,-1,-1,-1,-1,-1,-1,-1,-1,-1,-1,-1,-1,-1,-1,-1],"split_conditions":[6E0,3E0,2.1E1,1E0,2E0,7E0,2.3E1,7E0,5E0,4E0,6E0,4E0,1.7E1,4E0,6E0,-6.23399E-2,1.7156577E-2,-8.432255E-2,-6.843694E-2,-2.2523522E-2,1.7270556E-1,-3.2475963E-2,-7.4241795E-2,1.7184071E-2,4.3791723E-2,5.643113E-3,-1.1690869E-1,-7.228612E-2,-3.142583E-3,-6.575861E-2,-1.7209396E-1],"split_indices":[1,1,1,1,0,0,1,0,0,1,0,0,1,0,0,0,0,0,0,0,0,0,0,0,0,0,0,0,0,0,0],"split_type":[0,0,0,0,0,0,0,0,0,0,0,0,0,0,0,0,0,0,0,0,0,0,0,0,0,0,0,0,0,0,0],"sum_hessian":[4.626E3,8.19E2,3.807E3,4.58E2,3.61E2,3.154E3,6.53E2,8.8E1,3.7E2,4.3E1,3.18E2,2.638E3,5.16E2,5.44E2,1.09E2,6.5E1,2.3E1,2.07E2,1.63E2,2.3E1,2E1,1.85E2,1.33E2,1.115E3,1.523E3,4.02E2,1.14E2,2.39E2,3.05E2,6.4E1,4.5E1],"tree_param":{"num_deleted":"0","num_feature":"2","num_nodes":"31","size_leaf_vector":"1"}},{"base_weights":[-2.2967157E-3,-4.020895E-1,1.3907556E-1,-1.07208416E-1,-6.729291E-1,4.09298E-1,-1.5706222E-1,-6.9180423E-1,3.4089297E-1,-7.346369E-1,-2.0649613E-1,1.8492313E-1,8.047027E-1,-8.2600033E-1,-4.450318E-2,-8.311101E-2,-4.5677494E-2,1.2546119E-2,9.294566E-2,-5.856253E-2,-1.7608374E-1,1.404323E-2,-8.2845904E-2,3.948709E-2,-2.4725541E-2,1.9116274E-1,5.618306E-2,-3.1901132E-2,-1.0179726E-1,4.5873774E-3,-1.05319455E-1],"categories":[],"categories_nodes":[],"categories_segments":[],"categories_sizes":[],"default_left":[0,0,0,0,0,0,0,0,0,0,0,0,0,0,0,0,0,0,0,0,0,0,0,0,0,0,0,0,0,0,0],"id":27,"left_children":[1,3,5,7,9,11,13,15,17,19,21,23,25,27,29,-1,-1,-1,-1,-1,-1,-1,-1,-1,-1,-1,-1,-1,-1,-1,-1],"loss_changes":[2.6157217E2,9.6485214E1,2.7366318E2,1.5217159E2,1.7981323E1,1.5848056E2,1.22844734E2,7.8710785E0,4.1599045E1,8.399002E1,1.6299587E1,1.0371692E2,1.7286618E2,2.2547287E1,1.2749342E2,0E0,0E0,0E0,0E0,0E0,0E0,0E0,0E0,0E0,0E0,0E0,0E0,0E0,0E0,0E0,0E0],"parents":[2147483647,0,0,1,1,2,2,3,3,4,4,5,5,6,6,7,7,8,8,9,9,10,10,11,11,12,12,13,13,14,14],"right_children":[2,4,6,8,10,12,14,16,18,20,22,24,26,28,30,-1,-1,-1,-1,-1,-1,-1,-1,-1,-1,-1,-1,-1,-1,-1,-1],"split_conditions":[9E0,5E0,1.7E1,4E0,8E0,1.4E1,2E0,2E0,4E0,7E0,7E0,1.2E1,3E0,1.9E1,7E0,-8.311101E-2,-4.5677494E-2,1.2546119E-2,9.294566E-2,-5.856253E-2,-1.7608374E-1,1.404323E-2,-8.2845904E-2,3.948709E-2,-2.4725541E-2,1.9116274E-1,5.618306E-2,-3.1901132E-2,-1.0179726E-1,4.5873774E-3,-1.05319455E-1],"split_indices":[1,0,1,1,1,1,0,1,0,1,0,1,0,1,0,0,0,0,0,0,0,0,0,0,0,0,0,0,0,0,0],"split_type":[0,0,0,0,0,0,0,0,0,0,0,0,0,0,0,0,0,0,0,0,0,0,0,0,0,0,0,0,0,0,0],"sum_hessian":[4.626E3,1.208E3,3.418E3,5.79E2,6.29E2,1.787E3,1.631E3,2.51E2,3.28E2,5.55E2,7.4E1,1.141E3,6.46E2,2.34E2,1.397E3,1.56E2,9.5E1,2.41E2,8.7E1,4.86E2,6.9E1,4.8E1,2.6E1,7.68E2,3.73E2,1.15E2,5.31E2,6.5E1,1.69E2,1.283E3,1.14E2],"tree_param":{"num_deleted":"0","num_feature":"2","num_nodes":"31","size_leaf_vector":"1"}},{"base_weights":[-2.1317657E-3,-3.6215085E-1,1.2517598E-1,-9.652792E-2,-6.061177E-1,2.8352332E-1,-3.2578278E-1,-4.0318516E-1,6.0968065E-1,-6.615951E-1,-1.8676376E-1,3.4469298E-1,-5.5667562E-3,-7.0470244E-1,-4.7962584E-2,-6.68965E-2,-5.7045287E-3,1.03816204E-1,1.9804249E-2,-5.271828E-2,-1.5872693E-1,1.2667598E-2,-7.4868165E-2,2.4063408E-2,6.837737E-2,3.2414872E-2,-9.4879135E-2,-6.5843225E-2,-1.4953898E-1,3.2088947E-2,-5.3843565E-2],"categories":[],"categories_nodes":[],"categories_segments":[],"categories_sizes":[],"default_left":[0,0,0,0,0,0,0,0,0,0,0,0,0,0,0,0,0,0,0,0,0,0,0,0,0,0,0,0,0,0,0],"id":28,"left_children":[1,3,5,7,9,11,13,15,17,19,21,23,25,27,29,-1,-1,-1,-1,-1,-1,-1,-1,-1,-1,-1,-1,-1,-1,-1,-1],"loss_changes":[2.1211563E2,7.8288574E1,2.4423674E2,1.2585291E2,1.4533157E1,4.4758957E1,9.35526E1,3.7220627E1,3.083715E1,6.834189E1,1.3304395E1,7.3544495E1,1.3807866E2,1.2771423E1,9.3161545E1,0E0,0E0,0E0,0E0,0E0,0E0,0E0,0E0,0E0,0E0,0E0,0E0,0E0,0E0,0E0,0E0],"parents":[2147483647,0,0,1,1,2,2,3,3,4,4,5,5,6,6,7,7,8,8,9,9,10,10,11,11,12,12,13,13,14,14],"right_children":[2,4,6,8,10,12,14,16,18,20,22,24,26,28,30,-1,-1,-1,-1,-1,-1,-1,-1,-1,-1,-1,-1,-1,-1,-1,-1],"split_conditions":[9E0,5E0,2E1,5E0,8E0,7E0,4E0,3E0,3E0,7E0,7E0,6E0,1.7E1,2.3E1,6E0,-6.68965E-2,-5.7045287E-3,1.03816204E-1,1.9804249E-2,-5.271828E-2,-1.5872693E-1,1.2667598E-2,-7.4868165E-2,2.4063408E-2,6.837737E-2,3.2414872E-2,-9.4879135E-2,-6.5843225E-2,-1.4953898E-1,3.2088947E-2,-5.3843565E-2],"split_indices":[1,0,1,1,1,0,0,1,0,1,0,0,1,1,0,0,0,0,0,0,0,0,0,0,0,0,0,0,0,0,0],"split_type":[0,0,0,0,0,0,0,0,0,0,0,0,0,0,0,0,0,0,0,0,0,0,0,0,0,0,0,0,0,0,0],"sum_hessian":[4.626E3,1.208E3,3.418E3,5.79E2,6.29E2,2.53E3,8.88E2,4.04E2,1.75E2,5.55E2,7.4E1,2.088E3,4.42E2,3.75E2,5.13E2,2.28E2,1.76E2,8.5E1,9E1,4.86E2,6.9E1,4.8E1,2.6E1,1.599E3,4.89E2,3.28E2,1.14E2,3.56E2,1.9E1,2.93E2,2.2E2],"tree_param":{"num_deleted":"0","num_feature":"2","num_nodes":"31","size_leaf_vector":"1"}},{"base_weights":[-2.0113685E-3,-3.2611996E-1,1.12597965E-1,-8.6787194E-2,-5.4594046E-1,2.551831E-1,-2.9347128E-1,-3.6304584E-1,5.4941475E-1,-5.958161E-1,-1.6891669E-1,3.3418396E-1,6.498321E-2,-6.3480484E-1,-4.3208845E-2,-6.0236067E-2,-5.1372745E-3,-2.0558974E-2,7.802353E-2,-4.7457293E-2,-1.4308101E-1,1.142669E-2,-6.7658626E-2,1.3271927E-2,6.892666E-2,2.3276554E-2,-8.547372E-2,-5.9277333E-2,-1.3533278E-1,2.8890941E-2,-4.8483577E-2],"categories":[],"categories_nodes":[],"categories_segments":[],"categories_sizes":[],"default_left":[0,0,0,0,0,0,0,0,0,0,0,0,0,0,0,0,0,0,0,0,0,0,0,0,0,0,0,0,0,0,0],"id":29,"left_children":[1,3,5,7,9,11,13,15,17,19,21,23,25,27,29,-1,-1,-1,-1,-1,-1,-1,-1,-1,-1,-1,-1,-1,-1,-1,-1],"loss_changes":[1.7191066E2,6.3558395E1,1.9803305E2,1.02138115E2,1.17460785E1,3.8008957E1,7.59136E1,3.0177197E1,3.0832024E1,5.5608917E1,1.0859591E1,1.2781598E2,1.150077E2,1.0553238E1,7.552966E1,0E0,0E0,0E0,0E0,0E0,0E0,0E0,0E0,0E0,0E0,0E0,0E0,0E0,0E0,0E0,0E0],"parents":[2147483647,0,0,1,1,2,2,3,3,4,4,5,5,6,6,7,7,8,8,9,9,10,10,11,11,12,12,13,13,14,14],"right_children":[2,4,6,8,10,12,14,16,18,20,22,24,26,28,30,-1,-1,-1,-1,-1,-1,-1,-1,-1,-1,-1,-1,-1,-1,-1,-1],"split_conditions":[9E0,5E0,2E1,5E0,8E0,1.7E1,4E0,3E0,2E0,7E0,7E0,1.4E1,7E0,2.3E1,6E0,-6.0236067E-2,-5.1372745E-3,-2.0558974E-2,7.802353E-2,-4.7457293E-2,-1.4308101E-1,1.142669E-2,-6.7658626E-2,1.3271927E-2,6.892666E-2,2.3276554E-2,-8.547372E-2,-5.9277333E-2,-1.3533278E-1,2.8890941E-2,-4.8483577E-2],"split_indices":[1,0,1,1,1,1,0,1,0,1,0,1,0,1,0,0,0,0,0,0,0,0,0,0,0,0,0,0,0,0,0],"split_type":[0,0,0,0,0,0,0,0,0,0,0,0,0,0,0,0,0,0,0,0,0,0,0,0,0,0,0,0,0,0,0],"sum_hessian":[4.626E3,1.208E3,3.418E3,5.79E2,6.29E2,2.53E3,8.88E2,4.04E2,1.75E2,5.55E2,7.4E1,1.787E3,7.43E2,3.75E2,5.13E2,2.28E2,1.76E2,4.1E1,1.34E2,4.86E2,6.9E1,4.8E1,2.6E1,1.141E3,6.46E2,6.29E2,1.14E2,3.56E2,1.9E1,2.93E2,2.2E2],"tree_param":{"num_deleted":"0","num_feature":"2","num_nodes":"31","size_leaf_vector":"1"}},{"base_weights":[-1.9069898E-3,-2.937187E-1,1.0128174E-1,-7.812217E-2,-4.917382E-1,1.8017747E-1,-5.35803E-1,-3.2690266E-1,4.9479955E-1,-5.365772E-1,-1.5277511E-1,3.008122E-1,8.302392E-3,-8.281876E-1,-1.5100981E-1,-5.4238774E-2,-4.6264357E-3,9.054345E-2,1.012896E-2,-4.2721312E-2,-1.2897734E-1,1.0307306E-2,-6.114338E-2,1.1945955E-2,6.204473E-2,-7.196587E-2,1.2214332E-2,-5.7485987E-2,-9.3484156E-2,4.3997943E-2,-9.509094E-2],"categories":[],"categories_nodes":[],"categories_segments":[],"categories_sizes":[],"default_left":[0,0,0,0,0,0,0,0,0,0,0,0,0,0,0,0,0,0,0,0,0,0,0,0,0,0,0,0,0,0,0],"id":30,"left_children":[1,3,5,7,9,11,13,15,17,19,21,23,25,27,29,-1,-1,-1,-1,-1,-1,-1,-1,-1,-1,-1,-1,-1,-1,-1,-1],"loss_changes":[1.3935649E2,5.157659E1,1.7194664E2,8.283017E1,9.493256E0,6.3091393E1,4.229029E1,2.4466621E1,2.8347942E1,4.524817E1,8.864046E0,1.0357028E2,1.04174835E2,5.244522E0,7.794643E1,0E0,0E0,0E0,0E0,0E0,0E0,0E0,0E0,0E0,0E0,0E0,0E0,0E0,0E0,0E0,0E0],"parents":[2147483647,0,0,1,1,2,2,3,3,4,4,5,5,6,6,7,7,8,8,9,9,10,10,11,11,12,12,13,13,14,14],"right_children":[2,4,6,8,10,12,14,16,18,20,22,24,26,28,30,-1,-1,-1,-1,-1,-1,-1,-1,-1,-1,-1,-1,-1,-1,-1,-1],"split_conditions":[9E0,5E0,2.2E1,5E0,8E0,1.7E1,5E0,3E0,3E0,7E0,7E0,1.4E1,2E0,2E0,2.3E1,-5.4238774E-2,-4.6264357E-3,9.054345E-2,1.012896E-2,-4.2721312E-2,-1.2897734E-1,1.0307306E-2,-6.114338E-2,1.1945955E-2,6.204473E-2,-7.196587E-2,1.2214332E-2,-5.7485987E-2,-9.3484156E-2,4.3997943E-2,-9.509094E-2],"split_indices":[1,0,1,1,1,1,0,1,0,1,0,1,0,0,1,0,0,0,0,0,0,0,0,0,0,0,0,0,0,0,0],"split_type":[0,0,0,0,0,0,0,0,0,0,0,0,0,0,0,0,0,0,0,0,0,0,0,0,0,0,0,0,0,0,0],"sum_hessian":[4.626E3,1.208E3,3.418E3,5.79E2,6.29E2,3.042E3,3.76E2,4.04E2,1.75E2,5.55E2,7.4E1,1.787E3,1.255E3,2.13E2,1.63E2,2.28E2,1.76E2,8.5E1,9E1,4.86E2,6.9E1,4.8E1,2.6E1,1.141E3,6.46E2,1.69E2,1.086E3,6.5E1,1.48E2,9.4E1,6.9E1],"tree_param":{"num_deleted":"0","num_feature":"2","num_nodes":"31","size_leaf_vector":"1"}},{"base_weights":[-1.7958488E-3,-2.644962E-1,9.109872E-2,-1.03673324E-1,-5.010786E-1,1.621645E-1,-4.8275873E-1,-4.0309414E-1,8.0766045E-2,-5.654562E-1,-1.3817495E-1,2.7077273E-1,7.424322E-3,-7.460744E-1,-1.3622028E-1,-4.883858E-2,2.1052097E-3,4.4421475E-2,-1.5470359E-2,-4.5814004E-2,-2.0906614E-1,9.29771E-3,-5.525555E-2,1.3235119E-2,6.1454486E-2,-6.48116E-2,1.099399E-2,-5.182448E-2,-8.41985E-2,3.9644487E-2,-8.57177E-2],"categories":[],"categories_nodes":[],"categories_segments":[],"categories_sizes":[],"default_left":[0,0,0,0,0,0,0,0,0,0,0,0,0,0,0,0,0,0,0,0,0,0,0,0,0,0,0,0,0,0,0],"id":31,"left_children":[1,3,5,7,9,11,13,15,17,19,21,23,25,27,29,-1,-1,-1,-1,-1,-1,-1,-1,-1,-1,-1,-1,-1,-1,-1,-1],"loss_changes":[1.1293879E2,4.594792E1,1.3951067E2,3.9849773E1,1.1346313E1,5.1138817E1,3.4299232E1,9.95871E0,3.8323486E1,6.696904E1,7.235244E0,8.500148E1,8.447834E1,4.2398224E0,6.332049E1,0E0,0E0,0E0,0E0,0E0,0E0,0E0,0E0,0E0,0E0,0E0,0E0,0E0,0E0,0E0,0E0],"parents":[2147483647,0,0,1,1,2,2,3,3,4,4,5,5,6,6,7,7,8,8,9,9,10,10,11,11,12,12,13,13,14,14],"right_children":[2,4,6,8,10,12,14,16,18,20,22,24,26,28,30,-1,-1,-1,-1,-1,-1,-1,-1,-1,-1,-1,-1,-1,-1,-1,-1],"split_conditions":[9E0,6E0,2.2E1,3E0,8E0,1.7E1,5E0,5E0,3E0,7E0,7E0,1.5E1,2E0,2E0,2.3E1,-4.883858E-2,2.1052097E-3,4.4421475E-2,-1.5470359E-2,-4.5814004E-2,-2.0906614E-1,9.29771E-3,-5.525555E-2,1.3235119E-2,6.1454486E-2,-6.48116E-2,1.099399E-2,-5.182448E-2,-8.41985E-2,3.9644487E-2,-8.57177E-2],"split_indices":[1,0,1,1,1,1,0,0,0,1,0,1,0,0,1,0,0,0,0,0,0,0,0,0,0,0,0,0,0,0,0],"split_type":[0,0,0,0,0,0,0,0,0,0,0,0,0,0,0,0,0,0,0,0,0,0,0,0,0,0,0,0,0,0,0],"sum_hessian":[4.626E3,1.208E3,3.418E3,7.2E2,4.88E2,3.042E3,3.76E2,2.74E2,4.46E2,4.14E2,7.4E1,1.787E3,1.255E3,2.13E2,1.63E2,2.28E2,4.6E1,1.75E2,2.71E2,3.88E2,2.6E1,4.8E1,2.6E1,1.275E3,5.12E2,1.69E2,1.086E3,6.5E1,1.48E2,9.4E1,6.9E1],"tree_param":{"num_deleted":"0","num_feature":"2","num_nodes":"31","size_leaf_vector":"1"}},{"base_weights":[-1.7199793E-3,-2.3831016E-1,8.194169E-2,-9.333067E-2,-4.5158604E-1,1.4595488E-1,-4.349657E-1,-2.368057E-1,2.3662949E-1,-5.0952476E-1,-1.249705E-1,2.4373715E-1,6.639069E-3,-6.7210245E-1,-1.228789E-1,-2.4127109E-4,-3.263063E-2,7.72038E-2,-1.0875679E-2,-4.1244384E-2,-1.889338E-1,8.386853E-3,-4.9934614E-2,9.430079E-3,5.0712604E-2,8.715867E-3,-7.930133E-2,-4.6720546E-2,-7.5835146E-2,3.5721783E-2,-7.726833E-2],"categories":[],"categories_nodes":[],"categories_segments":[],"categories_sizes":[],"default_left":[0,0,0,0,0,0,0,0,0,0,0,0,0,0,0,0,0,0,0,0,0,0,0,0,0,0,0,0,0,0,0],"id":32,"left_children":[1,3,5,7,9,11,13,15,17,19,21,23,25,27,29,-1,-1,-1,-1,-1,-1,-1,-1,-1,-1,-1,-1,-1,-1,-1,-1],"loss_changes":[9.160419E1,3.7340897E1,1.1319439E2,3.418893E1,9.189995E0,4.1452003E1,2.7818146E1,1.0551306E1,4.0582047E1,5.4811485E1,5.905698E0,7.032764E1,8.094004E1,3.427536E0,5.1438927E1,0E0,0E0,0E0,0E0,0E0,0E0,0E0,0E0,0E0,0E0,0E0,0E0,0E0,0E0,0E0,0E0],"parents":[2147483647,0,0,1,1,2,2,3,3,4,4,5,5,6,6,7,7,8,8,9,9,10,10,11,11,12,12,13,13,14,14],"right_children":[2,4,6,8,10,12,14,16,18,20,22,24,26,28,30,-1,-1,-1,-1,-1,-1,-1,-1,-1,-1,-1,-1,-1,-1,-1,-1],"split_conditions":[9E0,6E0,2.2E1,6E0,8E0,1.7E1,5E0,2E0,3E0,7E0,7E0,1.4E1,7E0,2E0,2.3E1,-2.4127109E-4,-3.263063E-2,7.72038E-2,-1.0875679E-2,-4.1244384E-2,-1.889338E-1,8.386853E-3,-4.9934614E-2,9.430079E-3,5.0712604E-2,8.715867E-3,-7.930133E-2,-4.6720546E-2,-7.5835146E-2,3.5721783E-2,-7.726833E-2],"split_indices":[1,0,1,1,1,1,0,0,0,1,0,1,0,0,1,0,0,0,0,0,0,0,0,0,0,0,0,0,0,0,0],"split_type":[0,0,0,0,0,0,0,0,0,0,0,0,0,0,0,0,0,0,0,0,0,0,0,0,0,0,0,0,0,0,0],"sum_hessian":[4.626E3,1.208E3,3.418E3,7.2E2,4.88E2,3.042E3,3.76E2,5.02E2,2.18E2,4.14E2,7.4E1,1.787E3,1.255E3,2.13E2,1.63E2,1.39E2,3.63E2,8.5E1,1.33E2,3.88E2,2.6E1,4.8E1,2.6E1,1.141E3,6.46E2,1.141E3,1.14E2,6.5E1,1.48E2,9.4E1,6.9E1],"tree_param":{"num_deleted":"0","num_feature":"2","num_nodes":"31","size_leaf_vector":"1"}},{"base_weights":[-1.6371581E-3,-2.1467617E-1,7.369651E-2,-8.395118E-2,-4.0698302E-1,1.7326157E-1,-2.0985001E-1,-3.3046475E-1,8.950399E-2,-4.5912686E-1,-1.1302734E-1,3.000339E-1,6.2839806E-2,-4.7857806E-1,-1.2862467E-2,-4.0028613E-2,5.0927834E-3,4.567782E-2,-1.1741679E-2,-3.713054E-2,-1.7074023E-1,7.565308E-3,-4.5126118E-2,1.0753195E-2,8.410587E-2,-3.3555143E-2,2.4358727E-2,-4.437387E-2,-1.076532E-1,2.9827056E-2,-4.2670976E-2],"categories":[],"categories_nodes":[],"categories_segments":[],"categories_sizes":[],"default_left":[0,0,0,0,0,0,0,0,0,0,0,0,0,0,0,0,0,0,0,0,0,0,0,0,0,0,0,0,0,0,0],"id":33,"left_children":[1,3,5,7,9,11,13,15,17,19,21,23,25,27,29,-1,-1,-1,-1,-1,-1,-1,-1,-1,-1,-1,-1,-1,-1,-1,-1],"loss_changes":[7.427459E1,3.0359264E1,9.6559265E1,3.0858854E1,7.4434814E0,3.5411156E1,4.7054016E1,7.9559326E0,3.2276215E1,4.4860573E1,4.820497E0,1.225963E2,9.758083E1,7.3552628E0,6.6310715E1,0E0,0E0,0E0,0E0,0E0,0E0,0E0,0E0,0E0,0E0,0E0,0E0,0E0,0E0,0E0,0E0],"parents":[2147483647,0,0,1,1,2,2,3,3,4,4,5,5,6,6,7,7,8,8,9,9,10,10,11,11,12,12,13,13,14,14],"right_children":[2,4,6,8,10,12,14,16,18,20,22,24,26,28,30,-1,-1,-1,-1,-1,-1,-1,-1,-1,-1,-1,-1,-1,-1,-1,-1],"split_conditions":[9E0,6E0,2E1,4E0,8E0,5E0,4E0,5E0,3E0,7E0,7E0,4E0,6E0,2.3E1,6E0,-4.0028613E-2,5.0927834E-3,4.567782E-2,-1.1741679E-2,-3.713054E-2,-1.7074023E-1,7.565308E-3,-4.5126118E-2,1.0753195E-2,8.410587E-2,-3.3555143E-2,2.4358727E-2,-4.437387E-2,-1.076532E-1,2.9827056E-2,-4.2670976E-2],"split_indices":[1,0,1,1,1,0,0,0,0,1,0,0,0,1,0,0,0,0,0,0,0,0,0,0,0,0,0,0,0,0,0],"split_type":[0,0,0,0,0,0,0,0,0,0,0,0,0,0,0,0,0,0,0,0,0,0,0,0,0,0,0,0,0,0,0],"sum_hessian":[4.626E3,1.208E3,3.418E3,7.2E2,4.88E2,2.53E3,8.88E2,2.97E2,4.23E2,4.14E2,7.4E1,1.177E3,1.353E3,3.75E2,5.13E2,2.51E2,4.6E1,1.52E2,2.71E2,3.88E2,2.6E1,4.8E1,2.6E1,8.69E2,3.08E2,4.22E2,9.31E2,3.56E2,1.9E1,2.93E2,2.2E2],"tree_param":{"num_deleted":"0","num_feature":"2","num_nodes":"31","size_leaf_vector":"1"}},{"base_weights":[-1.5438708E-3,-1.9341238E-1,6.630362E-2,-7.555739E-2,-3.667867E-1,1.2056201E-1,-3.7182522E-1,-2.975355E-1,8.063373E-2,-4.137152E-1,-1.0222494E-1,2.0173742E-1,4.907397E-3,-5.7752424E-1,-1.01145856E-1,-3.604164E-2,4.5943568E-3,4.1139927E-2,-1.0571833E-2,-3.3427045E-2,-1.5429859E-1,6.824291E-3,-4.078064E-2,6.587855E-3,4.4122595E-2,7.976954E-3,-7.3854886E-2,-3.5927463E-2,-6.7032255E-2,3.2593712E-2,-6.7931354E-2],"categories":[],"categories_nodes":[],"categories_segments":[],"categories_sizes":[],"default_left":[0,0,0,0,0,0,0,0,0,0,0,0,0,0,0,0,0,0,0,0,0,0,0,0,0,0,0,0,0,0,0],"id":34,"left_children":[1,3,5,7,9,11,13,15,17,19,21,23,25,27,29,-1,-1,-1,-1,-1,-1,-1,-1,-1,-1,-1,-1,-1,-1,-1,-1],"loss_changes":[6.0246174E1,2.4675816E1,8.132186E1,2.5021791E1,6.028885E0,2.8567635E1,2.0932373E1,6.4528446E0,2.6178358E1,3.6715797E1,3.9347157E0,5.8146454E1,6.996376E1,4.0933533E0,4.071721E1,0E0,0E0,0E0,0E0,0E0,0E0,0E0,0E0,0E0,0E0,0E0,0E0,0E0,0E0,0E0,0E0],"parents":[2147483647,0,0,1,1,2,2,3,3,4,4,5,5,6,6,7,7,8,8,9,9,10,10,11,11,12,12,13,13,14,14],"right_children":[2,4,6,8,10,12,14,16,18,20,22,24,26,28,30,-1,-1,-1,-1,-1,-1,-1,-1,-1,-1,-1,-1,-1,-1,-1,-1],"split_conditions":[9E0,6E0,2.2E1,4E0,8E0,1.7E1,5E0,5E0,3E0,7E0,7E0,1.4E1,7E0,2E0,2.3E1,-3.604164E-2,4.5943568E-3,4.1139927E-2,-1.0571833E-2,-3.3427045E-2,-1.5429859E-1,6.824291E-3,-4.078064E-2,6.587855E-3,4.4122595E-2,7.976954E-3,-7.3854886E-2,-3.5927463E-2,-6.7032255E-2,3.2593712E-2,-6.7931354E-2],"split_indices":[1,0,1,1,1,1,0,0,0,1,0,1,0,0,1,0,0,0,0,0,0,0,0,0,0,0,0,0,0,0,0],"split_type":[0,0,0,0,0,0,0,0,0,0,0,0,0,0,0,0,0,0,0,0,0,0,0,0,0,0,0,0,0,0,0],"sum_hessian":[4.626E3,1.208E3,3.418E3,7.2E2,4.88E2,3.042E3,3.76E2,2.97E2,4.23E2,4.14E2,7.4E1,1.787E3,1.255E3,2.13E2,1.63E2,2.51E2,4.6E1,1.52E2,2.71E2,3.88E2,2.6E1,4.8E1,2.6E1,1.141E3,6.46E2,1.141E3,1.14E2,6.5E1,1.48E2,9.4E1,6.9E1],"tree_param":{"num_deleted":"0","num_feature":"2","num_nodes":"31","size_leaf_vector":"1"}},{"base_weights":[-1.4706879E-3,-2.0625396E-1,5.023818E-2,-1.3830003E-1,-3.0092913E-1,9.3982734E-2,-3.3500957E-1,-1.8155931E-1,3.7094924E-1,-4.8963618E-1,-1.9870436E-1,1.3936166E-1,-1.6518788E-1,-5.20253E-1,-9.12468E-2,5.008397E-3,-2.7015409E-2,-1.0313006E-1,1.635136E-1,-3.9160457E-2,-6.5041855E-2,4.9923807E-2,-2.7035767E-2,-1.4961244E-3,2.5023168E-2,-3.5795874E-3,-9.912175E-2,-3.2389145E-2,-6.037403E-2,2.9368654E-2,-6.123528E-2],"categories":[],"categories_nodes":[],"categories_segments":[],"categories_sizes":[],"default_left":[0,0,0,0,0,0,0,0,0,0,0,0,0,0,0,0,0,0,0,0,0,0,0,0,0,0,0,0,0,0,0],"id":35,"left_children":[1,3,5,7,9,11,13,15,17,19,21,23,25,27,29,-1,-1,-1,-1,-1,-1,-1,-1,-1,-1,-1,-1,-1,-1,-1,-1],"loss_changes":[4.900618E1,5.960888E0,6.2301434E1,1.2073567E1,7.406723E0,3.9057396E1,1.6976131E1,1.0336292E1,7.791265E1,1.8888931E0,1.2837483E1,4.833888E1,5.287093E1,3.312706E0,3.307678E1,0E0,0E0,0E0,0E0,0E0,0E0,0E0,0E0,0E0,0E0,0E0,0E0,0E0,0E0,0E0,0E0],"parents":[2147483647,0,0,1,1,2,2,3,3,4,4,5,5,6,6,7,7,8,8,9,9,10,10,11,11,12,12,13,13,14,14],"right_children":[2,4,6,8,10,12,14,16,18,20,22,24,26,28,30,-1,-1,-1,-1,-1,-1,-1,-1,-1,-1,-1,-1,-1,-1,-1,-1],"split_conditions":[7E0,6E0,2.2E1,6E0,7E0,7E0,5E0,2E0,2E0,5E0,1E0,4E0,1.8E1,2E0,2.3E1,5.008397E-3,-2.7015409E-2,-1.0313006E-1,1.635136E-1,-3.9160457E-2,-6.5041855E-2,4.9923807E-2,-2.7035767E-2,-1.4961244E-3,2.5023168E-2,-3.5795874E-3,-9.912175E-2,-3.2389145E-2,-6.037403E-2,2.9368654E-2,-6.123528E-2],"split_indices":[1,0,1,1,0,0,0,0,0,1,1,0,1,0,1,0,0,0,0,0,0,0,0,0,0,0,0,0,0,0,0],"split_type":[0,0,0,0,0,0,0,0,0,0,0,0,0,0,0,0,0,0,0,0,0,0,0,0,0,0,0,0,0,0,0],"sum_hessian":[4.626E3,9.32E2,3.694E3,5.44E2,3.88E2,3.318E3,3.76E2,5.02E2,4.2E1,1.35E2,2.53E2,2.824E3,4.94E2,2.13E2,1.63E2,1.39E2,3.63E2,2E1,2.2E1,8.6E1,4.9E1,2.3E1,2.3E2,1.181E3,1.643E3,4.28E2,6.6E1,6.5E1,1.48E2,9.4E1,6.9E1],"tree_param":{"num_deleted":"0","num_feature":"2","num_nodes":"31","size_leaf_vector":"1"}},{"base_weights":[-1.3769108E-3,-1.6094775E-1,5.5049684E-2,-3.073207E-2,-2.805734E-1,1.3466023E-1,-1.71665E-1,-1.9853768E-1,3.555861E-1,-2.2021107E-1,-4.8276693E-1,3.333462E-1,7.502611E-2,-3.4178057E-1,5.397538E-2,4.511123E-3,-3.2602753E-2,-4.275303E-2,5.9658837E-2,-1.8243848E-3,-2.710454E-2,-8.782325E-2,-1.0722886E-2,5.4914672E-2,-6.4497255E-2,-4.247306E-2,1.6128073E-2,-5.9149135E-2,-2.4585316E-2,6.553656E-2,-3.8982816E-2],"categories":[],"categories_nodes":[],"categories_segments":[],"categories_sizes":[],"default_left":[0,0,0,0,0,0,0,0,0,0,0,0,0,0,0,0,0,0,0,0,0,0,0,0,0,0,0,0,0,0,0],"id":36,"left_children":[1,3,5,7,9,11,13,15,17,19,21,23,25,27,29,-1,-1,-1,-1,-1,-1,-1,-1,-1,-1,-1,-1,-1,-1,-1,-1],"loss_changes":[4.1670547E1,1.8824133E1,6.173224E1,3.766988E1,7.582756E0,2.9963451E1,3.4142662E1,1.2595129E1,3.3472034E1,4.995018E0,2.1291607E1,1.2364924E2,8.40396E1,1.1999313E1,1.0247784E2,0E0,0E0,0E0,0E0,0E0,0E0,0E0,0E0,0E0,0E0,0E0,0E0,0E0,0E0,0E0,0E0],"parents":[2147483647,0,0,1,1,2,2,3,3,4,4,5,5,6,6,7,7,8,8,9,9,10,10,11,11,12,12,13,13,14,14],"right_children":[2,4,6,8,10,12,14,16,18,20,22,24,26,28,30,-1,-1,-1,-1,-1,-1,-1,-1,-1,-1,-1,-1,-1,-1,-1,-1],"split_conditions":[9E0,5E0,2E1,5E0,7E0,3E0,5E0,2E0,2E0,6E0,8E0,1.8E1,4E0,2.1E1,6E0,4.511123E-3,-3.2602753E-2,-4.275303E-2,5.9658837E-2,-1.8243848E-3,-2.710454E-2,-8.782325E-2,-1.0722886E-2,5.4914672E-2,-6.4497255E-2,-4.247306E-2,1.6128073E-2,-5.9149135E-2,-2.4585316E-2,6.553656E-2,-3.8982816E-2],"split_indices":[1,0,1,1,1,0,0,0,0,0,1,1,0,1,0,0,0,0,0,0,0,0,0,0,0,0,0,0,0,0,0],"split_type":[0,0,0,0,0,0,0,0,0,0,0,0,0,0,0,0,0,0,0,0,0,0,0,0,0,0,0,0,0,0,0],"sum_hessian":[4.626E3,1.208E3,3.418E3,5.79E2,6.29E2,2.53E3,8.88E2,4.04E2,1.75E2,4.86E2,1.43E2,5.83E2,1.947E3,5.06E2,3.82E2,1.39E2,2.65E2,4.1E1,1.34E2,9.8E1,3.88E2,6.9E1,7.4E1,4.78E2,1.05E2,2.86E2,1.661E3,1.39E2,3.67E2,1.62E2,2.2E2],"tree_param":{"num_deleted":"0","num_feature":"2","num_nodes":"31","size_leaf_vector":"1"}},{"base_weights":[-1.2894868E-3,2.4457881E-2,-2.9160982E-1,-1.4496765E-1,9.1763504E-2,-4.4419056E-1,-9.073251E-2,-2.7677998E-2,-2.5271848E-1,-1.360465E-2,1.5091504E-1,-3.6214253E-1,-6.3083214E-1,2.4818935E-1,-5.494017E-1,-2.9778454E-2,1.7929625E-2,-1.982495E-2,-4.351746E-2,1.9751683E-2,-3.8092203E-2,6.258214E-2,3.6998575E-3,-2.80026E-2,-8.860047E-2,-8.874995E-2,-1.0048984E-2,3.36085E-2,1.4305894E-2,2.9848574E-2,-9.982666E-2],"categories":[],"categories_nodes":[],"categories_segments":[],"categories_sizes":[],"default_left":[0,0,0,0,0,0,0,0,0,0,0,0,0,0,0,0,0,0,0,0,0,0,0,0,0,0,0,0,0,0,0],"id":37,"left_children":[1,3,5,7,9,11,13,15,17,19,21,23,25,27,29,-1,-1,-1,-1,-1,-1,-1,-1,-1,-1,-1,-1,-1,-1,-1,-1],"loss_changes":[3.4593887E1,4.848869E1,1.1514751E1,1.5272417E1,1.8968124E1,3.0486488E0,2.563065E1,3.2478348E1,6.1747932E0,8.4990944E1,1.0541708E2,6.2475777E0,8.622597E0,8.297677E-1,2.6939049E1,0E0,0E0,0E0,0E0,0E0,0E0,0E0,0E0,0E0,0E0,0E0,0E0,0E0,0E0,0E0,0E0],"parents":[2147483647,0,0,1,1,2,2,3,3,4,4,5,5,6,6,7,7,8,8,9,9,10,10,11,11,12,12,13,13,14,14],"right_children":[2,4,6,8,10,12,14,16,18,20,22,24,26,28,30,-1,-1,-1,-1,-1,-1,-1,-1,-1,-1,-1,-1,-1,-1,-1,-1],"split_conditions":[2.2E1,9E0,5E0,5E0,4E0,4E0,2.3E1,4E0,7E0,1.8E1,5E0,2.3E1,2.3E1,6E0,6E0,-2.9778454E-2,1.7929625E-2,-1.982495E-2,-4.351746E-2,1.9751683E-2,-3.8092203E-2,6.258214E-2,3.6998575E-3,-2.80026E-2,-8.860047E-2,-8.874995E-2,-1.0048984E-2,3.36085E-2,1.4305894E-2,2.9848574E-2,-9.982666E-2],"split_indices":[1,1,0,0,0,0,1,1,1,1,0,1,1,0,0,0,0,0,0,0,0,0,0,0,0,0,0,0,0,0,0],"split_type":[0,0,0,0,0,0,0,0,0,0,0,0,0,0,0,0,0,0,0,0,0,0,0,0,0,0,0,0,0,0,0],"sum_hessian":[4.626E3,4.25E3,3.76E2,1.208E3,3.042E3,2.13E2,1.63E2,5.79E2,6.29E2,1.094E3,1.948E3,1.5E2,6.3E1,9.4E1,6.9E1,2.51E2,3.28E2,4.86E2,1.43E2,6.95E2,3.99E2,3.76E2,1.572E3,1.31E2,1.9E1,4.2E1,2.1E1,5E1,4.4E1,2.4E1,4.5E1],"tree_param":{"num_deleted":"0","num_feature":"2","num_nodes":"31","size_leaf_vector":"1"}},{"base_weights":[-1.2179693E-3,2.200544E-2,-2.6307872E-1,-1.3053302E-1,8.2602546E-2,-4.0077808E-1,-8.179367E-2,-4.4961266E-2,-2.564363E-1,-1.226139E-2,1.3585725E-1,-2.2275718E-1,-4.7694322E-1,2.2387478E-1,-4.9546096E-1,-2.1268701E-2,7.3027485E-3,-2.9245544E-2,-5.3711245E-3,1.7779272E-2,-3.4292486E-2,5.634054E-2,3.3300668E-3,2.8398128E-3,-8.018343E-2,-5.3956866E-2,-9.089782E-3,3.0313564E-2,1.2907082E-2,2.6983155E-2,-9.0060994E-2],"categories":[],"categories_nodes":[],"categories_segments":[],"categories_sizes":[],"default_left":[0,0,0,0,0,0,0,0,0,0,0,0,0,0,0,0,0,0,0,0,0,0,0,0,0,0,0,0,0,0,0],"id":38,"left_children":[1,3,5,7,9,11,13,15,17,19,21,23,25,27,29,-1,-1,-1,-1,-1,-1,-1,-1,-1,-1,-1,-1,-1,-1,-1,-1],"loss_changes":[2.8143963E1,3.9304432E1,9.37821E0,1.301395E1,1.5374752E1,2.7953796E0,2.0847908E1,1.4283942E1,3.5549622E0,6.887509E1,8.544075E1,9.621698E0,3.5532188E0,6.747265E-1,2.1947033E1,0E0,0E0,0E0,0E0,0E0,0E0,0E0,0E0,0E0,0E0,0E0,0E0,0E0,0E0,0E0,0E0],"parents":[2147483647,0,0,1,1,2,2,3,3,4,4,5,5,6,6,7,7,8,8,9,9,10,10,11,11,12,12,13,13,14,14],"right_children":[2,4,6,8,10,12,14,16,18,20,22,24,26,28,30,-1,-1,-1,-1,-1,-1,-1,-1,-1,-1,-1,-1,-1,-1,-1,-1],"split_conditions":[2.2E1,9E0,5E0,6E0,4E0,2E0,2.3E1,4E0,8E0,1.8E1,5E0,2.3E1,2.3E1,6E0,6E0,-2.1268701E-2,7.3027485E-3,-2.9245544E-2,-5.3711245E-3,1.7779272E-2,-3.4292486E-2,5.634054E-2,3.3300668E-3,2.8398128E-3,-8.018343E-2,-5.3956866E-2,-9.089782E-3,3.0313564E-2,1.2907082E-2,2.6983155E-2,-9.0060994E-2],"split_indices":[1,1,0,0,0,0,1,1,1,1,0,1,1,0,0,0,0,0,0,0,0,0,0,0,0,0,0,0,0,0,0],"split_type":[0,0,0,0,0,0,0,0,0,0,0,0,0,0,0,0,0,0,0,0,0,0,0,0,0,0,0,0,0,0,0],"sum_hessian":[4.626E3,4.25E3,3.76E2,1.208E3,3.042E3,2.13E2,1.63E2,7.2E2,4.88E2,1.094E3,1.948E3,6.5E1,1.48E2,9.4E1,6.9E1,2.97E2,4.23E2,4.14E2,7.4E1,6.95E2,3.99E2,3.76E2,1.572E3,4.6E1,1.9E1,1.27E2,2.1E1,5E1,4.4E1,2.4E1,4.5E1],"tree_param":{"num_deleted":"0","num_feature":"2","num_nodes":"31","size_leaf_vector":"1"}},{"base_weights":[-1.1319534E-3,1.9803645E-2,-2.3719588E-1,-6.181411E-2,1.2063536E-1,-3.613563E-1,-7.373537E-2,1.1702606E-3,-3.9459026E-1,-1.05570465E-1,2.4921028E-1,-2.8710318E-1,-5.30901E-1,2.0194222E-1,-4.4681588E-1,-7.617959E-3,3.3181198E-2,-1.5080303E-3,-1.9329403E-1,2.6275596E-2,-8.884114E-2,1.0478731E-1,7.0226043E-3,-2.1848015E-2,-7.2565995E-2,-7.481115E-2,-8.222142E-3,2.7341638E-2,1.1645056E-2,2.4392761E-2,-8.125066E-2],"categories":[],"categories_nodes":[],"categories_segments":[],"categories_sizes":[],"default_left":[0,0,0,0,0,0,0,0,0,0,0,0,0,0,0,0,0,0,0,0,0,0,0,0,0,0,0,0,0,0,0],"id":39,"left_children":[1,3,5,7,9,11,13,15,17,19,21,23,25,27,29,-1,-1,-1,-1,-1,-1,-1,-1,-1,-1,-1,-1,-1,-1,-1,-1],"loss_changes":[2.2871977E1,3.4991737E1,7.624693E0,4.925575E1,5.5344833E1,2.5416698E0,1.6957619E1,5.0587223E1,2.1831921E2,1.9918872E2,1.7332242E2,4.3858166E0,6.1757946E0,5.486524E-1,1.7880085E1,0E0,0E0,0E0,0E0,0E0,0E0,0E0,0E0,0E0,0E0,0E0,0E0,0E0,0E0,0E0,0E0],"parents":[2147483647,0,0,1,1,2,2,3,3,4,4,5,5,6,6,7,7,8,8,9,9,10,10,11,11,12,12,13,13,14,14],"right_children":[2,4,6,8,10,12,14,16,18,20,22,24,26,28,30,-1,-1,-1,-1,-1,-1,-1,-1,-1,-1,-1,-1,-1,-1,-1,-1],"split_conditions":[2.2E1,1.4E1,5E0,1.2E1,4E0,4E0,2.3E1,1.1E1,7E0,3E0,5E0,2.3E1,2.3E1,6E0,6E0,-7.617959E-3,3.3181198E-2,-1.5080303E-3,-1.9329403E-1,2.6275596E-2,-8.884114E-2,1.0478731E-1,7.0226043E-3,-2.1848015E-2,-7.2565995E-2,-7.481115E-2,-8.222142E-3,2.7341638E-2,1.1645056E-2,2.4392761E-2,-8.125066E-2],"split_indices":[1,1,0,1,0,0,1,1,0,0,0,1,1,0,0,0,0,0,0,0,0,0,0,0,0,0,0,0,0,0,0],"split_type":[0,0,0,0,0,0,0,0,0,0,0,0,0,0,0,0,0,0,0,0,0,0,0,0,0,0,0,0,0,0,0],"sum_hessian":[4.626E3,4.25E3,3.76E2,2.349E3,1.901E3,2.13E2,1.63E2,1.976E3,3.73E2,6.89E2,1.212E3,1.5E2,6.3E1,9.4E1,6.9E1,1.602E3,3.74E2,3E2,7.3E1,4.69E2,2.2E2,2.21E2,9.91E2,1.31E2,1.9E1,4.2E1,2.1E1,5E1,4.4E1,2.4E1,4.5E1],"tree_param":{"num_deleted":"0","num_feature":"2","num_nodes":"31","size_leaf_vector":"1"}},{"base_weights":[-1.0870139E-3,2.6111094E-2,-1.6635336E-1,-5.570477E-2,1.4441335E-1,-3.392205E-2,-5.402154E-1,1.0659797E-3,-3.5565147E-1,-9.3171544E-2,2.7672178E-1,-1.6049547E-1,3.6447918E-1,-7.729959E-2,-3.22124E-1,-6.856639E-3,2.987183E-2,-1.3576603E-3,-1.7422579E-1,2.6122505E-2,-7.713752E-2,1.0645538E-1,1.16842445E-2,6.9111795E-3,-3.2604985E-2,5.710269E-2,2.4119876E-2,1.05064055E-2,-7.330227E-2],"categories":[],"categories_nodes":[],"categories_segments":[],"categories_sizes":[],"default_left":[0,0,0,0,0,0,0,0,0,0,0,0,0,0,0,0,0,0,0,0,0,0,0,0,0,0,0,0,0],"id":40,"left_children":[1,3,5,7,9,11,13,15,17,19,21,23,25,-1,27,-1,-1,-1,-1,-1,-1,-1,-1,-1,-1,-1,-1,-1,-1],"loss_changes":[2.0802395E1,3.8472393E1,3.2361893E1,4.0016647E1,5.110682E1,2.446517E1,8.432228E0,4.0996246E1,1.7737325E2,1.4008698E2,1.313758E2,1.4011129E1,2.8414726E0,0E0,1.5874805E1,0E0,0E0,0E0,0E0,0E0,0E0,0E0,0E0,0E0,0E0,0E0,0E0,0E0,0E0],"parents":[2147483647,0,0,1,1,2,2,3,3,4,4,5,5,6,6,7,7,8,8,9,9,10,10,11,11,12,12,14,14],"right_children":[2,4,6,8,10,12,14,16,18,20,22,24,26,-1,28,-1,-1,-1,-1,-1,-1,-1,-1,-1,-1,-1,-1,-1,-1],"split_conditions":[2.1E1,1.4E1,6E0,1.2E1,4E0,5E0,2.2E1,1.1E1,7E0,3E0,5E0,2.2E1,2.2E1,-7.729959E-2,2.3E1,-6.856639E-3,2.987183E-2,-1.3576603E-3,-1.7422579E-1,2.6122505E-2,-7.713752E-2,1.0645538E-1,1.16842445E-2,6.9111795E-3,-3.2604985E-2,5.710269E-2,2.4119876E-2,1.05064055E-2,-7.330227E-2],"split_indices":[1,1,0,1,0,0,1,1,0,0,0,1,1,0,1,0,0,0,0,0,0,0,0,0,0,0,0,0,0],"split_type":[0,0,0,0,0,0,0,0,0,0,0,0,0,0,0,0,0,0,0,0,0,0,0,0,0,0,0,0,0],"sum_hessian":[4.626E3,3.973E3,6.53E2,2.349E3,1.624E3,4.83E2,1.7E2,1.976E3,3.73E2,5.81E2,1.043E3,3.67E2,1.16E2,8.1E1,8.9E1,1.602E3,3.74E2,3E2,7.3E1,3.82E2,1.99E2,1.75E2,8.68E2,1.54E2,2.13E2,4.2E1,7.4E1,4.4E1,4.5E1],"tree_param":{"num_deleted":"0","num_feature":"2","num_nodes":"29","size_leaf_vector":"1"}},{"base_weights":[-1.0150007E-3,-1.3737863E-1,2.7268354E-2,9.4789185E-2,-1.8671723E-1,6.368549E-2,-1.4984751E-1,-1.3813762E-1,1.4212857E-1,-4.1985136E-1,-9.835063E-2,9.489441E-2,-9.725112E-2,-3.041523E-2,-4.8701343E-1,-2.2177897E-2,-1.1491708E-2,-2.0814812E-2,-6.1565824E-2,4.3455907E-3,-1.6939055E-2,2.4808922E-3,3.1787474E-2,2.7392167E-3,-9.348163E-2,-1.4451574E-2,3.2872498E-2,-6.9663964E-2,-2.9060945E-2],"categories":[],"categories_nodes":[],"categories_segments":[],"categories_sizes":[],"default_left":[0,0,0,0,0,0,0,0,0,0,0,0,0,0,0,0,0,0,0,0,0,0,0,0,0,0,0,0,0],"id":41,"left_children":[1,3,5,7,9,11,13,15,-1,17,19,21,23,25,27,-1,-1,-1,-1,-1,-1,-1,-1,-1,-1,-1,-1,-1,-1],"loss_changes":[1.7849258E1,9.1242895E0,2.4732597E1,4.3453056E1,1.3473141E1,1.5981277E1,2.6320782E1,2.0757747E-1,0E0,7.3333797E0,4.812623E0,4.1624268E1,5.399879E1,1.9880898E1,6.8378677E0,0E0,0E0,0E0,0E0,0E0,0E0,0E0,0E0,0E0,0E0,0E0,0E0,0E0,0E0],"parents":[2147483647,0,0,1,1,2,2,3,3,4,4,5,5,6,6,7,7,9,9,10,10,11,11,12,12,13,13,14,14],"right_children":[2,4,6,8,10,12,14,16,-1,18,20,22,24,26,28,-1,-1,-1,-1,-1,-1,-1,-1,-1,-1,-1,-1,-1,-1],"split_conditions":[5E0,2E0,2.1E1,4E0,4E0,7E0,6E0,2E0,1.4212857E-1,2E0,6E0,6E0,1.8E1,5E0,2.2E1,-2.2177897E-2,-1.1491708E-2,-2.0814812E-2,-6.1565824E-2,4.3455907E-3,-1.6939055E-2,2.4808922E-3,3.1787474E-2,2.7392167E-3,-9.348163E-2,-1.4451574E-2,3.2872498E-2,-6.9663964E-2,-2.9060945E-2],"split_indices":[1,0,1,1,0,0,0,1,0,1,0,0,1,0,1,0,0,0,0,0,0,0,0,0,0,0,0,0,0],"split_type":[0,0,0,0,0,0,0,0,0,0,0,0,0,0,0,0,0,0,0,0,0,0,0,0,0,0,0,0,0],"sum_hessian":[4.626E3,7.94E2,3.832E3,1.39E2,6.55E2,3.179E3,6.53E2,1.19E2,2E1,1.79E2,4.76E2,2.663E3,5.16E2,4.83E2,1.7E2,2.4E1,9.5E1,8.7E1,9.2E1,1.59E2,3.17E2,2.027E3,6.36E2,4.5E2,6.6E1,3.67E2,1.16E2,8.1E1,8.9E1],"tree_param":{"num_deleted":"0","num_feature":"2","num_nodes":"29","size_leaf_vector":"1"}},{"base_weights":[-9.403042E-4,-9.7229294E-2,3.3108927E-2,7.156641E-2,-1.5627463E-1,7.2841614E-2,-1.3498543E-1,-1.15781255E-1,5.6960183E-1,-5.043098E-1,-9.440978E-2,5.212146E-3,1.956988E-1,-2.7335528E-2,-4.3888932E-1,8.608511E-3,-4.2850915E-2,-3.9871868E-2,1.46071E-1,2.6836838E-3,-7.701813E-2,3.6032032E-2,-1.9025851E-2,-1.9347062E-2,1.5716398E-2,5.0267812E-2,4.516847E-3,-1.3010335E-2,2.9613366E-2,-6.278252E-2,-2.6187126E-2],"categories":[],"categories_nodes":[],"categories_segments":[],"categories_sizes":[],"default_left":[0,0,0,0,0,0,0,0,0,0,0,0,0,0,0,0,0,0,0,0,0,0,0,0,0,0,0,0,0,0,0],"id":42,"left_children":[1,3,5,7,9,11,13,15,17,19,21,23,25,27,29,-1,-1,-1,-1,-1,-1,-1,-1,-1,-1,-1,-1,-1,-1,-1,-1],"loss_changes":[1.5173144E1,1.2060803E1,2.2844786E1,2.9363962E1,1.924429E1,2.2981026E1,2.1383759E1,1.4493484E1,7.478993E1,1.908493E1,3.3280556E1,5.391993E1,4.535522E1,1.6127764E1,5.5547028E0,0E0,0E0,0E0,0E0,0E0,0E0,0E0,0E0,0E0,0E0,0E0,0E0,0E0,0E0,0E0,0E0],"parents":[2147483647,0,0,1,1,2,2,3,3,4,4,5,5,6,6,7,7,8,8,9,9,10,10,11,11,12,12,13,13,14,14],"right_children":[2,4,6,8,10,12,14,16,18,20,22,24,26,28,30,-1,-1,-1,-1,-1,-1,-1,-1,-1,-1,-1,-1,-1,-1,-1,-1],"split_conditions":[9E0,3E0,2.1E1,5E0,4E0,6E0,6E0,2E0,2E0,2E0,5E0,1.5E1,1.3E1,5E0,2.2E1,8.608511E-3,-4.2850915E-2,-3.9871868E-2,1.46071E-1,2.6836838E-3,-7.701813E-2,3.6032032E-2,-1.9025851E-2,-1.9347062E-2,1.5716398E-2,5.0267812E-2,4.516847E-3,-1.3010335E-2,2.9613366E-2,-6.278252E-2,-2.6187126E-2],"split_indices":[1,0,1,1,0,0,0,0,0,1,0,1,1,0,1,0,0,0,0,0,0,0,0,0,0,0,0,0,0,0,0],"split_type":[0,0,0,0,0,0,0,0,0,0,0,0,0,0,0,0,0,0,0,0,0,0,0,0,0,0,0,0,0,0,0],"sum_hessian":[4.626E3,1.208E3,3.418E3,3.13E2,8.95E2,2.765E3,6.53E2,2.28E2,8.5E1,1.34E2,7.61E2,1.784E3,9.81E2,4.83E2,1.7E2,1.39E2,8.9E1,4.1E1,4.4E1,4.5E1,8.9E1,1.32E2,6.29E2,7.73E2,1.011E3,3.22E2,6.59E2,3.67E2,1.16E2,8.1E1,8.9E1],"tree_param":{"num_deleted":"0","num_feature":"2","num_nodes":"31","size_leaf_vector":"1"}},{"base_weights":[-8.4787566E-4,1.4729239E-2,-1.7649102E-1,-4.711193E-2,9.1128826E-2,-2.662635E-1,-5.82727E-2,5.231585E-3,-3.2367882E-1,2.9499063E-1,-1.3958533E-2,-1.0637903E-1,-3.3529782E-1,1.572985E-2,-3.5000116E-1,-5.2838395E-3,2.5344744E-2,-1.0392034E-3,-1.59362E-1,1.2426589E-1,8.780173E-3,-5.757716E-2,7.391836E-3,1.0579056E-2,-5.996586E-2,-3.8737964E-2,-1.703583E-3,1.3736851E-2,-6.072673E-2],"categories":[],"categories_nodes":[],"categories_segments":[],"categories_sizes":[],"default_left":[0,0,0,0,0,0,0,0,0,0,0,0,0,0,0,0,0,0,0,0,0,0,0,0,0,0,0,0,0],"id":43,"left_children":[1,3,5,7,9,11,13,15,17,19,21,23,25,-1,27,-1,-1,-1,-1,-1,-1,-1,-1,-1,-1,-1,-1,-1,-1],"loss_changes":[1.2662134E1,2.0088736E1,3.9854927E0,3.4021423E1,4.0751236E1,2.3263607E0,1.0368729E1,2.8509647E1,1.487815E2,1.2692697E2,6.205176E1,6.970928E0,2.463171E0,0E0,8.860276E0,0E0,0E0,0E0,0E0,0E0,0E0,0E0,0E0,0E0,0E0,0E0,0E0,0E0,0E0],"parents":[2147483647,0,0,1,1,2,2,3,3,4,4,5,5,6,6,7,7,8,8,9,9,10,10,11,11,12,12,14,14],"right_children":[2,4,6,8,10,12,14,16,18,20,22,24,26,-1,28,-1,-1,-1,-1,-1,-1,-1,-1,-1,-1,-1,-1,-1,-1],"split_conditions":[2.2E1,1.4E1,5E0,1.2E1,1.7E1,2E0,2.3E1,1.1E1,7E0,3E0,2E0,2.3E1,2.3E1,1.572985E-2,6E0,-5.2838395E-3,2.5344744E-2,-1.0392034E-3,-1.59362E-1,1.2426589E-1,8.780173E-3,-5.757716E-2,7.391836E-3,1.0579056E-2,-5.996586E-2,-3.8737964E-2,-1.703583E-3,1.3736851E-2,-6.072673E-2],"split_indices":[1,1,0,1,1,0,1,1,0,0,0,1,1,0,0,0,0,0,0,0,0,0,0,0,0,0,0,0,0],"split_type":[0,0,0,0,0,0,0,0,0,0,0,0,0,0,0,0,0,0,0,0,0,0,0,0,0,0,0,0,0],"sum_hessian":[4.626E3,4.25E3,3.76E2,2.349E3,1.901E3,2.13E2,1.63E2,1.976E3,3.73E2,6.46E2,1.255E3,6.5E1,1.48E2,9.4E1,6.9E1,1.602E3,3.74E2,3E2,7.3E1,1.15E2,5.31E2,1.69E2,1.086E3,4.6E1,1.9E1,1.27E2,2.1E1,2.4E1,4.5E1],"tree_param":{"num_deleted":"0","num_feature":"2","num_nodes":"29","size_leaf_vector":"1"}},{"base_weights":[-8.0158113E-4,-1.4719161E-1,1.5315912E-2,9.392612E-2,-2.0463714E-1,1.1434141E-1,-1.700453E-2,-8.3449885E-2,5.777965E-2,-2.651567E-1,-1.2663287E-1,3.702942E-1,-3.3474028E-1,-3.5403964E-1,4.4304E-2,1.0332434E-2,-4.616949E-2,-1.8325888E-2,-5.4959547E-2,1.4695621E-2,-1.7230311E-2,-6.083963E-3,9.5729165E-2,-6.9520555E-2,-1.26361E-3,1.5701012E-3,-6.700085E-2,3.5843983E-2,-3.3257545E-3],"categories":[],"categories_nodes":[],"categories_segments":[],"categories_sizes":[],"default_left":[0,0,0,0,0,0,0,0,0,0,0,0,0,0,0,0,0,0,0,0,0,0,0,0,0,0,0,0,0],"id":44,"left_children":[1,3,5,7,9,11,13,15,-1,17,19,21,23,25,27,-1,-1,-1,-1,-1,-1,-1,-1,-1,-1,-1,-1,-1,-1],"loss_changes":[1.0919386E1,6.37689E0,1.3345029E1,7.6868205E0,1.7178307E0,1.1805621E2,6.498055E1,4.710368E0,0E0,4.744624E0,2.0744815E0,1.6556894E2,4.3299263E1,5.6554558E1,6.484681E1,0E0,0E0,0E0,0E0,0E0,0E0,0E0,0E0,0E0,0E0,0E0,0E0,0E0,0E0],"parents":[2147483647,0,0,1,1,2,2,3,3,4,4,5,5,6,6,7,7,9,9,10,10,11,11,12,12,13,13,14,14],"right_children":[2,4,6,8,10,12,14,16,-1,18,20,22,24,26,28,-1,-1,-1,-1,-1,-1,-1,-1,-1,-1,-1,-1,-1,-1],"split_conditions":[3E0,1E0,3E0,7E0,5E0,1.8E1,4E0,6E0,5.777965E-2,4E0,6E0,1.3E1,2.1E1,1.4E1,5E0,1.0332434E-2,-4.616949E-2,-1.8325888E-2,-5.4959547E-2,1.4695621E-2,-1.7230311E-2,-6.083963E-3,9.5729165E-2,-6.9520555E-2,-1.26361E-3,1.5701012E-3,-6.700085E-2,3.5843983E-2,-3.3257545E-3],"split_indices":[1,1,0,0,0,1,0,0,0,0,0,1,1,1,0,0,0,0,0,0,0,0,0,0,0,0,0,0,0],"split_type":[0,0,0,0,0,0,0,0,0,0,0,0,0,0,0,0,0,0,0,0,0,0,0,0,0,0,0,0,0],"sum_hessian":[4.626E3,4.58E2,4.168E3,8.8E1,3.7E2,1.025E3,3.143E3,6.5E1,2.3E1,2.07E2,1.63E2,6.53E2,3.72E2,4.83E2,2.66E3,4.4E1,2.1E1,1.62E2,4.5E1,2.3E1,1.4E2,3.77E2,2.76E2,1.75E2,1.97E2,2.23E2,2.6E2,5.26E2,2.134E3],"tree_param":{"num_deleted":"0","num_feature":"2","num_nodes":"29","size_leaf_vector":"1"}},{"base_weights":[-7.360178E-4,6.725007E-3,-3.0717397E-1,-4.38963E-2,6.1567493E-2,-1.344186E-1,-5.446071E-2,7.0079784E-3,-3.1286386E-1,-9.932915E-2,1.5944338E-1,-5.414906E-2,4.5491364E-2,-4.434339E-3,2.2649927E-2,1.1665956E-1,-5.239057E-2,1.35298995E-2,-6.0326427E-2,5.7790782E-2,5.757041E-3,-4.962449E-3,1.2737365E-2],"categories":[],"categories_nodes":[],"categories_segments":[],"categories_sizes":[],"default_left":[0,0,0,0,0,0,0,0,0,0,0,0,0,0,0,0,0,0,0,0,0,0,0],"id":45,"left_children":[1,3,5,7,9,11,-1,13,15,17,19,-1,21,-1,-1,-1,-1,-1,-1,-1,-1,-1,-1],"loss_changes":[1.0580967E1,1.2545567E1,4.438759E0,3.2177452E1,3.4173035E1,4.784993E0,0E0,2.2293161E1,1.17384415E2,9.7154495E1,5.7474895E1,0E0,3.6458284E-1,0E0,0E0,0E0,0E0,0E0,0E0,0E0,0E0,0E0,0E0],"parents":[2147483647,0,0,1,1,2,2,3,3,4,4,5,5,7,7,8,8,9,9,10,10,12,12],"right_children":[2,4,6,8,10,12,-1,14,16,18,20,-1,22,-1,-1,-1,-1,-1,-1,-1,-1,-1,-1],"split_conditions":[2.3E1,1.4E1,6E0,1.2E1,4E0,2E0,-5.446071E-2,1.1E1,2E0,3E0,5E0,-5.414906E-2,5E0,-4.434339E-3,2.2649927E-2,1.1665956E-1,-5.239057E-2,1.35298995E-2,-6.0326427E-2,5.7790782E-2,5.757041E-3,-4.962449E-3,1.2737365E-2],"split_indices":[1,1,0,1,0,0,0,1,0,0,0,0,0,0,0,0,0,0,0,0,0,0,0],"split_type":[0,0,0,0,0,0,0,0,0,0,0,0,0,0,0,0,0,0,0,0,0,0,0],"sum_hessian":[4.626E3,4.517E3,1.09E2,2.349E3,2.168E3,6.4E1,4.5E1,1.976E3,3.73E2,8.2E2,1.348E3,1.9E1,4.5E1,1.602E3,3.74E2,4.6E1,3.27E2,5.6E2,2.6E2,2.63E2,1.085E3,2.1E1,2.4E1],"tree_param":{"num_deleted":"0","num_feature":"2","num_nodes":"23","size_leaf_vector":"1"}},{"base_weights":[-6.626967E-4,1.2783757E-2,-1.522813E-1,-3.947142E-2,7.734048E-2,-2.3796096E-1,-3.9551254E-2,6.3164816E-3,-2.8140515E-1,-9.0022795E-2,1.7247924E-1,-1.3991109E-1,-4.6557927E-1,1.3932792E-2,-2.8175083E-1,-7.295716E-3,1.3094003E-2,-1.0028288E-3,-1.3814461E-1,1.621628E-2,-6.259378E-2,7.485507E-2,4.3386174E-3,-8.579994E-3,-4.900491E-2,-6.6998966E-2,-4.4887154E-3,1.1514588E-2,-4.9133055E-2],"categories":[],"categories_nodes":[],"categories_segments":[],"categories_sizes":[],"default_left":[0,0,0,0,0,0,0,0,0,0,0,0,0,0,0,0,0,0,0,0,0,0,0,0,0,0,0,0,0],"id":46,"left_children":[1,3,5,7,9,11,13,15,17,19,21,23,25,-1,27,-1,-1,-1,-1,-1,-1,-1,-1,-1,-1,-1,-1,-1,-1],"loss_changes":[9.435163E0,1.4343475E1,3.6319075E0,2.603423E1,3.0300571E1,4.7109013E0,7.1444664E0,1.9541054E1,1.1163475E2,9.335503E1,9.0174484E1,2.8188555E0,5.4735327E0,0E0,5.87928E0,0E0,0E0,0E0,0E0,0E0,0E0,0E0,0E0,0E0,0E0,0E0,0E0,0E0,0E0],"parents":[2147483647,0,0,1,1,2,2,3,3,4,4,5,5,6,6,7,7,8,8,9,9,10,10,11,11,12,12,14,14],"right_children":[2,4,6,8,10,12,14,16,18,20,22,24,26,-1,28,-1,-1,-1,-1,-1,-1,-1,-1,-1,-1,-1,-1,-1,-1],"split_conditions":[2.2E1,1.4E1,5E0,1.2E1,4E0,4E0,2.3E1,9E0,7E0,3E0,5E0,2.3E1,2.3E1,1.3932792E-2,6E0,-7.295716E-3,1.3094003E-2,-1.0028288E-3,-1.3814461E-1,1.621628E-2,-6.259378E-2,7.485507E-2,4.3386174E-3,-8.579994E-3,-4.900491E-2,-6.6998966E-2,-4.4887154E-3,1.1514588E-2,-4.9133055E-2],"split_indices":[1,1,0,1,0,0,1,1,0,0,0,1,1,0,0,0,0,0,0,0,0,0,0,0,0,0,0,0,0],"split_type":[0,0,0,0,0,0,0,0,0,0,0,0,0,0,0,0,0,0,0,0,0,0,0,0,0,0,0,0,0],"sum_hessian":[4.626E3,4.25E3,3.76E2,2.349E3,1.901E3,2.13E2,1.63E2,1.976E3,3.73E2,6.89E2,1.212E3,1.5E2,6.3E1,9.4E1,6.9E1,1.208E3,7.68E2,3E2,7.3E1,4.69E2,2.2E2,2.21E2,9.91E2,1.31E2,1.9E1,4.2E1,2.1E1,2.4E1,4.5E1],"tree_param":{"num_deleted":"0","num_feature":"2","num_nodes":"29","size_leaf_vector":"1"}},{"base_weights":[-6.511947E-4,1.7125888E-2,-1.086718E-1,-3.5580967E-2,9.3337566E-2,-1.7400945E-2,-3.6637017E-1,5.68774E-3,-2.5363618E-1,-3.3428475E-1,1.5052736E-1,-9.9464856E-2,2.4086334E-1,-5.7979774E-2,-1.678432E-1,-3.7632198E-3,1.9085085E-2,1.0534004E-1,-4.4015165E-2,1.4470361E-2,-1.3653041E-1,6.257575E-2,7.6999837E-3,6.0369438E-3,-2.147679E-2,4.403865E-2,1.2325857E-2,1.1742971E-2,-4.4326574E-2],"categories":[],"categories_nodes":[],"categories_segments":[],"categories_sizes":[],"default_left":[0,0,0,0,0,0,0,0,0,0,0,0,0,0,0,0,0,0,0,0,0,0,0,0,0,0,0,0,0],"id":47,"left_children":[1,3,5,7,9,11,13,15,17,19,21,23,25,-1,27,-1,-1,-1,-1,-1,-1,-1,-1,-1,-1,-1,-1,-1,-1],"loss_changes":[8.88705E0,1.5966393E1,1.5375935E1,2.1148754E1,3.9790714E1,1.02819395E1,7.1481457E0,1.5865203E1,9.163835E1,9.501605E1,5.0059338E1,6.794977E0,2.6911097E0,0E0,7.1234055E0,0E0,0E0,0E0,0E0,0E0,0E0,0E0,0E0,0E0,0E0,0E0,0E0,0E0,0E0],"parents":[2147483647,0,0,1,1,2,2,3,3,4,4,5,5,6,6,7,7,8,8,9,9,10,10,11,11,12,12,14,14],"right_children":[2,4,6,8,10,12,14,16,18,20,22,24,26,-1,28,-1,-1,-1,-1,-1,-1,-1,-1,-1,-1,-1,-1,-1,-1],"split_conditions":[2.1E1,1.4E1,6E0,1.2E1,2E0,5E0,2.2E1,1.1E1,2E0,1.9E1,3E0,2.2E1,2.2E1,-5.7979774E-2,2.3E1,-3.7632198E-3,1.9085085E-2,1.0534004E-1,-4.4015165E-2,1.4470361E-2,-1.3653041E-1,6.257575E-2,7.6999837E-3,6.0369438E-3,-2.147679E-2,4.403865E-2,1.2325857E-2,1.1742971E-2,-4.4326574E-2],"split_indices":[1,1,0,1,0,0,1,1,0,1,0,1,1,0,1,0,0,0,0,0,0,0,0,0,0,0,0,0,0],"split_type":[0,0,0,0,0,0,0,0,0,0,0,0,0,0,0,0,0,0,0,0,0,0,0,0,0,0,0,0,0],"sum_hessian":[4.626E3,3.973E3,6.53E2,2.349E3,1.624E3,4.83E2,1.7E2,1.976E3,3.73E2,1.91E2,1.433E3,3.67E2,1.16E2,8.1E1,8.9E1,1.602E3,3.74E2,4.6E1,3.27E2,1.31E2,6E1,1.91E2,1.242E3,1.54E2,2.13E2,4.2E1,7.4E1,4.4E1,4.5E1],"tree_param":{"num_deleted":"0","num_feature":"2","num_nodes":"29","size_leaf_vector":"1"}},{"base_weights":[-5.9140095E-4,1.5419595E-2,-9.788056E-2,-3.1990167E-2,8.397191E-2,-1.5576359E-2,-3.3026272E-1,5.126723E-3,-2.2810808E-1,-3.014922E-1,1.3552362E-1,-8.956031E-2,2.1725841E-1,-5.225252E-2,-1.5142064E-1,-6.1907484E-3,1.1050933E-2,1.2015998E-3,-1.2017465E-1,5.9291568E-2,-7.746973E-2,5.635075E-2,6.9306055E-3,5.437156E-3,-1.9339152E-2,3.973716E-2,1.1109674E-2,1.0594805E-2,-3.9990257E-2],"categories":[],"categories_nodes":[],"categories_segments":[],"categories_sizes":[],"default_left":[0,0,0,0,0,0,0,0,0,0,0,0,0,0,0,0,0,0,0,0,0,0,0,0,0,0,0,0,0],"id":48,"left_children":[1,3,5,7,9,11,13,15,17,19,21,23,25,-1,27,-1,-1,-1,-1,-1,-1,-1,-1,-1,-1,-1,-1,-1,-1],"loss_changes":[7.20897E0,1.2918381E1,1.2503279E1,1.7107492E1,3.233177E1,8.356858E0,5.8006496E0,1.3972842E1,8.745339E1,8.172109E1,4.060058E1,5.5101347E0,2.1930242E0,0E0,5.7980022E0,0E0,0E0,0E0,0E0,0E0,0E0,0E0,0E0,0E0,0E0,0E0,0E0,0E0,0E0],"parents":[2147483647,0,0,1,1,2,2,3,3,4,4,5,5,6,6,7,7,8,8,9,9,10,10,11,11,12,12,14,14],"right_children":[2,4,6,8,10,12,14,16,18,20,22,24,26,-1,28,-1,-1,-1,-1,-1,-1,-1,-1,-1,-1,-1,-1,-1,-1],"split_conditions":[2.1E1,1.4E1,6E0,1.2E1,2E0,5E0,2.2E1,9E0,7E0,1.7E1,3E0,2.2E1,2.2E1,-5.225252E-2,2.3E1,-6.1907484E-3,1.1050933E-2,1.2015998E-3,-1.2017465E-1,5.9291568E-2,-7.746973E-2,5.635075E-2,6.9306055E-3,5.437156E-3,-1.9339152E-2,3.973716E-2,1.1109674E-2,1.0594805E-2,-3.9990257E-2],"split_indices":[1,1,0,1,0,0,1,1,0,1,0,1,1,0,1,0,0,0,0,0,0,0,0,0,0,0,0,0,0],"split_type":[0,0,0,0,0,0,0,0,0,0,0,0,0,0,0,0,0,0,0,0,0,0,0,0,0,0,0,0,0],"sum_hessian":[4.626E3,3.973E3,6.53E2,2.349E3,1.624E3,4.83E2,1.7E2,1.976E3,3.73E2,1.91E2,1.433E3,3.67E2,1.16E2,8.1E1,8.9E1,1.208E3,7.68E2,3E2,7.3E1,6.6E1,1.25E2,1.91E2,1.242E3,1.54E2,2.13E2,4.2E1,7.4E1,4.4E1,4.5E1],"tree_param":{"num_deleted":"0","num_feature":"2","num_nodes":"29","size_leaf_vector":"1"}},{"base_weights":[-5.5695453E-4,-1.109532E-1,1.1597623E-2,1.06220074E-1,-1.627523E-1,4.7049016E-2,-4.3541618E-2,-5.429271E-2,5.4320436E-2,-2.1741357E-1,-9.2433415E-2,2.4148047E-1,-8.245634E-3,8.3766965E-4,-6.2896955E-1,1.1442347E-2,-3.9692614E-2,-1.4349445E-2,-4.7461804E-2,1.5365303E-2,-1.3366492E-2,-7.822132E-3,8.9340374E-2,-4.19712E-2,6.1025573E-3,-3.2839965E-2,6.1094626E-3,-2.7898422E-2,-8.755414E-2],"categories":[],"categories_nodes":[],"categories_segments":[],"categories_sizes":[],"default_left":[0,0,0,0,0,0,0,0,0,0,0,0,0,0,0,0,0,0,0,0,0,0,0,0,0,0,0,0,0],"id":49,"left_children":[1,3,5,7,9,11,13,15,-1,17,19,21,23,25,27,-1,-1,-1,-1,-1,-1,-1,-1,-1,-1,-1,-1,-1,-1],"loss_changes":[6.2098866E0,5.1807537E0,8.151455E0,6.272092E0,1.4059238E0,2.7288082E1,4.2401314E1,3.860733E0,0E0,3.8864594E0,1.6845663E0,1.17202484E2,5.6375587E1,3.0135422E1,9.67984E0,0E0,0E0,0E0,0E0,0E0,0E0,0E0,0E0,0E0,0E0,0E0,0E0,0E0,0E0],"parents":[2147483647,0,0,1,1,2,2,3,3,4,4,5,5,6,6,7,7,9,9,10,10,11,11,12,12,13,13,14,14],"right_children":[2,4,6,8,10,12,14,16,-1,18,20,22,24,26,28,-1,-1,-1,-1,-1,-1,-1,-1,-1,-1,-1,-1,-1,-1],"split_conditions":[3E0,1E0,1.7E1,7E0,5E0,3E0,7E0,6E0,5.4320436E-2,4E0,6E0,1.3E1,4E0,2E0,1.8E1,1.1442347E-2,-3.9692614E-2,-1.4349445E-2,-4.7461804E-2,1.5365303E-2,-1.3366492E-2,-7.822132E-3,8.9340374E-2,-4.19712E-2,6.1025573E-3,-3.2839965E-2,6.1094626E-3,-2.7898422E-2,-8.755414E-2],"split_indices":[1,1,1,0,0,0,0,0,0,0,0,1,0,0,1,0,0,0,0,0,0,0,0,0,0,0,0,0,0],"split_type":[0,0,0,0,0,0,0,0,0,0,0,0,0,0,0,0,0,0,0,0,0,0,0,0,0,0,0,0,0],"sum_hessian":[4.626E3,4.58E2,4.168E3,8.8E1,3.7E2,2.537E3,1.631E3,6.5E1,2.3E1,2.07E2,1.63E2,5.61E2,1.976E3,1.517E3,1.14E2,4.4E1,2.1E1,1.62E2,4.5E1,2.3E1,1.4E2,3.77E2,1.84E2,2.84E2,1.692E3,2.34E2,1.283E3,4.8E1,6.6E1],"tree_param":{"num_deleted":"0","num_feature":"2","num_nodes":"29","size_leaf_vector":"1"}}]},"name":"gbtree"},"learner_model_param":{"base_score":"[1.39997835E1]","boost_from_average":"1","num_class":"0","num_feature":"2","num_target":"1"},"objective":{"name":"reg:squarederror","reg_loss_param":{"scale_pos_weight":"1"}}},"version":[3,2,0]}