{"learner":{"attributes":{},"feature_names":["day_of_week","hour_of_day"],"feature_types":[],"gradient_booster":{"model":{"cats":{"enc":[],"feature_segments":[],"sorted_idx":[]},"gbtree_model_param":{"num_parallel_tree":"1","num_trees":"50"},"iteration_indptr":[0,1,2,3,4,5,6,7,8,9,10,11,12,13,14,15,16,17,18,19,20,21,22,23,24,25,26,27,28,29,30,31,32,33,34,35,36,37,38,39,40,41,42,43,44,45,46,47,48,49,50],"tree_info":[0,0,0,0,0,0,0,0,0,0,0,0,0,0,0,0,0,0,0,0,0,0,0,0,0,0,0,0,0,0,0,0,0,0,0,0,0,0,0,0,0,0,0,0,0,0,0,0,0,0],"trees":[{"base_weights":[-1.0882646E-7,-1.0465637E1,1.2932773E0,-1.0895683E1,-7.0009527E0,3.0664515E0,-3.5340648E0,-1.2160288E0,-9.692082E-1,-1.5836793E-1,-9.534566E-1,-2.2542691E0,3.8841636E0,-1.7149609E0,-6.9546304E0,3.0797252E-1,-7.4983317E-1,4.9216124E-1,3.017869E-1,-4.0608168E-1,8.142269E-3,-1.0815104E0,-4.2078614E-1],"categories":[],"categories_nodes":[],"categories_segments":[],"categories_sizes":[],"default_left":[0,0,0,0,0,0,0,0,0,0,0,0,0,0,0,0,0,0,0,0,0,0,0],"id":0,"left_children":[1,3,5,7,9,11,13,-1,-1,-1,-1,15,17,19,21,-1,-1,-1,-1,-1,-1,-1,-1],"loss_changes":[6.263985E4,6.821211E2,3.526832E4,5.6860156E2,7.946914E2,1.3117768E4,6.8762295E3,0E0,0E0,0E0,0E0,1.1267756E4,2.3326445E3,3.0513079E3,4.0263613E3,0E0,0E0,0E0,0E0,0E0,0E0,0E0,0E0],"parents":[2147483647,0,0,1,1,2,2,3,3,4,4,5,5,6,6,11,11,12,12,13,13,14,14],"right_children":[2,4,6,8,10,12,14,-1,-1,-1,-1,16,18,20,22,-1,-1,-1,-1,-1,-1,-1,-1],"split_conditions":[4E0,3E0,1.9E1,5E0,2E0,7E0,2.2E1,-1.2160288E0,-9.692082E-1,-1.5836793E-1,-9.534566E-1,5E0,5E0,4E0,4E0,3.0797252E-1,-7.4983317E-1,4.9216124E-1,3.017869E-1,-4.0608168E-1,8.142269E-3,-1.0815104E0,-4.2078614E-1],"split_indices":[1,1,1,0,0,1,1,0,0,0,0,0,0,0,0,0,0,0,0,0,0,0,0],"split_type":[0,0,0,0,0,0,0,0,0,0,0,0,0,0,0,0,0,0,0,0,0,0,0],"sum_hessian":[4.626E3,5.08E2,4.118E3,4.5E2,5.8E1,3.012E3,1.106E3,2.15E2,2.35E2,1.9E1,3.9E1,4.01E2,2.611E3,7.23E2,3.83E2,1.99E2,2.02E2,1.186E3,1.425E3,3.13E2,4.1E2,1.58E2,2.25E2],"tree_param":{"num_deleted":"0","num_feature":"2","num_nodes":"23","size_leaf_vector":"1"}},{"base_weights":[-1.0469875E-3,-9.425551E0,1.163574E0,-9.810961E0,-6.3197017E0,2.7599237E0,-3.182375E0,-1.0949888E0,-8.72698E-1,-1.4332296E-1,-8.6049455E-1,-2.0299418E0,3.4960515E0,-1.5440143E0,-6.2630796E0,2.773292E-1,-6.7521924E-1,4.4298664E-1,2.7162942E-1,-3.656028E-1,7.3300027E-3,-9.740395E-1,-3.7889373E-1],"categories":[],"categories_nodes":[],"categories_segments":[],"categories_sizes":[],"default_left":[0,0,0,0,0,0,0,0,0,0,0,0,0,0,0,0,0,0,0,0,0,0,0],"id":1,"left_children":[1,3,5,7,9,11,13,-1,-1,-1,-1,15,17,19,21,-1,-1,-1,-1,-1,-1,-1,-1],"loss_changes":[5.079681E4,5.4728125E2,2.8584982E4,4.6123438E2,6.465073E2,1.0630795E4,5.5776963E3,0E0,0E0,0E0,0E0,9.136919E3,1.8898945E3,2.4732998E3,3.266789E3,0E0,0E0,0E0,0E0,0E0,0E0,0E0,0E0],"parents":[2147483647,0,0,1,1,2,2,3,3,4,4,5,5,6,6,11,11,12,12,13,13,14,14],"right_children":[2,4,6,8,10,12,14,-1,-1,-1,-1,16,18,20,22,-1,-1,-1,-1,-1,-1,-1,-1],"split_conditions":[4E0,3E0,1.9E1,5E0,2E0,7E0,2.2E1,-1.0949888E0,-8.72698E-1,-1.4332296E-1,-8.6049455E-1,5E0,5E0,4E0,4E0,2.773292E-1,-6.7521924E-1,4.4298664E-1,2.7162942E-1,-3.656028E-1,7.3300027E-3,-9.740395E-1,-3.7889373E-1],"split_indices":[1,1,1,0,0,1,1,0,0,0,0,0,0,0,0,0,0,0,0,0,0,0,0],"split_type":[0,0,0,0,0,0,0,0,0,0,0,0,0,0,0,0,0,0,0,0,0,0,0],"sum_hessian":[4.626E3,5.08E2,4.118E3,4.5E2,5.8E1,3.012E3,1.106E3,2.15E2,2.35E2,1.9E1,3.9E1,4.01E2,2.611E3,7.23E2,3.83E2,1.99E2,2.02E2,1.186E3,1.425E3,3.13E2,4.1E2,1.58E2,2.25E2],"tree_param":{"num_deleted":"0","num_feature":"2","num_nodes":"23","size_leaf_vector":"1"}},{"base_weights":[-1.8858841E-3,-8.488834E0,1.0468781E0,-8.834228E0,-5.7047453E0,2.0979354E0,-4.3380284E0,-9.859969E-1,-7.85798E-1,-1.2970728E-1,-7.765963E-1,-1.8279371E0,2.615369E0,-7.3321934E0,-2.2507732E0,2.4973495E-1,-6.080299E-1,3.4136513E-1,-7.485989E-3,-5.329329E-1,-8.772482E-1,-7.211502E-2,-3.41172E-1],"categories":[],"categories_nodes":[],"categories_segments":[],"categories_sizes":[],"default_left":[0,0,0,0,0,0,0,0,0,0,0,0,0,0,0,0,0,0,0,0,0,0,0],"id":2,"left_children":[1,3,5,7,9,11,13,-1,-1,-1,-1,15,17,19,21,-1,-1,-1,-1,-1,-1,-1,-1],"loss_changes":[4.1192914E4,4.390586E2,2.3322008E4,3.7414062E2,5.2595215E2,7.0069434E3,4.1894688E3,0E0,0E0,0E0,0E0,7.409043E3,6.5417285E3,7.4942676E2,7.043124E2,0E0,0E0,0E0,0E0,0E0,0E0,0E0,0E0],"parents":[2147483647,0,0,1,1,2,2,3,3,4,4,5,5,6,6,11,11,12,12,13,13,14,14],"right_children":[2,4,6,8,10,12,14,-1,-1,-1,-1,16,18,20,22,-1,-1,-1,-1,-1,-1,-1,-1],"split_conditions":[4E0,3E0,2.1E1,5E0,2E0,7E0,4E0,-9.859969E-1,-7.85798E-1,-1.2970728E-1,-7.765963E-1,5E0,1.8E1,2.2E1,2.2E1,2.4973495E-1,-6.080299E-1,3.4136513E-1,-7.485989E-3,-5.329329E-1,-8.772482E-1,-7.211502E-2,-3.41172E-1],"split_indices":[1,1,1,0,0,1,0,0,0,0,0,0,1,1,1,0,0,0,0,0,0,0,0],"split_type":[0,0,0,0,0,0,0,0,0,0,0,0,0,0,0,0,0,0,0,0,0,0,0],"sum_hessian":[4.626E3,5.08E2,4.118E3,4.5E2,5.8E1,3.446E3,6.72E2,2.15E2,2.35E2,1.9E1,3.9E1,4.01E2,3.045E3,2.75E2,3.97E2,1.99E2,2.02E2,2.348E3,6.97E2,1.17E2,1.58E2,1.72E2,2.25E2],"tree_param":{"num_deleted":"0","num_feature":"2","num_nodes":"23","size_leaf_vector":"1"}},{"base_weights":[-2.675244E-3,-7.645212E0,9.417418E-1,-7.9547334E0,-5.149632E0,2.0713227E0,-3.1412356E0,-8.878536E-1,-7.075512E-1,-1.1738508E-1,-7.008782E-1,-6.9000065E-1,2.8212209E0,-5.503017E0,-1.348648E0,2.6564485E-1,-3.9863858E-1,3.4117112E-1,2.6929295E-2,-3.799305E-1,-7.900751E-1,2.7546398E-3,-3.0720577E-1],"categories":[],"categories_nodes":[],"categories_segments":[],"categories_sizes":[],"default_left":[0,0,0,0,0,0,0,0,0,0,0,0,0,0,0,0,0,0,0,0,0,0,0],"id":3,"left_children":[1,3,5,7,9,11,13,-1,-1,-1,-1,15,17,19,21,-1,-1,-1,-1,-1,-1,-1,-1],"loss_changes":[3.3403695E4,3.5220508E2,1.9003553E4,3.0349414E2,4.278756E2,6.684132E3,3.7732725E3,0E0,0E0,0E0,0E0,7.6221074E3,3.8235645E3,1.5427266E3,1.2073036E3,0E0,0E0,0E0,0E0,0E0,0E0,0E0,0E0],"parents":[2147483647,0,0,1,1,2,2,3,3,4,4,5,5,6,6,11,11,12,12,13,13,14,14],"right_children":[2,4,6,8,10,12,14,-1,-1,-1,-1,16,18,20,22,-1,-1,-1,-1,-1,-1,-1,-1],"split_conditions":[4E0,3E0,2E1,5E0,2E0,9E0,4E0,-8.878536E-1,-7.075512E-1,-1.1738508E-1,-7.008782E-1,5E0,1.8E1,2.2E1,2.2E1,2.6564485E-1,-3.9863858E-1,3.4117112E-1,2.6929295E-2,-3.799305E-1,-7.900751E-1,2.7546398E-3,-3.0720577E-1],"split_indices":[1,1,1,0,0,1,0,0,0,0,0,0,1,1,1,0,0,0,0,0,0,0,0],"split_type":[0,0,0,0,0,0,0,0,0,0,0,0,0,0,0,0,0,0,0,0,0,0,0],"sum_hessian":[4.626E3,5.08E2,4.118E3,4.5E2,5.8E1,3.226E3,8.92E2,2.15E2,2.35E2,1.9E1,3.9E1,6.89E2,2.537E3,3.84E2,5.08E2,3.42E2,3.47E2,2.06E3,4.77E2,2.26E2,1.58E2,2.83E2,2.25E2],"tree_param":{"num_deleted":"0","num_feature":"2","num_nodes":"23","size_leaf_vector":"1"}},{"base_weights":[-3.197221E-3,-6.885433E0,8.472668E-1,-7.1627975E0,-4.6485376E0,1.7062163E0,-3.5533965E0,-7.9947937E-1,-6.370959E-1,-1.06233515E-1,-6.3254255E-1,-1.5772245E0,2.1389928E0,-5.9907365E0,-1.8542526E0,1.9845465E-1,-5.078589E-1,2.781671E-1,-2.6894847E-3,-4.424201E-1,-7.115645E-1,-1.24280035E-1,-3.8744876E-1],"categories":[],"categories_nodes":[],"categories_segments":[],"categories_sizes":[],"default_left":[0,0,0,0,0,0,0,0,0,0,0,0,0,0,0,0,0,0,0,0,0,0,0],"id":4,"left_children":[1,3,5,7,9,11,13,-1,-1,-1,-1,15,17,19,21,-1,-1,-1,-1,-1,-1,-1,-1],"loss_changes":[2.70881E4,2.825039E2,1.5575666E4,2.461875E2,3.4808618E2,4.901547E3,2.7760488E3,0E0,0E0,0E0,0E0,5.0234434E3,4.24001E3,4.548877E2,4.8682507E2,0E0,0E0,0E0,0E0,0E0,0E0,0E0,0E0],"parents":[2147483647,0,0,1,1,2,2,3,3,4,4,5,5,6,6,11,11,12,12,13,13,14,14],"right_children":[2,4,6,8,10,12,14,-1,-1,-1,-1,16,18,20,22,-1,-1,-1,-1,-1,-1,-1,-1],"split_conditions":[4E0,3E0,2.1E1,5E0,2E0,7E0,4E0,-7.9947937E-1,-6.370959E-1,-1.06233515E-1,-6.3254255E-1,5E0,1.8E1,2.2E1,2.3E1,1.9845465E-1,-5.078589E-1,2.781671E-1,-2.6894847E-3,-4.424201E-1,-7.115645E-1,-1.24280035E-1,-3.8744876E-1],"split_indices":[1,1,1,0,0,1,0,0,0,0,0,0,1,1,1,0,0,0,0,0,0,0,0],"split_type":[0,0,0,0,0,0,0,0,0,0,0,0,0,0,0,0,0,0,0,0,0,0,0],"sum_hessian":[4.626E3,5.08E2,4.118E3,4.5E2,5.8E1,3.446E3,6.72E2,2.15E2,2.35E2,1.9E1,3.9E1,4.01E2,3.045E3,2.75E2,3.97E2,1.99E2,2.02E2,2.348E3,6.97E2,1.17E2,1.58E2,3.06E2,9.1E1],"tree_param":{"num_deleted":"0","num_feature":"2","num_nodes":"23","size_leaf_vector":"1"}},{"base_weights":[-3.714749E-3,-6.2011633E0,7.621277E-1,-6.4497027E0,-4.1962056E0,1.8274876E0,-2.138226E0,-7.199015E0,-5.7365626E-1,-9.614133E-2,-5.708696E-1,-6.458556E-1,2.5610416E0,-3.9256086E0,-8.083788E-1,-6.589004E-1,-7.5824445E-1,2.1604691E-1,-3.4100035E-1,2.7926737E-1,7.430305E-2,-2.6558182E-1,-6.408556E-1,1.4385248E-2,-2.5365147E-1],"categories":[],"categories_nodes":[],"categories_segments":[],"categories_sizes":[],"default_left":[0,0,0,0,0,0,0,0,0,0,0,0,0,0,0,0,0,0,0,0,0,0,0,0,0],"id":5,"left_children":[1,3,5,7,9,11,13,15,-1,-1,-1,17,19,21,23,-1,-1,-1,-1,-1,-1,-1,-1,-1,-1],"loss_changes":[2.1965713E4,2.2657617E2,1.2731289E4,1.9970117E2,2.8317468E2,5.4682324E3,2.628106E3,5.605469E-1,0E0,0E0,0E0,5.3597637E3,9.76584E2,1.4711118E3,1.0469568E3,0E0,0E0,0E0,0E0,0E0,0E0,0E0,0E0,0E0,0E0],"parents":[2147483647,0,0,1,1,2,2,3,3,4,4,5,5,6,6,7,7,11,11,12,12,13,13,14,14],"right_children":[2,4,6,8,10,12,14,16,-1,-1,-1,18,20,22,24,-1,-1,-1,-1,-1,-1,-1,-1,-1,-1],"split_conditions":[4E0,3E0,1.9E1,5E0,2E0,9E0,4E0,2E0,-5.7365626E-1,-9.614133E-2,-5.708696E-1,5E0,1.8E1,2.2E1,2.2E1,-6.589004E-1,-7.5824445E-1,2.1604691E-1,-3.4100035E-1,2.7926737E-1,7.430305E-2,-2.6558182E-1,-6.408556E-1,1.4385248E-2,-2.5365147E-1],"split_indices":[1,1,1,0,0,1,0,0,0,0,0,0,1,1,1,0,0,0,0,0,0,0,0,0,0],"split_type":[0,0,0,0,0,0,0,0,0,0,0,0,0,0,0,0,0,0,0,0,0,0,0,0,0],"sum_hessian":[4.626E3,5.08E2,4.118E3,4.5E2,5.8E1,3.012E3,1.106E3,2.15E2,2.35E2,1.9E1,3.9E1,6.89E2,2.323E3,4.71E2,6.35E2,9E1,1.25E2,3.42E2,3.47E2,2.06E3,2.63E2,3.13E2,1.58E2,4.1E2,2.25E2],"tree_param":{"num_deleted":"0","num_feature":"2","num_nodes":"25","size_leaf_vector":"1"}},{"base_weights":[-4.1158977E-3,-4.361936E0,8.8604623E-1,-5.809147E0,-2.4005811E0,2.0228484E0,-1.9254382E0,-6.4856744E0,-5.1653373E-1,3.7648806E-1,-5.2301064E0,2.962933E0,1.2479031E0,-3.534968E0,-7.27917E-1,-5.9373444E-1,-6.830217E-1,-8.700794E-2,5.3910304E-2,-4.6812913E-1,-5.735218E-1,3.2563874E-1,4.194431E-2,-2.8593507E-1,1.6855349E-1,-1.5816256E-1,-4.9163938E-1,1.2950226E-2,-2.2839852E-1],"categories":[],"categories_nodes":[],"categories_segments":[],"categories_sizes":[],"default_left":[0,0,0,0,0,0,0,0,0,0,0,0,0,0,0,0,0,0,0,0,0,0,0,0,0,0,0,0,0],"id":6,"left_children":[1,3,5,7,9,11,13,15,-1,17,19,21,23,25,27,-1,-1,-1,-1,-1,-1,-1,-1,-1,-1,-1,-1,-1,-1],"loss_changes":[1.7952768E4,2.2142725E3,1.2286512E4,1.6293457E2,2.6343271E3,1.9902451E3,2.1311099E3,2.5390625E-1,0E0,3.4929855E1,1.9168945E1,9.2118164E2,2.7046116E3,1.2658677E3,8.4884875E2,0E0,0E0,0E0,0E0,0E0,0E0,0E0,0E0,0E0,0E0,0E0,0E0,0E0,0E0],"parents":[2147483647,0,0,1,1,2,2,3,3,4,4,5,5,6,6,7,7,9,9,10,10,11,11,12,12,13,13,14,14],"right_children":[2,4,6,8,10,12,14,16,-1,18,20,22,24,26,28,-1,-1,-1,-1,-1,-1,-1,-1,-1,-1,-1,-1,-1,-1],"split_conditions":[6E0,3E0,1.9E1,5E0,5E0,5E0,4E0,2E0,-5.1653373E-1,4E0,7E0,1.8E1,8E0,2.1E1,2.2E1,-5.9373444E-1,-6.830217E-1,-8.700794E-2,5.3910304E-2,-4.6812913E-1,-5.735218E-1,3.2563874E-1,4.194431E-2,-2.8593507E-1,1.6855349E-1,-1.5816256E-1,-4.9163938E-1,1.2950226E-2,-2.2839852E-1],"split_indices":[1,1,1,0,0,0,0,0,0,1,0,1,1,1,1,0,0,0,0,0,0,0,0,0,0,0,0,0,0],"split_type":[0,0,0,0,0,0,0,0,0,0,0,0,0,0,0,0,0,0,0,0,0,0,0,0,0,0,0,0,0],"sum_hessian":[4.626E3,7.84E2,3.842E3,4.5E2,3.34E2,2.736E3,1.106E3,2.15E2,2.35E2,1.69E2,1.65E2,1.235E3,1.501E3,4.71E2,6.35E2,9E1,1.25E2,1.9E1,1.5E2,8.4E1,8.1E1,1.107E3,1.28E2,1.44E2,1.357E3,1.96E2,2.75E2,4.1E2,2.25E2],"tree_param":{"num_deleted":"0","num_feature":"2","num_nodes":"29","size_leaf_vector":"1"}},{"base_weights":[-4.456809E-3,-3.9293962E0,7.9728186E-1,-5.2322083E0,-2.163731E0,1.8206553E0,-1.7336761E0,-5.843018E0,-4.650992E-1,3.3864465E-1,-4.713371E0,2.6669378E0,1.123035E0,-3.1828482E0,-6.55464E-1,-6.08262E-1,-5.2193874E-1,1.1111239E-1,9.241163E-3,-4.2186695E-1,-5.1686907E-1,2.9310435E-1,3.778237E-2,-2.575387E-1,1.5171057E-1,-2.1091662E-1,-5.2831835E-1,1.165838E-2,-2.0565975E-1],"categories":[],"categories_nodes":[],"categories_segments":[],"categories_sizes":[],"default_left":[0,0,0,0,0,0,0,0,0,0,0,0,0,0,0,0,0,0,0,0,0,0,0,0,0,0,0,0,0],"id":7,"left_children":[1,3,5,7,9,11,13,15,-1,17,19,21,23,25,27,-1,-1,-1,-1,-1,-1,-1,-1,-1,-1,-1,-1,-1,-1],"loss_changes":[1.4563263E4,1.7944375E3,9.95697E3,1.3293555E2,2.1389485E3,1.6128857E3,1.7276174E3,5.2783203E-1,0E0,3.2233E1,1.5586182E1,7.461387E2,2.1929824E3,1.0532607E3,6.882277E2,0E0,0E0,0E0,0E0,0E0,0E0,0E0,0E0,0E0,0E0,0E0,0E0,0E0,0E0],"parents":[2147483647,0,0,1,1,2,2,3,3,4,4,5,5,6,6,7,7,9,9,10,10,11,11,12,12,13,13,14,14],"right_children":[2,4,6,8,10,12,14,16,-1,18,20,22,24,26,28,-1,-1,-1,-1,-1,-1,-1,-1,-1,-1,-1,-1,-1,-1],"split_conditions":[6E0,3E0,1.9E1,5E0,5E0,5E0,4E0,2E0,-4.650992E-1,2E0,7E0,1.8E1,8E0,2.2E1,2.2E1,-6.08262E-1,-5.2193874E-1,1.1111239E-1,9.241163E-3,-4.2186695E-1,-5.1686907E-1,2.9310435E-1,3.778237E-2,-2.575387E-1,1.5171057E-1,-2.1091662E-1,-5.2831835E-1,1.165838E-2,-2.0565975E-1],"split_indices":[1,1,1,0,0,0,0,1,0,0,0,1,1,1,1,0,0,0,0,0,0,0,0,0,0,0,0,0,0],"split_type":[0,0,0,0,0,0,0,0,0,0,0,0,0,0,0,0,0,0,0,0,0,0,0,0,0,0,0,0,0],"sum_hessian":[4.626E3,7.84E2,3.842E3,4.5E2,3.34E2,2.736E3,1.106E3,2.15E2,2.35E2,1.69E2,1.65E2,1.235E3,1.501E3,4.71E2,6.35E2,1.49E2,6.6E1,4E1,1.29E2,8.4E1,8.1E1,1.107E3,1.28E2,1.44E2,1.357E3,3.13E2,1.58E2,4.1E2,2.25E2],"tree_param":{"num_deleted":"0","num_feature":"2","num_nodes":"29","size_leaf_vector":"1"}},{"base_weights":[-4.6858084E-3,-3.5395312E0,7.1736944E-1,-4.7125244E0,-1.9498011E0,1.6386721E0,-1.5611516E0,-5.2639484E0,-4.1878635E-1,3.0548793E-1,-4.247689E0,2.400512E0,1.010661E0,-2.8661296E0,-5.902228E-1,-4.8111644E-1,-5.549182E-1,-8.929793E-2,4.622022E-2,-3.801765E-1,-4.6581253E-1,2.6382038E-1,3.4033395E-2,-2.3196244E-1,1.365507E-1,-1.2144204E-1,-4.0346822E-1,1.0495351E-2,-1.8518476E-1],"categories":[],"categories_nodes":[],"categories_segments":[],"categories_sizes":[],"default_left":[0,0,0,0,0,0,0,0,0,0,0,0,0,0,0,0,0,0,0,0,0,0,0,0,0,0,0,0,0],"id":8,"left_children":[1,3,5,7,9,11,13,15,-1,17,19,21,23,25,27,-1,-1,-1,-1,-1,-1,-1,-1,-1,-1,-1,-1,-1,-1],"loss_changes":[1.1812279E4,1.4546338E3,8.0698125E3,1.0843555E2,1.7374019E3,1.3070747E3,1.4009221E3,1.1977539E0,0E0,3.2341614E1,1.2672607E1,6.0435596E2,1.7781381E3,9.061118E2,5.5799927E2,0E0,0E0,0E0,0E0,0E0,0E0,0E0,0E0,0E0,0E0,0E0,0E0,0E0,0E0],"parents":[2147483647,0,0,1,1,2,2,3,3,4,4,5,5,6,6,7,7,9,9,10,10,11,11,12,12,13,13,14,14],"right_children":[2,4,6,8,10,12,14,16,-1,18,20,22,24,26,28,-1,-1,-1,-1,-1,-1,-1,-1,-1,-1,-1,-1,-1,-1],"split_conditions":[6E0,3E0,1.9E1,5E0,5E0,5E0,4E0,2E0,-4.1878635E-1,4E0,7E0,1.8E1,8E0,2.1E1,2.2E1,-4.8111644E-1,-5.549182E-1,-8.929793E-2,4.622022E-2,-3.801765E-1,-4.6581253E-1,2.6382038E-1,3.4033395E-2,-2.3196244E-1,1.365507E-1,-1.2144204E-1,-4.0346822E-1,1.0495351E-2,-1.8518476E-1],"split_indices":[1,1,1,0,0,0,0,0,0,1,0,1,1,1,1,0,0,0,0,0,0,0,0,0,0,0,0,0,0],"split_type":[0,0,0,0,0,0,0,0,0,0,0,0,0,0,0,0,0,0,0,0,0,0,0,0,0,0,0,0,0],"sum_hessian":[4.626E3,7.84E2,3.842E3,4.5E2,3.34E2,2.736E3,1.106E3,2.15E2,2.35E2,1.69E2,1.65E2,1.235E3,1.501E3,4.71E2,6.35E2,9E1,1.25E2,1.9E1,1.5E2,8.4E1,8.1E1,1.107E3,1.28E2,1.44E2,1.357E3,1.96E2,2.75E2,4.1E2,2.25E2],"tree_param":{"num_deleted":"0","num_feature":"2","num_nodes":"29","size_leaf_vector":"1"}},{"base_weights":[-4.831391E-3,-3.1885638E0,6.455029E-1,-4.2444983E0,-1.7574747E0,1.2488496E0,-2.1982682E0,-4.74235E0,-3.7708516E0,2.7468622E-1,-3.828016E0,1.5910896E0,3.402097E-2,-3.6326761E0,-1.19803E0,-4.3353352E-1,-4.9986678E-1,-4.0880582E-1,-3.543584E-1,1.0204299E-1,3.7377197E-3,-3.4260613E-1,-4.1979933E-1,1.1041176E-1,2.6492584E-1,-1.2027816E-1,9.006027E-2,-2.6255482E-1,-4.3572575E-1,-7.656492E-2,-2.6278442E-1],"categories":[],"categories_nodes":[],"categories_segments":[],"categories_sizes":[],"default_left":[0,0,0,0,0,0,0,0,0,0,0,0,0,0,0,0,0,0,0,0,0,0,0,0,0,0,0,0,0,0,0],"id":9,"left_children":[1,3,5,7,9,11,13,15,17,19,21,23,25,27,29,-1,-1,-1,-1,-1,-1,-1,-1,-1,-1,-1,-1,-1,-1,-1,-1],"loss_changes":[9.582218E3,1.1787822E3,6.5964883E3,8.846533E1,1.410622E3,1.3183301E3,9.6123486E2,8.6328125E-1,2.5270996E0,3.0047049E1,1.0304199E1,1.2719233E3,7.49193E2,1.8996948E2,2.4404126E2,0E0,0E0,0E0,0E0,0E0,0E0,0E0,0E0,0E0,0E0,0E0,0E0,0E0,0E0,0E0,0E0],"parents":[2147483647,0,0,1,1,2,2,3,3,4,4,5,5,6,6,7,7,8,8,9,9,10,10,11,11,12,12,13,13,14,14],"right_children":[2,4,6,8,10,12,14,16,18,20,22,24,26,28,30,-1,-1,-1,-1,-1,-1,-1,-1,-1,-1,-1,-1,-1,-1,-1,-1],"split_conditions":[6E0,3E0,2.1E1,5E0,5E0,1.8E1,4E0,2E0,7E0,2E0,7E0,1.5E1,4E0,2.2E1,2.3E1,-4.3353352E-1,-4.9986678E-1,-4.0880582E-1,-3.543584E-1,1.0204299E-1,3.7377197E-3,-3.4260613E-1,-4.1979933E-1,1.1041176E-1,2.6492584E-1,-1.2027816E-1,9.006027E-2,-2.6255482E-1,-4.3572575E-1,-7.656492E-2,-2.6278442E-1],"split_indices":[1,1,1,0,0,1,0,0,0,0,0,1,0,1,1,0,0,0,0,0,0,0,0,0,0,0,0,0,0,0,0],"split_type":[0,0,0,0,0,0,0,0,0,0,0,0,0,0,0,0,0,0,0,0,0,0,0,0,0,0,0,0,0,0,0],"sum_hessian":[4.626E3,7.84E2,3.842E3,4.5E2,3.34E2,3.17E3,6.72E2,2.15E2,2.35E2,1.69E2,1.65E2,2.473E3,6.97E2,2.75E2,3.97E2,9E1,1.25E2,9.1E1,1.44E2,4E1,1.29E2,8.4E1,8.1E1,1.695E3,7.78E2,2.87E2,4.1E2,1.17E2,1.58E2,3.06E2,9.1E1],"tree_param":{"num_deleted":"0","num_feature":"2","num_nodes":"31","size_leaf_vector":"1"}},{"base_weights":[-5.0065964E-3,-3.6921172E0,4.5062444E-1,-3.82381E0,-2.6228693E0,9.2505103E-1,-1.9799833E0,-4.272436E0,-3.3970003E0,-9.050869E-2,-3.4161887E-1,-4.852787E-1,1.2775537E0,-3.2719383E0,-1.0790799E0,-4.4530812E-1,-3.8042402E-1,-3.6836955E-1,-3.1916696E-1,1.3274966E-1,-2.2706139E-1,1.8139514E-1,2.5970295E-2,-2.3652183E-1,-3.924272E-1,-6.893338E-2,-2.3679164E-1],"categories":[],"categories_nodes":[],"categories_segments":[],"categories_sizes":[],"default_left":[0,0,0,0,0,0,0,0,0,0,0,0,0,0,0,0,0,0,0,0,0,0,0,0,0,0,0],"id":10,"left_children":[1,3,5,7,9,11,13,15,17,-1,-1,19,21,23,25,-1,-1,-1,-1,-1,-1,-1,-1,-1,-1,-1,-1],"loss_changes":[7.774848E3,6.1644043E1,4.7516353E3,7.184277E1,7.73103E1,1.7142788E3,7.79792E2,1.328125E0,2.1357422E0,0E0,0E0,2.236138E3,1.5053218E3,1.5396802E2,1.9829071E2,0E0,0E0,0E0,0E0,0E0,0E0,0E0,0E0,0E0,0E0,0E0,0E0],"parents":[2147483647,0,0,1,1,2,2,3,3,4,4,5,5,6,6,7,7,8,8,11,11,12,12,13,13,14,14],"right_children":[2,4,6,8,10,12,14,16,18,-1,-1,20,22,24,26,-1,-1,-1,-1,-1,-1,-1,-1,-1,-1,-1,-1],"split_conditions":[4E0,3E0,2.1E1,5E0,2E0,9E0,4E0,2E0,7E0,-9.050869E-2,-3.4161887E-1,5E0,1.7E1,2.2E1,2.3E1,-4.4530812E-1,-3.8042402E-1,-3.6836955E-1,-3.1916696E-1,1.3274966E-1,-2.2706139E-1,1.8139514E-1,2.5970295E-2,-2.3652183E-1,-3.924272E-1,-6.893338E-2,-2.3679164E-1],"split_indices":[1,1,1,0,0,1,0,1,0,0,0,0,1,1,1,0,0,0,0,0,0,0,0,0,0,0,0],"split_type":[0,0,0,0,0,0,0,0,0,0,0,0,0,0,0,0,0,0,0,0,0,0,0,0,0,0,0],"sum_hessian":[4.626E3,5.08E2,4.118E3,4.5E2,5.8E1,3.446E3,6.72E2,2.15E2,2.35E2,1.9E1,3.9E1,6.89E2,2.757E3,2.75E2,3.97E2,1.49E2,6.6E1,9.1E1,1.44E2,3.42E2,3.47E2,1.805E3,9.52E2,1.17E2,1.58E2,3.06E2,9.1E1],"tree_param":{"num_deleted":"0","num_feature":"2","num_nodes":"27","size_leaf_vector":"1"}},{"base_weights":[-5.103759E-3,-2.6247041E0,5.299968E-1,-3.3267274E0,-1.3252294E0,1.2140152E0,-1.161682E0,-3.4447844E0,-2.3679066E0,2.670339E-1,-3.207958E0,1.8793344E0,6.6571397E-1,-2.1405346E0,-4.334114E-1,-3.8490155E-1,-3.0602136E-1,-8.1910394E-2,-3.0831102E-1,2.4122679E-1,-9.80598E-3,-2.8069824E-1,-3.5588095E-1,1.3524796E-1,2.6679453E-1,-1.9734168E-1,9.470161E-2,-1.4279509E-1,-3.534313E-1,8.818316E-3,-1.3800572E-1],"categories":[],"categories_nodes":[],"categories_segments":[],"categories_sizes":[],"default_left":[0,0,0,0,0,0,0,0,0,0,0,0,0,0,0,0,0,0,0,0,0,0,0,0,0,0,0,0,0,0,0],"id":11,"left_children":[1,3,5,7,9,11,13,15,17,19,21,23,25,27,29,-1,-1,-1,-1,-1,-1,-1,-1,-1,-1,-1,-1,-1,-1,-1,-1],"loss_changes":[6.4872866E3,7.117163E2,4.448298E3,4.9459473E1,8.312471E2,9.9719385E2,7.882189E2,5.8331543E1,6.2829468E1,1.1850149E2,7.8771973E0,5.099292E2,1.1169434E3,4.6373608E2,3.141564E2,0E0,0E0,0E0,0E0,0E0,0E0,0E0,0E0,0E0,0E0,0E0,0E0,0E0,0E0,0E0,0E0],"parents":[2147483647,0,0,1,1,2,2,3,3,4,4,5,5,6,6,7,7,8,8,9,9,10,10,11,11,12,12,13,13,14,14],"right_children":[2,4,6,8,10,12,14,16,18,20,22,24,26,28,30,-1,-1,-1,-1,-1,-1,-1,-1,-1,-1,-1,-1,-1,-1,-1,-1],"split_conditions":[6E0,4E0,1.9E1,3E0,5E0,5E0,4E0,5E0,2E0,2E0,7E0,1.4E1,8E0,2.2E1,2.2E1,-3.8490155E-1,-3.0602136E-1,-8.1910394E-2,-3.0831102E-1,2.4122679E-1,-9.80598E-3,-2.8069824E-1,-3.5588095E-1,1.3524796E-1,2.6679453E-1,-1.9734168E-1,9.470161E-2,-1.4279509E-1,-3.534313E-1,8.818316E-3,-1.3800572E-1],"split_indices":[1,1,1,1,0,0,0,0,0,0,0,1,1,1,1,0,0,0,0,0,0,0,0,0,0,0,0,0,0,0,0],"split_type":[0,0,0,0,0,0,0,0,0,0,0,0,0,0,0,0,0,0,0,0,0,0,0,0,0,0,0,0,0,0,0],"sum_hessian":[4.626E3,7.84E2,3.842E3,5.08E2,2.76E2,2.736E3,1.106E3,4.5E2,5.8E1,1.5E2,1.26E2,1.235E3,1.501E3,4.71E2,6.35E2,2.15E2,2.35E2,1.9E1,3.9E1,2.1E1,1.29E2,6.3E1,6.3E1,7.42E2,4.93E2,1.44E2,1.357E3,3.13E2,1.58E2,4.1E2,2.25E2],"tree_param":{"num_deleted":"0","num_feature":"2","num_nodes":"31","size_leaf_vector":"1"}},{"base_weights":[-4.985189E-3,-2.3641272E0,4.7691217E-1,-2.9961786E0,-1.1941695E0,9.242827E-1,-1.6316895E0,-3.1018379E0,-2.13773E0,2.4186274E-1,-2.892175E0,1.1918777E0,-2.550856E-2,-2.6841645E0,-8.97733E-1,-3.3425537E-1,-2.570793E-1,-7.4128926E-2,-2.782507E-1,2.1820067E-1,-8.832978E-3,-2.5306702E-1,-3.2084894E-1,1.8784185E-1,6.345412E-2,-1.0959207E-1,7.246233E-2,-1.9891164E-1,-3.1831047E-1,-5.653287E-2,-1.9971935E-1],"categories":[],"categories_nodes":[],"categories_segments":[],"categories_sizes":[],"default_left":[0,0,0,0,0,0,0,0,0,0,0,0,0,0,0,0,0,0,0,0,0,0,0,0,0,0,0,0,0,0,0],"id":12,"left_children":[1,3,5,7,9,11,13,15,17,19,21,23,25,27,29,-1,-1,-1,-1,-1,-1,-1,-1,-1,-1,-1,-1,-1,-1,-1,-1],"loss_changes":[5.2613984E3,5.769087E2,3.6267112E3,3.953711E1,6.7613367E2,8.059697E2,5.1746326E2,4.9058594E1,5.1060516E1,9.6926506E1,6.40271E0,9.4544507E2,5.6125336E2,8.9381714E1,1.4432611E2,0E0,0E0,0E0,0E0,0E0,0E0,0E0,0E0,0E0,0E0,0E0,0E0,0E0,0E0,0E0,0E0],"parents":[2147483647,0,0,1,1,2,2,3,3,4,4,5,5,6,6,7,7,8,8,9,9,10,10,11,11,12,12,13,13,14,14],"right_children":[2,4,6,8,10,12,14,16,18,20,22,24,26,28,30,-1,-1,-1,-1,-1,-1,-1,-1,-1,-1,-1,-1,-1,-1,-1,-1],"split_conditions":[6E0,4E0,2.1E1,3E0,5E0,1.8E1,4E0,7E0,2E0,2E0,7E0,5E0,4E0,2.2E1,2.3E1,-3.3425537E-1,-2.570793E-1,-7.4128926E-2,-2.782507E-1,2.1820067E-1,-8.832978E-3,-2.5306702E-1,-3.2084894E-1,1.8784185E-1,6.345412E-2,-1.0959207E-1,7.246233E-2,-1.9891164E-1,-3.1831047E-1,-5.653287E-2,-1.9971935E-1],"split_indices":[1,1,1,1,0,1,0,0,0,0,0,0,0,1,1,0,0,0,0,0,0,0,0,0,0,0,0,0,0,0,0],"split_type":[0,0,0,0,0,0,0,0,0,0,0,0,0,0,0,0,0,0,0,0,0,0,0,0,0,0,0,0,0,0,0],"sum_hessian":[4.626E3,7.84E2,3.842E3,5.08E2,2.76E2,3.17E3,6.72E2,4.5E2,5.8E1,1.5E2,1.26E2,2.473E3,6.97E2,2.75E2,3.97E2,3.06E2,1.44E2,1.9E1,3.9E1,2.1E1,1.29E2,6.3E1,6.3E1,1.107E3,1.366E3,2.87E2,4.1E2,1.17E2,1.58E2,3.06E2,9.1E1],"tree_param":{"num_deleted":"0","num_feature":"2","num_nodes":"31","size_leaf_vector":"1"}},{"base_weights":[-4.890034E-3,-2.1293812E0,4.2907572E-1,-2.698415E0,-1.0760685E0,8.319224E-1,-1.4696699E0,-2.7929654E0,-1.9299294E0,2.1906316E-1,-2.6074765E0,1.0423509E0,-2.4039598E-1,-2.417622E0,-8.086035E-1,-3.1331882E-1,-2.4697407E-1,-6.708666E-2,-2.5112125E-1,1.9737242E-1,-7.956455E-3,-2.2815573E-1,-2.8926536E-1,1.3264357E-1,1.2891978E-2,-2.459142E-1,3.7319496E-2,-1.7918903E-1,-2.8667966E-1,-5.0898004E-2,-1.7996448E-1],"categories":[],"categories_nodes":[],"categories_segments":[],"categories_sizes":[],"default_left":[0,0,0,0,0,0,0,0,0,0,0,0,0,0,0,0,0,0,0,0,0,0,0,0,0,0,0,0,0,0,0],"id":13,"left_children":[1,3,5,7,9,11,13,15,17,19,21,23,25,27,29,-1,-1,-1,-1,-1,-1,-1,-1,-1,-1,-1,-1,-1,-1,-1,-1],"loss_changes":[4.266806E3,4.676023E2,2.9407463E3,3.1593994E1,5.4996606E2,7.1577515E2,4.1978674E2,4.1857178E1,4.1495773E1,7.927959E1,5.2041626E0,6.877417E2,7.102084E2,7.24364E1,1.1726584E2,0E0,0E0,0E0,0E0,0E0,0E0,0E0,0E0,0E0,0E0,0E0,0E0,0E0,0E0,0E0,0E0],"parents":[2147483647,0,0,1,1,2,2,3,3,4,4,5,5,6,6,7,7,8,8,9,9,10,10,11,11,12,12,13,13,14,14],"right_children":[2,4,6,8,10,12,14,16,18,20,22,24,26,28,30,-1,-1,-1,-1,-1,-1,-1,-1,-1,-1,-1,-1,-1,-1,-1,-1],"split_conditions":[6E0,4E0,2.1E1,3E0,5E0,7E0,4E0,5E0,2E0,2E0,7E0,1.8E1,1E1,2.2E1,2.3E1,-3.1331882E-1,-2.4697407E-1,-6.708666E-2,-2.5112125E-1,1.9737242E-1,-7.956455E-3,-2.2815573E-1,-2.8926536E-1,1.3264357E-1,1.2891978E-2,-2.459142E-1,3.7319496E-2,-1.7918903E-1,-2.8667966E-1,-5.0898004E-2,-1.7996448E-1],"split_indices":[1,1,1,1,0,0,0,0,0,0,0,1,1,1,1,0,0,0,0,0,0,0,0,0,0,0,0,0,0,0,0],"split_type":[0,0,0,0,0,0,0,0,0,0,0,0,0,0,0,0,0,0,0,0,0,0,0,0,0,0,0,0,0,0,0],"sum_hessian":[4.626E3,7.84E2,3.842E3,5.08E2,2.76E2,3.17E3,6.72E2,4.5E2,5.8E1,1.5E2,1.26E2,2.65E3,5.2E2,2.75E2,3.97E2,2.15E2,2.35E2,1.9E1,3.9E1,2.1E1,1.29E2,6.3E1,6.3E1,2.021E3,6.29E2,1.12E2,4.08E2,1.17E2,1.58E2,3.06E2,9.1E1],"tree_param":{"num_deleted":"0","num_feature":"2","num_nodes":"31","size_leaf_vector":"1"}},{"base_weights":[-4.825662E-3,-1.9179801E0,3.8597086E-1,-2.4302995E0,-9.696458E-1,8.8999575E-1,-8.6055315E-1,-2.5149114E0,-1.7423301E0,1.9841121E-1,-2.350803E0,1.121743E0,-1.4908476E-1,-2.3948565E0,-5.620239E-1,-2.7167547E-1,-2.070216E-1,-6.071347E-2,-2.2663696E-1,1.7853232E-1,-7.1669356E-3,-2.0569663E-1,-2.6079082E-1,8.484199E-2,1.5611954E-1,-2.2154038E-1,4.5308825E-2,-1.4054778E-1,-2.667497E-1,-1.0580785E-2,-1.4368226E-1],"categories":[],"categories_nodes":[],"categories_segments":[],"categories_sizes":[],"default_left":[0,0,0,0,0,0,0,0,0,0,0,0,0,0,0,0,0,0,0,0,0,0,0,0,0,0,0,0,0,0,0],"id":14,"left_children":[1,3,5,7,9,11,13,15,17,19,21,23,25,27,29,-1,-1,-1,-1,-1,-1,-1,-1,-1,-1,-1,-1,-1,-1,-1,-1],"loss_changes":[3.4601357E3,3.790359E2,2.4152424E3,2.5247314E1,4.4734225E2,6.592478E2,5.0569818E2,3.4856934E1,3.3722336E1,6.484566E1,4.2300415E0,2.674873E2,6.2314453E2,4.4805054E1,3.702101E2,0E0,0E0,0E0,0E0,0E0,0E0,0E0,0E0,0E0,0E0,0E0,0E0,0E0,0E0,0E0,0E0],"parents":[2147483647,0,0,1,1,2,2,3,3,4,4,5,5,6,6,7,7,8,8,9,9,10,10,11,11,12,12,13,13,14,14],"right_children":[2,4,6,8,10,12,14,16,18,20,22,24,26,28,30,-1,-1,-1,-1,-1,-1,-1,-1,-1,-1,-1,-1,-1,-1,-1,-1],"split_conditions":[6E0,4E0,1.9E1,3E0,5E0,7E0,2E0,7E0,2E0,2E0,7E0,1.5E1,1E1,2E1,2.2E1,-2.7167547E-1,-2.070216E-1,-6.071347E-2,-2.2663696E-1,1.7853232E-1,-7.1669356E-3,-2.0569663E-1,-2.6079082E-1,8.484199E-2,1.5611954E-1,-2.2154038E-1,4.5308825E-2,-1.4054778E-1,-2.667497E-1,-1.0580785E-2,-1.4368226E-1],"split_indices":[1,1,1,1,0,0,0,0,0,0,0,1,1,1,1,0,0,0,0,0,0,0,0,0,0,0,0,0,0,0,0],"split_type":[0,0,0,0,0,0,0,0,0,0,0,0,0,0,0,0,0,0,0,0,0,0,0,0,0,0,0,0,0,0,0],"sum_hessian":[4.626E3,7.84E2,3.842E3,5.08E2,2.76E2,2.736E3,1.106E3,4.5E2,5.8E1,1.5E2,1.26E2,2.237E3,4.99E2,1.79E2,9.27E2,3.06E2,1.44E2,1.9E1,3.9E1,2.1E1,1.29E2,6.3E1,6.3E1,1.381E3,8.56E2,1.12E2,3.87E2,4E1,1.39E2,6.1E2,3.17E2],"tree_param":{"num_deleted":"0","num_feature":"2","num_nodes":"31","size_leaf_vector":"1"}},{"base_weights":[-4.6800454E-3,-1.7275338E0,3.472442E-1,-2.1887746E0,-8.737467E-1,8.864967E-1,-6.2681276E-1,-2.2644815E0,-1.5729674E0,1.7970487E-1,-2.1193957E0,5.0972605E-1,1.7056451E0,-1.5009717E0,-1.6938644E-2,-2.550902E-1,-1.9927385E-1,-5.494566E-2,-2.0453985E-1,1.6149066E-1,-6.4557763E-3,-1.8544838E-1,-2.3511922E-1,7.636387E-2,-6.058834E-2,2.7398604E-1,7.872191E-2,-1.1490027E-1,-2.3880564E-1,5.8889993E-2,-6.425234E-2],"categories":[],"categories_nodes":[],"categories_segments":[],"categories_sizes":[],"default_left":[0,0,0,0,0,0,0,0,0,0,0,0,0,0,0,0,0,0,0,0,0,0,0,0,0,0,0,0,0,0,0],"id":15,"left_children":[1,3,5,7,9,11,13,15,17,19,21,23,25,27,29,-1,-1,-1,-1,-1,-1,-1,-1,-1,-1,-1,-1,-1,-1,-1,-1],"loss_changes":[2.806015E3,3.0722168E2,2.0191404E3,2.0167969E1,3.6386884E2,7.626836E2,7.3035834E2,3.0019287E1,2.7404922E1,5.3039745E1,3.4382935E0,4.8088406E2,7.3777637E2,1.7303967E2,3.0661307E2,0E0,0E0,0E0,0E0,0E0,0E0,0E0,0E0,0E0,0E0,0E0,0E0,0E0,0E0,0E0,0E0],"parents":[2147483647,0,0,1,1,2,2,3,3,4,4,5,5,6,6,7,7,8,8,9,9,10,10,11,11,12,12,13,13,14,14],"right_children":[2,4,6,8,10,12,14,16,18,20,22,24,26,28,30,-1,-1,-1,-1,-1,-1,-1,-1,-1,-1,-1,-1,-1,-1,-1,-1],"split_conditions":[6E0,4E0,1.8E1,3E0,5E0,1.5E1,4E0,5E0,2E0,2E0,7E0,7E0,5E0,2.2E1,2.1E1,-2.550902E-1,-1.9927385E-1,-5.494566E-2,-2.0453985E-1,1.6149066E-1,-6.4557763E-3,-1.8544838E-1,-2.3511922E-1,7.636387E-2,-6.058834E-2,2.7398604E-1,7.872191E-2,-1.1490027E-1,-2.3880564E-1,5.8889993E-2,-6.425234E-2],"split_indices":[1,1,1,1,0,1,0,0,0,0,0,0,0,1,1,0,0,0,0,0,0,0,0,0,0,0,0,0,0,0,0],"split_type":[0,0,0,0,0,0,0,0,0,0,0,0,0,0,0,0,0,0,0,0,0,0,0,0,0,0,0,0,0,0,0],"sum_hessian":[4.626E3,7.84E2,3.842E3,5.08E2,2.76E2,2.473E3,1.369E3,4.5E2,5.8E1,1.5E2,1.26E2,1.695E3,7.78E2,5.62E2,8.07E2,2.15E2,2.35E2,1.9E1,3.9E1,2.1E1,1.29E2,6.3E1,6.3E1,1.381E3,3.14E2,3.65E2,4.13E2,4.04E2,1.58E2,4.1E2,3.97E2],"tree_param":{"num_deleted":"0","num_feature":"2","num_nodes":"31","size_leaf_vector":"1"}},{"base_weights":[-4.4219317E-3,-1.556028E0,3.1252193E-1,-1.9712994E0,-7.873308E-1,8.726035E-1,-4.5248327E-1,-2.0390406E0,-1.4200686E0,1.627608E-1,-1.9107678E0,4.5876238E-1,2.2103932E0,9.585878E-4,-1.0939062E0,-2.2082496E-1,-1.6667223E-1,-4.972579E-2,-1.8459724E-1,1.4607558E-1,-5.815189E-3,-2.2326158E-1,-1.7254709E-1,6.8732955E-2,-5.4548718E-2,3.5150692E-1,1.822544E-1,1.975953E-2,-1.433643E-1,-1.6395651E-1,-3.587733E-2],"categories":[],"categories_nodes":[],"categories_segments":[],"categories_sizes":[],"default_left":[0,0,0,0,0,0,0,0,0,0,0,0,0,0,0,0,0,0,0,0,0,0,0,0,0,0,0,0,0,0,0],"id":16,"left_children":[1,3,5,7,9,11,13,15,17,19,21,23,25,27,29,-1,-1,-1,-1,-1,-1,-1,-1,-1,-1,-1,-1,-1,-1,-1,-1],"loss_changes":[2.2759155E3,2.4903394E2,1.6469868E3,1.6111084E1,2.9597192E2,1.2274963E3,4.72629E2,2.4732422E1,2.227076E1,4.338322E1,3.7216492E0,3.896722E2,2.5874683E2,2.691201E2,2.6937347E2,0E0,0E0,0E0,0E0,0E0,0E0,0E0,0E0,0E0,0E0,0E0,0E0,0E0,0E0,0E0,0E0],"parents":[2147483647,0,0,1,1,2,2,3,3,4,4,5,5,6,6,7,7,8,8,9,9,10,10,11,11,12,12,13,13,14,14],"right_children":[2,4,6,8,10,12,14,16,18,20,22,24,26,28,30,-1,-1,-1,-1,-1,-1,-1,-1,-1,-1,-1,-1,-1,-1,-1,-1],"split_conditions":[6E0,4E0,1.7E1,3E0,5E0,1.5E1,2.1E1,7E0,2E0,2E0,6E0,7E0,3E0,7E0,5E0,-2.2082496E-1,-1.6667223E-1,-4.972579E-2,-1.8459724E-1,1.4607558E-1,-5.815189E-3,-2.2326158E-1,-1.7254709E-1,6.8732955E-2,-5.4548718E-2,3.5150692E-1,1.822544E-1,1.975953E-2,-1.433643E-1,-1.6395651E-1,-3.587733E-2],"split_indices":[1,1,1,1,0,1,1,0,0,0,0,0,0,0,0,0,0,0,0,0,0,0,0,0,0,0,0,0,0,0,0],"split_type":[0,0,0,0,0,0,0,0,0,0,0,0,0,0,0,0,0,0,0,0,0,0,0,0,0,0,0,0,0,0,0],"sum_hessian":[4.626E3,7.84E2,3.842E3,5.08E2,2.76E2,2.218E3,1.624E3,4.5E2,5.8E1,1.5E2,1.26E2,1.695E3,5.23E2,9.52E2,6.72E2,3.06E2,1.44E2,1.9E1,3.9E1,2.1E1,1.29E2,4.2E1,8.4E1,1.381E3,3.14E2,1.18E2,4.05E2,8.38E2,1.14E2,3.85E2,2.87E2],"tree_param":{"num_deleted":"0","num_feature":"2","num_nodes":"31","size_leaf_vector":"1"}},{"base_weights":[-4.120974E-3,-1.4015429E0,2.81328E-1,-1.7753912E0,-7.095203E-1,7.209469E-1,-5.127585E-1,-1.3505365E0,-1.8646525E0,1.4741379E-1,-1.7228079E0,4.128942E-1,1.3906983E0,-1.2814896E0,2.351433E-2,-1.763719E-1,-2.9051488E-2,-2.1307357E-1,-1.605951E-1,1.3213193E-1,-5.2381107E-3,-1.4688009E-1,-1.9498959E-1,6.186461E-2,-4.9111206E-2,1.9903724E-1,1.5780844E-2,-1.0010227E-1,-1.9878271E-1,5.1648647E-2,-5.3308714E-2],"categories":[],"categories_nodes":[],"categories_segments":[],"categories_sizes":[],"default_left":[0,0,0,0,0,0,0,0,0,0,0,0,0,0,0,0,0,0,0,0,0,0,0,0,0,0,0,0,0,0,0],"id":17,"left_children":[1,3,5,7,9,11,13,15,17,19,21,23,25,27,29,-1,-1,-1,-1,-1,-1,-1,-1,-1,-1,-1,-1,-1,-1,-1,-1],"loss_changes":[1.8460706E3,2.0182874E2,1.3419431E3,1.6784668E1,2.4077876E2,5.0985828E2,5.648122E2,3.9781982E1,2.5351685E1,3.5484806E1,4.4615784E0,3.157614E2,5.756256E2,1.0954285E2,2.2198166E2,0E0,0E0,0E0,0E0,0E0,0E0,0E0,0E0,0E0,0E0,0E0,0E0,0E0,0E0,0E0,0E0],"parents":[2147483647,0,0,1,1,2,2,3,3,4,4,5,5,6,6,7,7,8,8,9,9,10,10,11,11,12,12,13,13,14,14],"right_children":[2,4,6,8,10,12,14,16,18,20,22,24,26,28,30,-1,-1,-1,-1,-1,-1,-1,-1,-1,-1,-1,-1,-1,-1,-1,-1],"split_conditions":[6E0,4E0,1.8E1,1E0,5E0,1.5E1,4E0,7E0,2E0,2E0,7E0,7E0,1.7E1,2.2E1,6E0,-1.763719E-1,-2.9051488E-2,-2.1307357E-1,-1.605951E-1,1.3213193E-1,-5.2381107E-3,-1.4688009E-1,-1.9498959E-1,6.186461E-2,-4.9111206E-2,1.9903724E-1,1.5780844E-2,-1.0010227E-1,-1.9878271E-1,5.1648647E-2,-5.3308714E-2],"split_indices":[1,1,1,1,0,1,0,0,1,0,0,0,1,1,0,0,0,0,0,0,0,0,0,0,0,0,0,0,0,0,0],"split_type":[0,0,0,0,0,0,0,0,0,0,0,0,0,0,0,0,0,0,0,0,0,0,0,0,0,0,0,0,0,0,0],"sum_hessian":[4.626E3,7.84E2,3.842E3,5.08E2,2.76E2,2.473E3,1.369E3,9.1E1,4.17E2,1.5E2,1.26E2,1.695E3,7.78E2,5.62E2,8.07E2,6.5E1,2.6E1,2.02E2,2.15E2,2.1E1,1.29E2,6.3E1,6.3E1,1.381E3,3.14E2,5.23E2,2.55E2,4.04E2,1.58E2,4.28E2,3.79E2],"tree_param":{"num_deleted":"0","num_feature":"2","num_nodes":"31","size_leaf_vector":"1"}},{"base_weights":[-3.8964734E-3,-1.2624002E0,2.5317594E-1,-1.6575618E0,-7.266382E-1,5.029506E-1,-9.2407304E-1,-1.8845366E0,-1.4427984E0,8.359649E-2,-1.5520194E0,7.071259E-1,2.7013611E-2,-1.3790429E0,-3.1107846E-1,-1.5800342E-1,-2.0894985E-1,-1.1031067E-1,-1.5148991E-1,-1.7121261E-2,8.171683E-2,-1.3195914E-1,-1.7740236E-1,3.7161198E-2,1.7917146E-1,-1.2454984E-1,2.4036383E-2,-1.8520187E-1,-1.1789506E-1,7.2938814E-3,-1.4641432E-1],"categories":[],"categories_nodes":[],"categories_segments":[],"categories_sizes":[],"default_left":[0,0,0,0,0,0,0,0,0,0,0,0,0,0,0,0,0,0,0,0,0,0,0,0,0,0,0,0,0,0,0],"id":18,"left_children":[1,3,5,7,9,11,13,15,17,19,21,23,25,27,29,-1,-1,-1,-1,-1,-1,-1,-1,-1,-1,-1,-1,-1,-1,-1,-1],"loss_changes":[1.4972772E3,1.6498999E2,1.1304872E3,1.926538E1,2.2416177E2,3.081214E2,1.8726672E2,1.0179321E1,4.1090393E0,3.191644E1,6.22464E0,8.068163E2,2.5903003E2,3.4347168E1,1.2763226E2,0E0,0E0,0E0,0E0,0E0,0E0,0E0,0E0,0E0,0E0,0E0,0E0,0E0,0E0,0E0,0E0],"parents":[2147483647,0,0,1,1,2,2,3,3,4,4,5,5,6,6,7,7,8,8,9,9,10,10,11,11,12,12,13,13,14,14],"right_children":[2,4,6,8,10,12,14,16,18,20,22,24,26,28,30,-1,-1,-1,-1,-1,-1,-1,-1,-1,-1,-1,-1,-1,-1,-1,-1],"split_conditions":[6E0,3E0,2.1E1,5E0,5E0,1.7E1,5E0,2E0,6E0,4E0,7E0,1.5E1,2E0,2E0,2.3E1,-1.5800342E-1,-2.0894985E-1,-1.1031067E-1,-1.5148991E-1,-1.7121261E-2,8.171683E-2,-1.3195914E-1,-1.7740236E-1,3.7161198E-2,1.7917146E-1,-1.2454984E-1,2.4036383E-2,-1.8520187E-1,-1.1789506E-1,7.2938814E-3,-1.4641432E-1],"split_indices":[1,1,1,0,0,1,0,0,0,0,0,1,0,0,1,0,0,0,0,0,0,0,0,0,0,0,0,0,0,0,0],"split_type":[0,0,0,0,0,0,0,0,0,0,0,0,0,0,0,0,0,0,0,0,0,0,0,0,0,0,0,0,0,0,0],"sum_hessian":[4.626E3,7.84E2,3.842E3,4.5E2,3.34E2,3.17E3,6.72E2,2.15E2,2.35E2,1.69E2,1.65E2,2.218E3,9.52E2,3.85E2,2.87E2,9E1,1.25E2,4.4E1,1.91E2,1.26E2,4.3E1,8.4E1,8.1E1,1.695E3,5.23E2,1.36E2,8.16E2,1.12E2,2.73E2,2.16E2,7.1E1],"tree_param":{"num_deleted":"0","num_feature":"2","num_nodes":"31","size_leaf_vector":"1"}},{"base_weights":[-3.7659432E-3,-1.137273E0,2.2777368E-1,-1.4931998E0,-6.54705E-1,4.5269236E-1,-8.323227E-1,-1.0647808E0,-1.5985368E0,7.561692E-2,-1.398681E0,5.8503985E-1,-2.2159922E-1,-1.2419238E0,-2.8045344E-1,-1.4365153E-1,-1.1666066E-2,-1.7704032E-1,-1.3846926E-1,-1.542262E-2,7.3730916E-2,-1.7421922E-1,-1.2682806E-1,-3.426091E-2,7.394587E-2,-1.869862E-1,2.3433058E-2,-1.668456E-1,-1.0614858E-1,6.5678726E-3,-1.3197622E-1],"categories":[],"categories_nodes":[],"categories_segments":[],"categories_sizes":[],"default_left":[0,0,0,0,0,0,0,0,0,0,0,0,0,0,0,0,0,0,0,0,0,0,0,0,0,0,0,0,0,0,0],"id":19,"left_children":[1,3,5,7,9,11,13,15,17,19,21,23,25,27,29,-1,-1,-1,-1,-1,-1,-1,-1,-1,-1,-1,-1,-1,-1,-1,-1],"loss_changes":[1.2146234E3,1.3385309E2,9.166844E2,1.8650879E1,1.8212534E2,2.8311224E2,1.5178088E2,3.2257713E1,1.0779419E1,2.5968233E1,5.226227E0,3.799997E2,3.919655E2,2.7936523E1,1.0369128E2,0E0,0E0,0E0,0E0,0E0,0E0,0E0,0E0,0E0,0E0,0E0,0E0,0E0,0E0,0E0,0E0],"parents":[2147483647,0,0,1,1,2,2,3,3,4,4,5,5,6,6,7,7,8,8,9,9,10,10,11,11,12,12,13,13,14,14],"right_children":[2,4,6,8,10,12,14,16,18,20,22,24,26,28,30,-1,-1,-1,-1,-1,-1,-1,-1,-1,-1,-1,-1,-1,-1,-1,-1],"split_conditions":[6E0,3E0,2.1E1,1E0,5E0,7E0,5E0,7E0,5E0,4E0,6E0,2E0,1E1,2E0,2.3E1,-1.4365153E-1,-1.1666066E-2,-1.7704032E-1,-1.3846926E-1,-1.542262E-2,7.3730916E-2,-1.7421922E-1,-1.2682806E-1,-3.426091E-2,7.394587E-2,-1.869862E-1,2.3433058E-2,-1.668456E-1,-1.0614858E-1,6.5678726E-3,-1.3197622E-1],"split_indices":[1,1,1,1,0,0,0,0,0,0,0,0,1,0,1,0,0,0,0,0,0,0,0,0,0,0,0,0,0,0,0],"split_type":[0,0,0,0,0,0,0,0,0,0,0,0,0,0,0,0,0,0,0,0,0,0,0,0,0,0,0,0,0,0,0],"sum_hessian":[4.626E3,7.84E2,3.842E3,4.5E2,3.34E2,3.17E3,6.72E2,9.1E1,3.59E2,1.69E2,1.65E2,2.65E3,5.2E2,3.85E2,2.87E2,6.5E1,2.6E1,1.95E2,1.64E2,1.26E2,4.3E1,4.2E1,1.23E2,3.78E2,2.272E3,1.12E2,4.08E2,1.12E2,2.73E2,2.16E2,7.1E1],"tree_param":{"num_deleted":"0","num_feature":"2","num_nodes":"31","size_leaf_vector":"1"}},{"base_weights":[-3.6564742E-3,-1.0244546E0,2.0486036E-1,-1.2993263E0,-5.156671E-1,5.9426206E-1,-3.270087E-1,-9.599909E-1,-1.3709041E0,1.123078E-1,-1.258254E0,2.9466447E-1,1.5628178E0,-1.2806579E0,-1.5432484E-1,-1.2950402E-1,-1.0542635E-2,-1.5798454E-1,-1.16819136E-1,1.2262577E-1,-7.70707E-3,-1.5720247E-1,-1.08472005E-1,4.5911014E-2,-4.2774364E-2,2.2567956E-1,9.262459E-2,-8.0577575E-2,-1.644632E-1,5.850609E-3,-8.6327605E-2],"categories":[],"categories_nodes":[],"categories_segments":[],"categories_sizes":[],"default_left":[0,0,0,0,0,0,0,0,0,0,0,0,0,0,0,0,0,0,0,0,0,0,0,0,0,0,0,0,0,0,0],"id":20,"left_children":[1,3,5,7,9,11,13,15,17,19,21,23,25,27,29,-1,-1,-1,-1,-1,-1,-1,-1,-1,-1,-1,-1,-1,-1,-1,-1],"loss_changes":[9.8508344E2,1.0911322E2,7.9612085E2,1.1046936E1,1.2931358E2,6.434421E2,2.6740704E2,2.6205025E1,1.5858887E1,3.194919E1,5.2099304E0,2.0167589E2,2.2939551E2,4.1713165E1,2.0782156E2,0E0,0E0,0E0,0E0,0E0,0E0,0E0,0E0,0E0,0E0,0E0,0E0,0E0,0E0,0E0,0E0],"parents":[2147483647,0,0,1,1,2,2,3,3,4,4,5,5,6,6,7,7,8,8,9,9,10,10,11,11,12,12,13,13,14,14],"right_children":[2,4,6,8,10,12,14,16,18,20,22,24,26,28,30,-1,-1,-1,-1,-1,-1,-1,-1,-1,-1,-1,-1,-1,-1,-1,-1],"split_conditions":[6E0,4E0,1.7E1,1E0,5E0,1.5E1,2E0,7E0,2E0,2E0,6E0,7E0,5E0,2E1,2.2E1,-1.2950402E-1,-1.0542635E-2,-1.5798454E-1,-1.16819136E-1,1.2262577E-1,-7.70707E-3,-1.5720247E-1,-1.08472005E-1,4.5911014E-2,-4.2774364E-2,2.2567956E-1,9.262459E-2,-8.0577575E-2,-1.644632E-1,5.850609E-3,-8.6327605E-2],"split_indices":[1,1,1,1,0,1,0,0,1,0,0,0,0,1,1,0,0,0,0,0,0,0,0,0,0,0,0,0,0,0,0],"split_type":[0,0,0,0,0,0,0,0,0,0,0,0,0,0,0,0,0,0,0,0,0,0,0,0,0,0,0,0,0,0,0],"sum_hessian":[4.626E3,7.84E2,3.842E3,5.08E2,2.76E2,2.218E3,1.624E3,9.1E1,4.17E2,1.5E2,1.26E2,1.695E3,5.23E2,2.48E2,1.376E3,6.5E1,2.6E1,2.02E2,2.15E2,2.1E1,1.29E2,4.2E1,8.4E1,1.381E3,3.14E2,2.49E2,2.74E2,1.09E2,1.39E2,1.059E3,3.17E2],"tree_param":{"num_deleted":"0","num_feature":"2","num_nodes":"31","size_leaf_vector":"1"}},{"base_weights":[-3.414166E-3,-7.0976114E-1,2.4329343E-1,-1.4793535E-1,-1.2297993E0,7.2706103E-1,-2.9450813E-1,-1.3826151E0,5.891883E-1,-1.3334075E0,-4.9010342E-1,4.4873655E-1,1.4071435E0,-1.1535761E0,-1.389508E-1,-6.789892E-2,-1.4509495E-1,1.1280779E-1,6.750431E-3,-1.0921804E-1,-1.9913292E-1,1.15465075E-2,-1.6382316E-1,-1.4136969E-1,6.474374E-2,2.5598487E-1,1.0658158E-1,-7.259304E-2,-1.4813438E-1,-3.137796E-3,-1.3191728E-1],"categories":[],"categories_nodes":[],"categories_segments":[],"categories_sizes":[],"default_left":[0,0,0,0,0,0,0,0,0,0,0,0,0,0,0,0,0,0,0,0,0,0,0,0,0,0,0,0,0,0,0],"id":21,"left_children":[1,3,5,7,9,11,13,15,17,19,21,23,25,27,29,-1,-1,-1,-1,-1,-1,-1,-1,-1,-1,-1,-1,-1,-1,-1,-1],"loss_changes":[8.0647906E2,3.4983868E2,8.926004E2,5.2594904E2,4.701581E1,3.412149E2,2.1699551E2,9.400482E0,1.0169295E2,8.432117E1,5.4420235E1,4.7571136E2,2.0343958E2,3.3826538E1,1.7478229E2,0E0,0E0,0E0,0E0,0E0,0E0,0E0,0E0,0E0,0E0,0E0,0E0,0E0,0E0,0E0,0E0],"parents":[2147483647,0,0,1,1,2,2,3,3,4,4,5,5,6,6,7,7,8,8,9,9,10,10,11,11,12,12,13,13,14,14],"right_children":[2,4,6,8,10,12,14,16,18,20,22,24,26,28,30,-1,-1,-1,-1,-1,-1,-1,-1,-1,-1,-1,-1,-1,-1,-1,-1],"split_conditions":[9E0,5E0,1.7E1,3E0,8E0,1.5E1,2E0,1E0,3E0,6E0,7E0,2E0,3E0,2E1,7E0,-6.789892E-2,-1.4509495E-1,1.1280779E-1,6.750431E-3,-1.0921804E-1,-1.9913292E-1,1.15465075E-2,-1.6382316E-1,-1.4136969E-1,6.474374E-2,2.5598487E-1,1.0658158E-1,-7.259304E-2,-1.4813438E-1,-3.137796E-3,-1.3191728E-1],"split_indices":[1,0,1,1,1,1,0,1,0,1,0,0,0,1,0,0,0,0,0,0,0,0,0,0,0,0,0,0,0,0,0],"split_type":[0,0,0,0,0,0,0,0,0,0,0,0,0,0,0,0,0,0,0,0,0,0,0,0,0,0,0,0,0,0,0],"sum_hessian":[4.626E3,1.197E3,3.429E3,5.76E2,6.21E2,1.805E3,1.624E3,2.15E2,3.61E2,5.44E2,7.7E1,1.282E3,5.23E2,2.48E2,1.376E3,2E1,1.95E2,1.77E2,1.84E2,4E2,1.44E2,5.1E1,2.6E1,1.23E2,1.159E3,1.18E2,4.05E2,1.09E2,1.39E2,1.262E3,1.14E2],"tree_param":{"num_deleted":"0","num_feature":"2","num_nodes":"31","size_leaf_vector":"1"}},{"base_weights":[-3.207448E-3,-8.422418E-1,1.6818084E-1,-1.057372E0,-4.438899E-1,3.7890458E-1,-5.2836335E-1,-7.664654E-1,-1.1188697E0,4.877578E-2,-1.0261625E0,7.2743887E-1,7.970314E-2,-9.5759356E-1,6.984011E-2,-1.0724559E-1,9.898999E-4,-1.2911604E-1,-9.517684E-2,-2.0321459E-2,6.661891E-2,-7.92104E-2,-1.2441873E-1,-1.9943519E-2,1.04911104E-1,-1.7935698E-1,2.6762346E-2,-1.3342677E-1,-8.166698E-2,3.4792323E-2,-1.1013963E-1],"categories":[],"categories_nodes":[],"categories_segments":[],"categories_sizes":[],"default_left":[0,0,0,0,0,0,0,0,0,0,0,0,0,0,0,0,0,0,0,0,0,0,0,0,0,0,0,0,0,0,0],"id":22,"left_children":[1,3,5,7,9,11,13,15,17,19,21,23,25,27,29,-1,-1,-1,-1,-1,-1,-1,-1,-1,-1,-1,-1,-1,-1,-1,-1],"loss_changes":[6.655074E2,6.680316E1,5.642696E2,8.248474E0,7.9511856E1,3.0767804E2,2.2935982E2,2.186615E1,1.0805359E1,2.362829E1,5.4953613E0,4.0658716E2,5.5984937E2,2.6513153E1,1.2219542E2,0E0,0E0,0E0,0E0,0E0,0E0,0E0,0E0,0E0,0E0,0E0,0E0,0E0,0E0,0E0,0E0],"parents":[2147483647,0,0,1,1,2,2,3,3,4,4,5,5,6,6,7,7,8,8,9,9,10,10,11,11,12,12,13,13,14,14],"right_children":[2,4,6,8,10,12,14,16,18,20,22,24,26,28,30,-1,-1,-1,-1,-1,-1,-1,-1,-1,-1,-1,-1,-1,-1,-1,-1],"split_conditions":[6E0,4E0,2E1,1E0,5E0,5E0,5E0,7E0,2E0,4E0,7E0,2E0,8E0,2E0,2.3E1,-1.0724559E-1,9.898999E-4,-1.2911604E-1,-9.517684E-2,-2.0321459E-2,6.661891E-2,-7.92104E-2,-1.2441873E-1,-1.9943519E-2,1.04911104E-1,-1.7935698E-1,2.6762346E-2,-1.3342677E-1,-8.166698E-2,3.4792323E-2,-1.1013963E-1],"split_indices":[1,1,1,1,0,0,0,0,1,0,0,0,1,0,1,0,0,0,0,0,0,0,0,0,0,0,0,0,0,0,0],"split_type":[0,0,0,0,0,0,0,0,0,0,0,0,0,0,0,0,0,0,0,0,0,0,0,0,0,0,0,0,0,0,0],"sum_hessian":[4.626E3,7.84E2,3.842E3,5.08E2,2.76E2,2.95E3,8.92E2,9.1E1,4.17E2,1.5E2,1.26E2,1.362E3,1.588E3,5.19E2,3.73E2,6.5E1,2.6E1,2.02E2,2.15E2,1.07E2,4.3E1,6.3E1,6.3E1,3.51E2,1.011E3,1.44E2,1.444E3,1.39E2,3.8E2,3.02E2,7.1E1],"tree_param":{"num_deleted":"0","num_feature":"2","num_nodes":"31","size_leaf_vector":"1"}},{"base_weights":[-3.0695456E-3,-7.5863916E-1,1.5126957E-1,-9.852065E-1,-4.5135406E-1,4.1541186E-1,-3.258394E-1,-6.909739E-1,-1.0576626E0,1.899289E-2,-9.303156E-1,7.992168E-1,1.0402102E-1,-8.6998653E-1,5.3715855E-2,-9.668354E-2,8.9457474E-4,-1.189566E-1,-8.945672E-2,-1.8282615E-2,6.0108434E-2,-7.1693935E-2,-1.140153E-1,3.6901396E-2,1.6703685E-1,-1.6154501E-1,3.0779803E-2,-1.5229182E-1,-7.40877E-2,5.12773E-2,-4.6467684E-2],"categories":[],"categories_nodes":[],"categories_segments":[],"categories_sizes":[],"default_left":[0,0,0,0,0,0,0,0,0,0,0,0,0,0,0,0,0,0,0,0,0,0,0,0,0,0,0,0,0,0,0],"id":23,"left_children":[1,3,5,7,9,11,13,15,17,19,21,23,25,27,29,-1,-1,-1,-1,-1,-1,-1,-1,-1,-1,-1,-1,-1,-1,-1,-1],"loss_changes":[5.396875E2,5.420761E1,4.8444812E2,8.884033E0,7.548584E1,2.955929E2,2.8299817E2,1.7772087E1,6.680481E0,2.0081007E1,6.6151276E0,4.146308E2,4.794785E2,4.6332428E1,1.9251953E2,0E0,0E0,0E0,0E0,0E0,0E0,0E0,0E0,0E0,0E0,0E0,0E0,0E0,0E0,0E0,0E0],"parents":[2147483647,0,0,1,1,2,2,3,3,4,4,5,5,6,6,7,7,8,8,9,9,10,10,11,11,12,12,13,13,14,14],"right_children":[2,4,6,8,10,12,14,16,18,20,22,24,26,28,30,-1,-1,-1,-1,-1,-1,-1,-1,-1,-1,-1,-1,-1,-1,-1,-1],"split_conditions":[6E0,3E0,1.8E1,1E0,5E0,5E0,4E0,7E0,5E0,4E0,7E0,1.4E1,8E0,1.9E1,6E0,-9.668354E-2,8.9457474E-4,-1.189566E-1,-8.945672E-2,-1.8282615E-2,6.0108434E-2,-7.1693935E-2,-1.140153E-1,3.6901396E-2,1.6703685E-1,-1.6154501E-1,3.0779803E-2,-1.5229182E-1,-7.40877E-2,5.12773E-2,-4.6467684E-2],"split_indices":[1,1,1,1,0,0,0,0,0,0,0,1,1,1,0,0,0,0,0,0,0,0,0,0,0,0,0,0,0,0,0],"split_type":[0,0,0,0,0,0,0,0,0,0,0,0,0,0,0,0,0,0,0,0,0,0,0,0,0,0,0,0,0,0,0],"sum_hessian":[4.626E3,7.84E2,3.842E3,4.5E2,3.34E2,2.473E3,1.369E3,9.1E1,3.59E2,1.69E2,1.65E2,1.107E3,1.366E3,5.62E2,8.07E2,6.5E1,2.6E1,1.95E2,1.64E2,1.26E2,4.3E1,8.4E1,8.1E1,7.42E2,3.65E2,1.44E2,1.222E3,9.1E1,4.71E2,4.28E2,3.79E2],"tree_param":{"num_deleted":"0","num_feature":"2","num_nodes":"31","size_leaf_vector":"1"}},{"base_weights":[-2.891207E-3,-6.8334615E-1,1.3610438E-1,-8.579153E-1,-3.601005E-1,2.8707185E-1,-5.754172E-1,-6.229177E-1,-9.075848E-1,4.0043067E-2,-8.3302635E-1,-3.3972475E-1,3.720231E-1,-8.582361E-1,-1.9436339E-1,-8.716168E-2,8.084333E-4,-6.552835E-2,-9.944637E-2,1.03837386E-1,-1.2921323E-2,-1.16440535E-1,-6.5558724E-2,1.9103391E-1,-6.64012E-2,-4.7154177E-2,4.9942993E-2,-5.84145E-2,-1.06023096E-1,6.705357E-3,-9.795456E-2],"categories":[],"categories_nodes":[],"categories_segments":[],"categories_sizes":[],"default_left":[0,0,0,0,0,0,0,0,0,0,0,0,0,0,0,0,0,0,0,0,0,0,0,0,0,0,0,0,0,0,0],"id":24,"left_children":[1,3,5,7,9,11,13,15,17,19,21,23,25,27,29,-1,-1,-1,-1,-1,-1,-1,-1,-1,-1,-1,-1,-1,-1,-1,-1],"loss_changes":[4.3771573E2,4.398761E1,4.1296732E2,5.3757935E0,5.245235E1,1.6897311E2,7.236188E1,1.4444572E1,8.510773E0,2.564921E1,6.70417E0,2.7781223E2,3.0041565E2,2.0751556E1,5.9180546E1,0E0,0E0,0E0,0E0,0E0,0E0,0E0,0E0,0E0,0E0,0E0,0E0,0E0,0E0,0E0,0E0],"parents":[2147483647,0,0,1,1,2,2,3,3,4,4,5,5,6,6,7,7,8,8,9,9,10,10,11,11,12,12,13,13,14,14],"right_children":[2,4,6,8,10,12,14,16,18,20,22,24,26,28,30,-1,-1,-1,-1,-1,-1,-1,-1,-1,-1,-1,-1,-1,-1,-1,-1],"split_conditions":[6E0,4E0,2.1E1,1E0,5E0,2E0,5E0,7E0,2E0,2E0,6E0,8E0,9E0,2.2E1,2.3E1,-8.716168E-2,8.084333E-4,-6.552835E-2,-9.944637E-2,1.03837386E-1,-1.2921323E-2,-1.16440535E-1,-6.5558724E-2,1.9103391E-1,-6.64012E-2,-4.7154177E-2,4.9942993E-2,-5.84145E-2,-1.06023096E-1,6.705357E-3,-9.795456E-2],"split_indices":[1,1,1,1,0,0,0,0,0,0,0,1,1,1,1,0,0,0,0,0,0,0,0,0,0,0,0,0,0,0,0],"split_type":[0,0,0,0,0,0,0,0,0,0,0,0,0,0,0,0,0,0,0,0,0,0,0,0,0,0,0,0,0,0,0],"sum_hessian":[4.626E3,7.84E2,3.842E3,5.08E2,2.76E2,3.17E3,6.72E2,9.1E1,4.17E2,1.5E2,1.26E2,3.78E2,2.792E3,3.85E2,2.87E2,6.5E1,2.6E1,1.09E2,3.08E2,2.1E1,1.29E2,4.2E1,8.4E1,4.7E1,3.31E2,3.66E2,2.426E3,1.65E2,2.2E2,2.16E2,7.1E1],"tree_param":{"num_deleted":"0","num_feature":"2","num_nodes":"31","size_leaf_vector":"1"}},{"base_weights":[-2.70423E-3,-6.1544776E-1,1.2246007E-1,-8.024533E-1,-3.6185095E-1,3.8857988E-1,-2.4101214E-1,-9.291572E-1,-6.830868E-1,2.1640934E-2,-7.524038E-1,1.7129868E-1,1.0910996E0,-1.6411516E-1,-1.2492758E0,-6.9323994E-2,-1.0921677E-1,-3.1107767E-2,-7.667187E-2,-1.6330417E-2,5.5496793E-2,-5.477875E-2,-9.5533036E-2,3.068225E-2,-4.2382907E-2,2.1327634E-1,7.830969E-2,1.2015241E-2,-5.1825535E-2,-1.163938E-1,-1.5571164E-1],"categories":[],"categories_nodes":[],"categories_segments":[],"categories_sizes":[],"default_left":[0,0,0,0,0,0,0,0,0,0,0,0,0,0,0,0,0,0,0,0,0,0,0,0,0,0,0,0,0,0,0],"id":25,"left_children":[1,3,5,7,9,11,13,15,17,19,21,23,25,27,29,-1,-1,-1,-1,-1,-1,-1,-1,-1,-1,-1,-1,-1,-1,-1,-1],"loss_changes":[3.5493674E2,3.693747E1,3.7181613E2,6.18631E0,5.019051E1,3.3853085E2,1.2578518E2,7.549576E0,7.1038895E0,1.6858784E1,6.3693466E0,1.3691924E2,1.6644745E2,1.521755E2,1.2087097E0,0E0,0E0,0E0,0E0,0E0,0E0,0E0,0E0,0E0,0E0,0E0,0E0,0E0,0E0,0E0,0E0],"parents":[2147483647,0,0,1,1,2,2,3,3,4,4,5,5,6,6,7,7,8,8,9,9,10,10,11,11,12,12,13,13,14,14],"right_children":[2,4,6,8,10,12,14,16,18,20,22,24,26,28,30,-1,-1,-1,-1,-1,-1,-1,-1,-1,-1,-1,-1,-1,-1,-1,-1],"split_conditions":[6E0,3E0,1.7E1,5E0,5E0,1.5E1,7E0,2E0,6E0,4E0,7E0,7E0,3E0,2.1E1,1.9E1,-6.9323994E-2,-1.0921677E-1,-3.1107767E-2,-7.667187E-2,-1.6330417E-2,5.5496793E-2,-5.477875E-2,-9.5533036E-2,3.068225E-2,-4.2382907E-2,2.1327634E-1,7.830969E-2,1.2015241E-2,-5.1825535E-2,-1.163938E-1,-1.5571164E-1],"split_indices":[1,1,1,0,0,1,0,0,0,0,0,0,0,1,1,0,0,0,0,0,0,0,0,0,0,0,0,0,0,0,0],"split_type":[0,0,0,0,0,0,0,0,0,0,0,0,0,0,0,0,0,0,0,0,0,0,0,0,0,0,0,0,0,0,0],"sum_hessian":[4.626E3,7.84E2,3.842E3,4.5E2,3.34E2,2.218E3,1.624E3,2.15E2,2.35E2,1.69E2,1.65E2,1.695E3,5.23E2,1.51E3,1.14E2,9E1,1.25E2,4.4E1,1.91E2,1.26E2,4.3E1,8.4E1,8.1E1,1.381E3,3.14E2,1.18E2,4.05E2,8.38E2,6.72E2,9.3E1,2.1E1],"tree_param":{"num_deleted":"0","num_feature":"2","num_nodes":"31","size_leaf_vector":"1"}},{"base_weights":[-2.5264178E-3,-4.305911E-1,1.4698496E-1,-2.9258521E-2,-8.0219615E-1,4.7450188E-1,-2.1710277E-1,-8.3706814E-1,4.5283026E-1,-6.427801E-1,-1.0865368E0,-5.592498E-1,5.9997725E-1,-8.262304E-1,-1.06797844E-1,-2.3307815E-2,-8.975106E-2,9.53429E-2,-3.1274639E-3,-5.5613708E-2,-6.891633E-2,-1.4164893E-1,-4.5923334E-2,-1.2548587E-1,6.299932E-2,4.290507E-2,1.0373111E-1,-5.8850795E-2,-1.0071106E-1,-1.3846791E-3,-1.1267143E-1],"categories":[],"categories_nodes":[],"categories_segments":[],"categories_sizes":[],"default_left":[0,0,0,0,0,0,0,0,0,0,0,0,0,0,0,0,0,0,0,0,0,0,0,0,0,0,0,0,0,0,0],"id":26,"left_children":[1,3,5,7,9,11,13,15,17,19,21,23,25,27,29,-1,-1,-1,-1,-1,-1,-1,-1,-1,-1,-1,-1,-1,-1,-1,-1],"loss_changes":[2.961938E2,1.7864288E2,4.0911298E2,2.2508359E2,2.749591E1,2.3459247E2,1.0909515E2,7.6762543E0,8.775774E1,1.2282562E0,4.5299164E1,1.6293112E2,1.1998035E2,1.0114136E1,1.3052718E2,0E0,0E0,0E0,0E0,0E0,0E0,0E0,0E0,0E0,0E0,0E0,0E0,0E0,0E0,0E0,0E0],"parents":[2147483647,0,0,1,1,2,2,3,3,4,4,5,5,6,6,7,7,8,8,9,9,10,10,11,11,12,12,13,13,14,14],"right_children":[2,4,6,8,10,12,14,16,18,20,22,24,26,28,30,-1,-1,-1,-1,-1,-1,-1,-1,-1,-1,-1,-1,-1,-1,-1,-1],"split_conditions":[9E0,5E0,1.7E1,3E0,6E0,2E0,2E0,1E0,3E0,2E0,8E0,1.4E1,1.5E1,2E1,7E0,-2.3307815E-2,-8.975106E-2,9.53429E-2,-3.1274639E-3,-5.5613708E-2,-6.891633E-2,-1.4164893E-1,-4.5923334E-2,-1.2548587E-1,6.299932E-2,4.290507E-2,1.0373111E-1,-5.8850795E-2,-1.0071106E-1,-1.3846791E-3,-1.1267143E-1],"split_indices":[1,0,1,1,1,0,0,1,0,1,1,1,1,1,0,0,0,0,0,0,0,0,0,0,0,0,0,0,0,0,0],"split_type":[0,0,0,0,0,0,0,0,0,0,0,0,0,0,0,0,0,0,0,0,0,0,0,0,0,0,0,0,0,0,0],"sum_hessian":[4.626E3,1.197E3,3.429E3,5.76E2,6.21E2,1.805E3,1.624E3,2.15E2,3.61E2,4E2,2.21E2,1.95E2,1.61E3,2.48E2,1.376E3,2E1,1.95E2,1.77E2,1.84E2,1.44E2,2.56E2,1.44E2,7.7E1,1.23E2,7.2E1,1.159E3,4.51E2,1.09E2,1.39E2,1.262E3,1.14E2],"tree_param":{"num_deleted":"0","num_feature":"2","num_nodes":"31","size_leaf_vector":"1"}},{"base_weights":[-2.3868172E-3,-5.088333E-1,1.0106436E-1,-6.3075477E-1,-2.8296012E-1,2.411625E-1,-3.620159E-1,-4.4106543E-1,-6.7099565E-1,8.638353E-2,-3.804075E-1,5.173306E-1,4.1213958E-3,-7.0107955E-1,1.10377476E-1,-6.699198E-2,1.3469216E-2,-7.9584226E-2,-5.5055648E-2,-2.4491286E-2,-7.8306474E-2,-2.2795646E-2,7.760497E-2,-1.275817E-1,1.3255528E-2,-5.727906E-2,-8.7205514E-2,3.335833E-2,-8.304801E-2],"categories":[],"categories_nodes":[],"categories_segments":[],"categories_sizes":[],"default_left":[0,0,0,0,0,0,0,0,0,0,0,0,0,0,0,0,0,0,0,0,0,0,0,0,0,0,0,0,0],"id":27,"left_children":[1,3,5,7,9,11,13,15,17,-1,19,21,23,25,27,-1,-1,-1,-1,-1,-1,-1,-1,-1,-1,-1,-1,-1,-1],"loss_changes":[2.4247145E2,2.1439499E1,2.4940839E2,3.589386E0,3.1283981E1,1.9317975E2,1.4311044E2,1.2212582E1,5.847061E0,0E0,1.377504E1,2.6299054E2,2.6138077E2,1.0906326E1,7.8818855E1,0E0,0E0,0E0,0E0,0E0,0E0,0E0,0E0,0E0,0E0,0E0,0E0,0E0,0E0],"parents":[2147483647,0,0,1,1,2,2,3,3,4,4,5,5,6,6,7,7,8,8,10,10,11,11,12,12,13,13,14,14],"right_children":[2,4,6,8,10,12,14,16,18,-1,20,22,24,26,28,-1,-1,-1,-1,-1,-1,-1,-1,-1,-1,-1,-1,-1,-1],"split_conditions":[6E0,4E0,2E1,1E0,2E0,5E0,5E0,7E0,2E0,8.638353E-2,7E0,2E0,8E0,2.2E1,2.3E1,-6.699198E-2,1.3469216E-2,-7.9584226E-2,-5.5055648E-2,-2.4491286E-2,-7.8306474E-2,-2.2795646E-2,7.760497E-2,-1.275817E-1,1.3255528E-2,-5.727906E-2,-8.7205514E-2,3.335833E-2,-8.304801E-2],"split_indices":[1,1,1,1,0,0,0,0,1,0,0,0,1,1,1,0,0,0,0,0,0,0,0,0,0,0,0,0,0],"split_type":[0,0,0,0,0,0,0,0,0,0,0,0,0,0,0,0,0,0,0,0,0,0,0,0,0,0,0,0,0],"sum_hessian":[4.626E3,7.84E2,3.842E3,5.08E2,2.76E2,2.95E3,8.92E2,9.1E1,4.17E2,2.1E1,2.55E2,1.362E3,1.588E3,5.19E2,3.73E2,6.5E1,2.6E1,2.02E2,2.15E2,1.92E2,6.3E1,3.51E2,1.011E3,1.44E2,1.444E3,2.99E2,2.2E2,3.02E2,7.1E1],"tree_param":{"num_deleted":"0","num_feature":"2","num_nodes":"29","size_leaf_vector":"1"}},{"base_weights":[-2.2472865E-3,-4.5821065E-1,9.089179E-2,-5.876513E-1,-2.8258088E-1,2.96342E-1,-1.8971427E-1,-3.9754075E-1,-6.346028E-1,-1.2351619E-2,-5.576194E-1,1.2368773E-1,8.5459626E-1,-1.2577562E-1,-1.0281628E0,-6.03943E-2,1.2172175E-2,-7.37299E-2,-5.0876606E-2,-1.9936709E-2,5.2772373E-2,-9.059324E-2,-4.3233655E-2,2.3949364E-2,-3.8478035E-2,1.8268579E-1,5.6751814E-2,2.365003E-3,-5.643859E-2,-9.50424E-2,-1.313585E-1],"categories":[],"categories_nodes":[],"categories_segments":[],"categories_sizes":[],"default_left":[0,0,0,0,0,0,0,0,0,0,0,0,0,0,0,0,0,0,0,0,0,0,0,0,0,0,0,0,0,0,0],"id":28,"left_children":[1,3,5,7,9,11,13,15,17,19,21,23,25,27,29,-1,-1,-1,-1,-1,-1,-1,-1,-1,-1,-1,-1,-1,-1,-1,-1],"loss_changes":[1.9654112E2,1.7679825E1,2.2160735E2,3.7733307E0,2.4891472E1,2.1377257E2,8.698575E1,9.933792E0,4.2771606E0,1.7275623E1,6.8521805E0,9.995874E1,1.4521954E2,9.9043724E1,1.3032074E0,0E0,0E0,0E0,0E0,0E0,0E0,0E0,0E0,0E0,0E0,0E0,0E0,0E0,0E0,0E0,0E0],"parents":[2147483647,0,0,1,1,2,2,3,3,4,4,5,5,6,6,7,7,8,8,9,9,10,10,11,11,12,12,13,13,14,14],"right_children":[2,4,6,8,10,12,14,16,18,20,22,24,26,28,30,-1,-1,-1,-1,-1,-1,-1,-1,-1,-1,-1,-1,-1,-1,-1,-1],"split_conditions":[6E0,3E0,1.7E1,1E0,5E0,1.5E1,7E0,7E0,5E0,4E0,6E0,7E0,3E0,2.2E1,1.9E1,-6.03943E-2,1.2172175E-2,-7.37299E-2,-5.0876606E-2,-1.9936709E-2,5.2772373E-2,-9.059324E-2,-4.3233655E-2,2.3949364E-2,-3.8478035E-2,1.8268579E-1,5.6751814E-2,2.365003E-3,-5.643859E-2,-9.50424E-2,-1.313585E-1],"split_indices":[1,1,1,1,0,1,0,0,0,0,0,0,0,1,1,0,0,0,0,0,0,0,0,0,0,0,0,0,0,0,0],"split_type":[0,0,0,0,0,0,0,0,0,0,0,0,0,0,0,0,0,0,0,0,0,0,0,0,0,0,0,0,0,0,0],"sum_hessian":[4.626E3,7.84E2,3.842E3,4.5E2,3.34E2,2.218E3,1.624E3,9.1E1,3.59E2,1.69E2,1.65E2,1.695E3,5.23E2,1.51E3,1.14E2,6.5E1,2.6E1,1.95E2,1.64E2,1.26E2,4.3E1,4.2E1,1.23E2,1.381E3,3.14E2,1.18E2,4.05E2,1.127E3,3.83E2,9.3E1,2.1E1],"tree_param":{"num_deleted":"0","num_feature":"2","num_nodes":"31","size_leaf_vector":"1"}},{"base_weights":[-2.0935002E-3,-3.234665E-1,1.1015342E-1,2.2404662E-1,-5.156882E-1,-6.305627E-1,2.2021966E-1,-3.4407112E-1,1.5655719E0,-2.4976468E-1,-6.28582E-1,-1.1315289E0,-4.3507877E-1,4.7543898E-1,-7.85302E-2,-5.950873E-2,5.396675E-3,2.2900863E-1,7.06679E-2,-6.488296E-2,1.4228216E-2,-4.7413617E-2,-9.04727E-2,-1.3121122E-1,-1.0120559E-1,4.101556E-2,-6.811311E-2,3.384537E-2,8.259423E-2,-1.1835755E-4,-9.2731506E-2],"categories":[],"categories_nodes":[],"categories_segments":[],"categories_sizes":[],"default_left":[0,0,0,0,0,0,0,0,0,0,0,0,0,0,0,0,0,0,0,0,0,0,0,0,0,0,0,0,0,0,0],"id":29,"left_children":[1,3,5,7,9,11,13,15,17,19,21,23,25,27,29,-1,-1,-1,-1,-1,-1,-1,-1,-1,-1,-1,-1,-1,-1,-1,-1],"loss_changes":[1.66946E2,1.2619771E2,2.7977933E2,2.3832768E2,2.6471725E1,4.2988968E1,2.2778633E2,2.2013182E1,5.6253693E1,4.1708572E1,2.6098984E1,1.3473511E0,6.7038345E1,7.707065E1,9.039984E1,0E0,0E0,0E0,0E0,0E0,0E0,0E0,0E0,0E0,0E0,0E0,0E0,0E0,0E0,0E0,0E0],"parents":[2147483647,0,0,1,1,2,2,3,3,4,4,5,5,6,6,7,7,8,8,9,9,10,10,11,11,12,12,13,13,14,14],"right_children":[2,4,6,8,10,12,14,16,18,20,22,24,26,28,30,-1,-1,-1,-1,-1,-1,-1,-1,-1,-1,-1,-1,-1,-1,-1,-1],"split_conditions":[9E0,3E0,2E0,5E0,5E0,1.4E1,1.7E1,3E0,7E0,4E0,6E0,1E1,1.7E1,1.5E1,7E0,-5.950873E-2,5.396675E-3,2.2900863E-1,7.06679E-2,-6.488296E-2,1.4228216E-2,-4.7413617E-2,-9.04727E-2,-1.3121122E-1,-1.0120559E-1,4.101556E-2,-6.811311E-2,3.384537E-2,8.259423E-2,-1.1835755E-4,-9.2731506E-2],"split_indices":[1,0,0,1,0,1,1,1,1,0,1,1,1,1,0,0,0,0,0,0,0,0,0,0,0,0,0,0,0,0,0],"split_type":[0,0,0,0,0,0,0,0,0,0,0,0,0,0,0,0,0,0,0,0,0,0,0,0,0,0,0,0,0,0,0],"sum_hessian":[4.626E3,1.197E3,3.429E3,3.11E2,8.86E2,4.43E2,2.986E3,2.19E2,9.2E1,2.65E2,6.21E2,1.23E2,3.2E2,1.61E3,1.376E3,1.34E2,8.5E1,4.9E1,4.3E1,1.31E2,1.34E2,4E2,2.21E2,4.5E1,7.8E1,7.2E1,2.48E2,1.159E3,4.51E2,1.262E3,1.14E2],"tree_param":{"num_deleted":"0","num_feature":"2","num_nodes":"31","size_leaf_vector":"1"}},{"base_weights":[-1.9229312E-3,-2.9107222E-1,9.9069126E-2,2.0242931E-1,-4.6433198E-1,-5.680909E-1,1.9820538E-1,-3.099099E-1,1.4122379E0,-2.2497892E-1,-5.6594545E-1,-1.0202504E0,-3.916552E-1,3.1841642E-1,-3.2220522E-1,-7.457012E-2,-1.1004469E-2,2.0656589E-1,6.3761786E-2,-5.8443826E-2,1.28158955E-2,-4.268406E-2,-8.146621E-2,-1.1837542E-1,-9.1213115E-2,3.6970187E-2,-6.1329138E-2,5.5165607E-2,1.6195571E-2,-5.590852E-2,-9.572144E-3],"categories":[],"categories_nodes":[],"categories_segments":[],"categories_sizes":[],"default_left":[0,0,0,0,0,0,0,0,0,0,0,0,0,0,0,0,0,0,0,0,0,0,0,0,0,0,0,0,0,0,0],"id":30,"left_children":[1,3,5,7,9,11,13,15,17,19,21,23,25,27,29,-1,-1,-1,-1,-1,-1,-1,-1,-1,-1,-1,-1,-1,-1,-1,-1],"loss_changes":[1.3514548E2,1.0252773E2,2.2697195E2,1.9382535E2,2.1445847E1,3.502144E1,1.869666E2,1.9079834E1,4.5755142E1,3.38406E1,2.1172028E1,1.11232E0,5.4393646E1,8.8478775E1,3.004383E1,0E0,0E0,0E0,0E0,0E0,0E0,0E0,0E0,0E0,0E0,0E0,0E0,0E0,0E0,0E0,0E0],"parents":[2147483647,0,0,1,1,2,2,3,3,4,4,5,5,6,6,7,7,8,8,9,9,10,10,11,11,12,12,13,13,14,14],"right_children":[2,4,6,8,10,12,14,16,18,20,22,24,26,28,30,-1,-1,-1,-1,-1,-1,-1,-1,-1,-1,-1,-1,-1,-1,-1,-1],"split_conditions":[9E0,3E0,2E0,5E0,5E0,1.4E1,2.1E1,2E0,7E0,4E0,6E0,1E1,1.7E1,5E0,5E0,-7.457012E-2,-1.1004469E-2,2.0656589E-1,6.3761786E-2,-5.8443826E-2,1.28158955E-2,-4.268406E-2,-8.146621E-2,-1.1837542E-1,-9.1213115E-2,3.6970187E-2,-6.1329138E-2,5.5165607E-2,1.6195571E-2,-5.590852E-2,-9.572144E-3],"split_indices":[1,0,0,1,0,1,1,1,1,0,1,1,1,0,0,0,0,0,0,0,0,0,0,0,0,0,0,0,0,0,0],"split_type":[0,0,0,0,0,0,0,0,0,0,0,0,0,0,0,0,0,0,0,0,0,0,0,0,0,0,0,0,0,0,0],"sum_hessian":[4.626E3,1.197E3,3.429E3,3.11E2,8.86E2,4.43E2,2.986E3,2.19E2,9.2E1,2.65E2,6.21E2,1.23E2,3.2E2,2.426E3,5.6E2,6.8E1,1.51E2,4.9E1,4.3E1,1.31E2,1.34E2,4E2,2.21E2,4.5E1,7.8E1,7.2E1,2.48E2,9.73E2,1.453E3,2.73E2,2.87E2],"tree_param":{"num_deleted":"0","num_feature":"2","num_nodes":"31","size_leaf_vector":"1"}},{"base_weights":[-1.7766791E-3,-2.6195243E-1,8.909571E-2,1.827785E-1,-4.1809008E-1,-5.1180875E-1,1.783868E-1,-2.7930775E-1,1.2739204E0,-2.0265256E-1,-5.0955033E-1,-9.1991544E-1,-3.5256565E-1,3.9717072E-1,-7.770563E-2,-4.9307805E-2,5.950961E-3,1.8632244E-1,5.753043E-2,-5.2643746E-2,1.1543826E-2,-3.84263E-2,-7.335624E-2,-8.606972E-2,-1.2208285E-1,3.3323817E-2,-5.522087E-2,2.7411029E-2,7.121109E-2,-7.1928353E-4,-8.514444E-2],"categories":[],"categories_nodes":[],"categories_segments":[],"categories_sizes":[],"default_left":[0,0,0,0,0,0,0,0,0,0,0,0,0,0,0,0,0,0,0,0,0,0,0,0,0,0,0,0,0,0,0],"id":31,"left_children":[1,3,5,7,9,11,13,15,17,19,21,23,25,27,29,-1,-1,-1,-1,-1,-1,-1,-1,-1,-1,-1,-1,-1,-1,-1,-1],"loss_changes":[1.0941854E2,8.326463E1,1.8412938E2,1.5766675E2,1.737416E1,2.8530426E1,1.6738919E2,1.5963741E1,3.721591E1,2.7456907E1,1.717511E1,1.1588669E0,4.4134026E1,6.224179E1,7.512091E1,0E0,0E0,0E0,0E0,0E0,0E0,0E0,0E0,0E0,0E0,0E0,0E0,0E0,0E0,0E0,0E0],"parents":[2147483647,0,0,1,1,2,2,3,3,4,4,5,5,6,6,7,7,8,8,9,9,10,10,11,11,12,12,13,13,14,14],"right_children":[2,4,6,8,10,12,14,16,18,20,22,24,26,28,30,-1,-1,-1,-1,-1,-1,-1,-1,-1,-1,-1,-1,-1,-1,-1,-1],"split_conditions":[9E0,3E0,2E0,5E0,5E0,1.4E1,1.7E1,3E0,7E0,4E0,6E0,1.3E1,1.7E1,1.5E1,7E0,-4.9307805E-2,5.950961E-3,1.8632244E-1,5.753043E-2,-5.2643746E-2,1.1543826E-2,-3.84263E-2,-7.335624E-2,-8.606972E-2,-1.2208285E-1,3.3323817E-2,-5.522087E-2,2.7411029E-2,7.121109E-2,-7.1928353E-4,-8.514444E-2],"split_indices":[1,0,0,1,0,1,1,1,1,0,1,1,1,1,0,0,0,0,0,0,0,0,0,0,0,0,0,0,0,0,0],"split_type":[0,0,0,0,0,0,0,0,0,0,0,0,0,0,0,0,0,0,0,0,0,0,0,0,0,0,0,0,0,0,0],"sum_hessian":[4.626E3,1.197E3,3.429E3,3.11E2,8.86E2,4.43E2,2.986E3,2.19E2,9.2E1,2.65E2,6.21E2,1.23E2,3.2E2,1.61E3,1.376E3,1.34E2,8.5E1,4.9E1,4.3E1,1.31E2,1.34E2,4E2,2.21E2,1.06E2,1.7E1,7.2E1,2.48E2,1.159E3,4.51E2,1.262E3,1.14E2],"tree_param":{"num_deleted":"0","num_feature":"2","num_nodes":"31","size_leaf_vector":"1"}},{"base_weights":[-1.6355953E-3,-2.3571739E-1,8.0122896E-2,1.6514303E-1,-3.7645328E-1,-4.61146E-1,1.605525E-1,-2.5157404E-1,1.1491497E0,-1.8254176E-1,-4.5877483E-1,-8.2960296E-1,-3.1737712E-1,2.6448894E-1,-2.8938377E-1,-6.2361855E-2,-8.1030335E-3,1.6806275E-1,5.1908053E-2,-4.7419284E-2,1.0398036E-2,-3.459324E-2,-6.605363E-2,-9.837538E-2,-7.293429E-2,3.0037135E-2,-4.972095E-2,4.7186162E-2,1.25393E-2,-5.0266445E-2,-8.54661E-3],"categories":[],"categories_nodes":[],"categories_segments":[],"categories_sizes":[],"default_left":[0,0,0,0,0,0,0,0,0,0,0,0,0,0,0,0,0,0,0,0,0,0,0,0,0,0,0,0,0,0,0],"id":32,"left_children":[1,3,5,7,9,11,13,15,17,19,21,23,25,27,29,-1,-1,-1,-1,-1,-1,-1,-1,-1,-1,-1,-1,-1,-1,-1,-1],"loss_changes":[8.857121E1,6.7647865E1,1.4939581E2,1.2822545E2,1.4075516E1,2.3256546E1,1.3976291E2,1.3908434E1,3.0270317E1,2.2277458E1,1.3932724E1,1.1989517E0,3.5809616E1,6.9946915E1,2.4355885E1,0E0,0E0,0E0,0E0,0E0,0E0,0E0,0E0,0E0,0E0,0E0,0E0,0E0,0E0,0E0,0E0],"parents":[2147483647,0,0,1,1,2,2,3,3,4,4,5,5,6,6,7,7,8,8,9,9,10,10,11,11,12,12,13,13,14,14],"right_children":[2,4,6,8,10,12,14,16,18,20,22,24,26,28,30,-1,-1,-1,-1,-1,-1,-1,-1,-1,-1,-1,-1,-1,-1,-1,-1],"split_conditions":[9E0,3E0,2E0,5E0,5E0,1.4E1,2.1E1,2E0,7E0,4E0,6E0,1E1,1.7E1,5E0,5E0,-6.2361855E-2,-8.1030335E-3,1.6806275E-1,5.1908053E-2,-4.7419284E-2,1.0398036E-2,-3.459324E-2,-6.605363E-2,-9.837538E-2,-7.293429E-2,3.0037135E-2,-4.972095E-2,4.7186162E-2,1.25393E-2,-5.0266445E-2,-8.54661E-3],"split_indices":[1,0,0,1,0,1,1,1,1,0,1,1,1,0,0,0,0,0,0,0,0,0,0,0,0,0,0,0,0,0,0],"split_type":[0,0,0,0,0,0,0,0,0,0,0,0,0,0,0,0,0,0,0,0,0,0,0,0,0,0,0,0,0,0,0],"sum_hessian":[4.626E3,1.197E3,3.429E3,3.11E2,8.86E2,4.43E2,2.986E3,2.19E2,9.2E1,2.65E2,6.21E2,1.23E2,3.2E2,2.426E3,5.6E2,6.8E1,1.51E2,4.9E1,4.3E1,1.31E2,1.34E2,4E2,2.21E2,4.5E1,7.8E1,7.2E1,2.48E2,9.73E2,1.453E3,2.73E2,2.87E2],"tree_param":{"num_deleted":"0","num_feature":"2","num_nodes":"31","size_leaf_vector":"1"}},{"base_weights":[-1.5103982E-3,-3.606026E-1,4.2864315E-2,-1.790031E-1,-3.9970917E-1,1.21883966E-1,-2.4273399E-1,-3.58778E-1,2.6707644E-2,-2.1845831E-1,-4.6293858E-1,3.139757E-1,-4.765346E-2,-5.1078624E-1,1.3060798E-1,-7.786444E-3,-8.163617E-2,-2.4448048E-2,-8.91345E-3,-1.4387745E-1,-3.757146E-2,1.1337366E-2,8.8146865E-2,-6.0984332E-2,5.781443E-3,-7.039364E-2,-4.4191044E-2,3.214275E-2,-6.742381E-2],"categories":[],"categories_nodes":[],"categories_segments":[],"categories_sizes":[],"default_left":[0,0,0,0,0,0,0,0,0,0,0,0,0,0,0,0,0,0,0,0,0,0,0,0,0,0,0,0,0],"id":33,"left_children":[1,3,5,7,9,11,13,15,-1,17,19,21,23,25,27,-1,-1,-1,-1,-1,-1,-1,-1,-1,-1,-1,-1,-1,-1],"loss_changes":[7.37449E1,3.5432358E0,9.298668E1,7.4736605E0,4.689308E0,1.05107834E2,8.943382E1,8.420173E0,0E0,3.4838963E-1,2.576036E1,1.7214037E2,1.0172272E2,6.606659E0,5.765576E1,0E0,0E0,0E0,0E0,0E0,0E0,0E0,0E0,0E0,0E0,0E0,0E0,0E0,0E0],"parents":[2147483647,0,0,1,1,2,2,3,3,4,4,5,5,6,6,7,7,9,9,10,10,11,11,12,12,13,13,14,14],"right_children":[2,4,6,8,10,12,14,16,-1,18,20,22,24,26,28,-1,-1,-1,-1,-1,-1,-1,-1,-1,-1,-1,-1,-1,-1],"split_conditions":[4E0,1E0,2E1,7E0,2E0,5E0,5E0,6E0,2.6707644E-2,3E0,3E0,4E0,8E0,2.1E1,2.3E1,-7.786444E-3,-8.163617E-2,-2.4448048E-2,-8.91345E-3,-1.4387745E-1,-3.757146E-2,1.1337366E-2,8.8146865E-2,-6.0984332E-2,5.781443E-3,-7.039364E-2,-4.4191044E-2,3.214275E-2,-6.742381E-2],"split_indices":[1,1,1,0,0,0,0,0,0,1,0,0,1,1,1,0,0,0,0,0,0,0,0,0,0,0,0,0,0],"split_type":[0,0,0,0,0,0,0,0,0,0,0,0,0,0,0,0,0,0,0,0,0,0,0,0,0,0,0,0,0],"sum_hessian":[4.626E3,5.08E2,4.118E3,9.1E1,4.17E2,3.226E3,8.92E2,6.5E1,2.6E1,1.09E2,3.08E2,1.512E3,1.714E3,5.19E2,3.73E2,4.1E1,2.4E1,9E1,1.9E1,2.4E1,2.84E2,1.118E3,3.94E2,2.7E2,1.444E3,1.34E2,3.85E2,3.02E2,7.1E1],"tree_param":{"num_deleted":"0","num_feature":"2","num_nodes":"29","size_leaf_vector":"1"}},{"base_weights":[-1.4419891E-3,3.34225E-2,-3.8676348E-1,-1.9293694E-1,1.2241009E-1,-9.445684E-1,-1.4774744E-1,1.6252844E-1,-3.1775346E-1,-4.1098478E-1,1.9787857E-1,-3.8371867E-1,-1.6921677E-1,3.7416518E-2,-5.064061E-1,-2.0296318E-2,1.0253847E-1,-1.8797157E-2,-3.7274417E-2,-7.592695E-2,-2.4001107E-2,3.1350143E-2,2.1966984E-3,-3.4290724E-2,-4.6248022E-2,2.535586E-2,-3.4908005E-3,1.4126821E-3,-9.8385565E-2],"categories":[],"categories_nodes":[],"categories_segments":[],"categories_sizes":[],"default_left":[0,0,0,0,0,0,0,0,0,0,0,0,0,0,0,0,0,0,0,0,0,0,0,0,0,0,0,0,0],"id":34,"left_children":[1,3,5,7,9,11,13,15,17,19,21,23,-1,25,27,-1,-1,-1,-1,-1,-1,-1,-1,-1,-1,-1,-1,-1,-1],"loss_changes":[6.217222E1,8.551128E1,5.105698E1,5.320445E1,1.22736786E2,4.756913E1,1.7949825E1,9.860252E1,6.260277E0,2.2326733E1,5.4299316E1,5.677414E-2,0E0,2.807046E0,2.287849E1,0E0,0E0,0E0,0E0,0E0,0E0,0E0,0E0,0E0,0E0,0E0,0E0,0E0,0E0],"parents":[2147483647,0,0,1,1,2,2,3,3,4,4,5,5,6,6,7,7,8,8,9,9,10,10,11,11,13,13,14,14],"right_children":[2,4,6,8,10,12,14,16,18,20,22,24,-1,26,28,-1,-1,-1,-1,-1,-1,-1,-1,-1,-1,-1,-1,-1,-1],"split_conditions":[2.2E1,9E0,3E0,3E0,2E0,2E0,2.3E1,5E0,5E0,1.4E1,1.7E1,2.3E1,-1.6921677E-1,4E0,6E0,-2.0296318E-2,1.0253847E-1,-1.8797157E-2,-3.7274417E-2,-7.592695E-2,-2.4001107E-2,3.1350143E-2,2.1966984E-3,-3.4290724E-2,-4.6248022E-2,2.535586E-2,-3.4908005E-3,1.4126821E-3,-9.8385565E-2],"split_indices":[1,1,0,0,0,0,1,1,0,1,1,1,0,0,0,0,0,0,0,0,0,0,0,0,0,0,0,0,0],"split_type":[0,0,0,0,0,0,0,0,0,0,0,0,0,0,0,0,0,0,0,0,0,0,0,0,0,0,0,0,0],"sum_hessian":[4.626E3,4.243E3,3.83E2,1.197E3,3.046E3,1.14E2,2.69E2,3.11E2,8.86E2,3.77E2,2.669E3,6.6E1,4.8E1,1.78E2,9.1E1,2.19E2,9.2E1,2.65E2,6.21E2,1.23E2,2.54E2,1.61E3,1.059E3,4.7E1,1.9E1,4.4E1,1.34E2,4.4E1,4.7E1],"tree_param":{"num_deleted":"0","num_feature":"2","num_nodes":"29","size_leaf_vector":"1"}},{"base_weights":[-1.3770305E-3,3.0070407E-2,-3.4893316E-1,-1.736215E-1,1.1014683E-1,-8.522833E-1,-1.3325094E-1,1.46539E-1,-2.860414E-1,-3.701507E-1,1.7810275E-1,-3.465489E-1,-1.5264042E-1,3.3796776E-2,-4.568193E-1,-1.8275915E-2,9.239482E-2,-2.3154078E-2,-3.9407633E-2,-6.839541E-2,-2.1610452E-2,2.8216979E-2,1.9772472E-3,-3.0933086E-2,-4.1854467E-2,-1.0303006E-2,1.6143268E-2,1.2745836E-3,-8.875196E-2],"categories":[],"categories_nodes":[],"categories_segments":[],"categories_sizes":[],"default_left":[0,0,0,0,0,0,0,0,0,0,0,0,0,0,0,0,0,0,0,0,0,0,0,0,0,0,0,0,0],"id":35,"left_children":[1,3,5,7,9,11,13,15,17,19,21,23,-1,25,27,-1,-1,-1,-1,-1,-1,-1,-1,-1,-1,-1,-1,-1,-1],"loss_changes":[5.0582443E1,6.924267E1,4.1574886E1,4.316083E1,9.9517136E1,3.867752E1,1.4609304E1,8.0040665E1,5.1313934E0,1.8124794E1,4.3987915E1,5.0060272E-2,0E0,3.142691E0,1.861756E1,0E0,0E0,0E0,0E0,0E0,0E0,0E0,0E0,0E0,0E0,0E0,0E0,0E0,0E0],"parents":[2147483647,0,0,1,1,2,2,3,3,4,4,5,5,6,6,7,7,8,8,9,9,10,10,11,11,13,13,14,14],"right_children":[2,4,6,8,10,12,14,16,18,20,22,24,-1,26,28,-1,-1,-1,-1,-1,-1,-1,-1,-1,-1,-1,-1,-1,-1],"split_conditions":[2.2E1,9E0,3E0,3E0,2E0,2E0,2.3E1,5E0,7E0,1.4E1,1.7E1,2.3E1,-1.5264042E-1,5E0,6E0,-1.8275915E-2,9.239482E-2,-2.3154078E-2,-3.9407633E-2,-6.839541E-2,-2.1610452E-2,2.8216979E-2,1.9772472E-3,-3.0933086E-2,-4.1854467E-2,-1.0303006E-2,1.6143268E-2,1.2745836E-3,-8.875196E-2],"split_indices":[1,1,0,0,0,0,1,1,0,1,1,1,0,0,0,0,0,0,0,0,0,0,0,0,0,0,0,0,0],"split_type":[0,0,0,0,0,0,0,0,0,0,0,0,0,0,0,0,0,0,0,0,0,0,0,0,0,0,0,0,0],"sum_hessian":[4.626E3,4.243E3,3.83E2,1.197E3,3.046E3,1.14E2,2.69E2,3.11E2,8.86E2,3.77E2,2.669E3,6.6E1,4.8E1,1.78E2,9.1E1,2.19E2,9.2E1,5.91E2,2.95E2,1.23E2,2.54E2,1.61E3,1.059E3,4.7E1,1.9E1,8.6E1,9.2E1,4.4E1,4.7E1],"tree_param":{"num_deleted":"0","num_feature":"2","num_nodes":"29","size_leaf_vector":"1"}},{"base_weights":[-1.3162132E-3,2.705189E-2,-3.1483942E-1,-1.5624964E-1,9.911234E-2,-7.690152E-1,-1.2022812E-1,1.3212302E-1,-2.5750783E-1,-3.3337379E-1,1.603036E-1,-3.1298032E-1,-1.376879E-1,3.0449776E-2,-4.1208807E-1,-1.6456619E-2,8.325478E-2,-1.461786E-2,-3.047041E-2,-6.1611008E-2,-1.9457899E-2,2.1488769E-2,-1.0873626E-2,-2.7904212E-2,-3.78783E-2,2.3884032E-2,-3.9239293E-3,1.1500041E-3,-8.0061674E-2],"categories":[],"categories_nodes":[],"categories_segments":[],"categories_sizes":[],"default_left":[0,0,0,0,0,0,0,0,0,0,0,0,0,0,0,0,0,0,0,0,0,0,0,0,0,0,0,0,0],"id":36,"left_children":[1,3,5,7,9,11,13,15,17,19,21,23,-1,25,27,-1,-1,-1,-1,-1,-1,-1,-1,-1,-1,-1,-1,-1,-1],"loss_changes":[4.1161327E1,5.6073597E1,3.384844E1,3.5015736E1,8.069037E1,3.1447868E1,1.1886296E1,6.497325E1,4.616043E0,1.4713718E1,3.923311E1,4.3930054E-2,0E0,2.608907E0,1.5150211E1,0E0,0E0,0E0,0E0,0E0,0E0,0E0,0E0,0E0,0E0,0E0,0E0,0E0,0E0],"parents":[2147483647,0,0,1,1,2,2,3,3,4,4,5,5,6,6,7,7,8,8,9,9,10,10,11,11,13,13,14,14],"right_children":[2,4,6,8,10,12,14,16,18,20,22,24,-1,26,28,-1,-1,-1,-1,-1,-1,-1,-1,-1,-1,-1,-1,-1,-1],"split_conditions":[2.2E1,9E0,3E0,3E0,2E0,2E0,2.3E1,5E0,5E0,1.4E1,7E0,2.3E1,-1.376879E-1,4E0,6E0,-1.6456619E-2,8.325478E-2,-1.461786E-2,-3.047041E-2,-6.1611008E-2,-1.9457899E-2,2.1488769E-2,-1.0873626E-2,-2.7904212E-2,-3.78783E-2,2.3884032E-2,-3.9239293E-3,1.1500041E-3,-8.0061674E-2],"split_indices":[1,1,0,0,0,0,1,1,0,1,0,1,0,0,0,0,0,0,0,0,0,0,0,0,0,0,0,0,0],"split_type":[0,0,0,0,0,0,0,0,0,0,0,0,0,0,0,0,0,0,0,0,0,0,0,0,0,0,0,0,0],"sum_hessian":[4.626E3,4.243E3,3.83E2,1.197E3,3.046E3,1.14E2,2.69E2,3.11E2,8.86E2,3.77E2,2.669E3,6.6E1,4.8E1,1.78E2,9.1E1,2.19E2,9.2E1,2.65E2,6.21E2,1.23E2,2.54E2,2.219E3,4.5E2,4.7E1,1.9E1,4.4E1,1.34E2,4.4E1,4.7E1],"tree_param":{"num_deleted":"0","num_feature":"2","num_nodes":"29","size_leaf_vector":"1"}},{"base_weights":[-1.2516102E-3,4.833988E-2,-1.5898457E-1,-1.4060642E-1,1.4571911E-1,-3.1914365E-1,6.613889E-2,2.3366046E-1,-2.0571797E-1,2.969282E-1,2.237172E-2,4.6431206E-2,-4.085176E-1,5.690984E-1,-2.3796214E-1,-1.4238714E-2,8.297703E-2,-9.858576E-3,-2.7428254E-2,-2.6317427E-2,6.624747E-2,-4.753613E-2,2.5386313E-2,2.5382642E-2,-3.9984223E-2,-6.413902E-2,-3.2601416E-2,8.6635284E-2,1.3595535E-2,-1.7057687E-2,-1.04495786E-1],"categories":[],"categories_nodes":[],"categories_segments":[],"categories_sizes":[],"default_left":[0,0,0,0,0,0,0,0,0,0,0,0,0,0,0,0,0,0,0,0,0,0,0,0,0,0,0,0,0,0,0],"id":37,"left_children":[1,3,5,7,9,11,13,15,17,19,21,23,25,27,29,-1,-1,-1,-1,-1,-1,-1,-1,-1,-1,-1,-1,-1,-1,-1,-1],"loss_changes":[3.6201065E1,6.480493E1,3.9934624E1,2.9242247E1,4.3338852E1,2.1158302E1,7.0645615E1,4.0019638E1,7.4726944E0,2.1392656E2,1.4771867E2,1.1948526E1,9.781555E0,2.2285358E1,1.5483088E1,0E0,0E0,0E0,0E0,0E0,0E0,0E0,0E0,0E0,0E0,0E0,0E0,0E0,0E0,0E0,0E0],"parents":[2147483647,0,0,1,1,2,2,3,3,4,4,5,5,6,6,7,7,8,8,9,9,10,10,11,11,12,12,13,13,14,14],"right_children":[2,4,6,8,10,12,14,16,18,20,22,24,26,28,30,-1,-1,-1,-1,-1,-1,-1,-1,-1,-1,-1,-1,-1,-1,-1,-1],"split_conditions":[1.9E1,9E0,5E0,2E0,5E0,2E1,6E0,4E0,5E0,1.3E1,6E0,4E0,2.1E1,2.2E1,7E0,-1.4238714E-2,8.297703E-2,-9.858576E-3,-2.7428254E-2,-2.6317427E-2,6.624747E-2,-4.753613E-2,2.5386313E-2,2.5382642E-2,-3.9984223E-2,-6.413902E-2,-3.2601416E-2,8.6635284E-2,1.3595535E-2,-1.7057687E-2,-1.04495786E-1],"split_indices":[1,1,0,0,0,1,0,1,0,1,0,0,1,1,0,0,0,0,0,0,0,0,0,0,0,0,0,0,0,0,0],"split_type":[0,0,0,0,0,0,0,0,0,0,0,0,0,0,0,0,0,0,0,0,0,0,0,0,0,0,0,0,0,0,0],"sum_hessian":[4.626E3,3.52E3,1.106E3,1.197E3,2.323E3,6.46E2,4.6E2,1.77E2,1.02E3,1.043E3,1.28E3,1.27E2,5.19E2,1.73E2,2.87E2,1.09E2,6.8E1,3.99E2,6.21E2,4.12E2,6.31E2,4.06E2,8.74E2,8.7E1,4E1,1.34E2,3.85E2,1.02E2,7.1E1,2.66E2,2.1E1],"tree_param":{"num_deleted":"0","num_feature":"2","num_nodes":"31","size_leaf_vector":"1"}},{"base_weights":[-1.1445595E-3,5.2991632E-2,-1.2988512E-1,-2.8698508E-2,3.1298977E-1,-4.707173E-1,1.0776143E-1,4.4344123E-2,-2.9119304E-1,9.5310193E-1,-2.5366247E-1,-1.5310053E0,-2.6305375E-1,4.7236198E-1,-3.04137E-1,-1.0251027E-2,5.2144356E-2,-4.7629204E-2,1.6159944E-1,8.999582E-3,1.3582964E-1,-1.2036087E-1,2.2567155E-2,-3.9743196E-2,-1.9252454E-1,2.2873186E-2,-3.7477862E-2,2.1630822E-1,7.860641E-3,-1.9370357E-2,-7.9908036E-2],"categories":[],"categories_nodes":[],"categories_segments":[],"categories_sizes":[],"default_left":[0,0,0,0,0,0,0,0,0,0,0,0,0,0,0,0,0,0,0,0,0,0,0,0,0,0,0,0,0,0,0],"id":38,"left_children":[1,3,5,7,9,11,13,15,17,19,21,23,25,27,29,-1,-1,-1,-1,-1,-1,-1,-1,-1,-1,-1,-1,-1,-1,-1,-1],"loss_changes":[3.2254868E1,6.920657E1,1.1101742E2,4.7562675E1,2.8280142E2,1.2356041E2,1.2148779E2,1.3604796E2,1.9139966E2,1.2787738E2,1.8878302E2,4.0349655E1,2.6019619E1,2.854283E2,2.0615368E1,0E0,0E0,0E0,0E0,0E0,0E0,0E0,0E0,0E0,0E0,0E0,0E0,0E0,0E0,0E0,0E0],"parents":[2147483647,0,0,1,1,2,2,3,3,4,4,5,5,6,6,7,7,8,8,9,9,10,10,11,11,12,12,13,13,14,14],"right_children":[2,4,6,8,10,12,14,16,18,20,22,24,26,28,30,-1,-1,-1,-1,-1,-1,-1,-1,-1,-1,-1,-1,-1,-1,-1,-1],"split_conditions":[1.8E1,1.5E1,4E0,7E0,5E0,1.9E1,6E0,6E0,1.4E1,2E0,6E0,2E0,2E1,1.9E1,7E0,-1.0251027E-2,5.2144356E-2,-4.7629204E-2,1.6159944E-1,8.999582E-3,1.3582964E-1,-1.2036087E-1,2.2567155E-2,-3.9743196E-2,-1.9252454E-1,2.2873186E-2,-3.7477862E-2,2.1630822E-1,7.860641E-3,-1.9370357E-2,-7.9908036E-2],"split_indices":[1,1,0,0,0,1,0,0,1,0,0,0,1,1,0,0,0,0,0,0,0,0,0,0,0,0,0,0,0,0,0],"split_type":[0,0,0,0,0,0,0,0,0,0,0,0,0,0,0,0,0,0,0,0,0,0,0,0,0,0,0,0,0,0,0],"sum_hessian":[4.626E3,3.257E3,1.369E3,2.479E3,7.78E2,5.62E2,8.07E2,1.94E3,5.39E2,3.65E2,4.13E2,9.1E1,4.71E2,4.28E2,3.79E2,1.484E3,4.56E2,4.92E2,4.7E1,1.17E2,2.48E2,1.38E2,2.75E2,2.4E1,6.7E1,8.7E1,3.84E2,8E1,3.48E2,3.11E2,6.8E1],"tree_param":{"num_deleted":"0","num_feature":"2","num_nodes":"31","size_leaf_vector":"1"}},{"base_weights":[-1.0129022E-3,4.775433E-2,-1.1698562E-1,-2.5766322E-2,2.8175107E-1,-4.2408407E-1,9.713989E-2,3.993072E-2,-2.6186296E-1,8.5818744E-1,-2.2853269E-1,-1.380429E0,-2.3677936E-1,4.256486E-1,-2.739848E-1,-9.226679E-3,4.694129E-2,-4.287597E-2,1.457761E-1,8.107319E-3,1.223012E-1,-1.08411334E-1,2.0318557E-2,-3.592783E-2,-1.7355518E-1,2.0611886E-2,-3.3739824E-2,1.949444E-1,7.076873E-3,-1.7439561E-2,-7.2033025E-2],"categories":[],"categories_nodes":[],"categories_segments":[],"categories_sizes":[],"default_left":[0,0,0,0,0,0,0,0,0,0,0,0,0,0,0,0,0,0,0,0,0,0,0,0,0,0,0,0,0,0,0],"id":39,"left_children":[1,3,5,7,9,11,13,15,17,19,21,23,25,27,29,-1,-1,-1,-1,-1,-1,-1,-1,-1,-1,-1,-1,-1,-1,-1,-1],"loss_changes":[2.6174362E1,5.6056564E1,9.012911E1,3.8477367E1,2.2933597E2,1.0052216E2,9.8626114E1,1.1024646E2,1.5560481E2,1.0366565E2,1.5313936E2,3.273877E1,2.1103712E1,2.3184991E2,1.6765825E1,0E0,0E0,0E0,0E0,0E0,0E0,0E0,0E0,0E0,0E0,0E0,0E0,0E0,0E0,0E0,0E0],"parents":[2147483647,0,0,1,1,2,2,3,3,4,4,5,5,6,6,7,7,8,8,9,9,10,10,11,11,12,12,13,13,14,14],"right_children":[2,4,6,8,10,12,14,16,18,20,22,24,26,28,30,-1,-1,-1,-1,-1,-1,-1,-1,-1,-1,-1,-1,-1,-1,-1,-1],"split_conditions":[1.8E1,1.5E1,4E0,7E0,5E0,1.9E1,6E0,6E0,1.4E1,2E0,6E0,2E0,2E1,1.9E1,7E0,-9.226679E-3,4.694129E-2,-4.287597E-2,1.457761E-1,8.107319E-3,1.223012E-1,-1.08411334E-1,2.0318557E-2,-3.592783E-2,-1.7355518E-1,2.0611886E-2,-3.3739824E-2,1.949444E-1,7.076873E-3,-1.7439561E-2,-7.2033025E-2],"split_indices":[1,1,0,0,0,1,0,0,1,0,0,0,1,1,0,0,0,0,0,0,0,0,0,0,0,0,0,0,0,0,0],"split_type":[0,0,0,0,0,0,0,0,0,0,0,0,0,0,0,0,0,0,0,0,0,0,0,0,0,0,0,0,0,0,0],"sum_hessian":[4.626E3,3.257E3,1.369E3,2.479E3,7.78E2,5.62E2,8.07E2,1.94E3,5.39E2,3.65E2,4.13E2,9.1E1,4.71E2,4.28E2,3.79E2,1.484E3,4.56E2,4.92E2,4.7E1,1.17E2,2.48E2,1.38E2,2.75E2,2.4E1,6.7E1,8.7E1,3.84E2,8E1,3.48E2,3.11E2,6.8E1],"tree_param":{"num_deleted":"0","num_feature":"2","num_nodes":"31","size_leaf_vector":"1"}},{"base_weights":[-8.961379E-4,5.0473303E-2,-9.582631E-2,-2.3133473E-2,3.987449E-1,-4.922306E-2,-7.0731916E-2,3.595656E-2,-2.3548648E-1,1.2821397E0,1.3883673E-1,-3.14233E-1,3.0625258E-3,8.594225E-3,-1.0175597E-1,-3.8597103E-2,1.3150212E-1,2.4152866E-2,2.8711283E-1,-1.1402589E-1,3.859965E-2,-4.2346682E-2,-1.7901827E-2,1.3050056E-2,-1.56638E-2],"categories":[],"categories_nodes":[],"categories_segments":[],"categories_sizes":[],"default_left":[0,0,0,0,0,0,0,0,0,0,0,0,0,0,0,0,0,0,0,0,0,0,0,0,0],"id":40,"left_children":[1,3,5,7,9,11,-1,13,15,17,19,21,23,-1,-1,-1,-1,-1,-1,-1,-1,-1,-1,-1,-1],"loss_changes":[2.2568447E1,7.699158E1,4.627371E1,3.1127373E1,1.201332E2,2.0937683E1,0E0,1.0230195E2,1.2650438E2,1.9607532E2,1.2879337E2,3.6019287E0,2.5724916E1,0E0,0E0,0E0,0E0,0E0,0E0,0E0,0E0,0E0,0E0,0E0,0E0],"parents":[2147483647,0,0,1,1,2,2,3,3,4,4,5,5,7,7,8,8,9,9,10,10,11,11,12,12],"right_children":[2,4,6,8,10,12,-1,14,16,18,20,22,24,-1,-1,-1,-1,-1,-1,-1,-1,-1,-1,-1,-1],"split_conditions":[1.7E1,1.5E1,7E0,7E0,3E0,2E0,-7.0731916E-2,1.4E1,1.4E1,2E0,4E0,2.1E1,2.1E1,8.594225E-3,-1.0175597E-1,-3.8597103E-2,1.3150212E-1,2.4152866E-2,2.8711283E-1,-1.1402589E-1,3.859965E-2,-4.2346682E-2,-1.7901827E-2,1.3050056E-2,-1.56638E-2],"split_indices":[1,1,0,0,0,0,0,1,1,0,0,1,1,0,0,0,0,0,0,0,0,0,0,0,0],"split_type":[0,0,0,0,0,0,0,0,0,0,0,0,0,0,0,0,0,0,0,0,0,0,0,0,0],"sum_hessian":[4.626E3,3.002E3,1.624E3,2.479E3,5.23E2,1.51E3,1.14E2,1.94E3,5.39E2,1.18E2,4.05E2,2.48E2,1.262E3,1.853E3,8.7E1,4.92E2,4.7E1,7.2E1,4.6E1,6.5E1,3.4E2,1.36E2,1.12E2,7.02E2,5.6E2],"tree_param":{"num_deleted":"0","num_feature":"2","num_nodes":"25","size_leaf_vector":"1"}},{"base_weights":[-7.8450807E-4,-1.9255622E-1,2.291362E-2,-2.834672E-1,2.1595457E-3,9.4052345E-2,-8.632578E-2,-3.5784486E-1,-1.1329449E-1,4.952747E-2,-9.5039494E-2,2.3517488E-2,3.5932082E-1,-4.434226E-2,-6.372021E-1,-2.8415019E-2,-6.482391E-2,-1.41645735E-2,-6.4201127E-3,-6.9308872E-3,-2.5119243E-2,1.0099187E-2,-3.0345378E-2,1.1565413E-1,1.247677E-2,-2.8305149E-2,2.7542893E-4,-7.081591E-2,-5.796343E-2],"categories":[],"categories_nodes":[],"categories_segments":[],"categories_sizes":[],"default_left":[0,0,0,0,0,0,0,0,0,0,0,0,0,0,0,0,0,0,0,0,0,0,0,0,0,0,0,0,0],"id":41,"left_children":[1,3,5,7,9,11,13,15,17,-1,19,21,23,25,27,-1,-1,-1,-1,-1,-1,-1,-1,-1,-1,-1,-1,-1,-1],"loss_changes":[2.1032417E1,9.01083E0,3.2017494E1,4.3514576E0,7.8597126E0,4.6674686E1,3.7554302E1,4.9733257E0,1.39835E-1,0E0,5.3304434E-1,4.9985138E1,9.783876E1,1.6988018E1,5.928421E-2,0E0,0E0,0E0,0E0,0E0,0E0,0E0,0E0,0E0,0E0,0E0,0E0,0E0,0E0],"parents":[2147483647,0,0,1,1,2,2,3,3,4,4,5,5,6,6,7,7,8,8,10,10,11,11,12,12,13,13,14,14],"right_children":[2,4,6,8,10,12,14,16,18,-1,20,22,24,26,28,-1,-1,-1,-1,-1,-1,-1,-1,-1,-1,-1,-1,-1,-1],"split_conditions":[4E0,7E0,1.7E1,2E0,1E0,1.5E1,7E0,6E0,3E0,4.952747E-2,3E0,7E0,3E0,2E0,1.8E1,-2.8415019E-2,-6.482391E-2,-1.41645735E-2,-6.4201127E-3,-6.9308872E-3,-2.5119243E-2,1.0099187E-2,-3.0345378E-2,1.1565413E-1,1.247677E-2,-2.8305149E-2,2.7542893E-4,-7.081591E-2,-5.796343E-2],"split_indices":[1,0,1,1,1,1,0,0,1,0,1,0,0,0,1,0,0,0,0,0,0,0,0,0,0,0,0,0,0],"split_type":[0,0,0,0,0,0,0,0,0,0,0,0,0,0,0,0,0,0,0,0,0,0,0,0,0,0,0,0,0],"sum_hessian":[4.626E3,5.08E2,4.118E3,3.46E2,1.62E2,2.494E3,1.624E3,2.4E2,1.06E2,2.6E1,1.36E2,1.971E3,5.23E2,1.51E3,1.14E2,1.93E2,4.7E1,6.6E1,4E1,1.18E2,1.8E1,1.594E3,3.77E2,1.18E2,4.05E2,2.48E2,1.262E3,4.6E1,6.8E1],"tree_param":{"num_deleted":"0","num_feature":"2","num_nodes":"29","size_leaf_vector":"1"}},{"base_weights":[-7.3743437E-4,1.8214514E-2,-2.1019404E-1,-9.885323E-2,6.4236484E-2,-5.580248E-1,-6.1265375E-2,2.2741227E-1,-1.5563717E-1,-3.0136964E-1,1.1597239E-1,-1.3487725E-1,-1.1252262E-1,7.853375E-2,-3.325999E-1,-1.0168626E-2,7.487663E-2,-7.5934874E-3,-2.0664245E-2,-5.4080516E-2,-1.8375643E-2,3.671991E-2,7.4507208E-3,-1.0481873E-2,-2.0027384E-2,3.320456E-2,-6.551926E-4,1.8055026E-3,-6.5440975E-2],"categories":[],"categories_nodes":[],"categories_segments":[],"categories_sizes":[],"default_left":[0,0,0,0,0,0,0,0,0,0,0,0,0,0,0,0,0,0,0,0,0,0,0,0,0,0,0,0,0],"id":42,"left_children":[1,3,5,7,9,11,13,15,17,19,21,23,-1,25,27,-1,-1,-1,-1,-1,-1,-1,-1,-1,-1,-1,-1,-1,-1],"loss_changes":[1.8371218E1,2.2871698E1,1.9857775E1,2.2230309E1,5.7668854E1,2.7449368E1,1.026785E1,3.0616814E1,4.1349163E0,1.0545403E1,2.7786465E1,1.1071122E-1,0E0,3.863246E0,1.0393483E1,0E0,0E0,0E0,0E0,0E0,0E0,0E0,0E0,0E0,0E0,0E0,0E0,0E0,0E0],"parents":[2147483647,0,0,1,1,2,2,3,3,4,4,5,5,6,6,7,7,8,8,9,9,10,10,11,11,13,13,14,14],"right_children":[2,4,6,8,10,12,14,16,18,20,22,24,-1,26,28,-1,-1,-1,-1,-1,-1,-1,-1,-1,-1,-1,-1,-1,-1],"split_conditions":[2.2E1,9E0,3E0,2E0,2E0,2E0,2.3E1,4E0,5E0,1.4E1,1.1E1,2.3E1,-1.1252262E-1,4E0,6E0,-1.0168626E-2,7.487663E-2,-7.5934874E-3,-2.0664245E-2,-5.4080516E-2,-1.8375643E-2,3.671991E-2,7.4507208E-3,-1.0481873E-2,-2.0027384E-2,3.320456E-2,-6.551926E-4,1.8055026E-3,-6.5440975E-2],"split_indices":[1,1,0,0,0,0,1,1,0,1,1,1,0,0,0,0,0,0,0,0,0,0,0,0,0,0,0,0,0],"split_type":[0,0,0,0,0,0,0,0,0,0,0,0,0,0,0,0,0,0,0,0,0,0,0,0,0,0,0,0,0],"sum_hessian":[4.626E3,4.243E3,3.83E2,1.197E3,3.046E3,1.14E2,2.69E2,1.77E2,1.02E3,3.77E2,2.669E3,6.6E1,4.8E1,1.78E2,9.1E1,1.09E2,6.8E1,3.99E2,6.21E2,1.23E2,2.54E2,3.77E2,2.292E3,4.7E1,1.9E1,4.4E1,1.34E2,4.4E1,4.7E1],"tree_param":{"num_deleted":"0","num_feature":"2","num_nodes":"29","size_leaf_vector":"1"}},{"base_weights":[-6.99457E-4,1.6395092E-2,-1.89628E-1,-9.4392546E-2,5.6144305E-2,-5.034661E-1,-5.5253893E-2,1.1605686E-1,-1.75338E-1,-2.7142432E-1,1.0119884E-1,-1.2184491E-1,-1.0149999E-1,7.0862226E-2,-3.0003142E-1,-1.2270911E-2,6.796317E-2,-9.270543E-3,-3.6552045E-2,-4.8716035E-2,-1.6545301E-2,1.4530211E-2,-1.0898922E-2,-9.455527E-3,-1.8124782E-2,2.9957896E-2,-5.901584E-4,1.6289902E-3,-5.9033196E-2],"categories":[],"categories_nodes":[],"categories_segments":[],"categories_sizes":[],"default_left":[0,0,0,0,0,0,0,0,0,0,0,0,0,0,0,0,0,0,0,0,0,0,0,0,0,0,0,0,0],"id":43,"left_children":[1,3,5,7,9,11,13,15,17,19,21,23,-1,25,27,-1,-1,-1,-1,-1,-1,-1,-1,-1,-1,-1,-1,-1,-1],"loss_changes":[1.4946692E1,1.8694693E1,1.6166122E1,1.9116497E1,4.6132866E1,2.2325724E1,8.356267E0,4.206689E1,1.269548E1,8.561171E0,2.5480469E1,9.147459E-2,0E0,3.1445012E0,8.457817E0,0E0,0E0,0E0,0E0,0E0,0E0,0E0,0E0,0E0,0E0,0E0,0E0,0E0,0E0],"parents":[2147483647,0,0,1,1,2,2,3,3,4,4,5,5,6,6,7,7,8,8,9,9,10,10,11,11,13,13,14,14],"right_children":[2,4,6,8,10,12,14,16,18,20,22,24,-1,26,28,-1,-1,-1,-1,-1,-1,-1,-1,-1,-1,-1,-1,-1,-1],"split_conditions":[2.2E1,8E0,3E0,3E0,2E0,2E0,2.3E1,5E0,6E0,1.4E1,7E0,2.3E1,-1.0149999E-1,4E0,6E0,-1.2270911E-2,6.796317E-2,-9.270543E-3,-3.6552045E-2,-4.8716035E-2,-1.6545301E-2,1.4530211E-2,-1.0898922E-2,-9.455527E-3,-1.8124782E-2,2.9957896E-2,-5.901584E-4,1.6289902E-3,-5.9033196E-2],"split_indices":[1,1,0,0,0,0,1,1,1,1,0,1,0,0,0,0,0,0,0,0,0,0,0,0,0,0,0,0,0],"split_type":[0,0,0,0,0,0,0,0,0,0,0,0,0,0,0,0,0,0,0,0,0,0,0,0,0,0,0,0,0],"sum_hessian":[4.626E3,4.243E3,3.83E2,1.12E3,3.123E3,1.14E2,2.69E2,3.11E2,8.09E2,3.77E2,2.746E3,6.6E1,4.8E1,1.78E2,9.1E1,2.19E2,9.2E1,5.65E2,2.44E2,1.23E2,2.54E2,2.27E3,4.76E2,4.7E1,1.9E1,4.4E1,1.34E2,4.4E1,4.7E1],"tree_param":{"num_deleted":"0","num_feature":"2","num_nodes":"29","size_leaf_vector":"1"}},{"base_weights":[-6.746258E-4,4.0721986E-2,-7.717515E-2,-1.7030945E-2,3.1397876E-1,-3.9525807E-2,-5.711837E-1,-9.376543E-2,9.7394496E-2,1.0544918E0,9.615849E-2,-2.2266103E-1,-3.3894668E-3,-6.354747E-2,-5.191132E-1,-3.8563036E-3,-1.8198021E-1,4.1758355E-2,-1.7376065E-2,1.3808033E-2,2.4554181E-1,-1.8723909E-2,1.0519723E-1,-3.1866442E-2,-1.0429707E-2,9.5244525E-3,-1.269836E-2,-4.3729007E-2,-6.740403E-2],"categories":[],"categories_nodes":[],"categories_segments":[],"categories_sizes":[],"default_left":[0,0,0,0,0,0,0,0,0,0,0,0,0,0,0,0,0,0,0,0,0,0,0,0,0,0,0,0,0],"id":44,"left_children":[1,3,5,7,9,11,13,15,17,19,21,23,25,-1,27,-1,-1,-1,-1,-1,-1,-1,-1,-1,-1,-1,-1,-1,-1],"loss_changes":[1.4656214E1,4.7396824E1,3.0200954E1,2.1784468E1,8.441915E1,9.998796E0,5.5095673E-2,1.4142262E2,8.654618E1,1.5243614E2,1.1017235E2,2.796237E0,1.5408799E1,0E0,5.79937E-1,0E0,0E0,0E0,0E0,0E0,0E0,0E0,0E0,0E0,0E0,0E0,0E0,0E0,0E0],"parents":[2147483647,0,0,1,1,2,2,3,3,4,4,5,5,6,6,7,7,8,8,9,9,10,10,11,11,12,12,14,14],"right_children":[2,4,6,8,10,12,14,16,18,20,22,24,26,-1,28,-1,-1,-1,-1,-1,-1,-1,-1,-1,-1,-1,-1,-1,-1],"split_conditions":[1.7E1,1.5E1,7E0,6E0,3E0,2E0,1.8E1,1.4E1,7E0,2E0,7E0,2.1E1,2.1E1,-6.354747E-2,1.9E1,-3.8563036E-3,-1.8198021E-1,4.1758355E-2,-1.7376065E-2,1.3808033E-2,2.4554181E-1,-1.8723909E-2,1.0519723E-1,-3.1866442E-2,-1.0429707E-2,9.5244525E-3,-1.269836E-2,-4.3729007E-2,-6.740403E-2],"split_indices":[1,1,0,0,0,0,1,1,0,0,0,1,1,0,1,0,0,0,0,0,0,0,0,0,0,0,0,0,0],"split_type":[0,0,0,0,0,0,0,0,0,0,0,0,0,0,0,0,0,0,0,0,0,0,0,0,0,0,0,0,0],"sum_hessian":[4.626E3,3.002E3,1.624E3,2.479E3,5.23E2,1.51E3,1.14E2,1.484E3,9.95E2,1.18E2,4.05E2,2.48E2,1.262E3,4.6E1,6.8E1,1.439E3,4.5E1,4.56E2,5.39E2,7.2E1,4.6E1,3.13E2,9.2E1,1.36E2,1.12E2,7.02E2,5.6E2,4.7E1,2.1E1],"tree_param":{"num_deleted":"0","num_feature":"2","num_nodes":"29","size_leaf_vector":"1"}},{"base_weights":[-6.1482965E-4,-7.100476E-2,4.0139977E-2,6.2350493E-2,-3.3972096E-1,3.1929767E-1,-2.7243607E-2,-2.1121958E-1,5.113694E-1,-1.2414583E0,-1.6323885E-1,6.2606853E-1,-3.7100792E-1,-1.9584739E-1,2.3315415E-2,4.4853636E-4,-1.2041827E-1,-3.929613E-3,8.250304E-2,-1.9284638E-2,-1.6087207E-1,2.2426955E-2,-2.513882E-2,1.5948478E-2,2.4328315E-1,-4.0535692E-2,-9.817687E-3,-1.0093131E-2,-8.49168E-2,2.3703355E-2,-7.473598E-3],"categories":[],"categories_nodes":[],"categories_segments":[],"categories_sizes":[],"default_left":[0,0,0,0,0,0,0,0,0,0,0,0,0,0,0,0,0,0,0,0,0,0,0,0,0,0,0,0,0,0,0],"id":45,"left_children":[1,3,5,7,9,11,13,15,17,19,21,23,25,27,29,-1,-1,-1,-1,-1,-1,-1,-1,-1,-1,-1,-1,-1,-1,-1,-1],"loss_changes":[1.3276456E1,6.0832695E1,5.51427E1,1.3952928E2,8.939345E1,1.2093868E2,2.0139301E1,1.5122147E2,7.4303E1,3.5120422E1,1.6179245E1,3.325995E2,1.6095829E0,3.3710083E1,3.811456E1,0E0,0E0,0E0,0E0,0E0,0E0,0E0,0E0,0E0,0E0,0E0,0E0,0E0,0E0,0E0,0E0],"parents":[2147483647,0,0,1,1,2,2,3,3,4,4,5,5,6,6,7,7,8,8,9,9,10,10,11,11,12,12,13,13,14,14],"right_children":[2,4,6,8,10,12,14,16,18,20,22,24,26,28,30,-1,-1,-1,-1,-1,-1,-1,-1,-1,-1,-1,-1,-1,-1,-1,-1],"split_conditions":[4E0,1.8E1,5E0,1.2E1,1.9E1,1.9E1,8E0,1E1,2E0,2E0,2E1,1.6E1,2.3E1,7E0,1.3E1,4.4853636E-4,-1.2041827E-1,-3.929613E-3,8.250304E-2,-1.9284638E-2,-1.6087207E-1,2.2426955E-2,-2.513882E-2,1.5948478E-2,2.4328315E-1,-4.0535692E-2,-9.817687E-3,-1.0093131E-2,-8.49168E-2,2.3703355E-2,-7.473598E-3],"split_indices":[0,1,0,1,1,1,1,1,0,0,1,1,1,1,1,0,0,0,0,0,0,0,0,0,0,0,0,0,0,0,0],"split_type":[0,0,0,0,0,0,0,0,0,0,0,0,0,0,0,0,0,0,0,0,0,0,0,0,0,0,0,0,0,0,0],"sum_hessian":[4.626E3,1.696E3,2.93E3,1.134E3,5.62E2,5.69E2,2.361E3,7.05E2,4.29E2,9.1E1,4.71E2,3.94E2,1.75E2,5.44E2,1.817E3,5.8E2,1.25E2,1.56E2,2.73E2,2.4E1,6.7E1,8.7E1,3.84E2,3.14E2,8E1,1.55E2,2E1,4.76E2,6.8E1,5.71E2,1.246E3],"tree_param":{"num_deleted":"0","num_feature":"2","num_nodes":"31","size_leaf_vector":"1"}},{"base_weights":[-5.7362375E-4,-2.0320047E-1,1.3171846E-2,-3.0370906E-1,2.4912858E-1,6.2320508E-2,-5.4176275E-2,-2.3218457E-1,-5.864599E-1,5.0285947E-2,-4.4379575E-4,1.06019825E-2,4.1558954E-1,2.1385778E-2,-2.3270316E-1,-3.840536E-2,2.7920514E-2,-6.671999E-2,-4.779199E-2,7.080736E-3,-1.9970592E-2,1.118052E-1,1.2287121E-2,-1.6268795E-2,2.5880938E-2,-3.5603236E-2,-4.945453E-3],"categories":[],"categories_nodes":[],"categories_segments":[],"categories_sizes":[],"default_left":[0,0,0,0,0,0,0,0,0,0,0,0,0,0,0,0,0,0,0,0,0,0,0,0,0,0,0],"id":46,"left_children":[1,3,5,7,9,11,13,15,17,-1,-1,19,21,23,25,-1,-1,-1,-1,-1,-1,-1,-1,-1,-1,-1,-1],"loss_changes":[1.2889803E1,1.3441771E1,1.434922E1,4.7377224E0,3.476466E0,4.57816E1,2.4677927E1,1.5174093E1,1.0177994E-1,0E0,0E0,2.7705208E1,6.5662186E1,5.624473E1,1.2276747E1,0E0,0E0,0E0,0E0,0E0,0E0,0E0,0E0,0E0,0E0,0E0,0E0],"parents":[2147483647,0,0,1,1,2,2,3,3,4,4,5,5,6,6,7,7,8,8,11,11,12,12,13,13,14,14],"right_children":[2,4,6,8,10,12,14,16,18,-1,-1,20,22,24,26,-1,-1,-1,-1,-1,-1,-1,-1,-1,-1,-1,-1],"split_conditions":[2E0,7E0,1.6E1,6E0,1E0,1.5E1,6E0,5E0,1E0,5.0285947E-2,-4.4379575E-4,7E0,3E0,4E0,2E1,-3.840536E-2,2.7920514E-2,-6.671999E-2,-4.779199E-2,7.080736E-3,-1.9970592E-2,1.118052E-1,1.2287121E-2,-1.6268795E-2,2.5880938E-2,-3.5603236E-2,-4.945453E-3],"split_indices":[1,0,1,0,1,1,0,0,1,0,0,0,0,0,1,0,0,0,0,0,0,0,0,0,0,0,0],"split_type":[0,0,0,0,0,0,0,0,0,0,0,0,0,0,0,0,0,0,0,0,0,0,0,0,0,0,0],"sum_hessian":[4.626E3,2.93E2,4.333E3,2.4E2,5.3E1,2.505E3,1.828E3,1.93E2,4.7E1,2.6E1,2.7E1,2.186E3,3.19E2,1.285E3,5.43E2,1.49E2,4.4E1,2.4E1,2.3E1,1.7E3,4.86E2,9.3E1,2.26E2,7.24E2,5.61E2,3.24E2,2.19E2],"tree_param":{"num_deleted":"0","num_feature":"2","num_nodes":"27","size_leaf_vector":"1"}},{"base_weights":[-5.1497825E-4,-6.4103365E-2,3.630181E-2,4.7923338E-2,-2.8983375E-1,2.752375E-1,-2.137374E-2,-6.1311305E-2,9.988821E-1,-1.1031786E0,-1.3068639E-1,5.575506E-1,-3.599268E-1,-1.6832218E-1,4.213875E-2,-2.6858726E-4,-1.273678E-1,-4.1736355E-3,1.6498484E-1,-1.5871553E-2,-1.4341845E-1,2.1818167E-2,-2.1008821E-2,1.4192439E-2,2.1669915E-1,-3.907958E-2,-1.1347462E-2,-4.8358735E-2,5.545125E-2,1.6576415E-2,-2.0950733E-2],"categories":[],"categories_nodes":[],"categories_segments":[],"categories_sizes":[],"default_left":[0,0,0,0,0,0,0,0,0,0,0,0,0,0,0,0,0,0,0,0,0,0,0,0,0,0,0,0,0,0,0],"id":47,"left_children":[1,3,5,7,9,11,13,15,17,19,21,23,25,27,29,-1,-1,-1,-1,-1,-1,-1,-1,-1,-1,-1,-1,-1,-1,-1,-1],"loss_changes":[1.0834691E1,4.2927338E1,4.039726E1,1.17962364E2,7.27315E1,1.0241034E2,2.2051785E1,7.242254E1,7.932552E1,2.8533669E1,1.3120596E1,2.6391815E2,1.2946167E0,1.6274986E2,5.1365982E1,0E0,0E0,0E0,0E0,0E0,0E0,0E0,0E0,0E0,0E0,0E0,0E0,0E0,0E0,0E0,0E0],"parents":[2147483647,0,0,1,1,2,2,3,3,4,4,5,5,6,6,7,7,8,8,9,9,10,10,11,11,12,12,13,13,14,14],"right_children":[2,4,6,8,10,12,14,16,18,20,22,24,26,28,30,-1,-1,-1,-1,-1,-1,-1,-1,-1,-1,-1,-1,-1,-1,-1,-1],"split_conditions":[4E0,1.8E1,5E0,1.7E1,1.9E1,1.9E1,6E0,1.6E1,2E0,2E0,2E1,1.6E1,2.3E1,1.8E1,1.6E1,-2.6858726E-4,-1.273678E-1,-4.1736355E-3,1.6498484E-1,-1.5871553E-2,-1.4341845E-1,2.1818167E-2,-2.1008821E-2,1.4192439E-2,2.1669915E-1,-3.907958E-2,-1.1347462E-2,-4.8358735E-2,5.545125E-2,1.6576415E-2,-2.0950733E-2],"split_indices":[0,1,0,1,1,1,0,1,0,0,1,1,1,1,1,0,0,0,0,0,0,0,0,0,0,0,0,0,0,0,0],"split_type":[0,0,0,0,0,0,0,0,0,0,0,0,0,0,0,0,0,0,0,0,0,0,0,0,0,0,0,0,0,0,0],"sum_hessian":[4.626E3,1.696E3,2.93E3,1.134E3,5.62E2,5.69E2,2.361E3,1.018E3,1.16E2,9.1E1,4.71E2,3.94E2,1.75E2,7.12E2,1.649E3,9.72E2,4.6E1,4.5E1,7.1E1,2.4E1,6.7E1,8.7E1,3.84E2,3.14E2,8E1,1.55E2,2E1,4.96E2,2.16E2,1.106E3,5.43E2],"tree_param":{"num_deleted":"0","num_feature":"2","num_nodes":"31","size_leaf_vector":"1"}},{"base_weights":[-4.5102672E-4,-1.833682E-1,1.1957396E-2,-2.7049464E-1,2.0886953E-1,5.5005044E-2,-4.7030777E-2,-2.0082754E-1,-5.464305E-1,4.384738E-2,-1.9994157E-3,8.1559755E-3,3.7501726E-1,1.2890101E-2,-1.8859552E-1,-3.494937E-2,2.9918913E-2,-6.190619E-2,-4.480049E-2,6.669288E-3,-1.9631926E-2,1.853682E-2,1.4458334E-1,-1.3196999E-2,1.9974185E-2,-2.9965296E-2,-2.3676106E-3],"categories":[],"categories_nodes":[],"categories_segments":[],"categories_sizes":[],"default_left":[0,0,0,0,0,0,0,0,0,0,0,0,0,0,0,0,0,0,0,0,0,0,0,0,0,0,0],"id":48,"left_children":[1,3,5,7,9,11,13,15,17,-1,-1,19,21,23,25,-1,-1,-1,-1,-1,-1,-1,-1,-1,-1,-1,-1],"loss_changes":[1.0504158E1,1.0103736E1,1.1007922E1,4.523163E0,2.8463626E0,3.756758E1,1.5517257E1,1.4525663E1,6.579876E-2,0E0,0E0,2.6190054E1,6.471736E1,3.4834984E1,9.956558E0,0E0,0E0,0E0,0E0,0E0,0E0,0E0,0E0,0E0,0E0,0E0,0E0],"parents":[2147483647,0,0,1,1,2,2,3,3,4,4,5,5,6,6,7,7,8,8,11,11,12,12,13,13,14,14],"right_children":[2,4,6,8,10,12,14,16,18,-1,-1,20,22,24,26,-1,-1,-1,-1,-1,-1,-1,-1,-1,-1,-1,-1],"split_conditions":[2E0,7E0,1.6E1,6E0,1E0,1.5E1,6E0,5E0,1E0,4.384738E-2,-1.9994157E-3,7E0,7E0,4E0,2E1,-3.494937E-2,2.9918913E-2,-6.190619E-2,-4.480049E-2,6.669288E-3,-1.9631926E-2,1.853682E-2,1.4458334E-1,-1.3196999E-2,1.9974185E-2,-2.9965296E-2,-2.3676106E-3],"split_indices":[1,0,1,0,1,1,0,0,1,0,0,0,0,0,1,0,0,0,0,0,0,0,0,0,0,0,0],"split_type":[0,0,0,0,0,0,0,0,0,0,0,0,0,0,0,0,0,0,0,0,0,0,0,0,0,0,0],"sum_hessian":[4.626E3,2.93E2,4.333E3,2.4E2,5.3E1,2.505E3,1.828E3,1.93E2,4.7E1,2.6E1,2.7E1,2.186E3,3.19E2,1.285E3,5.43E2,1.49E2,4.4E1,2.4E1,2.3E1,1.7E3,4.86E2,2.72E2,4.7E1,7.24E2,5.61E2,3.24E2,2.19E2],"tree_param":{"num_deleted":"0","num_feature":"2","num_nodes":"27","size_leaf_vector":"1"}},{"base_weights":[-3.942757E-4,-1.6526915E-1,1.0790221E-2,-2.4390884E-1,1.887574E-1,4.956408E-2,-4.2341586E-2,-1.8077075E-1,-4.9401054E-1,3.9625015E-2,-1.8066202E-3,7.33409E-3,3.3802477E-1,1.1606511E-2,-1.6979547E-1,-3.147773E-2,2.6993487E-2,-5.5963177E-2,-4.050713E-2,6.0026986E-3,-1.767274E-2,9.893622E-2,6.681884E-3,-1.1879127E-2,1.7980363E-2,-2.6978021E-2,-2.131894E-3],"categories":[],"categories_nodes":[],"categories_segments":[],"categories_sizes":[],"default_left":[0,0,0,0,0,0,0,0,0,0,0,0,0,0,0,0,0,0,0,0,0,0,0,0,0,0,0],"id":49,"left_children":[1,3,5,7,9,11,13,15,17,-1,-1,19,21,23,25,-1,-1,-1,-1,-1,-1,-1,-1,-1,-1,-1,-1],"loss_changes":[8.534167E0,8.231158E0,8.930681E0,3.7163153E0,2.324536E0,3.0524841E1,1.2577982E1,1.1802086E1,5.3451538E-2,0E0,0E0,2.1221737E1,5.6460793E1,2.8226593E1,8.070138E0,0E0,0E0,0E0,0E0,0E0,0E0,0E0,0E0,0E0,0E0,0E0,0E0],"parents":[2147483647,0,0,1,1,2,2,3,3,4,4,5,5,6,6,7,7,8,8,11,11,12,12,13,13,14,14],"right_children":[2,4,6,8,10,12,14,16,18,-1,-1,20,22,24,26,-1,-1,-1,-1,-1,-1,-1,-1,-1,-1,-1,-1],"split_conditions":[2E0,7E0,1.6E1,6E0,1E0,1.5E1,6E0,5E0,1E0,3.9625015E-2,-1.8066202E-3,7E0,3E0,4E0,2E1,-3.147773E-2,2.6993487E-2,-5.5963177E-2,-4.050713E-2,6.0026986E-3,-1.767274E-2,9.893622E-2,6.681884E-3,-1.1879127E-2,1.7980363E-2,-2.6978021E-2,-2.131894E-3],"split_indices":[1,0,1,0,1,1,0,0,1,0,0,0,0,0,1,0,0,0,0,0,0,0,0,0,0,0,0],"split_type":[0,0,0,0,0,0,0,0,0,0,0,0,0,0,0,0,0,0,0,0,0,0,0,0,0,0,0],"sum_hessian":[4.626E3,2.93E2,4.333E3,2.4E2,5.3E1,2.505E3,1.828E3,1.93E2,4.7E1,2.6E1,2.7E1,2.186E3,3.19E2,1.285E3,5.43E2,1.49E2,4.4E1,2.4E1,2.3E1,1.7E3,4.86E2,9.3E1,2.26E2,7.24E2,5.61E2,3.24E2,2.19E2],"tree_param":{"num_deleted":"0","num_feature":"2","num_nodes":"27","size_leaf_vector":"1"}}]},"name":"gbtree"},"learner_model_param":{"base_score":"[1.4035452E1]","boost_from_average":"1","num_class":"0","num_feature":"2","num_target":"1"},"objective":{"name":"reg:squarederror","reg_loss_param":{"scale_pos_weight":"1"}}},"version":[3,2,0]}