{"learner":{"attributes":{},"feature_names":["day_of_week","hour_of_day"],"feature_types":[],"gradient_booster":{"model":{"cats":{"enc":[],"feature_segments":[],"sorted_idx":[]},"gbtree_model_param":{"num_parallel_tree":"1","num_trees":"50"},"iteration_indptr":[0,1,2,3,4,5,6,7,8,9,10,11,12,13,14,15,16,17,18,19,20,21,22,23,24,25,26,27,28,29,30,31,32,33,34,35,36,37,38,39,40,41,42,43,44,45,46,47,48,49,50],"tree_info":[0,0,0,0,0,0,0,0,0,0,0,0,0,0,0,0,0,0,0,0,0,0,0,0,0,0,0,0,0,0,0,0,0,0,0,0,0,0,0,0,0,0,0,0,0,0,0,0,0,0],"trees":[{"base_weights":[-4.2541254E-7,-1.0411474E1,1.3150531E0,-1.0841933E1,-7.345665E0,3.1698246E0,-3.6195126E0,-1.2089118E0,-9.5013875E-1,-3.163919E-1,-9.0578145E-1,-2.546441E0,4.0623174E0,-1.8147576E0,-7.047122E0,2.8536174E-1,-7.854604E-1,5.060368E-1,3.235493E-1,-3.870937E-1,-2.7075885E-2,-1.0565842E0,-4.676097E-1],"categories":[],"categories_nodes":[],"categories_segments":[],"categories_sizes":[],"default_left":[0,0,0,0,0,0,0,0,0,0,0,0,0,0,0,0,0,0,0,0,0,0,0],"id":0,"left_children":[1,3,5,7,9,11,13,-1,-1,-1,-1,15,17,19,21,-1,-1,-1,-1,-1,-1,-1,-1],"loss_changes":[6.336494E4,6.0528125E2,3.7619055E4,6.425156E2,4.5104663E2,1.5249205E4,6.934084E3,0E0,0E0,0E0,0E0,1.1602828E4,2.1159766E3,2.3387344E3,3.1793242E3,0E0,0E0,0E0,0E0,0E0,0E0,0E0,0E0],"parents":[2147483647,0,0,1,1,2,2,3,3,4,4,5,5,6,6,11,11,12,12,13,13,14,14],"right_children":[2,4,6,8,10,12,14,-1,-1,-1,-1,16,18,20,22,-1,-1,-1,-1,-1,-1,-1,-1],"split_conditions":[4E0,3E0,1.9E1,5E0,2E0,7E0,2.2E1,-1.2089118E0,-9.5013875E-1,-3.163919E-1,-9.0578145E-1,5E0,5E0,4E0,4E0,2.8536174E-1,-7.854604E-1,5.060368E-1,3.235493E-1,-3.870937E-1,-2.7075885E-2,-1.0565842E0,-4.676097E-1],"split_indices":[1,1,1,0,0,1,1,0,0,0,0,0,0,0,0,0,0,0,0,0,0,0,0],"split_type":[0,0,0,0,0,0,0,0,0,0,0,0,0,0,0,0,0,0,0,0,0,0,0],"sum_hessian":[4.626E3,5.18E2,4.108E3,4.52E2,6.6E1,2.986E3,1.122E3,2.3E2,2.22E2,2E1,4.6E1,4.03E2,2.583E3,7.36E2,3.86E2,2E2,2.03E2,1.168E3,1.415E3,3.15E2,4.21E2,1.54E2,2.32E2],"tree_param":{"num_deleted":"0","num_feature":"2","num_nodes":"23","size_leaf_vector":"1"}},{"base_weights":[-1.0788245E-3,-9.376842E0,1.1831563E0,-9.762506E0,-6.6293397E0,2.8529525E0,-3.2592874E0,-1.088544E0,-8.5555094E-1,-2.862593E-1,-8.171305E-1,-2.2930346E0,3.6564066E0,-1.6338439E0,-6.3463483E0,2.5696757E-1,-7.072994E-1,4.5547643E-1,2.912172E-1,-3.4850687E-1,-2.4374716E-2,-9.516075E-1,-4.2104945E-1],"categories":[],"categories_nodes":[],"categories_segments":[],"categories_sizes":[],"default_left":[0,0,0,0,0,0,0,0,0,0,0,0,0,0,0,0,0,0,0,0,0,0,0],"id":1,"left_children":[1,3,5,7,9,11,13,-1,-1,-1,-1,15,17,19,21,-1,-1,-1,-1,-1,-1,-1,-1],"loss_changes":[5.1385176E4,4.8522266E2,3.0489762E4,5.2085547E2,3.657578E2,1.235833E4,5.624668E3,0E0,0E0,0E0,0E0,9.408572E3,1.7143711E3,1.8957327E3,2.5799512E3,0E0,0E0,0E0,0E0,0E0,0E0,0E0,0E0],"parents":[2147483647,0,0,1,1,2,2,3,3,4,4,5,5,6,6,11,11,12,12,13,13,14,14],"right_children":[2,4,6,8,10,12,14,-1,-1,-1,-1,16,18,20,22,-1,-1,-1,-1,-1,-1,-1,-1],"split_conditions":[4E0,3E0,1.9E1,5E0,2E0,7E0,2.2E1,-1.088544E0,-8.5555094E-1,-2.862593E-1,-8.171305E-1,5E0,5E0,4E0,4E0,2.5696757E-1,-7.072994E-1,4.5547643E-1,2.912172E-1,-3.4850687E-1,-2.4374716E-2,-9.516075E-1,-4.2104945E-1],"split_indices":[1,1,1,0,0,1,1,0,0,0,0,0,0,0,0,0,0,0,0,0,0,0,0],"split_type":[0,0,0,0,0,0,0,0,0,0,0,0,0,0,0,0,0,0,0,0,0,0,0],"sum_hessian":[4.626E3,5.18E2,4.108E3,4.52E2,6.6E1,2.986E3,1.122E3,2.3E2,2.22E2,2E1,4.6E1,4.03E2,2.583E3,7.36E2,3.86E2,2E2,2.03E2,1.168E3,1.415E3,3.15E2,4.21E2,1.54E2,2.32E2],"tree_param":{"num_deleted":"0","num_feature":"2","num_nodes":"23","size_leaf_vector":"1"}},{"base_weights":[-1.942709E-3,-8.445029E0,1.064488E0,-8.790547E0,-5.9828744E0,2.5677567E0,-2.934913E0,-9.8016083E-1,-7.703795E-1,-2.5899646E-1,-7.3715603E-1,-2.0648458E0,3.2910552E0,-1.4709653E0,-5.7152605E0,2.3139869E-1,-6.369162E-1,1.0590317E-1,3.5510322E-1,-3.1376645E-1,-2.1943003E-2,-8.5706073E-1,-3.7912524E-1],"categories":[],"categories_nodes":[],"categories_segments":[],"categories_sizes":[],"default_left":[0,0,0,0,0,0,0,0,0,0,0,0,0,0,0,0,0,0,0,0,0,0,0],"id":2,"left_children":[1,3,5,7,9,11,13,-1,-1,-1,-1,15,17,19,21,-1,-1,-1,-1,-1,-1,-1,-1],"loss_changes":[4.167035E4,3.8892578E2,2.4711557E4,4.2223438E2,2.9659082E2,1.0015502E4,4.5625215E3,0E0,0E0,0E0,0E0,7.629282E3,1.4956719E3,1.536644E3,2.0935723E3,0E0,0E0,0E0,0E0,0E0,0E0,0E0,0E0],"parents":[2147483647,0,0,1,1,2,2,3,3,4,4,5,5,6,6,11,11,12,12,13,13,14,14],"right_children":[2,4,6,8,10,12,14,-1,-1,-1,-1,16,18,20,22,-1,-1,-1,-1,-1,-1,-1,-1],"split_conditions":[4E0,3E0,1.9E1,5E0,2E0,7E0,2.2E1,-9.8016083E-1,-7.703795E-1,-2.5899646E-1,-7.3715603E-1,5E0,9E0,4E0,4E0,2.3139869E-1,-6.369162E-1,1.0590317E-1,3.5510322E-1,-3.1376645E-1,-2.1943003E-2,-8.5706073E-1,-3.7912524E-1],"split_indices":[1,1,1,0,0,1,1,0,0,0,0,0,1,0,0,0,0,0,0,0,0,0,0],"split_type":[0,0,0,0,0,0,0,0,0,0,0,0,0,0,0,0,0,0,0,0,0,0,0],"sum_hessian":[4.626E3,5.18E2,4.108E3,4.52E2,6.6E1,2.986E3,1.122E3,2.3E2,2.22E2,2E1,4.6E1,4.03E2,2.583E3,7.36E2,3.86E2,2E2,2.03E2,2.7E2,2.313E3,3.15E2,4.21E2,1.54E2,2.32E2],"tree_param":{"num_deleted":"0","num_feature":"2","num_nodes":"23","size_leaf_vector":"1"}},{"base_weights":[-2.6699686E-3,-7.605819E0,9.5767003E-1,-7.915357E0,-5.399455E0,2.3109992E0,-2.6428213E0,-8.82569E-1,-6.936871E-1,-2.3433018E-1,-6.6500884E-1,-1.859365E0,2.9621277E0,-1.3243241E0,-5.146929E0,2.0837393E-1,-5.735368E-1,3.7747216E-1,2.2891867E-1,-2.824891E-1,-1.9753886E-2,-7.7190757E-1,-3.413754E-1],"categories":[],"categories_nodes":[],"categories_segments":[],"categories_sizes":[],"default_left":[0,0,0,0,0,0,0,0,0,0,0,0,0,0,0,0,0,0,0,0,0,0,0],"id":3,"left_children":[1,3,5,7,9,11,13,-1,-1,-1,-1,15,17,19,21,-1,-1,-1,-1,-1,-1,-1,-1],"loss_changes":[3.379183E4,3.1171484E2,2.0027824E4,3.422871E2,2.4049915E2,8.116536E3,3.7009463E3,0E0,0E0,0E0,0E0,6.1864785E3,1.4043652E3,1.2455737E3,1.6988867E3,0E0,0E0,0E0,0E0,0E0,0E0,0E0,0E0],"parents":[2147483647,0,0,1,1,2,2,3,3,4,4,5,5,6,6,11,11,12,12,13,13,14,14],"right_children":[2,4,6,8,10,12,14,-1,-1,-1,-1,16,18,20,22,-1,-1,-1,-1,-1,-1,-1,-1],"split_conditions":[4E0,3E0,1.9E1,5E0,2E0,7E0,2.2E1,-8.82569E-1,-6.936871E-1,-2.3433018E-1,-6.6500884E-1,5E0,5E0,4E0,4E0,2.0837393E-1,-5.735368E-1,3.7747216E-1,2.2891867E-1,-2.824891E-1,-1.9753886E-2,-7.7190757E-1,-3.413754E-1],"split_indices":[1,1,1,0,0,1,1,0,0,0,0,0,0,0,0,0,0,0,0,0,0,0,0],"split_type":[0,0,0,0,0,0,0,0,0,0,0,0,0,0,0,0,0,0,0,0,0,0,0],"sum_hessian":[4.626E3,5.18E2,4.108E3,4.52E2,6.6E1,2.986E3,1.122E3,2.3E2,2.22E2,2E1,4.6E1,4.03E2,2.583E3,7.36E2,3.86E2,2E2,2.03E2,1.168E3,1.415E3,3.15E2,4.21E2,1.54E2,2.32E2],"tree_param":{"num_deleted":"0","num_feature":"2","num_nodes":"23","size_leaf_vector":"1"}},{"base_weights":[-3.1918301E-3,-6.850007E0,8.616172E-1,-7.1273007E0,-4.872933E0,2.0799801E0,-2.3797998E0,-7.946942E-1,-6.246294E0,-2.1201304E-1,-5.999229E-1,-7.4277776E-1,2.9012673E0,-1.1923022E0,-4.6351123E0,-5.3543925E-1,-6.45405E-1,2.685561E-1,-4.240744E-1,3.1668636E-1,9.122767E-2,-4.08178E-1,-7.111214E-2,-6.952148E-1,-3.0738437E-1],"categories":[],"categories_nodes":[],"categories_segments":[],"categories_sizes":[],"default_left":[0,0,0,0,0,0,0,0,0,0,0,0,0,0,0,0,0,0,0,0,0,0,0,0,0],"id":4,"left_children":[1,3,5,7,9,11,13,-1,15,-1,-1,17,19,21,23,-1,-1,-1,-1,-1,-1,-1,-1,-1,-1],"loss_changes":[2.7403236E4,2.4980273E2,1.6232305E4,2.7747656E2,1.9501257E2,6.9269023E3,3.0020674E3,0E0,6.7626953E0,0E0,0E0,8.0941406E3,1.2195254E3,1.0217938E3,1.3786084E3,0E0,0E0,0E0,0E0,0E0,0E0,0E0,0E0,0E0,0E0],"parents":[2147483647,0,0,1,1,2,2,3,3,4,4,5,5,6,6,8,8,11,11,12,12,13,13,14,14],"right_children":[2,4,6,8,10,12,14,-1,16,-1,-1,18,20,22,24,-1,-1,-1,-1,-1,-1,-1,-1,-1,-1],"split_conditions":[4E0,3E0,1.9E1,5E0,2E0,9E0,2.2E1,-7.946942E-1,6E0,-2.1201304E-1,-5.999229E-1,5E0,1.8E1,2E0,4E0,-5.3543925E-1,-6.45405E-1,2.685561E-1,-4.240744E-1,3.1668636E-1,9.122767E-2,-4.08178E-1,-7.111214E-2,-6.952148E-1,-3.0738437E-1],"split_indices":[1,1,1,0,0,1,1,0,0,0,0,0,1,0,0,0,0,0,0,0,0,0,0,0,0],"split_type":[0,0,0,0,0,0,0,0,0,0,0,0,0,0,0,0,0,0,0,0,0,0,0,0,0],"sum_hessian":[4.626E3,5.18E2,4.108E3,4.52E2,6.6E1,2.986E3,1.122E3,2.3E2,2.22E2,2E1,4.6E1,6.73E2,2.313E3,7.36E2,3.86E2,4.7E1,1.75E2,3.4E2,3.33E2,2.04E3,2.73E2,1.04E2,6.32E2,1.54E2,2.32E2],"tree_param":{"num_deleted":"0","num_feature":"2","num_nodes":"25","size_leaf_vector":"1"}},{"base_weights":[-3.7410785E-3,-4.800008E0,1.0107583E0,-6.1703773E0,-2.3309677E0,2.323144E0,-2.1431396E0,-6.4189315E0,-4.3977575E0,4.6698672E-1,-5.459099E0,3.1989317E0,1.6034669E0,-1.0737227E0,-4.1741915E0,-7.1556884E-1,-5.62696E-1,-1.9182129E-1,-5.41207E-1,1.10613935E-1,3.4048058E-2,-5.173863E-1,-6.9582576E-1,2.748195E-1,4.5362195E-1,-2.6631075E-1,2.2591265E-1,-2.361476E-1,-1.0688912E-2,-6.2614185E-1,-2.7677783E-1],"categories":[],"categories_nodes":[],"categories_segments":[],"categories_sizes":[],"default_left":[0,0,0,0,0,0,0,0,0,0,0,0,0,0,0,0,0,0,0,0,0,0,0,0,0,0,0,0,0,0,0],"id":5,"left_children":[1,3,5,7,9,11,13,15,17,19,21,23,25,27,29,-1,-1,-1,-1,-1,-1,-1,-1,-1,-1,-1,-1,-1,-1,-1,-1],"loss_changes":[2.2518951E4,2.7194844E3,1.5816457E4,2.004375E2,2.5407363E3,1.6953779E3,2.4347207E3,2.240586E2,1.5812585E2,1.2075321E1,2.2582031E1,7.204951E2,4.154591E3,9.1734436E2,1.1187095E3,0E0,0E0,0E0,0E0,0E0,0E0,0E0,0E0,0E0,0E0,0E0,0E0,0E0,0E0,0E0,0E0],"parents":[2147483647,0,0,1,1,2,2,3,3,4,4,5,5,6,6,7,7,8,8,9,9,10,10,11,11,12,12,13,13,14,14],"right_children":[2,4,6,8,10,12,14,16,18,20,22,24,26,28,30,-1,-1,-1,-1,-1,-1,-1,-1,-1,-1,-1,-1,-1,-1,-1,-1],"split_conditions":[6E0,4E0,1.9E1,3E0,5E0,5E0,2.2E1,5E0,2E0,2E0,5E0,4E0,9E0,4E0,4E0,-7.1556884E-1,-5.62696E-1,-1.9182129E-1,-5.41207E-1,1.10613935E-1,3.4048058E-2,-5.173863E-1,-6.9582576E-1,2.748195E-1,4.5362195E-1,-2.6631075E-1,2.2591265E-1,-2.361476E-1,-1.0688912E-2,-6.2614185E-1,-2.7677783E-1],"split_indices":[1,1,1,1,0,0,1,0,0,0,1,0,1,0,0,0,0,0,0,0,0,0,0,0,0,0,0,0,0,0,0],"split_type":[0,0,0,0,0,0,0,0,0,0,0,0,0,0,0,0,0,0,0,0,0,0,0,0,0,0,0,0,0,0,0],"sum_hessian":[4.626E3,8.07E2,3.819E3,5.18E2,2.89E2,2.697E3,1.122E3,4.52E2,6.6E1,1.53E2,1.36E2,1.215E3,1.482E3,7.36E2,3.86E2,2.3E2,2.22E2,2E1,4.6E1,2.4E1,1.29E2,1.18E2,1.8E1,9.11E2,3.04E2,1.97E2,1.285E3,3.15E2,4.21E2,1.54E2,2.32E2],"tree_param":{"num_deleted":"0","num_feature":"2","num_nodes":"31","size_leaf_vector":"1"}},{"base_weights":[-4.1324184E-3,-4.3238187E0,9.095615E-1,-5.5572147E0,-2.1015556E0,2.0910845E0,-1.9298494E0,-5.7798605E0,-3.9689226E0,4.2122722E-1,-4.9220448E0,2.8796377E0,1.4430927E0,-9.666853E-1,-3.7591054E0,-6.4432174E-1,-5.066787E-1,-1.7355262E-1,-4.8823783E-1,9.9994995E-2,3.0669415E-2,-4.6608242E-1,-6.2990546E-1,2.473677E-1,4.084085E-1,-2.3981416E-1,2.033389E-1,-3.4435904E-1,-5.542971E-2,-5.6393164E-1,-2.4921882E-1],"categories":[],"categories_nodes":[],"categories_segments":[],"categories_sizes":[],"default_left":[0,0,0,0,0,0,0,0,0,0,0,0,0,0,0,0,0,0,0,0,0,0,0,0,0,0,0,0,0,0,0],"id":6,"left_children":[1,3,5,7,9,11,13,15,17,19,21,23,25,27,29,-1,-1,-1,-1,-1,-1,-1,-1,-1,-1,-1,-1,-1,-1,-1,-1],"loss_changes":[1.8266105E4,2.2029941E3,1.2819483E4,1.605918E2,2.0655625E3,1.374457E3,1.9749502E3,1.8163281E2,1.2821362E2,9.900885E0,1.9920654E1,5.844707E2,3.3675305E3,7.508973E2,9.078076E2,0E0,0E0,0E0,0E0,0E0,0E0,0E0,0E0,0E0,0E0,0E0,0E0,0E0,0E0,0E0,0E0],"parents":[2147483647,0,0,1,1,2,2,3,3,4,4,5,5,6,6,7,7,8,8,9,9,10,10,11,11,12,12,13,13,14,14],"right_children":[2,4,6,8,10,12,14,16,18,20,22,24,26,28,30,-1,-1,-1,-1,-1,-1,-1,-1,-1,-1,-1,-1,-1,-1,-1,-1],"split_conditions":[6E0,4E0,1.9E1,3E0,5E0,5E0,2.2E1,5E0,2E0,2E0,5E0,4E0,9E0,2E0,4E0,-6.4432174E-1,-5.066787E-1,-1.7355262E-1,-4.8823783E-1,9.9994995E-2,3.0669415E-2,-4.6608242E-1,-6.2990546E-1,2.473677E-1,4.084085E-1,-2.3981416E-1,2.033389E-1,-3.4435904E-1,-5.542971E-2,-5.6393164E-1,-2.4921882E-1],"split_indices":[1,1,1,1,0,0,1,0,0,0,1,0,1,0,0,0,0,0,0,0,0,0,0,0,0,0,0,0,0,0,0],"split_type":[0,0,0,0,0,0,0,0,0,0,0,0,0,0,0,0,0,0,0,0,0,0,0,0,0,0,0,0,0,0,0],"sum_hessian":[4.626E3,8.07E2,3.819E3,5.18E2,2.89E2,2.697E3,1.122E3,4.52E2,6.6E1,1.53E2,1.36E2,1.215E3,1.482E3,7.36E2,3.86E2,2.3E2,2.22E2,2E1,4.6E1,2.4E1,1.29E2,1.18E2,1.8E1,9.11E2,3.04E2,1.97E2,1.285E3,1.04E2,6.32E2,1.54E2,2.32E2],"tree_param":{"num_deleted":"0","num_feature":"2","num_nodes":"31","size_leaf_vector":"1"}},{"base_weights":[-4.4478993E-3,-3.894875E0,8.184499E-1,-5.0049863E0,-1.8947284E0,1.5866065E0,-2.7436957E0,-5.204415E0,-3.581908E0,3.7995327E-1,-4.43784E0,2.0611207E0,-1.6013373E-2,-4.581994E0,-1.5084112E0,-5.801685E-1,-4.5623803E-1,-1.570238E-1,-4.4045287E-1,9.039551E-2,2.7626097E-2,-4.1986582E-1,-5.702302E-1,2.815197E-1,1.4504804E-1,-1.2073257E-1,3.494091E-2,-3.8902867E-1,-5.079023E-1,-8.705573E-2,-3.5657236E-1],"categories":[],"categories_nodes":[],"categories_segments":[],"categories_sizes":[],"default_left":[0,0,0,0,0,0,0,0,0,0,0,0,0,0,0,0,0,0,0,0,0,0,0,0,0,0,0,0,0,0,0],"id":7,"left_children":[1,3,5,7,9,11,13,15,17,19,21,23,25,27,29,-1,-1,-1,-1,-1,-1,-1,-1,-1,-1,-1,-1,-1,-1,-1,-1],"loss_changes":[1.4816177E4,1.7845879E3,1.0456965E4,1.2865234E2,1.6792694E3,2.3901787E3,1.5327056E3,1.4724023E2,1.0395813E2,8.117855E0,1.7491455E1,1.1125547E3,3.1342578E2,7.3754395E1,5.309877E2,0E0,0E0,0E0,0E0,0E0,0E0,0E0,0E0,0E0,0E0,0E0,0E0,0E0,0E0,0E0,0E0],"parents":[2147483647,0,0,1,1,2,2,3,3,4,4,5,5,6,6,7,7,8,8,9,9,10,10,11,11,12,12,13,13,14,14],"right_children":[2,4,6,8,10,12,14,16,18,20,22,24,26,28,30,-1,-1,-1,-1,-1,-1,-1,-1,-1,-1,-1,-1,-1,-1,-1,-1],"split_conditions":[6E0,4E0,2.1E1,3E0,5E0,1.8E1,4E0,5E0,2E0,2E0,5E0,5E0,3E0,2.2E1,2.3E1,-5.801685E-1,-4.5623803E-1,-1.570238E-1,-4.4045287E-1,9.039551E-2,2.7626097E-2,-4.1986582E-1,-5.702302E-1,2.815197E-1,1.4504804E-1,-1.2073257E-1,3.494091E-2,-3.8902867E-1,-5.079023E-1,-8.705573E-2,-3.5657236E-1],"split_indices":[1,1,1,1,0,1,0,0,0,0,1,0,0,1,1,0,0,0,0,0,0,0,0,0,0,0,0,0,0,0,0],"split_type":[0,0,0,0,0,0,0,0,0,0,0,0,0,0,0,0,0,0,0,0,0,0,0,0,0,0,0,0,0,0,0],"sum_hessian":[4.626E3,8.07E2,3.819E3,5.18E2,2.89E2,3.142E3,6.77E2,4.52E2,6.6E1,1.53E2,1.36E2,2.424E3,7.18E2,2.71E2,4.06E2,2.3E2,2.22E2,2E1,4.6E1,2.4E1,1.29E2,1.18E2,1.8E1,1.083E3,1.341E3,1.68E2,5.5E2,1.17E2,1.54E2,3.11E2,9.5E1],"tree_param":{"num_deleted":"0","num_feature":"2","num_nodes":"31","size_leaf_vector":"1"}},{"base_weights":[-4.7606328E-3,-3.5084891E0,7.3634344E-1,-4.507636E0,-1.7082628E0,1.4280546E0,-2.4713032E0,-4.6862617E0,-3.232635E0,3.427243E-1,-4.001283E0,1.8551849E0,-1.453118E-2,-4.1270924E0,-1.3586597E0,-5.224028E-1,-4.1081887E-1,-1.4206919E-1,-3.9734474E-1,8.171749E-2,2.4884744E-2,-3.782321E-1,-5.1620835E-1,3.3798058E-2,2.1404707E-1,-1.08730756E-1,3.145319E-2,-3.504555E-1,-4.5743975E-1,-7.8378014E-2,-3.212866E-1],"categories":[],"categories_nodes":[],"categories_segments":[],"categories_sizes":[],"default_left":[0,0,0,0,0,0,0,0,0,0,0,0,0,0,0,0,0,0,0,0,0,0,0,0,0,0,0,0,0,0,0],"id":8,"left_children":[1,3,5,7,9,11,13,15,17,19,21,23,25,27,29,-1,-1,-1,-1,-1,-1,-1,-1,-1,-1,-1,-1,-1,-1,-1,-1],"loss_changes":[1.2017179E4,1.4456416E3,8.479212E3,1.03052734E2,1.3652281E3,1.9366558E3,1.2434741E3,1.1936133E2,8.428967E1,6.6558E0,1.5296875E1,1.0489062E3,2.5415694E2,5.9711426E1,4.313216E2,0E0,0E0,0E0,0E0,0E0,0E0,0E0,0E0,0E0,0E0,0E0,0E0,0E0,0E0,0E0,0E0],"parents":[2147483647,0,0,1,1,2,2,3,3,4,4,5,5,6,6,7,7,8,8,9,9,10,10,11,11,12,12,13,13,14,14],"right_children":[2,4,6,8,10,12,14,16,18,20,22,24,26,28,30,-1,-1,-1,-1,-1,-1,-1,-1,-1,-1,-1,-1,-1,-1,-1,-1],"split_conditions":[6E0,4E0,2.1E1,3E0,5E0,1.8E1,4E0,5E0,2E0,2E0,5E0,9E0,3E0,2.2E1,2.3E1,-5.224028E-1,-4.1081887E-1,-1.4206919E-1,-3.9734474E-1,8.171749E-2,2.4884744E-2,-3.782321E-1,-5.1620835E-1,3.3798058E-2,2.1404707E-1,-1.08730756E-1,3.145319E-2,-3.504555E-1,-4.5743975E-1,-7.8378014E-2,-3.212866E-1],"split_indices":[1,1,1,1,0,1,0,0,0,0,1,1,0,1,1,0,0,0,0,0,0,0,0,0,0,0,0,0,0,0,0],"split_type":[0,0,0,0,0,0,0,0,0,0,0,0,0,0,0,0,0,0,0,0,0,0,0,0,0,0,0,0,0,0,0],"sum_hessian":[4.626E3,8.07E2,3.819E3,5.18E2,2.89E2,3.142E3,6.77E2,4.52E2,6.6E1,1.53E2,1.36E2,2.424E3,7.18E2,2.71E2,4.06E2,2.3E2,2.22E2,2E1,4.6E1,2.4E1,1.29E2,1.18E2,1.8E1,3.84E2,2.04E3,1.68E2,5.5E2,1.17E2,1.54E2,3.11E2,9.5E1],"tree_param":{"num_deleted":"0","num_feature":"2","num_nodes":"31","size_leaf_vector":"1"}},{"base_weights":[-4.9970346E-3,-3.160438E0,6.6243786E-1,-4.05971E0,-1.5401534E0,1.5284503E0,-1.4187411E0,-4.2196956E0,-2.9174228E0,3.0914372E-1,-3.6076834E0,2.1818237E0,9.916798E-1,-1.8845148E-1,-2.2259543E0,-4.703887E-1,-3.6992118E-1,-1.2853883E-1,-3.584557E-1,7.387262E-2,2.241537E-2,-3.1024408E-1,-4.0207157E-1,1.8136476E-1,3.2755777E-1,-2.337482E-1,1.5034857E-1,-1.828626E-1,5.65834E-3,-3.7173533E-1,-1.2237761E-1],"categories":[],"categories_nodes":[],"categories_segments":[],"categories_sizes":[],"default_left":[0,0,0,0,0,0,0,0,0,0,0,0,0,0,0,0,0,0,0,0,0,0,0,0,0,0,0,0,0,0,0],"id":9,"left_children":[1,3,5,7,9,11,13,15,17,19,21,23,25,27,29,-1,-1,-1,-1,-1,-1,-1,-1,-1,-1,-1,-1,-1,-1,-1,-1],"loss_changes":[9.746794E3,1.1710654E3,6.8870576E3,8.253613E1,1.1099238E3,9.4405566E2,1.1148384E3,9.676172E1,6.8341125E1,5.4569874E0,1.6115356E1,4.8373535E2,2.5303755E3,1.7935085E2,1.0088218E3,0E0,0E0,0E0,0E0,0E0,0E0,0E0,0E0,0E0,0E0,0E0,0E0,0E0,0E0,0E0,0E0],"parents":[2147483647,0,0,1,1,2,2,3,3,4,4,5,5,6,6,7,7,8,8,9,9,10,10,11,11,12,12,13,13,14,14],"right_children":[2,4,6,8,10,12,14,16,18,20,22,24,26,28,30,-1,-1,-1,-1,-1,-1,-1,-1,-1,-1,-1,-1,-1,-1,-1,-1],"split_conditions":[6E0,4E0,1.9E1,3E0,5E0,5E0,2.1E1,5E0,2E0,2E0,7E0,4E0,9E0,2E0,4E0,-4.703887E-1,-3.6992118E-1,-1.2853883E-1,-3.584557E-1,7.387262E-2,2.241537E-2,-3.1024408E-1,-4.0207157E-1,1.8136476E-1,3.2755777E-1,-2.337482E-1,1.5034857E-1,-1.828626E-1,5.65834E-3,-3.7173533E-1,-1.2237761E-1],"split_indices":[1,1,1,1,0,0,1,0,0,0,0,0,1,0,0,0,0,0,0,0,0,0,0,0,0,0,0,0,0,0,0],"split_type":[0,0,0,0,0,0,0,0,0,0,0,0,0,0,0,0,0,0,0,0,0,0,0,0,0,0,0,0,0,0,0],"sum_hessian":[4.626E3,8.07E2,3.819E3,5.18E2,2.89E2,2.697E3,1.122E3,4.52E2,6.6E1,1.53E2,1.36E2,1.215E3,1.482E3,4.45E2,6.77E2,2.3E2,2.22E2,2E1,4.6E1,2.4E1,1.29E2,6.5E1,7.1E1,9.11E2,3.04E2,1.97E2,1.285E3,5.7E1,3.88E2,2.71E2,4.06E2],"tree_param":{"num_deleted":"0","num_feature":"2","num_nodes":"31","size_leaf_vector":"1"}},{"base_weights":[-4.9703727E-3,-2.8467991E0,5.961298E-1,-3.6562963E0,-1.3882623E0,1.52128E0,-1.0113814E0,-3.7995808E0,-2.6329489E0,2.788548E-1,-3.2521145E0,2.135191E0,1.0242602E0,-7.3876105E-2,-2.0040877E0,-4.2355344E-1,-3.3309492E-1,-1.8064795E-1,-3.8667476E-1,6.678085E-2,2.0191096E-2,-3.0448425E-1,-4.379129E-1,1.8685913E-1,2.9771838E-1,-2.1049142E-1,1.5644805E-1,-9.659677E-2,1.9987589E-2,-3.3469847E-1,-1.1016994E-1],"categories":[],"categories_nodes":[],"categories_segments":[],"categories_sizes":[],"default_left":[0,0,0,0,0,0,0,0,0,0,0,0,0,0,0,0,0,0,0,0,0,0,0,0,0,0,0,0,0,0,0],"id":10,"left_children":[1,3,5,7,9,11,13,15,17,19,21,23,25,27,29,-1,-1,-1,-1,-1,-1,-1,-1,-1,-1,-1,-1,-1,-1,-1,-1],"loss_changes":[7.905649E3,9.4891406E2,5.682602E3,6.609668E1,9.0201227E2,7.3774365E2,1.2990636E3,7.844043E1,6.1334473E1,4.4740086E0,1.8669312E1,2.3776758E2,2.2718684E3,1.7578139E2,8.1792285E2,0E0,0E0,0E0,0E0,0E0,0E0,0E0,0E0,0E0,0E0,0E0,0E0,0E0,0E0,0E0,0E0],"parents":[2147483647,0,0,1,1,2,2,3,3,4,4,5,5,6,6,7,7,8,8,9,9,10,10,11,11,12,12,13,13,14,14],"right_children":[2,4,6,8,10,12,14,16,18,20,22,24,26,28,30,-1,-1,-1,-1,-1,-1,-1,-1,-1,-1,-1,-1,-1,-1,-1,-1],"split_conditions":[6E0,4E0,1.8E1,3E0,5E0,5E0,2.1E1,5E0,7E0,2E0,5E0,4E0,9E0,3E0,4E0,-4.2355344E-1,-3.3309492E-1,-1.8064795E-1,-3.8667476E-1,6.678085E-2,2.0191096E-2,-3.0448425E-1,-4.379129E-1,1.8685913E-1,2.9771838E-1,-2.1049142E-1,1.5644805E-1,-9.659677E-2,1.9987589E-2,-3.3469847E-1,-1.1016994E-1],"split_indices":[1,1,1,1,0,0,1,0,0,0,1,0,1,0,0,0,0,0,0,0,0,0,0,0,0,0,0,0,0,0,0],"split_type":[0,0,0,0,0,0,0,0,0,0,0,0,0,0,0,0,0,0,0,0,0,0,0,0,0,0,0,0,0,0,0],"sum_hessian":[4.626E3,8.07E2,3.819E3,5.18E2,2.89E2,2.424E3,1.395E3,4.52E2,6.6E1,1.53E2,1.36E2,1.083E3,1.341E3,7.18E2,6.77E2,2.3E2,2.22E2,4.1E1,2.5E1,2.4E1,1.29E2,1.18E2,1.8E1,8.25E2,2.58E2,1.97E2,1.144E3,1.68E2,5.5E2,2.71E2,4.06E2],"tree_param":{"num_deleted":"0","num_feature":"2","num_nodes":"31","size_leaf_vector":"1"}},{"base_weights":[-4.9208216E-3,-2.564569E0,5.3649294E-1,-3.2932174E0,-1.2516961E0,1.3693295E0,-9.106167E-1,-3.421293E0,-2.3781216E0,2.5153396E-1,-2.9323218E0,1.922119E0,9.217936E-1,-3.5601673E-1,-2.3556695E0,-3.8138145E-1,-2.999348E-1,-1.630133E-1,-3.4949452E-1,7.845693E-3,4.0254723E-2,-2.4606374E-1,-3.3239728E-1,4.0595946E-1,1.8213274E-1,-1.8954861E-1,1.4081688E-1,-1.1502983E-1,1.6887192E-2,-3.8447616E-1,-1.7728923E-1],"categories":[],"categories_nodes":[],"categories_segments":[],"categories_sizes":[],"default_left":[0,0,0,0,0,0,0,0,0,0,0,0,0,0,0,0,0,0,0,0,0,0,0,0,0,0,0,0,0,0,0],"id":11,"left_children":[1,3,5,7,9,11,13,15,17,19,21,23,25,27,29,-1,-1,-1,-1,-1,-1,-1,-1,-1,-1,-1,-1,-1,-1,-1,-1],"loss_changes":[6.4136055E3,7.688291E2,4.605133E3,5.2691406E1,7.3338416E2,5.9815674E2,1.1179524E3,6.358838E1,5.0272644E1,3.9935036E0,1.7129639E1,2.2614307E2,1.8415511E3,4.212727E2,3.2902563E2,0E0,0E0,0E0,0E0,0E0,0E0,0E0,0E0,0E0,0E0,0E0,0E0,0E0,0E0,0E0,0E0],"parents":[2147483647,0,0,1,1,2,2,3,3,4,4,5,5,6,6,7,7,8,8,9,9,10,10,11,11,12,12,13,13,14,14],"right_children":[2,4,6,8,10,12,14,16,18,20,22,24,26,28,30,-1,-1,-1,-1,-1,-1,-1,-1,-1,-1,-1,-1,-1,-1,-1,-1],"split_conditions":[6E0,4E0,1.8E1,3E0,5E0,5E0,2.2E1,5E0,7E0,3E0,7E0,7E0,9E0,4E0,3E0,-3.8138145E-1,-2.999348E-1,-1.630133E-1,-3.4949452E-1,7.845693E-3,4.0254723E-2,-2.4606374E-1,-3.3239728E-1,4.0595946E-1,1.8213274E-1,-1.8954861E-1,1.4081688E-1,-1.1502983E-1,1.6887192E-2,-3.8447616E-1,-1.7728923E-1],"split_indices":[1,1,1,1,0,0,1,0,0,0,0,1,1,0,0,0,0,0,0,0,0,0,0,0,0,0,0,0,0,0,0],"split_type":[0,0,0,0,0,0,0,0,0,0,0,0,0,0,0,0,0,0,0,0,0,0,0,0,0,0,0,0,0,0,0],"sum_hessian":[4.626E3,8.07E2,3.819E3,5.18E2,2.89E2,2.424E3,1.395E3,4.52E2,6.6E1,1.53E2,1.36E2,1.083E3,1.341E3,1.009E3,3.86E2,2.3E2,2.22E2,4.1E1,2.5E1,7.2E1,8.1E1,6.5E1,7.1E1,4.7E1,1.036E3,1.97E2,1.144E3,4.01E2,6.08E2,1.07E2,2.79E2],"tree_param":{"num_deleted":"0","num_feature":"2","num_nodes":"31","size_leaf_vector":"1"}},{"base_weights":[-4.8276447E-3,-2.310246E0,4.8281184E-1,-2.9661958E0,-1.1283553E0,9.438617E-1,-1.6551863E0,-3.0806675E0,-2.1479588E0,2.2669283E-1,-2.6433117E0,1.3075161E0,1.2174085E-1,-2.782156E0,-8.9796036E-1,-3.434084E-1,-2.700758E-1,-8.356736E-2,-2.6885977E-1,5.9616663E-2,1.5389639E-2,-2.4474107E-1,-3.731151E-1,9.999963E-2,2.317094E-1,2.9618705E-2,-1.17021956E-1,-2.3425667E-1,-3.098862E-1,-4.0542126E-2,-2.4893586E-1],"categories":[],"categories_nodes":[],"categories_segments":[],"categories_sizes":[],"default_left":[0,0,0,0,0,0,0,0,0,0,0,0,0,0,0,0,0,0,0,0,0,0,0,0,0,0,0,0,0,0,0],"id":12,"left_children":[1,3,5,7,9,11,13,15,17,19,21,23,25,27,29,-1,-1,-1,-1,-1,-1,-1,-1,-1,-1,-1,-1,-1,-1,-1,-1],"loss_changes":[5.2028486E3,6.2306396E2,3.7670273E3,4.199463E1,5.959225E2,9.394968E2,5.7608704E2,5.154785E1,4.528784E1,4.0502934E0,2.006427E1,6.741865E2,2.1783594E2,3.0608887E1,3.1800793E2,0E0,0E0,0E0,0E0,0E0,0E0,0E0,0E0,0E0,0E0,0E0,0E0,0E0,0E0,0E0,0E0],"parents":[2147483647,0,0,1,1,2,2,3,3,4,4,5,5,6,6,7,7,8,8,9,9,10,10,11,11,12,12,13,13,14,14],"right_children":[2,4,6,8,10,12,14,16,18,20,22,24,26,28,30,-1,-1,-1,-1,-1,-1,-1,-1,-1,-1,-1,-1,-1,-1,-1,-1],"split_conditions":[6E0,4E0,2.1E1,3E0,5E0,1.7E1,4E0,5E0,2E0,2E0,5E0,1.5E1,7E0,2.2E1,2.3E1,-3.434084E-1,-2.700758E-1,-8.356736E-2,-2.6885977E-1,5.9616663E-2,1.5389639E-2,-2.4474107E-1,-3.731151E-1,9.999963E-2,2.317094E-1,2.9618705E-2,-1.17021956E-1,-2.3425667E-1,-3.098862E-1,-4.0542126E-2,-2.4893586E-1],"split_indices":[1,1,1,1,0,1,0,0,0,0,1,1,0,1,1,0,0,0,0,0,0,0,0,0,0,0,0,0,0,0,0],"split_type":[0,0,0,0,0,0,0,0,0,0,0,0,0,0,0,0,0,0,0,0,0,0,0,0,0,0,0,0,0,0,0],"sum_hessian":[4.626E3,8.07E2,3.819E3,5.18E2,2.89E2,3.142E3,6.77E2,4.52E2,6.6E1,1.53E2,1.36E2,2.178E3,9.64E2,2.71E2,4.06E2,2.3E2,2.22E2,2E1,4.6E1,2.4E1,1.29E2,1.18E2,1.8E1,1.671E3,5.07E2,8.5E2,1.14E2,1.17E2,1.54E2,3.11E2,9.5E1],"tree_param":{"num_deleted":"0","num_feature":"2","num_nodes":"31","size_leaf_vector":"1"}},{"base_weights":[-4.798451E-3,-2.0810885E0,4.343762E-1,-2.6714373E0,-1.0173916E0,9.343102E-1,-1.18867E0,-2.773955E0,-1.9384228E0,2.045107E-1,-2.3834906E0,1.141455E0,-4.4869013E-2,-2.0228112E0,-5.668153E-1,-3.092162E-1,-2.4318933E-1,-1.2967767E-1,-2.9003736E-1,4.099932E-3,3.475817E-2,-1.9422577E-1,-2.75485E-1,1.3831711E-1,4.5445796E-2,-3.0412918E-1,3.909528E-2,-8.419786E-2,-2.505941E-1,-1.8415635E-2,-2.2430162E-1],"categories":[],"categories_nodes":[],"categories_segments":[],"categories_sizes":[],"default_left":[0,0,0,0,0,0,0,0,0,0,0,0,0,0,0,0,0,0,0,0,0,0,0,0,0,0,0,0,0,0,0],"id":13,"left_children":[1,3,5,7,9,11,13,15,17,19,21,23,25,27,29,-1,-1,-1,-1,-1,-1,-1,-1,-1,-1,-1,-1,-1,-1,-1,-1],"loss_changes":[4.2200522E3,5.0466748E2,3.10072E3,3.3624268E1,4.8456693E2,5.9252344E2,4.6569653E2,4.1787598E1,3.7593414E1,3.5883846E0,1.7097595E1,3.997378E2,6.6850714E2,2.169602E2,3.3119763E2,0E0,0E0,0E0,0E0,0E0,0E0,0E0,0E0,0E0,0E0,0E0,0E0,0E0,0E0,0E0,0E0],"parents":[2147483647,0,0,1,1,2,2,3,3,4,4,5,5,6,6,7,7,8,8,9,9,10,10,11,11,12,12,13,13,14,14],"right_children":[2,4,6,8,10,12,14,16,18,20,22,24,26,28,30,-1,-1,-1,-1,-1,-1,-1,-1,-1,-1,-1,-1,-1,-1,-1,-1],"split_conditions":[6E0,4E0,2E1,3E0,5E0,7E0,4E0,5E0,7E0,3E0,7E0,1.7E1,9E0,2.1E1,2.3E1,-3.092162E-1,-2.4318933E-1,-1.2967767E-1,-2.9003736E-1,4.099932E-3,3.475817E-2,-1.9422577E-1,-2.75485E-1,1.3831711E-1,4.5445796E-2,-3.0412918E-1,3.909528E-2,-8.419786E-2,-2.505941E-1,-1.8415635E-2,-2.2430162E-1],"split_indices":[1,1,1,1,0,0,0,0,0,0,0,1,1,1,1,0,0,0,0,0,0,0,0,0,0,0,0,0,0,0,0],"split_type":[0,0,0,0,0,0,0,0,0,0,0,0,0,0,0,0,0,0,0,0,0,0,0,0,0,0,0,0,0,0,0],"sum_hessian":[4.626E3,8.07E2,3.819E3,5.18E2,2.89E2,2.92E3,8.99E2,4.52E2,6.6E1,1.53E2,1.36E2,2.41E3,5.1E2,3.83E2,5.16E2,2.3E2,2.22E2,4.1E1,2.5E1,7.2E1,8.1E1,6.5E1,7.1E1,1.782E3,6.28E2,6.4E1,4.46E2,1.12E2,2.71E2,4.21E2,9.5E1],"tree_param":{"num_deleted":"0","num_feature":"2","num_nodes":"31","size_leaf_vector":"1"}},{"base_weights":[-4.764219E-3,-1.874716E0,3.907661E-1,-2.4061668E0,-9.171382E-1,1.0112716E0,-6.8739766E-1,-2.4977791E0,-1.750845E0,1.8431179E-1,-2.14857E0,1.4811473E0,6.3097614E-1,-2.7516258E-1,-1.7614803E0,-2.7842847E-1,-2.1897946E-1,-6.3258275E-2,-2.213242E-1,5.3499844E-2,1.1545428E-2,-1.9636503E-1,-3.1936702E-1,1.2449413E-1,2.2287343E-1,-1.8009947E-1,1.05097555E-1,-9.113517E-2,1.4523675E-2,-2.908555E-1,-1.3127463E-1],"categories":[],"categories_nodes":[],"categories_segments":[],"categories_sizes":[],"default_left":[0,0,0,0,0,0,0,0,0,0,0,0,0,0,0,0,0,0,0,0,0,0,0,0,0,0,0,0,0,0,0],"id":14,"left_children":[1,3,5,7,9,11,13,15,17,19,21,23,25,27,29,-1,-1,-1,-1,-1,-1,-1,-1,-1,-1,-1,-1,-1,-1,-1,-1],"loss_changes":[3.4229668E3,4.0898877E2,2.5563003E3,2.67854E1,3.937406E2,4.3239258E2,6.176286E2,3.3875244E1,3.3244385E1,3.6569333E0,2.0205322E1,1.8864282E2,1.3726467E3,2.7026038E2,1.9538293E2,0E0,0E0,0E0,0E0,0E0,0E0,0E0,0E0,0E0,0E0,0E0,0E0,0E0,0E0,0E0,0E0],"parents":[2147483647,0,0,1,1,2,2,3,3,4,4,5,5,6,6,7,7,8,8,9,9,10,10,11,11,12,12,13,13,14,14],"right_children":[2,4,6,8,10,12,14,16,18,20,22,24,26,28,30,-1,-1,-1,-1,-1,-1,-1,-1,-1,-1,-1,-1,-1,-1,-1,-1],"split_conditions":[6E0,4E0,1.8E1,3E0,5E0,5E0,2.2E1,5E0,2E0,2E0,5E0,4E0,9E0,4E0,3E0,-2.7842847E-1,-2.1897946E-1,-6.3258275E-2,-2.213242E-1,5.3499844E-2,1.1545428E-2,-1.9636503E-1,-3.1936702E-1,1.2449413E-1,2.2287343E-1,-1.8009947E-1,1.05097555E-1,-9.113517E-2,1.4523675E-2,-2.908555E-1,-1.3127463E-1],"split_indices":[1,1,1,1,0,0,1,0,0,0,1,0,1,0,0,0,0,0,0,0,0,0,0,0,0,0,0,0,0,0,0],"split_type":[0,0,0,0,0,0,0,0,0,0,0,0,0,0,0,0,0,0,0,0,0,0,0,0,0,0,0,0,0,0,0],"sum_hessian":[4.626E3,8.07E2,3.819E3,5.18E2,2.89E2,2.424E3,1.395E3,4.52E2,6.6E1,1.53E2,1.36E2,1.083E3,1.341E3,1.009E3,3.86E2,2.3E2,2.22E2,2E1,4.6E1,2.4E1,1.29E2,1.18E2,1.8E1,8.25E2,2.58E2,1.97E2,1.144E3,4.01E2,6.08E2,1.07E2,2.79E2],"tree_param":{"num_deleted":"0","num_feature":"2","num_nodes":"31","size_leaf_vector":"1"}},{"base_weights":[-4.6030744E-3,-1.68877E0,3.516303E-1,-2.1670568E0,-8.269784E-1,6.946314E-1,-1.2389361E0,-2.2490993E0,-1.5800079E0,1.6630323E-1,-1.9374776E0,9.672547E-1,7.831969E-2,-2.0799658E0,-6.73828E-1,-2.5070614E-1,-1.9717972E-1,-1.0294016E-1,-2.4086797E-1,1.1775265E-3,3.0184273E-2,-1.7689355E-1,-2.891112E-1,7.0196904E-2,1.8384956E-1,-1.110544E-1,2.5655601E-2,-2.4163353E-1,-1.8402074E-1,-2.9710937E-2,-1.8911445E-1],"categories":[],"categories_nodes":[],"categories_segments":[],"categories_sizes":[],"default_left":[0,0,0,0,0,0,0,0,0,0,0,0,0,0,0,0,0,0,0,0,0,0,0,0,0,0,0,0,0,0,0],"id":15,"left_children":[1,3,5,7,9,11,13,15,17,19,21,23,25,27,29,-1,-1,-1,-1,-1,-1,-1,-1,-1,-1,-1,-1,-1,-1,-1,-1],"loss_changes":[2.7765925E3,3.312522E2,2.0849226E3,2.1442871E1,3.2020337E2,5.2801416E2,3.2083337E2,2.7461182E1,2.8090744E1,3.22192E0,1.6905518E1,5.0233655E2,2.0476714E2,1.7489624E1,1.8608253E2,0E0,0E0,0E0,0E0,0E0,0E0,0E0,0E0,0E0,0E0,0E0,0E0,0E0,0E0,0E0,0E0],"parents":[2147483647,0,0,1,1,2,2,3,3,4,4,5,5,6,6,7,7,8,8,9,9,10,10,11,11,12,12,13,13,14,14],"right_children":[2,4,6,8,10,12,14,16,18,20,22,24,26,28,30,-1,-1,-1,-1,-1,-1,-1,-1,-1,-1,-1,-1,-1,-1,-1,-1],"split_conditions":[6E0,4E0,2.1E1,3E0,5E0,1.7E1,4E0,5E0,7E0,3E0,5E0,1.5E1,2E0,2E0,2.3E1,-2.5070614E-1,-1.9717972E-1,-1.0294016E-1,-2.4086797E-1,1.1775265E-3,3.0184273E-2,-1.7689355E-1,-2.891112E-1,7.0196904E-2,1.8384956E-1,-1.110544E-1,2.5655601E-2,-2.4163353E-1,-1.8402074E-1,-2.9710937E-2,-1.8911445E-1],"split_indices":[1,1,1,1,0,1,0,0,0,0,1,1,0,0,1,0,0,0,0,0,0,0,0,0,0,0,0,0,0,0,0],"split_type":[0,0,0,0,0,0,0,0,0,0,0,0,0,0,0,0,0,0,0,0,0,0,0,0,0,0,0,0,0,0,0],"sum_hessian":[4.626E3,8.07E2,3.819E3,5.18E2,2.89E2,3.142E3,6.77E2,4.52E2,6.6E1,1.53E2,1.36E2,2.178E3,9.64E2,2.71E2,4.06E2,2.3E2,2.22E2,4.1E1,2.5E1,7.2E1,8.1E1,1.18E2,1.8E1,1.671E3,5.07E2,1.25E2,8.39E2,1.09E2,1.62E2,3.11E2,9.5E1],"tree_param":{"num_deleted":"0","num_feature":"2","num_nodes":"31","size_leaf_vector":"1"}},{"base_weights":[-4.5104497E-3,-1.5214108E0,3.1634295E-1,-1.9518764E0,-7.457795E-1,8.2338315E-1,-5.646662E-1,-2.025178E0,-1.4271384E0,1.498761E-1,-1.7471312E0,1.248919E0,4.790431E-1,-2.2601543E-1,-1.4470243E0,-2.2574404E-1,-1.7755017E-1,-4.7429822E-2,-1.822511E-1,4.8250772E-2,8.47556E-3,-1.3192208E-1,-2.1151169E-1,3.238105E-1,1.1556405E-1,-2.304803E-1,7.820891E-2,-1.3601586E-1,-6.1353673E-3,-1.9640933E-1,-7.468056E-2],"categories":[],"categories_nodes":[],"categories_segments":[],"categories_sizes":[],"default_left":[0,0,0,0,0,0,0,0,0,0,0,0,0,0,0,0,0,0,0,0,0,0,0,0,0,0,0,0,0,0,0],"id":16,"left_children":[1,3,5,7,9,11,13,15,17,19,21,23,25,27,29,-1,-1,-1,-1,-1,-1,-1,-1,-1,-1,-1,-1,-1,-1,-1,-1],"loss_changes":[2.2524543E3,2.6832166E2,1.7068857E3,1.7072632E1,2.603531E2,3.5473462E2,4.1681342E2,2.2261597E1,2.4376297E1,3.294921E0,1.878238E1,1.9739209E2,1.1339584E3,1.8853406E2,1.3865106E2,0E0,0E0,0E0,0E0,0E0,0E0,0E0,0E0,0E0,0E0,0E0,0E0,0E0,0E0,0E0,0E0],"parents":[2147483647,0,0,1,1,2,2,3,3,4,4,5,5,6,6,7,7,8,8,9,9,10,10,11,11,12,12,13,13,14,14],"right_children":[2,4,6,8,10,12,14,16,18,20,22,24,26,28,30,-1,-1,-1,-1,-1,-1,-1,-1,-1,-1,-1,-1,-1,-1,-1,-1],"split_conditions":[6E0,4E0,1.8E1,3E0,5E0,5E0,2.2E1,5E0,2E0,2E0,7E0,7E0,8E0,2E0,5E0,-2.2574404E-1,-1.7755017E-1,-4.7429822E-2,-1.822511E-1,4.8250772E-2,8.47556E-3,-1.3192208E-1,-2.1151169E-1,3.238105E-1,1.1556405E-1,-2.304803E-1,7.820891E-2,-1.3601586E-1,-6.1353673E-3,-1.9640933E-1,-7.468056E-2],"split_indices":[1,1,1,1,0,0,1,0,0,0,0,1,1,0,0,0,0,0,0,0,0,0,0,0,0,0,0,0,0,0,0],"split_type":[0,0,0,0,0,0,0,0,0,0,0,0,0,0,0,0,0,0,0,0,0,0,0,0,0,0,0,0,0,0,0],"sum_hessian":[4.626E3,8.07E2,3.819E3,5.18E2,2.89E2,2.424E3,1.395E3,4.52E2,6.6E1,1.53E2,1.36E2,1.083E3,1.341E3,1.009E3,3.86E2,2.3E2,2.22E2,2E1,4.6E1,2.4E1,1.29E2,6.5E1,7.1E1,4.7E1,1.036E3,1.31E2,1.21E3,1.27E2,8.82E2,2.21E2,1.65E2],"tree_param":{"num_deleted":"0","num_feature":"2","num_nodes":"31","size_leaf_vector":"1"}},{"base_weights":[-4.2855325E-3,-1.3704078E0,2.846755E-1,-1.7579083E0,-6.721901E-1,6.2252533E-1,-8.121512E-1,-1.3831685E0,-1.8507395E0,1.35257E-1,-1.574925E0,8.0042666E-1,-2.1806699E-1,-1.4189918E0,-3.5985154E-1,-1.5975559E-1,-4.2912673E-2,-2.2797258E-1,-1.6126214E-1,-1.082274E-3,2.6365412E-2,-1.4152285E-1,-2.4922381E-1,9.512144E-2,3.7172247E-2,-2.5159237E-1,1.1656107E-2,-6.403609E-2,-1.7372504E-1,-7.666742E-3,-1.6009332E-1],"categories":[],"categories_nodes":[],"categories_segments":[],"categories_sizes":[],"default_left":[0,0,0,0,0,0,0,0,0,0,0,0,0,0,0,0,0,0,0,0,0,0,0,0,0,0,0,0,0,0,0],"id":17,"left_children":[1,3,5,7,9,11,13,15,17,19,21,23,25,27,29,-1,-1,-1,-1,-1,-1,-1,-1,-1,-1,-1,-1,-1,-1,-1,-1],"loss_changes":[1.8269266E3,2.1743054E2,1.416055E3,1.5494995E1,2.1159708E2,4.3698828E2,2.4651581E2,2.1199646E1,3.8511353E1,2.891311E0,1.6542297E1,1.5550146E2,3.9321512E2,9.4045044E1,1.8157928E2,0E0,0E0,0E0,0E0,0E0,0E0,0E0,0E0,0E0,0E0,0E0,0E0,0E0,0E0,0E0,0E0],"parents":[2147483647,0,0,1,1,2,2,3,3,4,4,5,5,6,6,7,7,8,8,9,9,10,10,11,11,12,12,13,13,14,14],"right_children":[2,4,6,8,10,12,14,16,18,20,22,24,26,28,30,-1,-1,-1,-1,-1,-1,-1,-1,-1,-1,-1,-1,-1,-1,-1,-1],"split_conditions":[6E0,4E0,2E1,2E0,5E0,7E0,4E0,3E0,5E0,3E0,5E0,1.7E1,9E0,2.1E1,2.3E1,-1.5975559E-1,-4.2912673E-2,-2.2797258E-1,-1.6126214E-1,-1.082274E-3,2.6365412E-2,-1.4152285E-1,-2.4922381E-1,9.512144E-2,3.7172247E-2,-2.5159237E-1,1.1656107E-2,-6.403609E-2,-1.7372504E-1,-7.666742E-3,-1.6009332E-1],"split_indices":[1,1,1,0,0,0,0,1,0,0,1,1,1,1,1,0,0,0,0,0,0,0,0,0,0,0,0,0,0,0,0],"split_type":[0,0,0,0,0,0,0,0,0,0,0,0,0,0,0,0,0,0,0,0,0,0,0,0,0,0,0,0,0,0,0],"sum_hessian":[4.626E3,8.07E2,3.819E3,5.18E2,2.89E2,2.92E3,8.99E2,1.06E2,4.12E2,1.53E2,1.36E2,2.41E3,5.1E2,3.83E2,5.16E2,8.6E1,2E1,1.44E2,2.68E2,7.2E1,8.1E1,1.18E2,1.8E1,1.782E3,6.28E2,6.4E1,4.46E2,1.12E2,2.71E2,4.21E2,9.5E1],"tree_param":{"num_deleted":"0","num_feature":"2","num_nodes":"31","size_leaf_vector":"1"}},{"base_weights":[-4.1747536E-3,-1.2345519E0,2.5607365E-1,-1.583258E0,-6.062312E-1,6.7296827E-1,-4.6829996E-1,-1.2088598E0,-1.6610936E0,1.2189566E-1,-1.4202845E0,1.0355997E0,3.7955144E-1,-1.90584E-1,-1.1918782E0,-1.3841327E-1,-6.472782E-2,-1.2467458E-1,-1.7940348E-1,4.3722574E-2,6.0317614E-3,-1.0205459E-1,-1.7669855E-1,6.520675E-2,1.4923446E-1,-2.062778E-1,6.454539E-2,-6.514181E-2,1.1392483E-2,-2.0382948E-1,-8.611466E-2],"categories":[],"categories_nodes":[],"categories_segments":[],"categories_sizes":[],"default_left":[0,0,0,0,0,0,0,0,0,0,0,0,0,0,0,0,0,0,0,0,0,0,0,0,0,0,0,0,0,0,0],"id":18,"left_children":[1,3,5,7,9,11,13,15,17,19,21,23,25,27,29,-1,-1,-1,-1,-1,-1,-1,-1,-1,-1,-1,-1,-1,-1,-1,-1],"loss_changes":[1.4818987E3,1.7607239E2,1.1539073E3,1.3116333E1,1.7206601E2,2.5763208E2,2.8029794E2,8.258057E0,2.1284058E1,2.9639084E0,1.7183533E1,1.8891809E2,8.7285504E2,1.4180553E2,1.0658026E2,0E0,0E0,0E0,0E0,0E0,0E0,0E0,0E0,0E0,0E0,0E0,0E0,0E0,0E0,0E0,0E0],"parents":[2147483647,0,0,1,1,2,2,3,3,4,4,5,5,6,6,7,7,8,8,9,9,10,10,11,11,12,12,13,13,14,14],"right_children":[2,4,6,8,10,12,14,16,18,20,22,24,26,28,30,-1,-1,-1,-1,-1,-1,-1,-1,-1,-1,-1,-1,-1,-1,-1,-1],"split_conditions":[6E0,4E0,1.8E1,1E0,5E0,5E0,2.2E1,7E0,2E0,2E0,7E0,1.3E1,8E0,4E0,3E0,-1.3841327E-1,-6.472782E-2,-1.2467458E-1,-1.7940348E-1,4.3722574E-2,6.0317614E-3,-1.0205459E-1,-1.7669855E-1,6.520675E-2,1.4923446E-1,-2.062778E-1,6.454539E-2,-6.514181E-2,1.1392483E-2,-2.0382948E-1,-8.611466E-2],"split_indices":[1,1,1,1,0,0,1,0,0,0,0,1,1,0,0,0,0,0,0,0,0,0,0,0,0,0,0,0,0,0,0],"split_type":[0,0,0,0,0,0,0,0,0,0,0,0,0,0,0,0,0,0,0,0,0,0,0,0,0,0,0,0,0,0,0],"sum_hessian":[4.626E3,8.07E2,3.819E3,5.18E2,2.89E2,2.424E3,1.395E3,9.2E1,4.26E2,1.53E2,1.36E2,1.083E3,1.341E3,1.009E3,3.86E2,6.9E1,2.3E1,1.06E2,3.2E2,2.4E1,1.29E2,6.5E1,7.1E1,5.9E2,4.93E2,1.31E2,1.21E3,4.01E2,6.08E2,1.07E2,2.79E2],"tree_param":{"num_deleted":"0","num_feature":"2","num_nodes":"31","size_leaf_vector":"1"}},{"base_weights":[-3.974805E-3,-1.112008E0,2.3039556E-1,-1.4851729E0,-6.340425E-1,4.635661E-1,-8.5085136E-1,-1.6772693E0,-1.2795249E0,6.485385E-2,-1.2951021E0,5.9834826E-1,-2.3182538E-1,-1.4410803E0,-4.5430806E-1,-1.3163953E-1,-1.8822265E-1,-5.5326927E-2,-1.4703247E-1,-8.29129E-3,2.3165205E-2,-9.056929E-2,-1.6310146E-1,7.871821E-2,2.0200387E-2,-2.160927E-1,4.921138E-3,-1.3654093E-1,-2.238914E-1,-1.7501144E-2,-1.3572897E-1],"categories":[],"categories_nodes":[],"categories_segments":[],"categories_sizes":[],"default_left":[0,0,0,0,0,0,0,0,0,0,0,0,0,0,0,0,0,0,0,0,0,0,0,0,0,0,0,0,0,0,0],"id":19,"left_children":[1,3,5,7,9,11,13,15,17,19,21,23,25,27,29,-1,-1,-1,-1,-1,-1,-1,-1,-1,-1,-1,-1,-1,-1,-1,-1],"loss_changes":[1.2018423E3,1.4317328E2,9.634734E2,1.5749329E1,1.6456033E2,2.947207E2,1.580321E2,1.4607849E1,3.0087463E1,4.307824E0,2.246054E1,1.9690332E2,2.7714423E2,1.3364441E1,1.0240775E2,0E0,0E0,0E0,0E0,0E0,0E0,0E0,0E0,0E0,0E0,0E0,0E0,0E0,0E0,0E0,0E0],"parents":[2147483647,0,0,1,1,2,2,3,3,4,4,5,5,6,6,7,7,8,8,9,9,10,10,11,11,12,12,13,13,14,14],"right_children":[2,4,6,8,10,12,14,16,18,20,22,24,26,28,30,-1,-1,-1,-1,-1,-1,-1,-1,-1,-1,-1,-1,-1,-1,-1,-1],"split_conditions":[6E0,3E0,2.1E1,5E0,5E0,7E0,4E0,2E0,6E0,3E0,7E0,1.7E1,9E0,2.3E1,2.3E1,-1.3163953E-1,-1.8822265E-1,-5.5326927E-2,-1.4703247E-1,-8.29129E-3,2.3165205E-2,-9.056929E-2,-1.6310146E-1,7.871821E-2,2.0200387E-2,-2.160927E-1,4.921138E-3,-1.3654093E-1,-2.238914E-1,-1.7501144E-2,-1.3572897E-1],"split_indices":[1,1,1,0,0,0,0,0,0,0,0,1,1,1,1,0,0,0,0,0,0,0,0,0,0,0,0,0,0,0,0],"split_type":[0,0,0,0,0,0,0,0,0,0,0,0,0,0,0,0,0,0,0,0,0,0,0,0,0,0,0,0,0,0,0],"sum_hessian":[4.626E3,8.07E2,3.819E3,4.52E2,3.55E2,3.142E3,6.77E2,2.3E2,2.22E2,1.73E2,1.82E2,2.632E3,5.1E2,2.71E2,4.06E2,8.6E1,1.44E2,4.7E1,1.75E2,9.2E1,8.1E1,8.6E1,9.6E1,1.782E3,8.5E2,6.4E1,4.46E2,2.5E2,2.1E1,3.11E2,9.5E1],"tree_param":{"num_deleted":"0","num_feature":"2","num_nodes":"31","size_leaf_vector":"1"}},{"base_weights":[-3.8771091E-3,-1.001749E0,2.071921E-1,-1.2854445E0,-4.905776E-1,4.9982342E-1,-4.9603721E-1,-9.553278E-1,-1.354333E0,1.0172133E-1,-1.1527927E0,8.35233E-1,2.2446413E-1,-1.3955196E0,-3.3855593E-1,-1.1168756E-1,-4.4434145E-2,-1.015883E-1,-1.4629306E-1,4.0321205E-2,4.2959875E-3,-9.960785E-2,-2.0736456E-1,5.5240896E-2,1.6781847E-1,-1.8446146E-1,4.2630877E-2,-1.291078E-1,-2.0251997E-1,-7.183635E-3,-8.570019E-2],"categories":[],"categories_nodes":[],"categories_segments":[],"categories_sizes":[],"default_left":[0,0,0,0,0,0,0,0,0,0,0,0,0,0,0,0,0,0,0,0,0,0,0,0,0,0,0,0,0,0,0],"id":20,"left_children":[1,3,5,7,9,11,13,15,17,19,21,23,25,27,29,-1,-1,-1,-1,-1,-1,-1,-1,-1,-1,-1,-1,-1,-1,-1,-1],"loss_changes":[9.7474634E2,1.1654315E2,7.8635394E2,1.0508911E1,1.13863754E2,2.4899475E2,1.5860233E2,7.1807556E0,1.4208191E1,2.710947E0,1.7705048E1,2.889759E2,6.2013525E2,8.368042E0,1.322721E2,0E0,0E0,0E0,0E0,0E0,0E0,0E0,0E0,0E0,0E0,0E0,0E0,0E0,0E0,0E0,0E0],"parents":[2147483647,0,0,1,1,2,2,3,3,4,4,5,5,6,6,7,7,8,8,9,9,10,10,11,11,12,12,13,13,14,14],"right_children":[2,4,6,8,10,12,14,16,18,20,22,24,26,28,30,-1,-1,-1,-1,-1,-1,-1,-1,-1,-1,-1,-1,-1,-1,-1,-1],"split_conditions":[6E0,4E0,1.9E1,1E0,5E0,5E0,2E0,7E0,2E0,2E0,5E0,4E0,8E0,2.3E1,2.2E1,-1.1168756E-1,-4.4434145E-2,-1.015883E-1,-1.4629306E-1,4.0321205E-2,4.2959875E-3,-9.960785E-2,-2.0736456E-1,5.5240896E-2,1.6781847E-1,-1.8446146E-1,4.2630877E-2,-1.291078E-1,-2.0251997E-1,-7.183635E-3,-8.570019E-2],"split_indices":[1,1,1,1,0,0,0,0,0,0,1,0,1,1,1,0,0,0,0,0,0,0,0,0,0,0,0,0,0,0,0],"split_type":[0,0,0,0,0,0,0,0,0,0,0,0,0,0,0,0,0,0,0,0,0,0,0,0,0,0,0,0,0,0,0],"sum_hessian":[4.626E3,8.07E2,3.819E3,5.18E2,2.89E2,2.697E3,1.122E3,9.2E1,4.26E2,1.53E2,1.36E2,1.215E3,1.482E3,1.66E2,9.56E2,6.9E1,2.3E1,1.06E2,3.2E2,2.4E1,1.29E2,1.18E2,1.8E1,9.11E2,3.04E2,1.31E2,1.351E3,1.45E2,2.1E1,6.32E2,3.24E2],"tree_param":{"num_deleted":"0","num_feature":"2","num_nodes":"31","size_leaf_vector":"1"}},{"base_weights":[-3.7075619E-3,-9.0239877E-1,1.8638307E-1,-1.210768E0,-5.074728E-1,5.0314E-1,-3.639908E-1,-1.3856559E0,-1.0241766E0,6.1384123E-2,-1.0455801E0,3.354391E-1,8.743506E-1,-4.6678804E-2,-6.9995445E-1,-1.0858482E-1,-1.5559842E-1,-3.7171043E-2,-1.1963027E-1,-6.548685E-3,2.045258E-2,-6.84138E-2,-1.358981E-1,5.2304823E-2,-4.9379822E-2,1.2467724E-1,1.0485824E-2,1.2260386E-2,-1.5238398E-1,-1.2100559E-1,-3.5733156E-2],"categories":[],"categories_nodes":[],"categories_segments":[],"categories_sizes":[],"default_left":[0,0,0,0,0,0,0,0,0,0,0,0,0,0,0,0,0,0,0,0,0,0,0,0,0,0,0,0,0,0,0],"id":21,"left_children":[1,3,5,7,9,11,13,15,17,19,21,23,25,27,29,-1,-1,-1,-1,-1,-1,-1,-1,-1,-1,-1,-1,-1,-1,-1,-1],"loss_changes":[7.9061145E2,9.7786255E1,6.6614185E2,1.3363342E1,1.0903795E2,1.5066864E2,1.4878833E2,1.0106628E1,2.4599655E1,3.1733243E0,1.9799835E1,2.603755E2,2.1594733E2,1.7997836E2,1.1806329E2,0E0,0E0,0E0,0E0,0E0,0E0,0E0,0E0,0E0,0E0,0E0,0E0,0E0,0E0,0E0,0E0],"parents":[2147483647,0,0,1,1,2,2,3,3,4,4,5,5,6,6,7,7,8,8,9,9,10,10,11,11,12,12,13,13,14,14],"right_children":[2,4,6,8,10,12,14,16,18,20,22,24,26,28,30,-1,-1,-1,-1,-1,-1,-1,-1,-1,-1,-1,-1,-1,-1,-1,-1],"split_conditions":[6E0,3E0,1.8E1,5E0,5E0,1.5E1,2.1E1,2E0,6E0,3E0,7E0,7E0,1.7E1,7E0,4E0,-1.0858482E-1,-1.5559842E-1,-3.7171043E-2,-1.1963027E-1,-6.548685E-3,2.045258E-2,-6.84138E-2,-1.358981E-1,5.2304823E-2,-4.9379822E-2,1.2467724E-1,1.0485824E-2,1.2260386E-2,-1.5238398E-1,-1.2100559E-1,-3.5733156E-2],"split_indices":[1,1,1,0,0,1,1,0,0,0,0,0,1,0,0,0,0,0,0,0,0,0,0,0,0,0,0,0,0,0,0],"split_type":[0,0,0,0,0,0,0,0,0,0,0,0,0,0,0,0,0,0,0,0,0,0,0,0,0,0,0,0,0,0,0],"sum_hessian":[4.626E3,8.07E2,3.819E3,4.52E2,3.55E2,2.424E3,1.395E3,2.3E2,2.22E2,1.73E2,1.82E2,1.671E3,7.53E2,7.18E2,6.77E2,8.6E1,1.44E2,4.7E1,1.75E2,9.2E1,8.1E1,8.6E1,9.6E1,1.363E3,3.08E2,5.07E2,2.46E2,6.45E2,7.3E1,2.71E2,4.06E2],"tree_param":{"num_deleted":"0","num_feature":"2","num_nodes":"31","size_leaf_vector":"1"}},{"base_weights":[-3.5034837E-3,-8.1291556E-1,1.6770291E-1,-1.0906205E0,-4.5726037E-1,4.528825E-1,-3.278044E-1,-7.529675E-1,-1.1745847E0,5.5325784E-2,-9.421387E-1,7.143318E-1,2.4135943E-1,-8.3897614E-1,-1.440007E-1,-9.0193234E-2,-2.8711304E-2,-1.2722851E-1,-1.03804074E-1,-5.900834E-3,1.843227E-2,-6.165107E-2,-1.224484E-1,2.5816688E-1,6.272089E-2,-1.327207E-1,5.123942E-2,-5.8798004E-2,-1.4401059E-1,-4.857862E-3,-1.3735156E-1],"categories":[],"categories_nodes":[],"categories_segments":[],"categories_sizes":[],"default_left":[0,0,0,0,0,0,0,0,0,0,0,0,0,0,0,0,0,0,0,0,0,0,0,0,0,0,0,0,0,0,0],"id":22,"left_children":[1,3,5,7,9,11,13,15,17,19,21,23,25,27,29,-1,-1,-1,-1,-1,-1,-1,-1,-1,-1,-1,-1,-1,-1,-1,-1],"loss_changes":[6.413299E2,7.9305176E1,5.399472E2,1.1958496E1,8.853304E1,1.3393628E2,1.310407E2,6.194866E0,3.4952393E0,2.5771592E0,1.6070038E1,1.7473444E2,5.712125E2,5.482843E1,1.2054118E2,0E0,0E0,0E0,0E0,0E0,0E0,0E0,0E0,0E0,0E0,0E0,0E0,0E0,0E0,0E0,0E0],"parents":[2147483647,0,0,1,1,2,2,3,3,4,4,5,5,6,6,7,7,8,8,9,9,10,10,11,11,12,12,13,13,14,14],"right_children":[2,4,6,8,10,12,14,16,18,20,22,24,26,28,30,-1,-1,-1,-1,-1,-1,-1,-1,-1,-1,-1,-1,-1,-1,-1,-1],"split_conditions":[6E0,3E0,1.8E1,1E0,5E0,5E0,3E0,7E0,5E0,3E0,7E0,7E0,9E0,2.2E1,7E0,-9.0193234E-2,-2.8711304E-2,-1.2722851E-1,-1.03804074E-1,-5.900834E-3,1.843227E-2,-6.165107E-2,-1.224484E-1,2.5816688E-1,6.272089E-2,-1.327207E-1,5.123942E-2,-5.8798004E-2,-1.4401059E-1,-4.857862E-3,-1.3735156E-1],"split_indices":[1,1,1,1,0,0,0,0,0,0,0,1,1,1,0,0,0,0,0,0,0,0,0,0,0,0,0,0,0,0,0],"split_type":[0,0,0,0,0,0,0,0,0,0,0,0,0,0,0,0,0,0,0,0,0,0,0,0,0,0,0,0,0,0,0],"sum_hessian":[4.626E3,8.07E2,3.819E3,4.52E2,3.55E2,2.424E3,1.395E3,9.2E1,3.6E2,1.73E2,1.82E2,1.083E3,1.341E3,3.68E2,1.027E3,6.9E1,2.3E1,2.05E2,1.55E2,9.2E1,8.1E1,8.6E1,9.6E1,4.7E1,1.036E3,1.97E2,1.144E3,2.61E2,1.07E2,9.54E2,7.3E1],"tree_param":{"num_deleted":"0","num_feature":"2","num_nodes":"31","size_leaf_vector":"1"}},{"base_weights":[-3.2886288E-3,-7.3226947E-1,1.5090504E-1,-9.823309E-1,-4.1201642E-1,3.1197312E-1,-5.9597975E-1,-6.789492E-1,-1.0577662E0,4.986477E-2,-8.4893066E-1,4.1183224E-1,-2.0317565E-1,-8.946943E-1,-2.0745395E-1,-8.130275E-2,-2.5959805E-2,-8.527454E-2,-1.118781E-1,-5.317151E-3,1.6611489E-2,-7.395684E-2,-1.7539755E-1,2.8552398E-2,8.096315E-2,-1.265896E-1,9.150047E-3,-6.1335593E-2,-1.0959651E-1,7.164597E-2,-8.2396105E-2],"categories":[],"categories_nodes":[],"categories_segments":[],"categories_sizes":[],"default_left":[0,0,0,0,0,0,0,0,0,0,0,0,0,0,0,0,0,0,0,0,0,0,0,0,0,0,0,0,0,0,0],"id":23,"left_children":[1,3,5,7,9,11,13,15,17,19,21,23,25,27,29,-1,-1,-1,-1,-1,-1,-1,-1,-1,-1,-1,-1,-1,-1,-1,-1],"loss_changes":[5.202049E2,6.430228E1,4.597293E2,9.649048E0,7.1884E1,1.6176682E2,7.850192E1,5.0179443E0,3.5618286E0,2.0930007E0,1.681575E1,1.3206479E2,1.6013972E2,2.1015228E1,1.6919171E2,0E0,0E0,0E0,0E0,0E0,0E0,0E0,0E0,0E0,0E0,0E0,0E0,0E0,0E0,0E0,0E0],"parents":[2147483647,0,0,1,1,2,2,3,3,4,4,5,5,6,6,7,7,8,8,9,9,10,10,11,11,12,12,13,13,14,14],"right_children":[2,4,6,8,10,12,14,16,18,20,22,24,26,28,30,-1,-1,-1,-1,-1,-1,-1,-1,-1,-1,-1,-1,-1,-1,-1,-1],"split_conditions":[6E0,3E0,2.1E1,1E0,5E0,7E0,5E0,7E0,2E0,3E0,5E0,6E0,1E1,2.2E1,6E0,-8.130275E-2,-2.5959805E-2,-8.527454E-2,-1.118781E-1,-5.317151E-3,1.6611489E-2,-7.395684E-2,-1.7539755E-1,2.8552398E-2,8.096315E-2,-1.265896E-1,9.150047E-3,-6.1335593E-2,-1.0959651E-1,7.164597E-2,-8.2396105E-2],"split_indices":[1,1,1,1,0,0,0,0,0,0,1,0,1,1,0,0,0,0,0,0,0,0,0,0,0,0,0,0,0,0,0],"split_type":[0,0,0,0,0,0,0,0,0,0,0,0,0,0,0,0,0,0,0,0,0,0,0,0,0,0,0,0,0,0,0],"sum_hessian":[4.626E3,8.07E2,3.819E3,4.52E2,3.55E2,3.142E3,6.77E2,9.2E1,3.6E2,1.73E2,1.82E2,2.632E3,5.1E2,3.82E2,2.95E2,6.9E1,2.3E1,8.6E1,2.74E2,9.2E1,8.1E1,1.64E2,1.8E1,1.999E3,6.33E2,1.1E2,4E2,1.61E2,2.21E2,1.18E2,1.77E2],"tree_param":{"num_deleted":"0","num_feature":"2","num_nodes":"31","size_leaf_vector":"1"}},{"base_weights":[-3.1181267E-3,-6.597139E-1,1.3576473E-1,-8.8476986E-1,-3.7148347E-1,4.202122E-1,-2.4179116E-1,-1.0273839E0,-7.3307204E-1,4.494315E-2,-7.654001E-1,2.3418812E-1,1.0316532E0,-1.0464578E0,-1.07317835E-1,-7.684511E-2,-1.17565826E-1,-1.4437727E-2,-8.8946E-2,-4.791196E-3,1.4970635E-2,-4.6147354E-2,-1.03010334E-1,3.818419E-2,-4.1834872E-2,1.4929892E-1,6.258875E-2,-1.4856642E-1,-9.3461595E-2,-1.7623131E-3,-1.1156451E-1],"categories":[],"categories_nodes":[],"categories_segments":[],"categories_sizes":[],"default_left":[0,0,0,0,0,0,0,0,0,0,0,0,0,0,0,0,0,0,0,0,0,0,0,0,0,0,0,0,0,0,0],"id":24,"left_children":[1,3,5,7,9,11,13,15,17,19,21,23,25,27,29,-1,-1,-1,-1,-1,-1,-1,-1,-1,-1,-1,-1,-1,-1,-1,-1],"loss_changes":[4.2202527E2,5.2084686E1,4.103498E2,9.04715E0,5.8431717E1,2.4760388E2,1.7756229E2,7.965378E0,2.0402016E1,1.6998097E0,1.4247047E1,1.612561E2,9.416016E1,1.015506E1,1.27322136E2,0E0,0E0,0E0,0E0,0E0,0E0,0E0,0E0,0E0,0E0,0E0,0E0,0E0,0E0,0E0,0E0],"parents":[2147483647,0,0,1,1,2,2,3,3,4,4,5,5,6,6,7,7,8,8,9,9,10,10,11,11,12,12,13,13,14,14],"right_children":[2,4,6,8,10,12,14,16,18,20,22,24,26,28,30,-1,-1,-1,-1,-1,-1,-1,-1,-1,-1,-1,-1,-1,-1,-1,-1],"split_conditions":[6E0,3E0,1.7E1,5E0,5E0,1.5E1,2E0,2E0,6E0,3E0,7E0,7E0,5E0,1.8E1,7E0,-7.684511E-2,-1.17565826E-1,-1.4437727E-2,-8.8946E-2,-4.791196E-3,1.4970635E-2,-4.6147354E-2,-1.03010334E-1,3.818419E-2,-4.1834872E-2,1.4929892E-1,6.258875E-2,-1.4856642E-1,-9.3461595E-2,-1.7623131E-3,-1.1156451E-1],"split_indices":[1,1,1,0,0,1,0,0,0,0,0,0,0,1,0,0,0,0,0,0,0,0,0,0,0,0,0,0,0,0,0],"split_type":[0,0,0,0,0,0,0,0,0,0,0,0,0,0,0,0,0,0,0,0,0,0,0,0,0,0,0,0,0,0,0],"sum_hessian":[4.626E3,8.07E2,3.819E3,4.52E2,3.55E2,2.178E3,1.641E3,2.3E2,2.22E2,1.73E2,1.82E2,1.671E3,5.07E2,2.34E2,1.407E3,8.6E1,1.44E2,4.7E1,1.75E2,9.2E1,8.1E1,8.6E1,9.6E1,1.363E3,3.08E2,2.36E2,2.71E2,4.5E1,1.89E2,1.293E3,1.14E2],"tree_param":{"num_deleted":"0","num_feature":"2","num_nodes":"31","size_leaf_vector":"1"}},{"base_weights":[-2.9327623E-3,-5.9428316E-1,1.2214945E-1,-7.969503E-1,-3.3472556E-1,2.9033926E-1,-4.238557E-1,-9.254871E-1,-6.6022855E-1,4.0507305E-2,-6.896753E-1,3.8222438E-1,-1.437612E-1,-7.0783526E-1,-4.2148367E-2,-8.301723E-2,-1.2715796E-1,-1.3024034E-2,-8.010195E-2,-4.317222E-3,1.3491814E-2,-5.8710814E-2,-1.544091E-1,2.6916776E-2,7.291515E-2,-1.905978E-1,1.4019368E-3,-5.1604886E-2,-9.594981E-2,2.6284108E-2,-1.3492654E-1],"categories":[],"categories_nodes":[],"categories_segments":[],"categories_sizes":[],"default_left":[0,0,0,0,0,0,0,0,0,0,0,0,0,0,0,0,0,0,0,0,0,0,0,0,0,0,0,0,0,0,0],"id":25,"left_children":[1,3,5,7,9,11,13,15,17,19,21,23,25,27,29,-1,-1,-1,-1,-1,-1,-1,-1,-1,-1,-1,-1,-1,-1,-1,-1],"loss_changes":[3.4231985E2,4.223706E1,3.5092322E2,7.3499146E0,4.744315E1,1.1656593E2,9.752754E1,6.5645294E0,1.6535385E1,1.380469E0,1.5130646E1,9.436899E1,1.42107E2,2.4409851E1,1.5383754E2,0E0,0E0,0E0,0E0,0E0,0E0,0E0,0E0,0E0,0E0,0E0,0E0,0E0,0E0,0E0,0E0],"parents":[2147483647,0,0,1,1,2,2,3,3,4,4,5,5,6,6,7,7,8,8,9,9,10,10,11,11,12,12,13,13,14,14],"right_children":[2,4,6,8,10,12,14,16,18,20,22,24,26,28,30,-1,-1,-1,-1,-1,-1,-1,-1,-1,-1,-1,-1,-1,-1,-1,-1],"split_conditions":[6E0,3E0,2E1,5E0,5E0,7E0,5E0,4E0,6E0,3E0,5E0,6E0,8E0,2.2E1,2.3E1,-8.301723E-2,-1.2715796E-1,-1.3024034E-2,-8.010195E-2,-4.317222E-3,1.3491814E-2,-5.8710814E-2,-1.544091E-1,2.6916776E-2,7.291515E-2,-1.905978E-1,1.4019368E-3,-5.1604886E-2,-9.594981E-2,2.6284108E-2,-1.3492654E-1],"split_indices":[1,1,1,0,0,0,0,0,0,0,1,0,1,1,1,0,0,0,0,0,0,0,0,0,0,0,0,0,0,0,0],"split_type":[0,0,0,0,0,0,0,0,0,0,0,0,0,0,0,0,0,0,0,0,0,0,0,0,0,0,0,0,0,0,0],"sum_hessian":[4.626E3,8.07E2,3.819E3,4.52E2,3.55E2,2.92E3,8.99E2,2.3E2,2.22E2,1.73E2,1.82E2,2.41E3,5.1E2,5.15E2,3.84E2,1.83E2,4.7E1,4.7E1,1.75E2,9.2E1,8.1E1,1.64E2,1.8E1,1.819E3,5.91E2,4.1E1,4.69E2,2.94E2,2.21E2,3.12E2,7.2E1],"tree_param":{"num_deleted":"0","num_feature":"2","num_nodes":"31","size_leaf_vector":"1"}},{"base_weights":[-2.8237524E-3,-5.3548265E-1,1.09844096E-1,-6.901784E-1,-2.5678402E-1,3.499417E-1,-2.0884198E-1,-4.6999392E-1,-7.365179E-1,-6.1726574E-2,-8.465173E-2,1.8306758E-1,8.984921E-1,-9.148407E-1,-9.0860054E-2,-5.9948947E-2,-7.2715604E-3,-8.5641325E-2,-6.097227E-2,6.487685E-3,-1.3978088E-1,3.0427653E-2,-3.5257023E-2,7.096527E-2,1.779549E-1,-1.3666582E-1,-8.006384E-2,-9.420651E-4,-1.0064403E-1],"categories":[],"categories_nodes":[],"categories_segments":[],"categories_sizes":[],"default_left":[0,0,0,0,0,0,0,0,0,0,0,0,0,0,0,0,0,0,0,0,0,0,0,0,0,0,0,0,0],"id":26,"left_children":[1,3,5,7,9,11,13,15,17,19,-1,21,23,25,27,-1,-1,-1,-1,-1,-1,-1,-1,-1,-1,-1,-1,-1,-1],"loss_changes":[2.7774142E2,3.4658478E1,2.923633E2,4.9493256E0,3.330699E1,1.992987E2,1.3668741E2,4.740864E0,5.969116E0,3.71351E1,0E0,1.0866037E2,8.325729E1,1.1031479E1,1.0497705E2,0E0,0E0,0E0,0E0,0E0,0E0,0E0,0E0,0E0,0E0,0E0,0E0,0E0,0E0],"parents":[2147483647,0,0,1,1,2,2,3,3,4,4,5,5,6,6,7,7,8,8,9,9,11,11,12,12,13,13,14,14],"right_children":[2,4,6,8,10,12,14,16,18,20,-1,22,24,26,28,-1,-1,-1,-1,-1,-1,-1,-1,-1,-1,-1,-1,-1,-1],"split_conditions":[6E0,4E0,1.7E1,1E0,7E0,1.5E1,2E0,7E0,2E0,5E0,-8.465173E-2,7E0,7E0,1.8E1,7E0,-5.9948947E-2,-7.2715604E-3,-8.5641325E-2,-6.097227E-2,6.487685E-3,-1.3978088E-1,3.0427653E-2,-3.5257023E-2,7.096527E-2,1.779549E-1,-1.3666582E-1,-8.006384E-2,-9.420651E-4,-1.0064403E-1],"split_indices":[1,1,1,1,0,1,0,0,1,1,0,0,0,1,0,0,0,0,0,0,0,0,0,0,0,0,0,0,0],"split_type":[0,0,0,0,0,0,0,0,0,0,0,0,0,0,0,0,0,0,0,0,0,0,0,0,0,0,0,0,0],"sum_hessian":[4.626E3,8.07E2,3.819E3,5.18E2,2.89E2,2.178E3,1.641E3,9.2E1,4.26E2,2.18E2,7.1E1,1.671E3,5.07E2,2.34E2,1.407E3,6.9E1,2.3E1,2.16E2,2.1E2,2E2,1.8E1,1.363E3,3.08E2,4.19E2,8.8E1,4.5E1,1.89E2,1.293E3,1.14E2],"tree_param":{"num_deleted":"0","num_feature":"2","num_nodes":"29","size_leaf_vector":"1"}},{"base_weights":[-2.6507408E-3,-4.8246875E-1,9.884026E-2,-6.4820683E-1,-2.7021646E-1,2.4310005E-1,-3.6947274E-1,-4.237173E-1,-7.042437E-1,-7.43724E-2,-7.9237364E-2,4.534744E-1,6.20314E-2,-6.1661667E-1,-3.7275974E-2,-2.1504337E-2,-6.322528E-2,-5.4278255E-2,-7.527634E-2,1.9444152E-3,-1.2653847E-1,2.493268E-2,1.0277281E-1,-1.5473346E-1,2.0951355E-2,-4.4570956E-2,-8.409455E-2,6.286718E-2,-5.3959437E-2],"categories":[],"categories_nodes":[],"categories_segments":[],"categories_sizes":[],"default_left":[0,0,0,0,0,0,0,0,0,0,0,0,0,0,0,0,0,0,0,0,0,0,0,0,0,0,0,0,0],"id":27,"left_children":[1,3,5,7,9,11,13,15,17,19,-1,21,23,25,27,-1,-1,-1,-1,-1,-1,-1,-1,-1,-1,-1,-1,-1,-1],"loss_changes":[2.2536967E2,2.8248901E1,2.5816418E2,5.4002075E0,3.634612E1,1.1123918E2,7.38674E1,3.9110184E0,2.4194946E0,2.9076136E1,0E0,1.5812488E2,3.732054E2,1.9408295E1,1.2912857E2,0E0,0E0,0E0,0E0,0E0,0E0,0E0,0E0,0E0,0E0,0E0,0E0,0E0,0E0],"parents":[2147483647,0,0,1,1,2,2,3,3,4,4,5,5,6,6,7,7,8,8,9,9,11,11,12,12,13,13,14,14],"right_children":[2,4,6,8,10,12,14,16,18,20,-1,22,24,26,28,-1,-1,-1,-1,-1,-1,-1,-1,-1,-1,-1,-1,-1,-1],"split_conditions":[6E0,3E0,2E1,1E0,7E0,5E0,5E0,6E0,2E0,5E0,-7.9237364E-2,4E0,8E0,2.2E1,6E0,-2.1504337E-2,-6.322528E-2,-5.4278255E-2,-7.527634E-2,1.9444152E-3,-1.2653847E-1,2.493268E-2,1.0277281E-1,-1.5473346E-1,2.0951355E-2,-4.4570956E-2,-8.409455E-2,6.286718E-2,-5.3959437E-2],"split_indices":[1,1,1,1,0,0,0,0,0,1,0,0,1,1,0,0,0,0,0,0,0,0,0,0,0,0,0,0,0],"split_type":[0,0,0,0,0,0,0,0,0,0,0,0,0,0,0,0,0,0,0,0,0,0,0,0,0,0,0,0,0],"sum_hessian":[4.626E3,8.07E2,3.819E3,4.52E2,3.55E2,2.92E3,8.99E2,9.2E1,3.6E2,2.59E2,9.6E1,1.35E3,1.57E3,5.15E2,3.84E2,4.7E1,4.5E1,8.6E1,2.74E2,2.41E2,1.8E1,9.97E2,3.53E2,1.31E2,1.439E3,2.94E2,2.21E2,1.65E2,2.19E2],"tree_param":{"num_deleted":"0","num_feature":"2","num_nodes":"29","size_leaf_vector":"1"}},{"base_weights":[-2.50352E-3,-4.3473935E-1,8.892293E-2,-5.617446E-1,-2.059447E-1,2.936959E-1,-1.8287319E-1,-6.479074E-1,-4.79259E-1,-4.7538217E-2,-6.849041E-2,1.4685741E-1,7.7641296E-1,-8.005251E-1,-7.9655096E-2,-4.140039E-2,-8.160437E-2,3.6562682E-4,-5.815143E-2,5.648632E-3,-1.1455063E-1,3.0176094E-2,-2.0271463E-2,1.2006749E-1,4.0388916E-2,-1.2573546E-1,-6.85711E-2,-4.249344E-4,-9.2744105E-2],"categories":[],"categories_nodes":[],"categories_segments":[],"categories_sizes":[],"default_left":[0,0,0,0,0,0,0,0,0,0,0,0,0,0,0,0,0,0,0,0,0,0,0,0,0,0,0,0,0],"id":28,"left_children":[1,3,5,7,9,11,13,15,17,19,-1,21,23,25,27,-1,-1,-1,-1,-1,-1,-1,-1,-1,-1,-1,-1,-1,-1],"loss_changes":[1.8288747E2,2.336325E1,2.1266153E2,3.3781128E0,2.1969822E1,1.5433664E2,1.0461842E2,9.533409E0,1.3285519E1,2.5077925E1,0E0,9.059987E1,7.980328E1,1.1463684E1,9.00066E1,0E0,0E0,0E0,0E0,0E0,0E0,0E0,0E0,0E0,0E0,0E0,0E0,0E0,0E0],"parents":[2147483647,0,0,1,1,2,2,3,3,4,4,5,5,6,6,7,7,8,8,9,9,11,11,12,12,13,13,14,14],"right_children":[2,4,6,8,10,12,14,16,18,20,-1,22,24,26,28,-1,-1,-1,-1,-1,-1,-1,-1,-1,-1,-1,-1,-1,-1],"split_conditions":[6E0,4E0,1.7E1,5E0,7E0,1.5E1,2E0,2E0,6E0,5E0,-6.849041E-2,1.2E1,5E0,1.8E1,7E0,-4.140039E-2,-8.160437E-2,3.6562682E-4,-5.815143E-2,5.648632E-3,-1.1455063E-1,3.0176094E-2,-2.0271463E-2,1.2006749E-1,4.0388916E-2,-1.2573546E-1,-6.85711E-2,-4.249344E-4,-9.2744105E-2],"split_indices":[1,1,1,0,0,1,0,0,0,1,0,1,0,1,0,0,0,0,0,0,0,0,0,0,0,0,0,0,0],"split_type":[0,0,0,0,0,0,0,0,0,0,0,0,0,0,0,0,0,0,0,0,0,0,0,0,0,0,0,0,0],"sum_hessian":[4.626E3,8.07E2,3.819E3,5.18E2,2.89E2,2.178E3,1.641E3,2.5E2,2.68E2,2.18E2,7.1E1,1.671E3,5.07E2,2.34E2,1.407E3,1.06E2,1.44E2,4.7E1,2.21E2,2E2,1.8E1,1.158E3,5.13E2,2.36E2,2.71E2,4.5E1,1.89E2,1.293E3,1.14E2],"tree_param":{"num_deleted":"0","num_feature":"2","num_nodes":"29","size_leaf_vector":"1"}},{"base_weights":[-2.3557711E-3,-3.9170873E-1,8.000013E-2,-5.276323E-1,-2.176495E-1,1.8454422E-1,-4.0475222E-1,-6.301688E-1,-4.190513E-1,-5.594766E-2,-6.488334E-2,2.4299781E-1,-1.1700732E-1,-2.9388648E-1,-9.338274E-1,-5.5384856E-2,-9.09601E-2,3.2981535E-4,-5.3185653E-2,2.1307094E-3,-1.0369847E-1,1.34687E-2,5.8428902E-2,-5.6729477E-2,3.8586304E-2,-6.032915E-2,1.756769E-2,-4.786458E-2,-1.20162666E-1],"categories":[],"categories_nodes":[],"categories_segments":[],"categories_sizes":[],"default_left":[0,0,0,0,0,0,0,0,0,0,0,0,0,0,0,0,0,0,0,0,0,0,0,0,0,0,0,0,0],"id":29,"left_children":[1,3,5,7,9,11,13,15,17,19,-1,21,23,25,27,-1,-1,-1,-1,-1,-1,-1,-1,-1,-1,-1,-1,-1,-1],"loss_changes":[1.4839847E2,1.9001427E1,1.9366464E2,4.7794113E0,2.4785164E1,5.5429375E1,3.9494545E1,4.422592E0,1.0626198E1,1.9727436E1,0E0,9.725151E1,1.1592781E2,8.175632E1,1.3686829E1,0E0,0E0,0E0,0E0,0E0,0E0,0E0,0E0,0E0,0E0,0E0,0E0,0E0,0E0],"parents":[2147483647,0,0,1,1,2,2,3,3,4,4,5,5,6,6,7,7,8,8,9,9,11,11,12,12,13,13,14,14],"right_children":[2,4,6,8,10,12,14,16,18,20,-1,22,24,26,28,-1,-1,-1,-1,-1,-1,-1,-1,-1,-1,-1,-1,-1,-1],"split_conditions":[6E0,3E0,2.1E1,5E0,7E0,7E0,2.3E1,4E0,6E0,5E0,-6.488334E-2,6E0,1.4E1,5E0,5E0,-5.5384856E-2,-9.09601E-2,3.2981535E-4,-5.3185653E-2,2.1307094E-3,-1.0369847E-1,1.34687E-2,5.8428902E-2,-5.6729477E-2,3.8586304E-2,-6.032915E-2,1.756769E-2,-4.786458E-2,-1.20162666E-1],"split_indices":[1,1,1,0,0,0,1,0,0,1,0,0,1,0,0,0,0,0,0,0,0,0,0,0,0,0,0,0,0],"split_type":[0,0,0,0,0,0,0,0,0,0,0,0,0,0,0,0,0,0,0,0,0,0,0,0,0,0,0,0,0],"sum_hessian":[4.626E3,8.07E2,3.819E3,4.52E2,3.55E2,3.142E3,6.77E2,2.3E2,2.22E2,2.59E2,9.6E1,2.632E3,5.1E2,5.61E2,1.16E2,1.83E2,4.7E1,4.7E1,1.75E2,2.41E2,1.8E1,1.999E3,6.33E2,2.69E2,2.41E2,3.38E2,2.23E2,4.4E1,7.2E1],"tree_param":{"num_deleted":"0","num_feature":"2","num_nodes":"29","size_leaf_vector":"1"}},{"base_weights":[-2.232861E-3,-4.572919E-1,5.5245325E-2,-2.917235E-1,-4.9228153E-1,1.5416491E-1,-2.9762924E-1,-4.223898E-1,1.015417E-2,-3.2887378E-1,-5.4521716E-1,3.3866656E-1,-8.485738E-3,-4.9761555E-1,-2.8822556E-2,-1.2295722E-2,-1.0289278E-1,-3.934552E-2,-4.5661563E-3,-1.3073848E-1,-4.7922593E-2,1.746539E-2,8.050897E-2,-8.536706E-2,1.9697294E-2,-3.5853546E-2,-6.8018764E-2,5.7104737E-2,-4.8132066E-2],"categories":[],"categories_nodes":[],"categories_segments":[],"categories_sizes":[],"default_left":[0,0,0,0,0,0,0,0,0,0,0,0,0,0,0,0,0,0,0,0,0,0,0,0,0,0,0,0,0],"id":30,"left_children":[1,3,5,7,9,11,13,15,-1,17,19,21,23,25,27,-1,-1,-1,-1,-1,-1,-1,-1,-1,-1,-1,-1,-1,-1],"loss_changes":[1.2104892E2,2.8630524E0,1.4347546E2,4.821836E0,3.5142822E0,9.633278E1,4.8367546E1,1.2586693E1,0E0,1.9390898E0,1.5518616E1,1.1491431E2,2.9658966E2,1.2858467E1,1.0477926E2,0E0,0E0,0E0,0E0,0E0,0E0,0E0,0E0,0E0,0E0,0E0,0E0,0E0,0E0],"parents":[2147483647,0,0,1,1,2,2,3,3,4,4,5,5,6,6,7,7,9,9,10,10,11,11,12,12,13,13,14,14],"right_children":[2,4,6,8,10,12,14,16,-1,18,20,22,24,26,28,-1,-1,-1,-1,-1,-1,-1,-1,-1,-1,-1,-1,-1,-1],"split_conditions":[4E0,1E0,2E1,7E0,2E0,5E0,5E0,6E0,1.015417E-2,3E0,3E0,4E0,9E0,2.2E1,6E0,-1.2295722E-2,-1.0289278E-1,-3.934552E-2,-4.5661563E-3,-1.3073848E-1,-4.7922593E-2,1.746539E-2,8.050897E-2,-8.536706E-2,1.9697294E-2,-3.5853546E-2,-6.8018764E-2,5.7104737E-2,-4.8132066E-2],"split_indices":[1,1,1,0,0,0,0,0,0,1,0,0,1,1,0,0,0,0,0,0,0,0,0,0,0,0,0,0,0],"split_type":[0,0,0,0,0,0,0,0,0,0,0,0,0,0,0,0,0,0,0,0,0,0,0,0,0,0,0,0,0],"sum_hessian":[4.626E3,5.18E2,4.108E3,9.2E1,4.26E2,3.209E3,8.99E2,6.9E1,2.3E1,1.06E2,3.2E2,1.503E3,1.706E3,5.15E2,3.84E2,4.7E1,2.2E1,8.6E1,2E1,2.4E1,2.96E2,1.113E3,3.9E2,3.33E2,1.373E3,2.94E2,2.21E2,1.65E2,2.19E2],"tree_param":{"num_deleted":"0","num_feature":"2","num_nodes":"29","size_leaf_vector":"1"}},{"base_weights":[-2.0939496E-3,-4.121939E-1,4.9705505E-2,-2.6368055E-1,-4.4357458E-1,1.7404328E-1,-1.920584E-1,-3.8179633E-1,9.181059E-3,-2.963968E-1,-4.9125198E-1,6.919418E-2,4.4650355E-1,-1.4528129E-1,-1.025762E0,-1.1091766E-2,-9.305086E-2,-3.545619E-2,-4.131281E-3,-1.18187584E-1,-4.314646E-2,1.6187675E-2,-3.168401E-2,8.48345E-2,9.253208E-3,-4.035543E-2,4.1886773E-3,-6.8860985E-2,-1.7434208E-1],"categories":[],"categories_nodes":[],"categories_segments":[],"categories_sizes":[],"default_left":[0,0,0,0,0,0,0,0,0,0,0,0,0,0,0,0,0,0,0,0,0,0,0,0,0,0,0,0,0],"id":31,"left_children":[1,3,5,7,9,11,13,15,-1,17,19,21,23,25,27,-1,-1,-1,-1,-1,-1,-1,-1,-1,-1,-1,-1,-1,-1],"loss_changes":[9.831163E1,2.3018188E0,1.2355155E2,3.940041E0,2.8506775E0,7.750052E1,5.429253E1,1.03012E1,0E0,1.5729113E0,1.2744331E1,7.021323E1,1.0717076E2,6.3971336E1,1.6704514E1,0E0,0E0,0E0,0E0,0E0,0E0,0E0,0E0,0E0,0E0,0E0,0E0,0E0,0E0],"parents":[2147483647,0,0,1,1,2,2,3,3,4,4,5,5,6,6,7,7,9,9,10,10,11,11,12,12,13,13,14,14],"right_children":[2,4,6,8,10,12,14,16,-1,18,20,22,24,26,28,-1,-1,-1,-1,-1,-1,-1,-1,-1,-1,-1,-1,-1,-1],"split_conditions":[4E0,1E0,1.8E1,7E0,2E0,1.5E1,7E0,6E0,9.181059E-3,3E0,3E0,7E0,5E0,4E0,1.9E1,-1.1091766E-2,-9.305086E-2,-3.545619E-2,-4.131281E-3,-1.18187584E-1,-4.314646E-2,1.6187675E-2,-3.168401E-2,8.48345E-2,9.253208E-3,-4.035543E-2,4.1886773E-3,-6.8860985E-2,-1.7434208E-1],"split_indices":[1,1,1,0,0,1,0,0,0,1,0,0,0,0,1,0,0,0,0,0,0,0,0,0,0,0,0,0,0],"split_type":[0,0,0,0,0,0,0,0,0,0,0,0,0,0,0,0,0,0,0,0,0,0,0,0,0,0,0,0,0],"sum_hessian":[4.626E3,5.18E2,4.108E3,9.2E1,4.26E2,2.713E3,1.395E3,6.9E1,2.3E1,1.06E2,3.2E2,1.96E3,7.53E2,1.322E3,7.3E1,4.7E1,2.2E1,8.6E1,2E1,2.4E1,2.96E2,1.581E3,3.79E2,3.52E2,4.01E2,5.55E2,7.67E2,5.1E1,2.2E1],"tree_param":{"num_deleted":"0","num_feature":"2","num_nodes":"29","size_leaf_vector":"1"}},{"base_weights":[-1.9917975E-3,-2.9132137E-1,5.920723E-2,-3.8670024E-1,-1.6913612E-1,2.1602425E-1,-1.4893131E-1,-4.7409102E-1,-2.944403E-1,-5.4199148E-2,-4.7547096E-1,9.848179E-2,6.0247105E-1,-6.6502005E-1,-6.268857E-2,-4.0439967E-2,-7.313643E-2,6.1126193E-3,-3.8974002E-2,1.0326984E-3,-8.732057E-2,-5.6106716E-2,-4.3795746E-2,2.4397364E-2,-2.2977414E-2,4.1589662E-2,1.4761652E-1,-1.2476035E-1,-5.2047342E-2,5.7910435E-4,-8.326879E-2],"categories":[],"categories_nodes":[],"categories_segments":[],"categories_sizes":[],"default_left":[0,0,0,0,0,0,0,0,0,0,0,0,0,0,0,0,0,0,0,0,0,0,0,0,0,0,0,0,0,0,0],"id":32,"left_children":[1,3,5,7,9,11,13,15,17,19,21,23,25,27,29,-1,-1,-1,-1,-1,-1,-1,-1,-1,-1,-1,-1,-1,-1,-1,-1],"loss_changes":[8.1946106E1,9.350937E0,1.247157E2,3.5128021E0,1.2508702E1,9.891936E1,7.304195E1,3.8460007E0,7.580267E0,1.3749323E1,6.574631E-2,7.990838E1,8.219461E1,1.9140121E1,7.424761E1,0E0,0E0,0E0,0E0,0E0,0E0,0E0,0E0,0E0,0E0,0E0,0E0,0E0,0E0,0E0,0E0],"parents":[2147483647,0,0,1,1,2,2,3,3,4,4,5,5,6,6,7,7,8,8,9,9,10,10,11,11,12,12,13,13,14,14],"right_children":[2,4,6,8,10,12,14,16,18,20,22,24,26,28,30,-1,-1,-1,-1,-1,-1,-1,-1,-1,-1,-1,-1,-1,-1,-1,-1],"split_conditions":[6E0,3E0,1.7E1,5E0,7E0,1.5E1,2E0,4E0,6E0,5E0,4E0,1.2E1,7E0,1.8E1,7E0,-4.0439967E-2,-7.313643E-2,6.1126193E-3,-3.8974002E-2,1.0326984E-3,-8.732057E-2,-5.6106716E-2,-4.3795746E-2,2.4397364E-2,-2.2977414E-2,4.1589662E-2,1.4761652E-1,-1.2476035E-1,-5.2047342E-2,5.7910435E-4,-8.326879E-2],"split_indices":[1,1,1,0,0,1,0,0,0,1,1,1,0,1,0,0,0,0,0,0,0,0,0,0,0,0,0,0,0,0,0],"split_type":[0,0,0,0,0,0,0,0,0,0,0,0,0,0,0,0,0,0,0,0,0,0,0,0,0,0,0,0,0,0,0],"sum_hessian":[4.626E3,8.07E2,3.819E3,4.52E2,3.55E2,2.178E3,1.641E3,2.3E2,2.22E2,2.59E2,9.6E1,1.671E3,5.07E2,2.34E2,1.407E3,1.83E2,4.7E1,4.7E1,1.75E2,2.41E2,1.8E1,2.5E1,7.1E1,1.158E3,5.13E2,4.19E2,8.8E1,4.5E1,1.89E2,1.293E3,1.14E2],"tree_param":{"num_deleted":"0","num_feature":"2","num_nodes":"31","size_leaf_vector":"1"}},{"base_weights":[-1.8792681E-3,1.8729704E-2,-7.9645354E-1,-2.6260093E-1,8.009483E-2,-3.246527E-1,-1.0763793E0,-3.3545327E-1,-1.3131487E-1,1.9450961E-1,-8.333236E-2,-8.7252945E-2,1.9109484E-2,-1.6187592E-1,-7.601657E-2,-3.9634537E-2,-2.7738873E-2,-8.478742E-3,-7.904808E-2,8.86349E-3,5.4259624E-2,-5.683781E-2,-4.213456E-4],"categories":[],"categories_nodes":[],"categories_segments":[],"categories_sizes":[],"default_left":[0,0,0,0,0,0,0,0,0,0,0,0,0,0,0,0,0,0,0,0,0,0,0],"id":33,"left_children":[1,3,5,7,9,11,13,15,17,19,21,-1,-1,-1,-1,-1,-1,-1,-1,-1,-1,-1,-1],"loss_changes":[7.57837E1,7.7898445E1,1.5102646E1,7.684059E0,6.92754E1,1.2882208E1,1.1289558E1,1.7250748E0,8.827078E0,8.025584E1,5.855982E1,0E0,0E0,0E0,0E0,0E0,0E0,0E0,0E0,0E0,0E0,0E0,0E0],"parents":[2147483647,0,0,1,1,2,2,3,3,4,4,5,5,6,6,7,7,8,8,9,9,10,10],"right_children":[2,4,6,8,10,12,14,16,18,20,22,-1,-1,-1,-1,-1,-1,-1,-1,-1,-1,-1,-1],"split_conditions":[2.3E1,6E0,5E0,4E0,1.7E1,2E0,6E0,5E0,5E0,1.5E1,2E0,-8.7252945E-2,1.9109484E-2,-1.6187592E-1,-7.601657E-2,-3.9634537E-2,-2.7738873E-2,-8.478742E-3,-7.904808E-2,8.86349E-3,5.4259624E-2,-5.683781E-2,-4.213456E-4],"split_indices":[1,1,0,1,1,0,0,0,1,1,0,0,0,0,0,0,0,0,0,0,0,0,0],"split_type":[0,0,0,0,0,0,0,0,0,0,0,0,0,0,0,0,0,0,0,0,0,0,0],"sum_hessian":[4.626E3,4.51E3,1.16E2,8.07E2,3.703E3,4.4E1,7.2E1,5.18E2,2.89E2,2.178E3,1.525E3,2.1E1,2.3E1,2.5E1,4.7E1,2.5E2,2.68E2,2.71E2,1.8E1,1.671E3,5.07E2,2.13E2,1.312E3],"tree_param":{"num_deleted":"0","num_feature":"2","num_nodes":"23","size_leaf_vector":"1"}},{"base_weights":[-1.7896869E-3,4.747607E-2,-2.888073E-1,-1.8469197E-1,1.4776488E-1,-1.9864543E-1,-7.1942407E-1,1.7284848E-1,-5.3539246E-1,-4.904351E-1,2.29632E-1,-4.337759E-1,1.5808612E-1,-2.9370198E-1,-9.7200036E-1,-2.2059213E-2,1.0174078E-1,-2.284309E-2,-1.0828866E-1,-1.2271439E-1,-1.0909721E-2,7.395478E-2,1.3781513E-2,-2.2929959E-2,-6.1743535E-2,1.1370269E-1,-5.4556668E-2,-7.892426E-2,1.7278118E-2,-1.4631094E-1,-6.8573296E-2],"categories":[],"categories_nodes":[],"categories_segments":[],"categories_sizes":[],"default_left":[0,0,0,0,0,0,0,0,0,0,0,0,0,0,0,0,0,0,0,0,0,0,0,0,0,0,0,0,0,0,0],"id":34,"left_children":[1,3,5,7,9,11,13,15,17,19,21,23,25,27,29,-1,-1,-1,-1,-1,-1,-1,-1,-1,-1,-1,-1,-1,-1,-1,-1],"loss_changes":[6.544013E1,9.199851E1,2.618058E1,1.4955695E2,1.4426376E2,4.720827E1,1.2295216E1,1.9660422E2,1.00924515E2,8.8079704E1,1.1441704E2,1.2589226E1,1.5491922E2,1.053863E1,9.259659E0,0E0,0E0,0E0,0E0,0E0,0E0,0E0,0E0,0E0,0E0,0E0,0E0,0E0,0E0,0E0,0E0],"parents":[2147483647,0,0,1,1,2,2,3,3,4,4,5,5,6,6,7,7,8,8,9,9,10,10,11,11,12,12,13,13,14,14],"right_children":[2,4,6,8,10,12,14,16,18,20,22,24,26,28,30,-1,-1,-1,-1,-1,-1,-1,-1,-1,-1,-1,-1,-1,-1,-1,-1],"split_conditions":[2.1E1,9E0,2.3E1,5E0,2E0,5E0,5E0,5E0,5E0,1.3E1,1.1E1,2.2E1,6E0,2E0,6E0,-2.2059213E-2,1.0174078E-1,-2.284309E-2,-1.0828866E-1,-1.2271439E-1,-1.0909721E-2,7.395478E-2,1.3781513E-2,-2.2929959E-2,-6.1743535E-2,1.1370269E-1,-5.4556668E-2,-7.892426E-2,1.7278118E-2,-1.4631094E-1,-6.8573296E-2],"split_indices":[1,1,1,0,0,0,0,1,1,1,1,1,0,0,0,0,0,0,0,0,0,0,0,0,0,0,0,0,0,0,0],"split_type":[0,0,0,0,0,0,0,0,0,0,0,0,0,0,0,0,0,0,0,0,0,0,0,0,0,0,0,0,0,0,0],"sum_hessian":[4.626E3,3.949E3,6.77E2,1.191E3,2.758E3,5.61E2,1.16E2,5.9E2,6.01E2,3.13E2,2.445E3,3.38E2,2.23E2,4.4E1,7.2E1,4.03E2,1.87E2,3.86E2,2.15E2,1.06E2,2.07E2,3.72E2,2.073E3,1.61E2,1.77E2,9.3E1,1.3E2,2.1E1,2.3E1,2.5E1,4.7E1],"tree_param":{"num_deleted":"0","num_feature":"2","num_nodes":"31","size_leaf_vector":"1"}},{"base_weights":[-1.6967076E-3,4.2704195E-2,-2.60372E-1,-1.662658E-1,1.3297224E-1,-1.7882623E-1,-6.4984524E-1,1.5569882E-1,-4.8207113E-1,-4.4181672E-1,2.0670517E-1,-3.9064792E-1,1.4254156E-1,-2.6570147E-1,-8.777442E-1,-1.985874E-2,9.1620915E-2,-2.0564703E-2,-9.750992E-2,-1.1055758E-1,-9.823963E-3,6.657905E-2,1.2404098E-2,-2.0651098E-2,-5.560386E-2,1.0245335E-1,-4.9142633E-2,-7.139059E-2,1.5622347E-2,-1.322426E-1,-6.185886E-2],"categories":[],"categories_nodes":[],"categories_segments":[],"categories_sizes":[],"default_left":[0,0,0,0,0,0,0,0,0,0,0,0,0,0,0,0,0,0,0,0,0,0,0,0,0,0,0,0,0,0,0],"id":35,"left_children":[1,3,5,7,9,11,13,15,17,19,21,23,25,27,29,-1,-1,-1,-1,-1,-1,-1,-1,-1,-1,-1,-1,-1,-1,-1,-1],"loss_changes":[5.3154144E1,7.453219E1,2.1417004E1,1.2127539E2,1.17020164E2,3.8312523E1,1.0009659E1,1.5941998E2,8.184294E1,7.1499855E1,9.274293E1,1.0209255E1,1.2575412E2,8.621416E0,7.594612E0,0E0,0E0,0E0,0E0,0E0,0E0,0E0,0E0,0E0,0E0,0E0,0E0,0E0,0E0,0E0,0E0],"parents":[2147483647,0,0,1,1,2,2,3,3,4,4,5,5,6,6,7,7,8,8,9,9,10,10,11,11,12,12,13,13,14,14],"right_children":[2,4,6,8,10,12,14,16,18,20,22,24,26,28,30,-1,-1,-1,-1,-1,-1,-1,-1,-1,-1,-1,-1,-1,-1,-1,-1],"split_conditions":[2.1E1,9E0,2.3E1,5E0,2E0,5E0,5E0,5E0,5E0,1.3E1,1.1E1,2.2E1,6E0,2E0,6E0,-1.985874E-2,9.1620915E-2,-2.0564703E-2,-9.750992E-2,-1.1055758E-1,-9.823963E-3,6.657905E-2,1.2404098E-2,-2.0651098E-2,-5.560386E-2,1.0245335E-1,-4.9142633E-2,-7.139059E-2,1.5622347E-2,-1.322426E-1,-6.185886E-2],"split_indices":[1,1,1,0,0,0,0,1,1,1,1,1,0,0,0,0,0,0,0,0,0,0,0,0,0,0,0,0,0,0,0],"split_type":[0,0,0,0,0,0,0,0,0,0,0,0,0,0,0,0,0,0,0,0,0,0,0,0,0,0,0,0,0,0,0],"sum_hessian":[4.626E3,3.949E3,6.77E2,1.191E3,2.758E3,5.61E2,1.16E2,5.9E2,6.01E2,3.13E2,2.445E3,3.38E2,2.23E2,4.4E1,7.2E1,4.03E2,1.87E2,3.86E2,2.15E2,1.06E2,2.07E2,3.72E2,2.073E3,1.61E2,1.77E2,9.3E1,1.3E2,2.1E1,2.3E1,2.5E1,4.7E1],"tree_param":{"num_deleted":"0","num_feature":"2","num_nodes":"31","size_leaf_vector":"1"}},{"base_weights":[-1.60483E-3,3.84117E-2,-2.3473711E-1,-1.4967817E-1,1.19660236E-1,-1.6098435E-1,-5.8699626E-1,1.4025012E-1,-4.3406013E-1,-2.5756411E-2,3.795267E-1,-3.518081E-1,1.2852561E-1,-2.4037045E-1,-7.9262865E-1,-1.7877793E-2,8.2507506E-2,-1.8513562E-2,-8.780404E-2,1.1879384E-2,-4.2123303E-2,7.409152E-2,-2.8634975E-2,-1.8598752E-2,-5.0074697E-2,9.231704E-2,-4.4265863E-2,-6.457603E-2,1.4125233E-2,-1.19527E-1,-5.5801816E-2],"categories":[],"categories_nodes":[],"categories_segments":[],"categories_sizes":[],"default_left":[0,0,0,0,0,0,0,0,0,0,0,0,0,0,0,0,0,0,0,0,0,0,0,0,0,0,0,0,0,0,0],"id":36,"left_children":[1,3,5,7,9,11,13,15,17,19,21,23,25,27,29,-1,-1,-1,-1,-1,-1,-1,-1,-1,-1,-1,-1,-1,-1,-1,-1],"loss_changes":[4.3174973E1,6.0381912E1,1.752E1,9.834172E1,1.04269394E2,3.1093117E1,8.148945E0,1.2926822E2,6.636901E1,1.0123429E2,2.384458E2,8.279194E0,1.0207969E2,7.052985E0,6.228878E0,0E0,0E0,0E0,0E0,0E0,0E0,0E0,0E0,0E0,0E0,0E0,0E0,0E0,0E0,0E0,0E0],"parents":[2147483647,0,0,1,1,2,2,3,3,4,4,5,5,6,6,7,7,8,8,9,9,10,10,11,11,12,12,13,13,14,14],"right_children":[2,4,6,8,10,12,14,16,18,20,22,24,26,28,30,-1,-1,-1,-1,-1,-1,-1,-1,-1,-1,-1,-1,-1,-1,-1,-1],"split_conditions":[2.1E1,9E0,2.3E1,5E0,6E0,5E0,5E0,5E0,5E0,5E0,1.6E1,2.2E1,6E0,2E0,6E0,-1.7877793E-2,8.2507506E-2,-1.8513562E-2,-8.780404E-2,1.1879384E-2,-4.2123303E-2,7.409152E-2,-2.8634975E-2,-1.8598752E-2,-5.0074697E-2,9.231704E-2,-4.4265863E-2,-6.457603E-2,1.4125233E-2,-1.19527E-1,-5.5801816E-2],"split_indices":[1,1,1,0,0,0,0,1,1,0,1,1,0,0,0,0,0,0,0,0,0,0,0,0,0,0,0,0,0,0,0],"split_type":[0,0,0,0,0,0,0,0,0,0,0,0,0,0,0,0,0,0,0,0,0,0,0,0,0,0,0,0,0,0,0],"sum_hessian":[4.626E3,3.949E3,6.77E2,1.191E3,2.758E3,5.61E2,1.16E2,5.9E2,6.01E2,1.769E3,9.89E2,3.38E2,2.23E2,4.4E1,7.2E1,4.03E2,1.87E2,3.86E2,2.15E2,1.296E3,4.73E2,6.41E2,3.48E2,1.61E2,1.77E2,9.3E1,1.3E2,2.1E1,2.3E1,2.5E1,4.7E1],"tree_param":{"num_deleted":"0","num_feature":"2","num_nodes":"31","size_leaf_vector":"1"}},{"base_weights":[-1.5031361E-3,3.4564063E-2,-2.1162693E-1,-1.3474545E-1,1.0770012E-1,-1.449227E-1,-5.302265E-1,1.263342E-1,-3.9083073E-1,-4.098593E-1,1.7409666E-1,-3.1683004E-1,1.15887634E-1,-2.1745436E-1,-7.1576786E-1,-1.609445E-2,7.430058E-2,-1.7978426E-2,-8.205428E-2,-1.0078194E-1,-1.0028433E-2,5.725391E-2,1.0235457E-2,-1.6750386E-2,-4.5095373E-2,8.318358E-2,-3.987308E-2,-5.8411945E-2,1.2771591E-2,-1.0803403E-1,-5.033793E-2],"categories":[],"categories_nodes":[],"categories_segments":[],"categories_sizes":[],"default_left":[0,0,0,0,0,0,0,0,0,0,0,0,0,0,0,0,0,0,0,0,0,0,0,0,0,0,0,0,0,0,0],"id":37,"left_children":[1,3,5,7,9,11,13,15,17,19,21,23,25,27,29,-1,-1,-1,-1,-1,-1,-1,-1,-1,-1,-1,-1,-1,-1,-1,-1],"loss_changes":[3.5073383E1,4.89259E1,1.4331972E1,7.974489E1,9.4882065E1,2.5234108E1,6.634117E0,1.0481914E2,5.444738E1,5.8024567E1,6.986054E1,6.714016E0,8.286225E1,5.769886E0,5.1086464E0,0E0,0E0,0E0,0E0,0E0,0E0,0E0,0E0,0E0,0E0,0E0,0E0,0E0,0E0,0E0,0E0],"parents":[2147483647,0,0,1,1,2,2,3,3,4,4,5,5,6,6,7,7,8,8,9,9,10,10,11,11,12,12,13,13,14,14],"right_children":[2,4,6,8,10,12,14,16,18,20,22,24,26,28,30,-1,-1,-1,-1,-1,-1,-1,-1,-1,-1,-1,-1,-1,-1,-1,-1],"split_conditions":[2.1E1,9E0,2.3E1,5E0,2E0,5E0,5E0,5E0,6E0,1.3E1,1.1E1,2.2E1,6E0,2E0,6E0,-1.609445E-2,7.430058E-2,-1.7978426E-2,-8.205428E-2,-1.0078194E-1,-1.0028433E-2,5.725391E-2,1.0235457E-2,-1.6750386E-2,-4.5095373E-2,8.318358E-2,-3.987308E-2,-5.8411945E-2,1.2771591E-2,-1.0803403E-1,-5.033793E-2],"split_indices":[1,1,1,0,0,0,0,1,1,1,1,1,0,0,0,0,0,0,0,0,0,0,0,0,0,0,0,0,0,0,0],"split_type":[0,0,0,0,0,0,0,0,0,0,0,0,0,0,0,0,0,0,0,0,0,0,0,0,0,0,0,0,0,0,0],"sum_hessian":[4.626E3,3.949E3,6.77E2,1.191E3,2.758E3,5.61E2,1.16E2,5.9E2,6.01E2,3.13E2,2.445E3,3.38E2,2.23E2,4.4E1,7.2E1,4.03E2,1.87E2,4.04E2,1.97E2,1.06E2,2.07E2,3.72E2,2.073E3,1.61E2,1.77E2,9.3E1,1.3E2,2.1E1,2.3E1,2.5E1,4.7E1],"tree_param":{"num_deleted":"0","num_feature":"2","num_nodes":"31","size_leaf_vector":"1"}},{"base_weights":[-1.4192107E-3,-2.2422348E-1,2.6723118E-2,-1.014493E-1,-2.504384E-1,8.779833E-2,-1.3575093E-1,-2.1141651E-1,2.2351544E-2,-1.2037191E-1,-2.9301372E-1,2.4368873E-1,-4.4074297E-2,-1.0704363E-1,-1.5040551E-1,2.7707329E-3,-7.0126556E-2,-1.6534116E-2,7.166127E-3,-9.186896E-2,-2.3936084E-2,-6.4997077E-3,6.1017204E-2,-5.4385193E-2,1.733171E-2,-2.5487794E-2,1.0658647E-2],"categories":[],"categories_nodes":[],"categories_segments":[],"categories_sizes":[],"default_left":[0,0,0,0,0,0,0,0,0,0,0,0,0,0,0,0,0,0,0,0,0,0,0,0,0,0,0],"id":38,"left_children":[1,3,5,7,9,11,13,15,-1,17,19,21,23,25,-1,-1,-1,-1,-1,-1,-1,-1,-1,-1,-1,-1,-1],"loss_changes":[2.901835E1,1.6450043E0,4.0786087E1,3.3706532E0,2.329296E0,6.1416527E1,4.3950806E1,8.21885E0,0E0,9.3585634E-1,1.0555855E1,1.5491217E2,1.7599432E2,3.479879E1,0E0,0E0,0E0,0E0,0E0,0E0,0E0,0E0,0E0,0E0,0E0,0E0,0E0],"parents":[2147483647,0,0,1,1,2,2,3,3,4,4,5,5,6,6,7,7,9,9,10,10,11,11,12,12,13,13],"right_children":[2,4,6,8,10,12,14,16,-1,18,20,22,24,26,-1,-1,-1,-1,-1,-1,-1,-1,-1,-1,-1,-1,-1],"split_conditions":[4E0,1E0,1.9E1,7E0,2E0,5E0,7E0,6E0,2.2351544E-2,3E0,3E0,1.3E1,6E0,5E0,-1.5040551E-1,2.7707329E-3,-7.0126556E-2,-1.6534116E-2,7.166127E-3,-9.186896E-2,-2.3936084E-2,-6.4997077E-3,6.1017204E-2,-5.4385193E-2,1.733171E-2,-2.5487794E-2,1.0658647E-2],"split_indices":[1,1,1,0,0,0,0,0,0,1,0,1,0,0,0,0,0,0,0,0,0,0,0,0,0,0,0],"split_type":[0,0,0,0,0,0,0,0,0,0,0,0,0,0,0,0,0,0,0,0,0,0,0,0,0,0,0],"sum_hessian":[4.626E3,5.18E2,4.108E3,9.2E1,4.26E2,2.986E3,1.122E3,6.9E1,2.3E1,1.06E2,3.2E2,1.368E3,1.618E3,1.1E3,2.2E1,4.7E1,2.2E1,8.6E1,2E1,2.4E1,2.96E2,7.43E2,6.25E2,4.9E2,1.128E3,6.5E2,4.5E2],"tree_param":{"num_deleted":"0","num_feature":"2","num_nodes":"27","size_leaf_vector":"1"}},{"base_weights":[-1.3459765E-3,1.0963192E-2,-4.7592133E-1,4.6394292E-2,-1.7082864E-1,-1.7180169E-1,-6.5687287E-1,-1.1834814E-2,2.462461E-1,-3.9148715E-1,2.8122416E-1,-5.0403327E-2,1.39902355E-2,-9.867097E-2,-4.645264E-2,-1.0770804E-2,8.724464E-3,-4.301123E-2,4.255071E-2,-1.6595637E-2,-2.4408905E-1,1.987977E-1,-6.387456E-2],"categories":[],"categories_nodes":[],"categories_segments":[],"categories_sizes":[],"default_left":[0,0,0,0,0,0,0,0,0,0,0,0,0,0,0,0,0,0,0,0,0,0,0],"id":39,"left_children":[1,3,5,7,9,11,13,15,17,19,21,-1,-1,-1,-1,-1,-1,-1,-1,-1,-1,-1,-1],"loss_changes":[2.7034431E1,2.9063658E1,6.3257675E0,4.3944946E1,7.352558E1,4.730623E0,4.1729813E0,2.7794168E1,1.0348349E2,2.2838568E2,3.8124875E2,0E0,0E0,0E0,0E0,0E0,0E0,0E0,0E0,0E0,0E0,0E0,0E0],"parents":[2147483647,0,0,1,1,2,2,3,3,4,4,5,5,6,6,7,7,8,8,9,9,10,10],"right_children":[2,4,6,8,10,12,14,16,18,20,22,-1,-1,-1,-1,-1,-1,-1,-1,-1,-1,-1,-1],"split_conditions":[2.3E1,7E0,5E0,6E0,1.4E1,2E0,6E0,1.5E1,9E0,1.3E1,1.6E1,-5.0403327E-2,1.39902355E-2,-9.867097E-2,-4.645264E-2,-1.0770804E-2,8.724464E-3,-4.301123E-2,4.255071E-2,-1.6595637E-2,-2.4408905E-1,1.987977E-1,-6.387456E-2],"split_indices":[1,0,0,0,1,0,0,1,1,1,1,0,0,0,0,0,0,0,0,0,0,0,0],"split_type":[0,0,0,0,0,0,0,0,0,0,0,0,0,0,0,0,0,0,0,0,0,0,0],"sum_hessian":[4.626E3,4.51E3,1.16E2,3.775E3,7.35E2,4.4E1,7.2E1,2.924E3,8.51E2,4.94E2,2.41E2,2.1E1,2.3E1,2.5E1,4.7E1,1.486E3,1.438E3,1.78E2,6.73E2,4.46E2,4.8E1,8.4E1,1.57E2],"tree_param":{"num_deleted":"0","num_feature":"2","num_nodes":"23","size_leaf_vector":"1"}},{"base_weights":[-1.2782904E-3,3.6796078E-2,-1.5898937E-1,8.368135E-2,-1.5391643E-1,-2.7666184E-1,-8.6472003E-4,7.2360113E-3,3.4369728E-1,-3.528649E-1,2.536596E-1,-1.7559624E-1,-3.818433E-1,3.8960463E-1,-2.9548764E-1,1.3240038E-2,-3.8411077E-2,-3.873412E-2,6.036817E-2,-1.4939767E-2,-2.2017829E-1,1.7915186E-1,-5.75275E-2,-3.02299E-3,-3.8663592E-2,-5.8369316E-2,-1.9685214E-2,6.231351E-2,-8.9183375E-2,2.1102678E-2,-4.1618787E-2],"categories":[],"categories_nodes":[],"categories_segments":[],"categories_sizes":[],"default_left":[0,0,0,0,0,0,0,0,0,0,0,0,0,0,0,0,0,0,0,0,0,0,0,0,0,0,0,0,0,0,0],"id":40,"left_children":[1,3,5,7,9,11,13,15,17,19,21,23,25,27,29,-1,-1,-1,-1,-1,-1,-1,-1,-1,-1,-1,-1,-1,-1,-1,-1],"loss_changes":[2.778983E1,3.334719E1,1.6745987E1,5.9489388E1,5.9769264E1,5.418148E0,4.4405994E1,1.13396736E2,1.294737E2,1.8588718E2,3.0952847E2,8.118E0,9.294888E0,5.023204E1,1.3537832E1,0E0,0E0,0E0,0E0,0E0,0E0,0E0,0E0,0E0,0E0,0E0,0E0,0E0,0E0,0E0,0E0],"parents":[2147483647,0,0,1,1,2,2,3,3,4,4,5,5,6,6,7,7,8,8,9,9,10,10,11,11,12,12,13,13,14,14],"right_children":[2,4,6,8,10,12,14,16,18,20,22,24,26,28,30,-1,-1,-1,-1,-1,-1,-1,-1,-1,-1,-1,-1,-1,-1,-1,-1],"split_conditions":[2E1,7E0,5E0,6E0,1.4E1,3E0,6E0,5E0,9E0,1.3E1,1.6E1,2.2E1,4E0,2.3E1,2.1E1,1.3240038E-2,-3.8411077E-2,-3.873412E-2,6.036817E-2,-1.4939767E-2,-2.2017829E-1,1.7915186E-1,-5.75275E-2,-3.02299E-3,-3.8663592E-2,-5.8369316E-2,-1.9685214E-2,6.231351E-2,-8.9183375E-2,2.1102678E-2,-4.1618787E-2],"split_indices":[1,0,0,0,1,0,0,0,1,1,1,1,0,1,1,0,0,0,0,0,0,0,0,0,0,0,0,0,0,0,0],"split_type":[0,0,0,0,0,0,0,0,0,0,0,0,0,0,0,0,0,0,0,0,0,0,0,0,0,0,0,0,0,0,0],"sum_hessian":[4.626E3,3.727E3,8.99E2,2.992E3,7.35E2,5.15E2,3.84E2,2.313E3,6.79E2,4.94E2,2.41E2,2.64E2,2.51E2,1.65E2,2.19E2,1.753E3,5.6E2,1.78E2,5.01E2,4.46E2,4.8E1,8.4E1,1.57E2,1.57E2,1.07E2,1.19E2,1.32E2,1.4E2,2.5E1,4.2E1,1.77E2],"tree_param":{"num_deleted":"0","num_feature":"2","num_nodes":"31","size_leaf_vector":"1"}},{"base_weights":[-1.212053E-3,3.3084866E-2,-1.4327615E-1,-1.789543E-1,6.7357525E-2,-2.4922775E-1,-9.0136094E-4,-2.6107842E-1,-1.0166023E-1,1.8254675E-1,-3.417262E-2,-1.581938E-1,-3.439689E-1,3.5048273E-1,-2.6603255E-1,-1.9755498E-2,-5.2561384E-2,2.1989102E-2,-1.707269E-2,-6.0972255E-3,4.203859E-2,-3.979203E-2,1.224442E-2,-2.722585E-3,-3.483303E-2,-6.42277E-2,-2.2798238E-2,5.6126397E-2,-8.060801E-2,1.9041462E-2,-3.7480332E-2],"categories":[],"categories_nodes":[],"categories_segments":[],"categories_sizes":[],"default_left":[0,0,0,0,0,0,0,0,0,0,0,0,0,0,0,0,0,0,0,0,0,0,0,0,0,0,0,0,0,0,0],"id":41,"left_children":[1,3,5,7,9,11,13,15,17,19,21,23,25,27,29,-1,-1,-1,-1,-1,-1,-1,-1,-1,-1,-1,-1,-1,-1,-1,-1],"loss_changes":[2.2549154E1,2.7103973E1,1.3576128E1,3.2679195E0,3.7547764E1,4.395912E0,3.596095E1,4.1140137E0,6.0116196E0,8.713483E1,9.7294815E1,6.58949E0,8.5727005E0,4.0920185E1,1.0993951E1,0E0,0E0,0E0,0E0,0E0,0E0,0E0,0E0,0E0,0E0,0E0,0E0,0E0,0E0,0E0,0E0],"parents":[2147483647,0,0,1,1,2,2,3,3,4,4,5,5,6,6,7,7,8,8,9,9,10,10,11,11,12,12,13,13,14,14],"right_children":[2,4,6,8,10,12,14,16,18,20,22,24,26,28,30,-1,-1,-1,-1,-1,-1,-1,-1,-1,-1,-1,-1,-1,-1,-1,-1],"split_conditions":[2E1,4E0,5E0,5E0,5E0,3E0,6E0,4E0,6E0,1.3E1,6E0,2.2E1,2.1E1,2.3E1,2.1E1,-1.9755498E-2,-5.2561384E-2,2.1989102E-2,-1.707269E-2,-6.0972255E-3,4.203859E-2,-3.979203E-2,1.224442E-2,-2.722585E-3,-3.483303E-2,-6.42277E-2,-2.2798238E-2,5.6126397E-2,-8.060801E-2,1.9041462E-2,-3.7480332E-2],"split_indices":[1,1,0,0,0,0,0,0,0,1,0,1,1,1,1,0,0,0,0,0,0,0,0,0,0,0,0,0,0,0,0],"split_type":[0,0,0,0,0,0,0,0,0,0,0,0,0,0,0,0,0,0,0,0,0,0,0,0,0,0,0,0,0,0,0],"sum_hessian":[4.626E3,3.727E3,8.99E2,5.18E2,3.209E3,5.15E2,3.84E2,2.5E2,2.68E2,1.503E3,1.706E3,2.64E2,2.51E2,1.65E2,2.19E2,2.03E2,4.7E1,4.7E1,2.21E2,7.43E2,7.6E2,5.13E2,1.193E3,1.57E2,1.07E2,6.9E1,1.82E2,1.4E2,2.5E1,4.2E1,1.77E2],"tree_param":{"num_deleted":"0","num_feature":"2","num_nodes":"31","size_leaf_vector":"1"}},{"base_weights":[-1.1398596E-3,4.2474877E-2,-1.0211528E-1,-1.669396E-2,2.3695375E-1,-6.797314E-2,-7.111415E-1,5.3492058E-2,-2.851162E-1,5.7013303E-1,-5.6203566E-2,-2.3724839E-1,5.466361E-2,-4.5656934E-2,-1.2557769E-1,-7.5428598E-3,2.517113E-2,-6.281608E-2,1.4794928E-2,8.849173E-3,2.6632023E-1,-7.533985E-2,3.1514045E-2,-5.6569416E-2,-1.759462E-2,2.5010744E-2,-2.3963511E-2],"categories":[],"categories_nodes":[],"categories_segments":[],"categories_sizes":[],"default_left":[0,0,0,0,0,0,0,0,0,0,0,0,0,0,0,0,0,0,0,0,0,0,0,0,0,0,0],"id":42,"left_children":[1,3,5,7,9,11,13,15,17,19,21,23,25,-1,-1,-1,-1,-1,-1,-1,-1,-1,-1,-1,-1,-1,-1],"loss_changes":[2.0381721E1,3.719487E1,2.897934E1,4.671834E1,7.36782E1,2.747761E1,9.68668E0,5.0259247E1,7.6453186E1,3.5562668E2,1.0431489E2,1.1095219E1,4.423442E1,0E0,0E0,0E0,0E0,0E0,0E0,0E0,0E0,0E0,0E0,0E0,0E0,0E0,0E0],"parents":[2147483647,0,0,1,1,2,2,3,3,4,4,5,5,6,6,7,7,8,8,9,9,10,10,11,11,12,12],"right_children":[2,4,6,8,10,12,14,16,18,20,22,24,26,-1,-1,-1,-1,-1,-1,-1,-1,-1,-1,-1,-1,-1,-1],"split_conditions":[1.8E1,1.5E1,7E0,1.2E1,5E0,4E0,1.9E1,9E0,6E0,4E0,6E0,1.9E1,6E0,-4.5656934E-2,-1.2557769E-1,-7.5428598E-3,2.517113E-2,-6.281608E-2,1.4794928E-2,8.849173E-3,2.6632023E-1,-7.533985E-2,3.1514045E-2,-5.6569416E-2,-1.759462E-2,2.5010744E-2,-2.3963511E-2],"split_indices":[1,1,0,1,0,0,1,1,0,0,0,1,0,0,0,0,0,0,0,0,0,0,0,0,0,0,0],"split_type":[0,0,0,0,0,0,0,0,0,0,0,0,0,0,0,0,0,0,0,0,0,0,0,0,0,0,0],"sum_hessian":[4.626E3,3.231E3,1.395E3,2.478E3,7.53E2,1.322E3,7.3E1,1.965E3,5.13E2,3.52E2,4.01E2,5.55E2,7.67E2,5.1E1,2.2E1,1.191E3,7.74E2,2.86E2,2.27E2,2.87E2,6.5E1,1.39E2,2.62E2,8.6E1,4.69E2,4.61E2,3.06E2],"tree_param":{"num_deleted":"0","num_feature":"2","num_nodes":"27","size_leaf_vector":"1"}},{"base_weights":[-1.0352466E-3,2.660501E-2,-1.4719671E-1,7.1904205E-2,-1.2406955E-1,-3.2566363E-1,2.1845749E-1,7.704399E-3,2.9026663E-1,-2.1788494E-1,1.989699E-3,-1.4001514E-1,-2.0125864E-1,1.5789016E0,-5.1480967E-1,1.0260659E-2,-2.890267E-2,-3.4252513E-2,5.1532533E-2,-1.2498794E-2,-3.1470966E-2,2.9042652E-2,-2.1565806E-2,-3.473142E-2,6.6366404E-2,7.718161E-2,2.2463913E-1,-4.060278E-2,-1.13565885E-1],"categories":[],"categories_nodes":[],"categories_segments":[],"categories_sizes":[],"default_left":[0,0,0,0,0,0,0,0,0,0,0,0,0,0,0,0,0,0,0,0,0,0,0,0,0,0,0,0,0],"id":43,"left_children":[1,3,5,7,9,11,13,15,17,19,21,23,-1,25,27,-1,-1,-1,-1,-1,-1,-1,-1,-1,-1,-1,-1,-1,-1],"loss_changes":[1.869672E1,2.657352E1,4.810042E1,4.195611E1,1.06441E1,1.5473965E2,2.4222453E2,6.51929E1,9.701889E1,4.601944E0,2.423202E1,7.470158E1,0E0,4.405751E1,1.0209759E1,0E0,0E0,0E0,0E0,0E0,0E0,0E0,0E0,0E0,0E0,0E0,0E0,0E0,0E0],"parents":[2147483647,0,0,1,1,2,2,3,3,4,4,5,5,6,6,7,7,8,8,9,9,10,10,11,11,13,13,14,14],"right_children":[2,4,6,8,10,12,14,16,18,20,22,24,-1,26,28,-1,-1,-1,-1,-1,-1,-1,-1,-1,-1,-1,-1,-1,-1],"split_conditions":[7E0,2E1,1.4E1,6E0,5E0,1.3E1,1.6E1,5E0,9E0,3E0,6E0,1.1E1,-2.0125864E-1,1.5E1,1.9E1,1.0260659E-2,-2.890267E-2,-3.4252513E-2,5.1532533E-2,-1.2498794E-2,-3.1470966E-2,2.9042652E-2,-2.1565806E-2,-3.473142E-2,6.6366404E-2,7.718161E-2,2.2463913E-1,-4.060278E-2,-1.13565885E-1],"split_indices":[0,1,1,0,0,1,1,0,1,0,0,1,0,1,1,0,0,0,0,0,0,0,0,0,0,0,0,0,0],"split_type":[0,0,0,0,0,0,0,0,0,0,0,0,0,0,0,0,0,0,0,0,0,0,0,0,0,0,0,0,0],"sum_hessian":[4.626E3,3.891E3,7.35E2,2.992E3,8.99E2,4.94E2,2.41E2,2.313E3,6.79E2,5.15E2,3.84E2,4.46E2,4.8E1,8.4E1,1.57E2,1.753E3,5.6E2,1.78E2,5.01E2,2.64E2,2.51E2,1.65E2,2.19E2,3.55E2,9.1E1,3.9E1,4.5E1,1.35E2,2.2E1],"tree_param":{"num_deleted":"0","num_feature":"2","num_nodes":"29","size_leaf_vector":"1"}},{"base_weights":[-9.449382E-4,2.393444E-2,-1.3250689E-1,1.4296499E-1,-3.2502584E-2,-2.9344004E-1,1.972221E-1,9.747182E-3,4.8625845E-1,-3.4010464E-1,2.1102974E-2,-1.2594286E-1,-1.8154359E-1,1.4245622E0,-4.643041E-1,4.0727533E-2,-8.978579E-3,-4.5972075E-2,1.3822374E-1,-2.9040321E-3,-1.248122E-1,1.3475291E-2,-1.2765439E-2,-3.126804E-2,5.9801925E-2,6.965648E-2,2.026635E-1,-3.6572304E-2,-1.0270311E-1],"categories":[],"categories_nodes":[],"categories_segments":[],"categories_sizes":[],"default_left":[0,0,0,0,0,0,0,0,0,0,0,0,0,0,0,0,0,0,0,0,0,0,0,0,0,0,0,0,0],"id":44,"left_children":[1,3,5,7,9,11,13,15,17,19,21,23,-1,25,27,-1,-1,-1,-1,-1,-1,-1,-1,-1,-1,-1,-1,-1,-1],"loss_changes":[1.5148173E1,2.6150051E1,3.9113216E1,5.725273E1,4.35551E1,1.2596171E2,1.9714551E2,3.5765713E1,2.972875E2,1.1068486E2,3.80563E1,6.061732E1,0E0,3.5844437E1,8.38932E0,0E0,0E0,0E0,0E0,0E0,0E0,0E0,0E0,0E0,0E0,0E0,0E0,0E0,0E0],"parents":[2147483647,0,0,1,1,2,2,3,3,4,4,5,5,6,6,7,7,8,8,9,9,10,10,11,11,13,13,14,14],"right_children":[2,4,6,8,10,12,14,16,18,20,22,24,-1,26,28,-1,-1,-1,-1,-1,-1,-1,-1,-1,-1,-1,-1,-1,-1],"split_conditions":[7E0,1.1E1,1.4E1,9E0,1.3E1,1.3E1,1.6E1,2E0,5E0,1.2E1,5E0,1.1E1,-1.8154359E-1,1.5E1,1.9E1,4.0727533E-2,-8.978579E-3,-4.5972075E-2,1.3822374E-1,-2.9040321E-3,-1.248122E-1,1.3475291E-2,-1.2765439E-2,-3.126804E-2,5.9801925E-2,6.965648E-2,2.026635E-1,-3.6572304E-2,-1.0270311E-1],"split_indices":[0,1,1,1,1,1,1,0,0,1,0,1,0,1,1,0,0,0,0,0,0,0,0,0,0,0,0,0,0],"split_type":[0,0,0,0,0,0,0,0,0,0,0,0,0,0,0,0,0,0,0,0,0,0,0,0,0,0,0,0,0],"sum_hessian":[4.626E3,3.891E3,7.35E2,1.251E3,2.64E3,4.94E2,2.41E2,9.02E2,3.49E2,3.91E2,2.249E3,4.46E2,4.8E1,8.4E1,1.57E2,1.8E2,7.22E2,1.7E2,1.79E2,2.92E2,9.9E1,1.275E3,9.74E2,3.55E2,9.1E1,3.9E1,4.5E1,1.35E2,2.2E1],"tree_param":{"num_deleted":"0","num_feature":"2","num_nodes":"29","size_leaf_vector":"1"}},{"base_weights":[-8.5526175E-4,2.6452035E-2,-1.139672E-1,6.228057E-2,-1.1928336E-1,-2.0963077E-1,1.4542847E-2,5.7691582E-3,2.5449398E-1,-2.6440507E-1,1.7804942E-1,-1.2596071E-1,-2.9678527E-1,1.2533718E-1,-4.6070608E-1,9.28873E-3,-2.666212E-2,-2.9953567E-2,4.5153942E-2,-1.1328465E-2,-1.6375975E-1,1.28531E-1,-4.187556E-2,-8.007584E-4,-2.9735548E-2,-5.5666637E-2,-1.9575544E-2,4.6454083E-2,-1.5184809E-2,-7.682715E-2,-2.845101E-2],"categories":[],"categories_nodes":[],"categories_segments":[],"categories_sizes":[],"default_left":[0,0,0,0,0,0,0,0,0,0,0,0,0,0,0,0,0,0,0,0,0,0,0,0,0,0,0,0,0,0,0],"id":45,"left_children":[1,3,5,7,9,11,13,15,17,19,21,23,25,27,29,-1,-1,-1,-1,-1,-1,-1,-1,-1,-1,-1,-1,-1,-1,-1,-1],"loss_changes":[1.42948065E1,1.947313E1,1.1067405E1,3.250925E1,3.1805069E1,3.7254028E0,2.0329876E1,5.4936314E1,7.437018E1,1.0253563E2,1.6045634E2,5.355004E0,6.507477E0,2.9499504E1,3.73742E0,0E0,0E0,0E0,0E0,0E0,0E0,0E0,0E0,0E0,0E0,0E0,0E0,0E0,0E0,0E0,0E0],"parents":[2147483647,0,0,1,1,2,2,3,3,4,4,5,5,6,6,7,7,8,8,9,9,10,10,11,11,12,12,13,13,14,14],"right_children":[2,4,6,8,10,12,14,16,18,20,22,24,26,28,30,-1,-1,-1,-1,-1,-1,-1,-1,-1,-1,-1,-1,-1,-1,-1,-1],"split_conditions":[2E1,7E0,5E0,6E0,1.4E1,3E0,2.3E1,5E0,9E0,1.3E1,1.6E1,2.2E1,2.1E1,6E0,6E0,9.28873E-3,-2.666212E-2,-2.9953567E-2,4.5153942E-2,-1.1328465E-2,-1.6375975E-1,1.28531E-1,-4.187556E-2,-8.007584E-4,-2.9735548E-2,-5.5666637E-2,-1.9575544E-2,4.6454083E-2,-1.5184809E-2,-7.682715E-2,-2.845101E-2],"split_indices":[1,0,0,0,1,0,1,0,1,1,1,1,1,0,0,0,0,0,0,0,0,0,0,0,0,0,0,0,0,0,0],"split_type":[0,0,0,0,0,0,0,0,0,0,0,0,0,0,0,0,0,0,0,0,0,0,0,0,0,0,0,0,0,0,0],"sum_hessian":[4.626E3,3.727E3,8.99E2,2.992E3,7.35E2,5.15E2,3.84E2,2.313E3,6.79E2,4.94E2,2.41E2,2.64E2,2.51E2,3.12E2,7.2E1,1.753E3,5.6E2,1.78E2,5.01E2,4.46E2,4.8E1,8.4E1,1.57E2,1.57E2,1.07E2,6.9E1,1.82E2,1.4E2,1.72E2,2.5E1,4.7E1],"tree_param":{"num_deleted":"0","num_feature":"2","num_nodes":"31","size_leaf_vector":"1"}},{"base_weights":[-8.282135E-4,-1.4816432E-1,2.1244954E-2,3.5753527E-1,-3.6420086E-1,-1.15416646E-1,6.7124285E-2,-4.4430118E-2,1.3830241E0,-8.7890756E-1,-1.8931817E-1,-9.268712E-3,-2.3878248E-1,4.3575412E-1,1.5055377E-2,-1.4353883E-2,3.815324E-2,1.5534054E-1,1.1436915E-1,-7.917362E-2,-1.1628496E-1,7.470605E-2,-4.1535787E-2,-2.421519E-2,7.3390263E-3,-7.237254E-3,-5.7435628E-2,-2.0839974E-2,7.691523E-2,1.4017557E-2,-7.840191E-3],"categories":[],"categories_nodes":[],"categories_segments":[],"categories_sizes":[],"default_left":[0,0,0,0,0,0,0,0,0,0,0,0,0,0,0,0,0,0,0,0,0,0,0,0,0,0,0,0,0,0,0],"id":46,"left_children":[1,3,5,7,9,11,13,15,17,19,21,23,25,27,29,-1,-1,-1,-1,-1,-1,-1,-1,-1,-1,-1,-1,-1,-1,-1,-1],"loss_changes":[1.505096E1,6.600772E1,2.5244268E1,7.467163E1,3.7909225E1,1.3249955E1,5.784462E1,5.585138E0,3.030548E-1,1.7277603E0,6.740611E1,1.0508958E1,2.6092869E1,8.026565E1,3.0904938E1,0E0,0E0,0E0,0E0,0E0,0E0,0E0,0E0,0E0,0E0,0E0,0E0,0E0,0E0,0E0,0E0],"parents":[2147483647,0,0,1,1,2,2,3,3,4,4,5,5,6,6,7,7,8,8,9,9,10,10,11,11,12,12,13,13,14,14],"right_children":[2,4,6,8,10,12,14,16,18,20,22,24,26,28,30,-1,-1,-1,-1,-1,-1,-1,-1,-1,-1,-1,-1,-1,-1,-1,-1],"split_conditions":[2E0,8E0,9E0,5E0,1.3E1,6E0,1.1E1,4E0,7E0,1.2E1,1.6E1,3E0,5E0,5E0,5E0,-1.4353883E-2,3.815324E-2,1.5534054E-1,1.1436915E-1,-7.917362E-2,-1.1628496E-1,7.470605E-2,-4.1535787E-2,-2.421519E-2,7.3390263E-3,-7.237254E-3,-5.7435628E-2,-2.0839974E-2,7.691523E-2,1.4017557E-2,-7.840191E-3],"split_indices":[0,1,1,1,1,0,1,1,1,1,1,0,1,0,0,0,0,0,0,0,0,0,0,0,0,0,0,0,0,0,0],"split_type":[0,0,0,0,0,0,0,0,0,0,0,0,0,0,0,0,0,0,0,0,0,0,0,0,0,0,0,0,0,0,0],"sum_hessian":[4.626E3,6.02E2,4.024E3,1.8E2,4.22E2,1.011E3,3.013E3,1.3E2,5E1,1.06E2,3.16E2,5.44E2,4.67E2,3.72E2,2.641E3,1.06E2,2.4E1,2.6E1,2.4E1,8.4E1,2.2E1,6.1E1,2.55E2,1.42E2,4.02E2,3.13E2,1.54E2,1.27E2,2.45E2,1.129E3,1.512E3],"tree_param":{"num_deleted":"0","num_feature":"2","num_nodes":"31","size_leaf_vector":"1"}},{"base_weights":[-7.2090875E-4,-1.3313006E-1,1.911597E-2,3.2340345E-1,-3.281642E-1,-1.03955545E-1,6.043291E-2,-3.980546E-2,1.2500106E0,-7.928431E-1,-1.702815E-1,-8.372962E-3,-2.150422E-1,3.923286E-1,1.3552697E-2,-1.2931901E-2,3.4490477E-2,1.4038186E-1,1.0338978E-1,-9.612798E-2,-6.6465475E-2,6.7356035E-2,-3.7398428E-2,-1.9095503E-2,9.067825E-3,-6.515817E-3,-5.172909E-2,5.9981238E-2,-5.642364E-2,1.2617083E-2,-7.0566298E-3],"categories":[],"categories_nodes":[],"categories_segments":[],"categories_sizes":[],"default_left":[0,0,0,0,0,0,0,0,0,0,0,0,0,0,0,0,0,0,0,0,0,0,0,0,0,0,0,0,0,0,0],"id":47,"left_children":[1,3,5,7,9,11,13,15,17,19,21,23,25,27,29,-1,-1,-1,-1,-1,-1,-1,-1,-1,-1,-1,-1,-1,-1,-1,-1],"loss_changes":[1.2155749E1,5.379702E1,2.047316E1,6.0965668E1,3.0898285E1,1.0743566E1,4.6890537E1,4.5558214E0,2.4382019E-1,1.6713867E0,5.474195E1,9.873628E0,2.1167746E1,7.436839E1,2.5037424E1,0E0,0E0,0E0,0E0,0E0,0E0,0E0,0E0,0E0,0E0,0E0,0E0,0E0,0E0,0E0,0E0],"parents":[2147483647,0,0,1,1,2,2,3,3,4,4,5,5,6,6,7,7,8,8,9,9,10,10,11,11,12,12,13,13,14,14],"right_children":[2,4,6,8,10,12,14,16,18,20,22,24,26,28,30,-1,-1,-1,-1,-1,-1,-1,-1,-1,-1,-1,-1,-1,-1,-1,-1],"split_conditions":[2E0,8E0,9E0,5E0,1.3E1,6E0,1.1E1,4E0,7E0,1E1,1.6E1,2E0,5E0,7E0,5E0,-1.2931901E-2,3.4490477E-2,1.4038186E-1,1.0338978E-1,-9.612798E-2,-6.6465475E-2,6.7356035E-2,-3.7398428E-2,-1.9095503E-2,9.067825E-3,-6.515817E-3,-5.172909E-2,5.9981238E-2,-5.642364E-2,1.2617083E-2,-7.0566298E-3],"split_indices":[0,1,1,1,1,0,1,1,1,1,1,1,1,0,0,0,0,0,0,0,0,0,0,0,0,0,0,0,0,0,0],"split_type":[0,0,0,0,0,0,0,0,0,0,0,0,0,0,0,0,0,0,0,0,0,0,0,0,0,0,0,0,0,0,0],"sum_hessian":[4.626E3,6.02E2,4.024E3,1.8E2,4.22E2,1.011E3,3.013E3,1.3E2,5E1,1.06E2,3.16E2,5.44E2,4.67E2,3.72E2,2.641E3,1.06E2,2.4E1,2.6E1,2.4E1,4.3E1,6.3E1,6.1E1,2.55E2,1.91E2,3.53E2,3.13E2,1.54E2,3.06E2,6.6E1,1.129E3,1.512E3],"tree_param":{"num_deleted":"0","num_feature":"2","num_nodes":"31","size_leaf_vector":"1"}},{"base_weights":[-6.327723E-4,2.2517078E-2,-9.652389E-2,-1.3645685E-1,4.566028E-2,-1.8906331E-1,2.7753687E-2,2.9252884E-1,-4.0009615E-1,-1.01919614E-1,1.06078E-1,-8.86237E-2,-2.9393408E-1,1.2775175E-1,-4.0138534E-1,-3.5660428E-3,1.1297889E-1,-1.9954998E-2,-7.538992E-2,-7.553906E-4,-2.295997E-2,3.0381236E-2,5.965093E-3,1.1088935E-3,-2.3367902E-2,-5.280484E-2,-2.0277597E-2,4.3320652E-2,-1.21941175E-2,-6.800759E-2,-2.4206579E-2],"categories":[],"categories_nodes":[],"categories_segments":[],"categories_sizes":[],"default_left":[0,0,0,0,0,0,0,0,0,0,0,0,0,0,0,0,0,0,0,0,0,0,0,0,0,0,0,0,0,0,0],"id":48,"left_children":[1,3,5,7,9,11,13,15,17,19,21,23,25,27,29,-1,-1,-1,-1,-1,-1,-1,-1,-1,-1,-1,-1,-1,-1,-1,-1],"loss_changes":[1.0273489E1,1.3722161E1,1.0355766E1,5.3725246E1,2.9033823E1,5.409069E0,1.6572811E1,4.9775425E1,2.0709991E1,1.1396263E1,2.1188202E1,3.8355112E0,5.2709618E0,2.3925303E1,3.0766401E0,0E0,0E0,0E0,0E0,0E0,0E0,0E0,0E0,0E0,0E0,0E0,0E0,0E0,0E0,0E0,0E0],"parents":[2147483647,0,0,1,1,2,2,3,3,4,4,5,5,6,6,7,7,8,8,9,9,10,10,11,11,12,12,13,13,14,14],"right_children":[2,4,6,8,10,12,14,16,18,20,22,24,26,28,30,-1,-1,-1,-1,-1,-1,-1,-1,-1,-1,-1,-1,-1,-1,-1,-1],"split_conditions":[2E1,2E0,5E0,8E0,8E0,3E0,2.3E1,5E0,1.7E1,6E0,1.1E1,2.2E1,2.1E1,6E0,6E0,-3.5660428E-3,1.1297889E-1,-1.9954998E-2,-7.538992E-2,-7.553906E-4,-2.295997E-2,3.0381236E-2,5.965093E-3,1.1088935E-3,-2.3367902E-2,-5.280484E-2,-2.0277597E-2,4.3320652E-2,-1.21941175E-2,-6.800759E-2,-2.4206579E-2],"split_indices":[1,0,0,1,1,0,1,1,1,0,1,1,1,0,0,0,0,0,0,0,0,0,0,0,0,0,0,0,0,0,0],"split_type":[0,0,0,0,0,0,0,0,0,0,0,0,0,0,0,0,0,0,0,0,0,0,0,0,0,0,0,0,0,0,0],"sum_hessian":[4.626E3,3.727E3,8.99E2,4.73E2,3.254E3,5.15E2,3.84E2,1.8E2,2.93E2,9.45E2,2.309E3,2.64E2,2.51E2,3.12E2,7.2E1,1.3E2,5E1,1.88E2,1.05E2,5.44E2,4.01E2,4.38E2,1.871E3,1.57E2,1.07E2,6.9E1,1.82E2,1.4E2,1.72E2,2.5E1,4.7E1],"tree_param":{"num_deleted":"0","num_feature":"2","num_nodes":"31","size_leaf_vector":"1"}},{"base_weights":[-5.97337E-4,1.7048383E-2,-1.03399694E-1,4.0720414E-2,-8.6379096E-2,-5.7910148E-2,-2.3085397E-1,-1.477506E-2,2.3236167E-1,-2.1130064E-1,1.6949917E-1,-1.5631022E-1,2.5927585E-1,-3.2596577E-2,-1.4041886E-1,5.36334E-3,-2.2706453E-2,-1.9808237E-2,3.735696E-2,-7.302195E-3,-1.4684287E-1,1.1671205E-1,-3.682686E-2,-7.3717847E-3,-2.1587623E-2,4.982512E-2,-6.1468404E-2,-5.6032287E-3,-2.1836393E-2],"categories":[],"categories_nodes":[],"categories_segments":[],"categories_sizes":[],"default_left":[0,0,0,0,0,0,0,0,0,0,0,0,0,0,0,0,0,0,0,0,0,0,0,0,0,0,0,0,0],"id":49,"left_children":[1,3,5,7,9,11,13,15,17,19,21,23,25,-1,27,-1,-1,-1,-1,-1,-1,-1,-1,-1,-1,-1,-1,-1,-1],"loss_changes":[8.395241E0,9.674455E0,3.9175653E0,3.419567E1,2.3561842E1,1.56773E1,1.4852848E0,3.6231033E1,4.3958687E1,8.594061E1,1.3026006E2,1.868329E0,2.5159992E1,0E0,5.994736E-1,0E0,0E0,0E0,0E0,0E0,0E0,0E0,0E0,0E0,0E0,0E0,0E0,0E0,0E0],"parents":[2147483647,0,0,1,1,2,2,3,3,4,4,5,5,6,6,7,7,8,8,9,9,10,10,11,11,12,12,14,14],"right_children":[2,4,6,8,10,12,14,16,18,20,22,24,26,-1,28,-1,-1,-1,-1,-1,-1,-1,-1,-1,-1,-1,-1,-1,-1],"split_conditions":[2.1E1,7E0,6E0,6E0,1.4E1,5E0,2.2E1,5E0,9E0,1.3E1,1.6E1,2.2E1,2.3E1,-3.2596577E-2,2.3E1,5.36334E-3,-2.2706453E-2,-1.9808237E-2,3.735696E-2,-7.302195E-3,-1.4684287E-1,1.1671205E-1,-3.682686E-2,-7.3717847E-3,-2.1587623E-2,4.982512E-2,-6.1468404E-2,-5.6032287E-3,-2.1836393E-2],"split_indices":[1,0,0,0,1,0,1,0,1,1,1,1,1,0,1,0,0,0,0,0,0,0,0,0,0,0,0,0,0],"split_type":[0,0,0,0,0,0,0,0,0,0,0,0,0,0,0,0,0,0,0,0,0,0,0,0,0,0,0,0,0],"sum_hessian":[4.626E3,3.949E3,6.77E2,3.214E3,7.35E2,5E2,1.77E2,2.493E3,7.21E2,4.94E2,2.41E2,3.82E2,1.18E2,8.5E1,9.2E1,1.886E3,6.07E2,1.78E2,5.43E2,4.46E2,4.8E1,8.4E1,1.57E2,1.61E2,2.21E2,9.3E1,2.5E1,4.5E1,4.7E1],"tree_param":{"num_deleted":"0","num_feature":"2","num_nodes":"29","size_leaf_vector":"1"}}]},"name":"gbtree"},"learner_model_param":{"base_score":"[1.3972115E1]","boost_from_average":"1","num_class":"0","num_feature":"2","num_target":"1"},"objective":{"name":"reg:squarederror","reg_loss_param":{"scale_pos_weight":"1"}}},"version":[3,2,0]}