{"learner":{"attributes":{},"feature_names":["day_of_week","hour_of_day"],"feature_types":[],"gradient_booster":{"model":{"cats":{"enc":[],"feature_segments":[],"sorted_idx":[]},"gbtree_model_param":{"num_parallel_tree":"1","num_trees":"50"},"iteration_indptr":[0,1,2,3,4,5,6,7,8,9,10,11,12,13,14,15,16,17,18,19,20,21,22,23,24,25,26,27,28,29,30,31,32,33,34,35,36,37,38,39,40,41,42,43,44,45,46,47,48,49,50],"tree_info":[0,0,0,0,0,0,0,0,0,0,0,0,0,0,0,0,0,0,0,0,0,0,0,0,0,0,0,0,0,0,0,0,0,0,0,0,0,0,0,0,0,0,0,0,0,0,0,0,0,0],"trees":[{"base_weights":[1.3417808E-7,-1.0328108E1,1.2762824E0,-1.0941824E1,-6.2559757E0,2.5682588E0,-5.3429136E0,-1.2303E0,-9.580416E-1,-2.9810312E-1,-8.29032E0,-2.287502E0,3.2172976E0,-9.021601E0,-2.9164948E0,-6.6813123E-1,-9.32901E-1,2.8155938E-1,-7.231631E-1,3.8426527E-1,-5.6833696E-2,-6.0805076E-1,-1.1012099E0,-8.930043E-2,-4.549305E-1],"categories":[],"categories_nodes":[],"categories_segments":[],"categories_sizes":[],"default_left":[0,0,0,0,0,0,0,0,0,0,0,0,0,0,0,0,0,0,0,0,0,0,0,0,0],"id":0,"left_children":[1,3,5,7,9,11,13,-1,-1,-1,15,17,19,21,23,-1,-1,-1,-1,-1,-1,-1,-1,-1,-1],"loss_changes":[6.100436E4,1.2036094E3,3.5238773E4,6.9935547E2,4.349895E2,1.087084E4,5.98091E3,0E0,0E0,0E0,7.862793E0,1.0289119E4,7.2013457E3,1.496123E3,1.3406555E3,0E0,0E0,0E0,0E0,0E0,0E0,0E0,0E0,0E0,0E0],"parents":[2147483647,0,0,1,1,2,2,3,3,4,4,5,5,6,6,10,10,11,11,12,12,13,13,14,14],"right_children":[2,4,6,8,10,12,14,-1,-1,-1,16,18,20,22,24,-1,-1,-1,-1,-1,-1,-1,-1,-1,-1],"split_conditions":[4E0,3E0,2.1E1,5E0,2E0,7E0,4E0,-1.2303E0,-9.580416E-1,-2.9810312E-1,7E0,5E0,1.9E1,2.2E1,2.2E1,-6.6813123E-1,-9.32901E-1,2.8155938E-1,-7.231631E-1,3.8426527E-1,-5.6833696E-2,-6.0805076E-1,-1.1012099E0,-8.930043E-2,-4.549305E-1],"split_indices":[1,1,1,0,0,1,0,0,0,0,0,0,1,1,1,0,0,0,0,0,0,0,0,0,0],"split_type":[0,0,0,0,0,0,0,0,0,0,0,0,0,0,0,0,0,0,0,0,0,0,0,0,0],"sum_hessian":[4.626E3,5.08E2,4.118E3,4.4E2,6.8E1,3.446E3,6.72E2,2.16E2,2.24E2,2.7E1,4.1E1,4.06E2,3.04E3,2.66E2,4.06E2,1.9E1,2.2E1,2E2,2.06E2,2.609E3,4.31E2,1.09E2,1.57E2,1.82E2,2.24E2],"tree_param":{"num_deleted":"0","num_feature":"2","num_nodes":"25","size_leaf_vector":"1"}},{"base_weights":[-1.3950275E-3,-9.303328E0,1.1480794E0,-9.852605E0,-5.657902E0,2.3114E0,-4.8119707E0,-1.107837E0,-8.6266327E-1,-2.693574E-1,-7.4994082E0,-2.059837E0,2.8956754E0,-8.125843E0,-2.6261828E0,-6.046588E-1,-8.43667E-1,2.5354356E-1,-6.5119624E-1,3.4585348E-1,-5.1163543E-2,-5.477985E-1,-9.9178594E-1,-8.041923E-2,-4.0963966E-1],"categories":[],"categories_nodes":[],"categories_segments":[],"categories_sizes":[],"default_left":[0,0,0,0,0,0,0,0,0,0,0,0,0,0,0,0,0,0,0,0,0,0,0,0,0],"id":1,"left_children":[1,3,5,7,9,11,13,-1,-1,-1,15,17,19,21,23,-1,-1,-1,-1,-1,-1,-1,-1,-1,-1],"loss_changes":[4.948411E4,9.634492E2,2.8569998E4,5.6714453E2,3.5645923E2,8.809627E3,4.8534814E3,0E0,0E0,0E0,6.177002E0,8.343213E3,5.833912E3,1.2125859E3,1.0869429E3,0E0,0E0,0E0,0E0,0E0,0E0,0E0,0E0,0E0,0E0],"parents":[2147483647,0,0,1,1,2,2,3,3,4,4,5,5,6,6,10,10,11,11,12,12,13,13,14,14],"right_children":[2,4,6,8,10,12,14,-1,-1,-1,16,18,20,22,24,-1,-1,-1,-1,-1,-1,-1,-1,-1,-1],"split_conditions":[4E0,3E0,2.1E1,5E0,2E0,7E0,4E0,-1.107837E0,-8.6266327E-1,-2.693574E-1,7E0,5E0,1.9E1,2.2E1,2.2E1,-6.046588E-1,-8.43667E-1,2.5354356E-1,-6.5119624E-1,3.4585348E-1,-5.1163543E-2,-5.477985E-1,-9.9178594E-1,-8.041923E-2,-4.0963966E-1],"split_indices":[1,1,1,0,0,1,0,0,0,0,0,0,1,1,1,0,0,0,0,0,0,0,0,0,0],"split_type":[0,0,0,0,0,0,0,0,0,0,0,0,0,0,0,0,0,0,0,0,0,0,0,0,0],"sum_hessian":[4.626E3,5.08E2,4.118E3,4.4E2,6.8E1,3.446E3,6.72E2,2.16E2,2.24E2,2.7E1,4.1E1,4.06E2,3.04E3,2.66E2,4.06E2,1.9E1,2.2E1,2E2,2.06E2,2.609E3,4.31E2,1.09E2,1.57E2,1.82E2,2.24E2],"tree_param":{"num_deleted":"0","num_feature":"2","num_nodes":"25","size_leaf_vector":"1"}},{"base_weights":[-2.513721E-3,-8.380241E0,1.0327535E0,-8.871813E0,-5.1170053E0,2.0802298E0,-4.3337893E0,-9.9756384E-1,-7.7678037E-1,-2.4338368E-1,-6.7839513E0,-1.8548304E0,2.6062045E0,-7.3190246E0,-2.3647685E0,-5.472162E-1,-7.6296836E-1,2.2831531E-1,-5.8639115E-1,3.2941356E-1,3.220893E-2,-4.9351668E-1,-8.93235E-1,-7.242121E-2,-3.6885777E-1],"categories":[],"categories_nodes":[],"categories_segments":[],"categories_sizes":[],"default_left":[0,0,0,0,0,0,0,0,0,0,0,0,0,0,0,0,0,0,0,0,0,0,0,0,0],"id":2,"left_children":[1,3,5,7,9,11,13,-1,-1,-1,15,17,19,21,23,-1,-1,-1,-1,-1,-1,-1,-1,-1,-1],"loss_changes":[4.013949E4,7.7110156E2,2.3163258E4,4.5992578E2,2.9210522E2,7.1392354E3,3.93858E3,0E0,0E0,0E0,4.8448486E0,6.7653193E3,4.7773066E3,9.827822E2,8.812451E2,0E0,0E0,0E0,0E0,0E0,0E0,0E0,0E0,0E0,0E0],"parents":[2147483647,0,0,1,1,2,2,3,3,4,4,5,5,6,6,10,10,11,11,12,12,13,13,14,14],"right_children":[2,4,6,8,10,12,14,-1,-1,-1,16,18,20,22,24,-1,-1,-1,-1,-1,-1,-1,-1,-1,-1],"split_conditions":[4E0,3E0,2.1E1,5E0,2E0,7E0,4E0,-9.9756384E-1,-7.7678037E-1,-2.4338368E-1,7E0,5E0,1.8E1,2.2E1,2.2E1,-5.472162E-1,-7.6296836E-1,2.2831531E-1,-5.8639115E-1,3.2941356E-1,3.220893E-2,-4.9351668E-1,-8.93235E-1,-7.242121E-2,-3.6885777E-1],"split_indices":[1,1,1,0,0,1,0,0,0,0,0,0,1,1,1,0,0,0,0,0,0,0,0,0,0],"split_type":[0,0,0,0,0,0,0,0,0,0,0,0,0,0,0,0,0,0,0,0,0,0,0,0,0],"sum_hessian":[4.626E3,5.08E2,4.118E3,4.4E2,6.8E1,3.446E3,6.72E2,2.16E2,2.24E2,2.7E1,4.1E1,4.06E2,3.04E3,2.66E2,4.06E2,1.9E1,2.2E1,2E2,2.06E2,2.336E3,7.04E2,1.09E2,1.57E2,1.82E2,2.24E2],"tree_param":{"num_deleted":"0","num_feature":"2","num_nodes":"25","size_leaf_vector":"1"}},{"base_weights":[-3.3758585E-3,-7.548755E0,9.290353E-1,-7.988655E0,-4.6278205E0,1.872208E0,-3.903127E0,-8.982672E-1,-6.994476E-1,-2.1991454E-1,-6.136751E0,-1.6702272E0,2.3457031E0,-6.5923157E0,-2.1293762E0,-4.9523064E-1,-6.899888E-1,2.0559733E-1,-5.2803534E-1,2.8146133E-1,-4.9272496E-2,-4.446136E-1,-8.0447686E-1,-6.521868E-2,-3.32136E-1],"categories":[],"categories_nodes":[],"categories_segments":[],"categories_sizes":[],"default_left":[0,0,0,0,0,0,0,0,0,0,0,0,0,0,0,0,0,0,0,0,0,0,0,0,0],"id":3,"left_children":[1,3,5,7,9,11,13,-1,-1,-1,15,17,19,21,23,-1,-1,-1,-1,-1,-1,-1,-1,-1,-1],"loss_changes":[3.2559791E4,6.1705273E2,1.877991E4,3.7298047E2,2.393689E2,5.78566E3,3.1961387E3,0E0,0E0,0E0,3.793213E0,5.4858413E3,4.0488613E3,7.965303E2,7.1447375E2,0E0,0E0,0E0,0E0,0E0,0E0,0E0,0E0,0E0,0E0],"parents":[2147483647,0,0,1,1,2,2,3,3,4,4,5,5,6,6,10,10,11,11,12,12,13,13,14,14],"right_children":[2,4,6,8,10,12,14,-1,-1,-1,16,18,20,22,24,-1,-1,-1,-1,-1,-1,-1,-1,-1,-1],"split_conditions":[4E0,3E0,2.1E1,5E0,2E0,7E0,4E0,-8.982672E-1,-6.994476E-1,-2.1991454E-1,7E0,5E0,1.9E1,2.2E1,2.2E1,-4.9523064E-1,-6.899888E-1,2.0559733E-1,-5.2803534E-1,2.8146133E-1,-4.9272496E-2,-4.446136E-1,-8.0447686E-1,-6.521868E-2,-3.32136E-1],"split_indices":[1,1,1,0,0,1,0,0,0,0,0,0,1,1,1,0,0,0,0,0,0,0,0,0,0],"split_type":[0,0,0,0,0,0,0,0,0,0,0,0,0,0,0,0,0,0,0,0,0,0,0,0,0],"sum_hessian":[4.626E3,5.08E2,4.118E3,4.4E2,6.8E1,3.446E3,6.72E2,2.16E2,2.24E2,2.7E1,4.1E1,4.06E2,3.04E3,2.66E2,4.06E2,1.9E1,2.2E1,2E2,2.06E2,2.609E3,4.31E2,1.09E2,1.57E2,1.82E2,2.24E2],"tree_param":{"num_deleted":"0","num_feature":"2","num_nodes":"25","size_leaf_vector":"1"}},{"base_weights":[-4.0629497E-3,-6.7997794E0,8.3570975E-1,-7.1934123E0,-4.185403E0,1.6849605E0,-3.5152607E0,-8.088545E-1,-6.298137E-1,-1.9870852E-1,-5.5512953E0,-1.5039965E0,2.1112087E0,-5.9377627E0,-1.9174147E0,-4.481837E-1,-6.239899E-1,1.8513992E-1,-4.7548684E-1,2.6835218E-1,2.1105668E-2,-4.0055647E-1,-7.2453827E-1,-5.873243E-2,-2.9906997E-1],"categories":[],"categories_nodes":[],"categories_segments":[],"categories_sizes":[],"default_left":[0,0,0,0,0,0,0,0,0,0,0,0,0,0,0,0,0,0,0,0,0,0,0,0,0],"id":4,"left_children":[1,3,5,7,9,11,13,-1,-1,-1,15,17,19,21,23,-1,-1,-1,-1,-1,-1,-1,-1,-1,-1],"loss_changes":[2.641131E4,4.9370703E2,1.5225895E4,3.0247266E2,1.9615308E2,4.6886377E3,2.5936523E3,0E0,0E0,0E0,2.9639893E0,4.4483438E3,3.3064678E3,6.455762E2,5.7926294E2,0E0,0E0,0E0,0E0,0E0,0E0,0E0,0E0,0E0,0E0],"parents":[2147483647,0,0,1,1,2,2,3,3,4,4,5,5,6,6,10,10,11,11,12,12,13,13,14,14],"right_children":[2,4,6,8,10,12,14,-1,-1,-1,16,18,20,22,24,-1,-1,-1,-1,-1,-1,-1,-1,-1,-1],"split_conditions":[4E0,3E0,2.1E1,5E0,2E0,7E0,4E0,-8.088545E-1,-6.298137E-1,-1.9870852E-1,7E0,5E0,1.8E1,2.2E1,2.2E1,-4.481837E-1,-6.239899E-1,1.8513992E-1,-4.7548684E-1,2.6835218E-1,2.1105668E-2,-4.0055647E-1,-7.2453827E-1,-5.873243E-2,-2.9906997E-1],"split_indices":[1,1,1,0,0,1,0,0,0,0,0,0,1,1,1,0,0,0,0,0,0,0,0,0,0],"split_type":[0,0,0,0,0,0,0,0,0,0,0,0,0,0,0,0,0,0,0,0,0,0,0,0,0],"sum_hessian":[4.626E3,5.08E2,4.118E3,4.4E2,6.8E1,3.446E3,6.72E2,2.16E2,2.24E2,2.7E1,4.1E1,4.06E2,3.04E3,2.66E2,4.06E2,1.9E1,2.2E1,2E2,2.06E2,2.336E3,7.04E2,1.09E2,1.57E2,1.82E2,2.24E2],"tree_param":{"num_deleted":"0","num_feature":"2","num_nodes":"25","size_leaf_vector":"1"}},{"base_weights":[-4.5631323E-3,-6.125125E0,7.5177836E-1,-6.477334E0,-3.785281E0,1.7997243E0,-2.1117694E0,-7.2834176E-1,-5.6711227E-1,-1.7954734E-1,-5.0216937E0,-5.580444E-1,2.4967616E0,-4.1899214E0,-6.483657E-1,-4.0560624E-1,-5.643038E-1,2.547064E-1,-3.5903767E-1,2.8524002E-1,9.0221584E-2,-2.9417598E-1,-6.5254307E-1,4.3559145E-2,-2.6929587E-1],"categories":[],"categories_nodes":[],"categories_segments":[],"categories_sizes":[],"default_left":[0,0,0,0,0,0,0,0,0,0,0,0,0,0,0,0,0,0,0,0,0,0,0,0,0],"id":5,"left_children":[1,3,5,7,9,11,13,-1,-1,-1,15,17,19,21,23,-1,-1,-1,-1,-1,-1,-1,-1,-1,-1],"loss_changes":[2.1424076E4,3.9495312E2,1.2364275E4,2.4529102E2,1.6073914E2,4.958046E3,3.3547417E3,0E0,0E0,0E0,2.3110352E0,6.496576E3,1.3175918E3,1.3100864E3,1.4395199E3,0E0,0E0,0E0,0E0,0E0,0E0,0E0,0E0,0E0,0E0],"parents":[2147483647,0,0,1,1,2,2,3,3,4,4,5,5,6,6,10,10,11,11,12,12,13,13,14,14],"right_children":[2,4,6,8,10,12,14,-1,-1,-1,16,18,20,22,24,-1,-1,-1,-1,-1,-1,-1,-1,-1,-1],"split_conditions":[4E0,3E0,1.9E1,5E0,2E0,9E0,4E0,-7.2834176E-1,-5.6711227E-1,-1.7954734E-1,7E0,5E0,7E0,2.2E1,2.2E1,-4.0560624E-1,-5.643038E-1,2.547064E-1,-3.5903767E-1,2.8524002E-1,9.0221584E-2,-2.9417598E-1,-6.5254307E-1,4.3559145E-2,-2.6929587E-1],"split_indices":[1,1,1,0,0,1,0,0,0,0,0,0,0,1,1,0,0,0,0,0,0,0,0,0,0],"split_type":[0,0,0,0,0,0,0,0,0,0,0,0,0,0,0,0,0,0,0,0,0,0,0,0,0],"sum_hessian":[4.626E3,5.08E2,4.118E3,4.4E2,6.8E1,3.015E3,1.103E3,2.16E2,2.24E2,2.7E1,4.1E1,6.88E2,2.327E3,4.55E2,6.48E2,1.9E1,2.2E1,3.4E2,3.48E2,1.902E3,4.25E2,2.98E2,1.57E2,4.24E2,2.24E2],"tree_param":{"num_deleted":"0","num_feature":"2","num_nodes":"25","size_leaf_vector":"1"}},{"base_weights":[-4.830086E-3,-5.517416E0,6.7638165E-1,-5.832538E0,-3.4234116E0,1.3721448E0,-2.888213E0,-6.558432E-1,-5.1065314E-1,-1.6223384E-1,-4.5426173E0,-1.2977489E0,1.7290257E0,-4.844401E0,-1.5978189E0,-3.6707363E-1,-5.1032704E-1,1.4137416E-1,-3.924376E-1,2.2029364E-1,1.5560961E-2,-3.3171478E-1,-5.8770174E-1,-1.0376816E-1,-3.5592172E-1],"categories":[],"categories_nodes":[],"categories_segments":[],"categories_sizes":[],"default_left":[0,0,0,0,0,0,0,0,0,0,0,0,0,0,0,0,0,0,0,0,0,0,0,0,0],"id":6,"left_children":[1,3,5,7,9,11,13,-1,-1,-1,15,17,19,21,23,-1,-1,-1,-1,-1,-1,-1,-1,-1,-1],"loss_changes":[1.7379219E4,3.1590625E2,1.0219552E4,1.9891797E2,1.3171863E2,3.2866626E3,1.691082E3,0E0,0E0,0E0,1.7977295E0,2.9042322E3,2.267205E3,4.0158203E2,4.4345825E2,0E0,0E0,0E0,0E0,0E0,0E0,0E0,0E0,0E0,0E0],"parents":[2147483647,0,0,1,1,2,2,3,3,4,4,5,5,6,6,10,10,11,11,12,12,13,13,14,14],"right_children":[2,4,6,8,10,12,14,-1,-1,-1,16,18,20,22,24,-1,-1,-1,-1,-1,-1,-1,-1,-1,-1],"split_conditions":[4E0,3E0,2.1E1,5E0,2E0,7E0,4E0,-6.558432E-1,-5.1065314E-1,-1.6223384E-1,7E0,5E0,1.8E1,2.2E1,2.3E1,-3.6707363E-1,-5.1032704E-1,1.4137416E-1,-3.924376E-1,2.2029364E-1,1.5560961E-2,-3.3171478E-1,-5.8770174E-1,-1.0376816E-1,-3.5592172E-1],"split_indices":[1,1,1,0,0,1,0,0,0,0,0,0,1,1,1,0,0,0,0,0,0,0,0,0,0],"split_type":[0,0,0,0,0,0,0,0,0,0,0,0,0,0,0,0,0,0,0,0,0,0,0,0,0],"sum_hessian":[4.626E3,5.08E2,4.118E3,4.4E2,6.8E1,3.446E3,6.72E2,2.16E2,2.24E2,2.7E1,4.1E1,4.06E2,3.04E3,2.66E2,4.06E2,1.9E1,2.2E1,2E2,2.06E2,2.336E3,7.04E2,1.09E2,1.57E2,3.17E2,8.9E1],"tree_param":{"num_deleted":"0","num_feature":"2","num_nodes":"25","size_leaf_vector":"1"}},{"base_weights":[-5.125281E-3,-4.9700084E0,6.084049E-1,-5.2519293E0,-3.0961373E0,1.3482527E0,-2.1162715E0,-5.905611E-1,-4.5981476E-1,-1.4658982E-1,-4.109246E0,-5.1626E-1,1.8511136E0,-3.9359162E0,-8.250186E-1,-3.3220157E-1,-4.615131E-1,2.1197441E-1,-3.090361E-1,2.1964684E-1,4.2228725E-2,-2.8861046E-1,-5.2930355E-1,2.541031E-2,-2.221812E-1],"categories":[],"categories_nodes":[],"categories_segments":[],"categories_sizes":[],"default_left":[0,0,0,0,0,0,0,0,0,0,0,0,0,0,0,0,0,0,0,0,0,0,0,0,0],"id":7,"left_children":[1,3,5,7,9,11,13,-1,-1,-1,15,17,19,21,23,-1,-1,-1,-1,-1,-1,-1,-1,-1,-1],"loss_changes":[1.40973545E4,2.5263574E2,8.306122E3,1.613125E2,1.0793732E2,3.038749E3,2.06442E3,0E0,0E0,0E0,1.3948364E0,4.6816504E3,1.2583623E3,5.047461E2,7.7833655E2,0E0,0E0,0E0,0E0,0E0,0E0,0E0,0E0,0E0,0E0],"parents":[2147483647,0,0,1,1,2,2,3,3,4,4,5,5,6,6,10,10,11,11,12,12,13,13,14,14],"right_children":[2,4,6,8,10,12,14,-1,-1,-1,16,18,20,22,24,-1,-1,-1,-1,-1,-1,-1,-1,-1,-1],"split_conditions":[4E0,3E0,2E1,5E0,2E0,9E0,4E0,-5.905611E-1,-4.5981476E-1,-1.4658982E-1,7E0,5E0,1.8E1,2.2E1,2.2E1,-3.3220157E-1,-4.615131E-1,2.1197441E-1,-3.090361E-1,2.1964684E-1,4.2228725E-2,-2.8861046E-1,-5.2930355E-1,2.541031E-2,-2.221812E-1],"split_indices":[1,1,1,0,0,1,0,0,0,0,0,0,1,1,1,0,0,0,0,0,0,0,0,0,0],"split_type":[0,0,0,0,0,0,0,0,0,0,0,0,0,0,0,0,0,0,0,0,0,0,0,0,0],"sum_hessian":[4.626E3,5.08E2,4.118E3,4.4E2,6.8E1,3.239E3,8.79E2,2.16E2,2.24E2,2.7E1,4.1E1,6.88E2,2.551E3,3.64E2,5.15E2,1.9E1,2.2E1,3.4E2,3.48E2,2.054E3,4.97E2,2.07E2,1.57E2,2.91E2,2.24E2],"tree_param":{"num_deleted":"0","num_feature":"2","num_nodes":"25","size_leaf_vector":"1"}},{"base_weights":[-5.2265013E-3,-4.476918E0,5.473582E-1,-4.729118E0,-2.8001509E0,1.115647E0,-2.3641405E0,-5.317772E-1,-4.1403762E-1,-1.3245432E-1,-3.7172189E0,1.4929245E0,-7.2508E-1,-3.9343438E0,-1.3282477E0,-3.006424E-1,-4.1736832E-1,1.7936616E-1,-3.092717E-2,-4.1567993E-1,3.4895074E-2,-2.702462E-1,-4.7670817E-1,-8.544605E-2,-2.9875374E-1],"categories":[],"categories_nodes":[],"categories_segments":[],"categories_sizes":[],"default_left":[0,0,0,0,0,0,0,0,0,0,0,0,0,0,0,0,0,0,0,0,0,0,0,0,0],"id":8,"left_children":[1,3,5,7,9,11,13,-1,-1,-1,15,17,19,21,23,-1,-1,-1,-1,-1,-1,-1,-1,-1,-1],"loss_changes":[1.1435715E4,2.020039E2,6.8178193E3,1.3081836E2,8.844934E1,2.3949028E3,1.0894507E3,0E0,0E0,0E0,1.0791626E0,1.5511812E3,2.1649985E3,2.6101514E2,3.1741034E2,0E0,0E0,0E0,0E0,0E0,0E0,0E0,0E0,0E0,0E0],"parents":[2147483647,0,0,1,1,2,2,3,3,4,4,5,5,6,6,10,10,11,11,12,12,13,13,14,14],"right_children":[2,4,6,8,10,12,14,-1,-1,-1,16,18,20,22,24,-1,-1,-1,-1,-1,-1,-1,-1,-1,-1],"split_conditions":[4E0,3E0,2.1E1,5E0,2E0,7E0,4E0,-5.317772E-1,-4.1403762E-1,-1.3245432E-1,7E0,1.9E1,9E0,2.2E1,2.3E1,-3.006424E-1,-4.1736832E-1,1.7936616E-1,-3.092717E-2,-4.1567993E-1,3.4895074E-2,-2.702462E-1,-4.7670817E-1,-8.544605E-2,-2.9875374E-1],"split_indices":[1,1,1,0,0,0,0,0,0,0,0,1,1,1,1,0,0,0,0,0,0,0,0,0,0],"split_type":[0,0,0,0,0,0,0,0,0,0,0,0,0,0,0,0,0,0,0,0,0,0,0,0,0],"sum_hessian":[4.626E3,5.08E2,4.118E3,4.4E2,6.8E1,3.446E3,6.72E2,2.16E2,2.24E2,2.7E1,4.1E1,2.86E3,5.86E2,2.66E2,4.06E2,1.9E1,2.2E1,2.451E3,4.09E2,1.39E2,4.47E2,1.09E2,1.57E2,3.17E2,8.9E1],"tree_param":{"num_deleted":"0","num_feature":"2","num_nodes":"25","size_leaf_vector":"1"}},{"base_weights":[-5.3870874E-3,-3.110209E0,6.415198E-1,-4.258351E0,-1.68719E0,1.4758128E0,-1.4198558E0,-4.788445E-1,-3.7281784E-1,3.1216222E-1,-3.8032417E0,2.4325325E0,6.7282414E-1,-2.9514475E0,-3.4154218E-1,-1.1968199E-1,5.776011E-2,-3.1200045E-1,-4.4207153E-1,2.046552E-1,3.5692063E-1,-2.8304738E-1,1.04851544E-1,-2.2324558E-1,-4.2933908E-1,1.09160654E-1,-1.1963667E-1],"categories":[],"categories_nodes":[],"categories_segments":[],"categories_sizes":[],"default_left":[0,0,0,0,0,0,0,0,0,0,0,0,0,0,0,0,0,0,0,0,0,0,0,0,0,0,0],"id":9,"left_children":[1,3,5,7,9,11,13,-1,-1,15,17,19,21,23,25,-1,-1,-1,-1,-1,-1,-1,-1,-1,-1,-1,-1],"loss_changes":[9.295466E3,1.2966104E3,6.5888965E3,1.06086914E2,1.5157896E3,2.0933403E3,1.8222876E3,0E0,0E0,7.4791626E1,5.9614746E1,5.3848096E2,1.9561475E3,4.3038525E2,7.963898E2,0E0,0E0,0E0,0E0,0E0,0E0,0E0,0E0,0E0,0E0,0E0,0E0],"parents":[2147483647,0,0,1,1,2,2,3,3,4,4,5,5,6,6,9,9,10,10,11,11,12,12,13,13,14,14],"right_children":[2,4,6,8,10,12,14,-1,-1,16,18,20,22,24,26,-1,-1,-1,-1,-1,-1,-1,-1,-1,-1,-1,-1],"split_conditions":[6E0,3E0,1.9E1,5E0,5E0,5E0,4E0,-4.788445E-1,-3.7281784E-1,4E0,7E0,4E0,8E0,2.2E1,2.1E1,-1.1968199E-1,5.776011E-2,-3.1200045E-1,-4.4207153E-1,2.046552E-1,3.5692063E-1,-2.8304738E-1,1.04851544E-1,-2.2324558E-1,-4.2933908E-1,1.09160654E-1,-1.1963667E-1],"split_indices":[1,1,1,0,0,0,0,0,0,1,0,0,1,1,1,0,0,0,0,0,0,0,0,0,0,0,0],"split_type":[0,0,0,0,0,0,0,0,0,0,0,0,0,0,0,0,0,0,0,0,0,0,0,0,0,0,0],"sum_hessian":[4.626E3,7.97E2,3.829E3,4.4E2,3.57E2,2.726E3,1.103E3,2.16E2,2.24E2,1.84E2,1.73E2,1.243E3,1.483E3,4.55E2,6.48E2,2.7E1,1.57E2,8.5E1,8.8E1,9.3E2,3.13E2,1.43E2,1.34E3,2.98E2,1.57E2,2.42E2,4.06E2],"tree_param":{"num_deleted":"0","num_feature":"2","num_nodes":"27","size_leaf_vector":"1"}},{"base_weights":[-5.2689374E-3,-2.8012776E0,5.772951E-1,-3.8344467E0,-1.5207503E0,1.3283726E0,-1.2784709E0,-4.3118072E-1,-3.3570175E0,2.806114E-1,-3.4272513E0,2.1897311E0,6.0542226E-1,-2.657734E0,-3.0740413E-1,-2.9640833E-1,-3.4948045E-1,-1.081412E-1,5.2020665E-2,-2.8116322E-1,-3.983611E-1,1.8421169E-1,3.2134226E-1,-2.5493917E-1,9.437428E-2,-2.0099568E-1,-3.866769E-1,4.369667E-2,-1.7120717E-1],"categories":[],"categories_nodes":[],"categories_segments":[],"categories_sizes":[],"default_left":[0,0,0,0,0,0,0,0,0,0,0,0,0,0,0,0,0,0,0,0,0,0,0,0,0,0,0,0,0],"id":10,"left_children":[1,3,5,7,9,11,13,-1,15,17,19,21,23,25,27,-1,-1,-1,-1,-1,-1,-1,-1,-1,-1,-1,-1,-1,-1],"loss_changes":[7.5383257E3,1.0499238E3,5.3400444E3,8.603174E1,1.2304404E3,1.6968301E3,1.4778325E3,0E0,1.8227539E0,6.093439E1,4.839563E1,4.3675732E2,1.5863357E3,3.4936035E2,6.7933844E2,0E0,0E0,0E0,0E0,0E0,0E0,0E0,0E0,0E0,0E0,0E0,0E0,0E0,0E0],"parents":[2147483647,0,0,1,1,2,2,3,3,4,4,5,5,6,6,8,8,9,9,10,10,11,11,12,12,13,13,14,14],"right_children":[2,4,6,8,10,12,14,-1,16,18,20,22,24,26,28,-1,-1,-1,-1,-1,-1,-1,-1,-1,-1,-1,-1,-1,-1],"split_conditions":[6E0,3E0,1.9E1,5E0,5E0,5E0,4E0,-4.3118072E-1,1E0,4E0,7E0,4E0,8E0,2.2E1,2.2E1,-2.9640833E-1,-3.4948045E-1,-1.081412E-1,5.2020665E-2,-2.8116322E-1,-3.983611E-1,1.8421169E-1,3.2134226E-1,-2.5493917E-1,9.437428E-2,-2.0099568E-1,-3.866769E-1,4.369667E-2,-1.7120717E-1],"split_indices":[1,1,1,0,0,0,0,0,1,1,0,0,1,1,1,0,0,0,0,0,0,0,0,0,0,0,0,0,0],"split_type":[0,0,0,0,0,0,0,0,0,0,0,0,0,0,0,0,0,0,0,0,0,0,0,0,0,0,0,0,0],"sum_hessian":[4.626E3,7.97E2,3.829E3,4.4E2,3.57E2,2.726E3,1.103E3,2.16E2,2.24E2,1.84E2,1.73E2,1.243E3,1.483E3,4.55E2,6.48E2,6.4E1,1.6E2,2.7E1,1.57E2,8.5E1,8.8E1,9.3E2,3.13E2,1.43E2,1.34E3,2.98E2,1.57E2,4.24E2,2.24E2],"tree_param":{"num_deleted":"0","num_feature":"2","num_nodes":"29","size_leaf_vector":"1"}},{"base_weights":[-5.213681E-3,-2.5234215E0,5.194691E-1,-3.4534445E0,-1.3707299E0,1.195662E0,-1.1512716E0,-3.8826135E-1,-3.0241861E0,2.5224727E-1,-3.0884314E0,1.9711643E0,5.447722E-1,-2.3932493E0,-2.7685994E-1,-2.672235E-1,-3.1474945E-1,-9.7713314E-2,4.6851568E-2,-2.5337383E-1,-3.5897255E-1,1.00948624E-1,2.3115757E-1,-2.2962229E-1,8.4943935E-2,-1.8096337E-1,-3.4825397E-1,9.393787E-2,-1.0023369E-1],"categories":[],"categories_nodes":[],"categories_segments":[],"categories_sizes":[],"default_left":[0,0,0,0,0,0,0,0,0,0,0,0,0,0,0,0,0,0,0,0,0,0,0,0,0,0,0,0,0],"id":11,"left_children":[1,3,5,7,9,11,13,-1,15,17,19,21,23,25,27,-1,-1,-1,-1,-1,-1,-1,-1,-1,-1,-1,-1,-1,-1],"loss_changes":[6.114782E3,8.507456E2,4.328293E3,6.9501465E1,9.98808E2,1.3754243E3,1.1982814E3,0E0,1.3537598E0,4.9644882E1,3.928784E1,4.0490967E2,1.2864381E3,2.835891E2,5.735887E2,0E0,0E0,0E0,0E0,0E0,0E0,0E0,0E0,0E0,0E0,0E0,0E0,0E0,0E0],"parents":[2147483647,0,0,1,1,2,2,3,3,4,4,5,5,6,6,8,8,9,9,10,10,11,11,12,12,13,13,14,14],"right_children":[2,4,6,8,10,12,14,-1,16,18,20,22,24,26,28,-1,-1,-1,-1,-1,-1,-1,-1,-1,-1,-1,-1,-1,-1],"split_conditions":[6E0,3E0,1.9E1,5E0,5E0,5E0,4E0,-3.8826135E-1,1E0,4E0,7E0,2E0,8E0,2.2E1,2.1E1,-2.672235E-1,-3.1474945E-1,-9.7713314E-2,4.6851568E-2,-2.5337383E-1,-3.5897255E-1,1.00948624E-1,2.3115757E-1,-2.2962229E-1,8.4943935E-2,-1.8096337E-1,-3.4825397E-1,9.393787E-2,-1.0023369E-1],"split_indices":[1,1,1,0,0,0,0,0,1,1,0,0,1,1,1,0,0,0,0,0,0,0,0,0,0,0,0,0,0],"split_type":[0,0,0,0,0,0,0,0,0,0,0,0,0,0,0,0,0,0,0,0,0,0,0,0,0,0,0,0,0],"sum_hessian":[4.626E3,7.97E2,3.829E3,4.4E2,3.57E2,2.726E3,1.103E3,2.16E2,2.24E2,1.84E2,1.73E2,1.243E3,1.483E3,4.55E2,6.48E2,6.4E1,1.6E2,2.7E1,1.57E2,8.5E1,8.8E1,3.26E2,9.17E2,1.43E2,1.34E3,2.98E2,1.57E2,2.42E2,4.06E2],"tree_param":{"num_deleted":"0","num_feature":"2","num_nodes":"29","size_leaf_vector":"1"}},{"base_weights":[-5.120455E-3,-2.2731264E0,4.6743146E-1,-3.1103003E0,-1.2355096E0,1.0761647E0,-1.0366293E0,-3.4961414E-1,-2.7243543E0,2.2674718E-1,-2.7831073E0,1.3828012E0,-2.9571635E-1,-2.155085E0,-2.4918343E-1,-2.409123E-1,-2.8347E-1,-8.8290945E-2,4.219601E-2,-2.2833101E-1,-3.2347864E-1,1.7743151E-1,8.874399E-2,-1.510728E-1,1.1204475E-1,-1.6292754E-1,-3.1364903E-1,3.8280755E-2,-1.4418368E-1],"categories":[],"categories_nodes":[],"categories_segments":[],"categories_sizes":[],"default_left":[0,0,0,0,0,0,0,0,0,0,0,0,0,0,0,0,0,0,0,0,0,0,0,0,0,0,0,0,0],"id":12,"left_children":[1,3,5,7,9,11,13,-1,15,17,19,21,23,25,27,-1,-1,-1,-1,-1,-1,-1,-1,-1,-1,-1,-1,-1,-1],"loss_changes":[4.9600527E3,6.8935254E2,3.507756E3,5.6146484E1,8.107797E2,1.1475723E3,9.717814E2,0E0,9.9731445E-1,4.044712E1,3.1894165E1,4.3071973E2,8.6029987E2,2.3020068E2,4.8973315E2,0E0,0E0,0E0,0E0,0E0,0E0,0E0,0E0,0E0,0E0,0E0,0E0,0E0,0E0],"parents":[2147483647,0,0,1,1,2,2,3,3,4,4,5,5,6,6,8,8,9,9,10,10,11,11,12,12,13,13,14,14],"right_children":[2,4,6,8,10,12,14,-1,16,18,20,22,24,26,28,-1,-1,-1,-1,-1,-1,-1,-1,-1,-1,-1,-1,-1,-1],"split_conditions":[6E0,3E0,1.9E1,5E0,5E0,7E0,4E0,-3.4961414E-1,1E0,4E0,7E0,5E0,1.4E1,2.2E1,2.2E1,-2.409123E-1,-2.8347E-1,-8.8290945E-2,4.219601E-2,-2.2833101E-1,-3.2347864E-1,1.7743151E-1,8.874399E-2,-1.510728E-1,1.1204475E-1,-1.6292754E-1,-3.1364903E-1,3.8280755E-2,-1.4418368E-1],"split_indices":[1,1,1,0,0,0,0,0,1,1,0,0,1,1,1,0,0,0,0,0,0,0,0,0,0,0,0,0,0],"split_type":[0,0,0,0,0,0,0,0,0,0,0,0,0,0,0,0,0,0,0,0,0,0,0,0,0,0,0,0,0],"sum_hessian":[4.626E3,7.97E2,3.829E3,4.4E2,3.57E2,2.726E3,1.103E3,2.16E2,2.24E2,1.84E2,1.73E2,2.228E3,4.98E2,4.55E2,6.48E2,6.4E1,1.6E2,2.7E1,1.57E2,8.5E1,8.8E1,1.243E3,9.85E2,2.68E2,2.3E2,2.98E2,1.57E2,4.24E2,2.24E2],"tree_param":{"num_deleted":"0","num_feature":"2","num_nodes":"29","size_leaf_vector":"1"}},{"base_weights":[-5.0030313E-3,-2.0476582E0,4.2059588E-1,-2.801252E0,-1.113629E0,9.68632E-1,-9.334938E-1,-3.1481382E-1,-2.4542494E0,2.038231E-1,-2.5079682E0,1.244641E0,-2.6622286E-1,-1.9406215E0,-2.2442795E-1,-2.1719168E-1,-2.5529906E-1,8.9971624E-2,-6.057968E-3,-2.0576346E-1,-2.9149422E-1,1.5970267E-1,7.987865E-2,-1.3602166E-1,1.0088875E-1,-1.4668927E-1,-2.824826E-1,8.077043E-2,-8.401128E-2],"categories":[],"categories_nodes":[],"categories_segments":[],"categories_sizes":[],"default_left":[0,0,0,0,0,0,0,0,0,0,0,0,0,0,0,0,0,0,0,0,0,0,0,0,0,0,0,0,0],"id":13,"left_children":[1,3,5,7,9,11,13,-1,15,17,19,21,23,25,27,-1,-1,-1,-1,-1,-1,-1,-1,-1,-1,-1,-1,-1,-1],"loss_changes":[4.0233525E3,5.585757E2,2.843109E3,4.5356934E1,6.5814825E2,9.2977734E2,7.8795276E2,0E0,7.277832E-1,3.409378E1,2.5891724E1,3.489287E2,6.974586E2,1.8686243E2,4.1309735E2,0E0,0E0,0E0,0E0,0E0,0E0,0E0,0E0,0E0,0E0,0E0,0E0,0E0,0E0],"parents":[2147483647,0,0,1,1,2,2,3,3,4,4,5,5,6,6,8,8,9,9,10,10,11,11,12,12,13,13,14,14],"right_children":[2,4,6,8,10,12,14,-1,16,18,20,22,24,26,28,-1,-1,-1,-1,-1,-1,-1,-1,-1,-1,-1,-1,-1,-1],"split_conditions":[6E0,3E0,1.9E1,5E0,5E0,7E0,4E0,-3.1481382E-1,1E0,2E0,7E0,5E0,1.4E1,2.2E1,2.1E1,-2.1719168E-1,-2.5529906E-1,8.9971624E-2,-6.057968E-3,-2.0576346E-1,-2.9149422E-1,1.5970267E-1,7.987865E-2,-1.3602166E-1,1.0088875E-1,-1.4668927E-1,-2.824826E-1,8.077043E-2,-8.401128E-2],"split_indices":[1,1,1,0,0,0,0,0,1,0,0,0,1,1,1,0,0,0,0,0,0,0,0,0,0,0,0,0,0],"split_type":[0,0,0,0,0,0,0,0,0,0,0,0,0,0,0,0,0,0,0,0,0,0,0,0,0,0,0,0,0],"sum_hessian":[4.626E3,7.97E2,3.829E3,4.4E2,3.57E2,2.726E3,1.103E3,2.16E2,2.24E2,1.84E2,1.73E2,2.228E3,4.98E2,4.55E2,6.48E2,6.4E1,1.6E2,5E1,1.34E2,8.5E1,8.8E1,1.243E3,9.85E2,2.68E2,2.3E2,2.98E2,1.57E2,2.42E2,4.06E2],"tree_param":{"num_deleted":"0","num_feature":"2","num_nodes":"29","size_leaf_vector":"1"}},{"base_weights":[-4.8112404E-3,-1.8443971E0,3.784771E-1,-2.522912E0,-1.0034206E0,9.6941674E-1,-6.74932E-1,-2.8347754E-1,-2.2109244E0,1.8389425E-1,-2.2600288E0,5.457253E-1,1.8953267E0,-1.7439028E0,4.2420417E-2,-1.9580665E-1,-2.2992773E-1,-8.845298E-2,3.7207134E-2,-1.8542634E-1,-2.626723E-1,8.511814E-2,-7.959264E-2,2.8028077E-1,1.1082108E-1,-2.4161306E-1,-1.3347487E-1,8.181724E-2,-7.563081E-2],"categories":[],"categories_nodes":[],"categories_segments":[],"categories_sizes":[],"default_left":[0,0,0,0,0,0,0,0,0,0,0,0,0,0,0,0,0,0,0,0,0,0,0,0,0,0,0,0,0],"id":14,"left_children":[1,3,5,7,9,11,13,-1,15,17,19,21,23,25,27,-1,-1,-1,-1,-1,-1,-1,-1,-1,-1,-1,-1,-1,-1],"loss_changes":[3.2631572E3,4.5281982E2,2.384834E3,3.6640625E1,5.3454785E2,9.616704E2,1.0559972E3,0E0,5.2453613E-1,3.75239E1,2.1019226E1,6.912169E2,5.468989E2,1.4887488E2,5.118013E2,0E0,0E0,0E0,0E0,0E0,0E0,0E0,0E0,0E0,0E0,0E0,0E0,0E0,0E0],"parents":[2147483647,0,0,1,1,2,2,3,3,4,4,5,5,6,6,8,8,9,9,10,10,11,11,12,12,13,13,14,14],"right_children":[2,4,6,8,10,12,14,-1,16,18,20,22,24,26,28,-1,-1,-1,-1,-1,-1,-1,-1,-1,-1,-1,-1,-1,-1],"split_conditions":[6E0,3E0,1.8E1,5E0,5E0,1.5E1,4E0,-2.8347754E-1,1E0,4E0,7E0,7E0,5E0,2E0,2.1E1,-1.9580665E-1,-2.2992773E-1,-8.845298E-2,3.7207134E-2,-1.8542634E-1,-2.626723E-1,8.511814E-2,-7.959264E-2,2.8028077E-1,1.1082108E-1,-2.4161306E-1,-1.3347487E-1,8.181724E-2,-7.563081E-2],"split_indices":[1,1,1,0,0,1,0,0,1,1,0,0,0,0,1,0,0,0,0,0,0,0,0,0,0,0,0,0,0],"split_type":[0,0,0,0,0,0,0,0,0,0,0,0,0,0,0,0,0,0,0,0,0,0,0,0,0,0,0,0,0],"sum_hessian":[4.626E3,7.97E2,3.829E3,4.4E2,3.57E2,2.453E3,1.376E3,2.16E2,2.24E2,1.84E2,1.73E2,1.684E3,7.69E2,5.52E2,8.24E2,6.4E1,1.6E2,2.7E1,1.57E2,8.5E1,8.8E1,1.372E3,3.12E2,3.56E2,4.13E2,2.07E2,3.45E2,4.18E2,4.06E2],"tree_param":{"num_deleted":"0","num_feature":"2","num_nodes":"29","size_leaf_vector":"1"}},{"base_weights":[-4.58514E-3,-1.6614717E0,3.4063682E-1,-2.2722294E0,-9.04473E-1,8.72637E-1,-6.077067E-1,-2.5526044E-1,-1.9917243E0,1.6522828E-1,-2.036601E0,4.9115646E-1,1.7063019E0,-1.5701907E0,3.818583E-2,-1.7652725E-1,-2.0707779E-1,8.415577E-2,-9.149786E-3,-1.6709928E-1,-2.367002E-1,7.661259E-2,-7.165887E-2,2.2957218E-1,5.138901E-2,-1.24966644E-1,-2.363592E-1,4.7896754E-2,-1.1393607E-1],"categories":[],"categories_nodes":[],"categories_segments":[],"categories_sizes":[],"default_left":[0,0,0,0,0,0,0,0,0,0,0,0,0,0,0,0,0,0,0,0,0,0,0,0,0,0,0,0,0],"id":15,"left_children":[1,3,5,7,9,11,13,-1,15,17,19,21,23,25,27,-1,-1,-1,-1,-1,-1,-1,-1,-1,-1,-1,-1,-1,-1],"loss_changes":[2.6471807E3,3.668943E2,1.9328378E3,2.9599121E1,4.338884E2,7.796001E2,8.560874E2,0E0,3.7243652E-1,3.219882E1,1.7063477E1,5.601258E2,5.4000024E2,1.3767651E2,4.287545E2,0E0,0E0,0E0,0E0,0E0,0E0,0E0,0E0,0E0,0E0,0E0,0E0,0E0,0E0],"parents":[2147483647,0,0,1,1,2,2,3,3,4,4,5,5,6,6,8,8,9,9,10,10,11,11,12,12,13,13,14,14],"right_children":[2,4,6,8,10,12,14,-1,16,18,20,22,24,26,28,-1,-1,-1,-1,-1,-1,-1,-1,-1,-1,-1,-1,-1,-1],"split_conditions":[6E0,3E0,1.8E1,5E0,5E0,1.5E1,4E0,-2.5526044E-1,1E0,2E0,7E0,7E0,1.7E1,2.2E1,2.2E1,-1.7652725E-1,-2.0707779E-1,8.415577E-2,-9.149786E-3,-1.6709928E-1,-2.367002E-1,7.661259E-2,-7.165887E-2,2.2957218E-1,5.138901E-2,-1.24966644E-1,-2.363592E-1,4.7896754E-2,-1.1393607E-1],"split_indices":[1,1,1,0,0,1,0,0,1,0,0,0,1,1,1,0,0,0,0,0,0,0,0,0,0,0,0,0,0],"split_type":[0,0,0,0,0,0,0,0,0,0,0,0,0,0,0,0,0,0,0,0,0,0,0,0,0,0,0,0,0],"sum_hessian":[4.626E3,7.97E2,3.829E3,4.4E2,3.57E2,2.453E3,1.376E3,2.16E2,2.24E2,1.84E2,1.73E2,1.684E3,7.69E2,5.52E2,8.24E2,6.4E1,1.6E2,5E1,1.34E2,8.5E1,8.8E1,1.372E3,3.12E2,5.14E2,2.55E2,3.95E2,1.57E2,6E2,2.24E2],"tree_param":{"num_deleted":"0","num_feature":"2","num_nodes":"29","size_leaf_vector":"1"}},{"base_weights":[-4.366292E-3,-1.4965373E0,3.0653626E-1,-2.046455E0,-8.149444E-1,6.035332E-1,-1.0875542E0,-2.2985204E-1,-1.7942567E0,1.4911063E-1,-1.8352618E0,7.792146E-1,-2.8715998E-1,-1.7663574E0,-6.395738E-1,-1.8939625E-1,-1.6266243E-1,-8.80386E-2,3.3060934E-2,-1.505837E-1,-2.1329616E-1,9.7270235E-2,1.7239993E-2,-1.07401095E-1,5.5058736E-2,-1.2298026E-1,-2.1287286E-1,-2.830317E-2,-1.8922494E-1],"categories":[],"categories_nodes":[],"categories_segments":[],"categories_sizes":[],"default_left":[0,0,0,0,0,0,0,0,0,0,0,0,0,0,0,0,0,0,0,0,0,0,0,0,0,0,0,0,0],"id":16,"left_children":[1,3,5,7,9,11,13,-1,15,17,19,21,23,25,27,-1,-1,-1,-1,-1,-1,-1,-1,-1,-1,-1,-1,-1,-1],"loss_changes":[2.1470156E3,2.9743872E2,1.5864319E3,2.39104E1,3.524175E2,4.9438208E2,2.0352313E2,0E0,6.798706E-1,3.485874E1,1.3852295E1,3.095631E2,3.4402533E2,4.9295532E1,1.8124348E2,0E0,0E0,0E0,0E0,0E0,0E0,0E0,0E0,0E0,0E0,0E0,0E0,0E0,0E0],"parents":[2147483647,0,0,1,1,2,2,3,3,4,4,5,5,6,6,8,8,9,9,10,10,11,11,12,12,13,13,14,14],"right_children":[2,4,6,8,10,12,14,-1,16,18,20,22,24,26,28,-1,-1,-1,-1,-1,-1,-1,-1,-1,-1,-1,-1,-1,-1],"split_conditions":[6E0,3E0,2.1E1,5E0,5E0,7E0,4E0,-2.2985204E-1,2E0,4E0,7E0,1.8E1,1.4E1,2.2E1,2.3E1,-1.8939625E-1,-1.6266243E-1,-8.80386E-2,3.3060934E-2,-1.505837E-1,-2.1329616E-1,9.7270235E-2,1.7239993E-2,-1.07401095E-1,5.5058736E-2,-1.2298026E-1,-2.1287286E-1,-2.830317E-2,-1.8922494E-1],"split_indices":[1,1,1,0,0,0,0,0,1,1,0,1,1,1,1,0,0,0,0,0,0,0,0,0,0,0,0,0,0],"split_type":[0,0,0,0,0,0,0,0,0,0,0,0,0,0,0,0,0,0,0,0,0,0,0,0,0,0,0,0,0],"sum_hessian":[4.626E3,7.97E2,3.829E3,4.4E2,3.57E2,3.157E3,6.72E2,2.16E2,2.24E2,1.84E2,1.73E2,2.637E3,5.2E2,2.66E2,4.06E2,1.34E2,9E1,2.7E1,1.57E2,8.5E1,8.8E1,1.999E3,6.38E2,2.68E2,2.52E2,1.09E2,1.57E2,3.17E2,8.9E1],"tree_param":{"num_deleted":"0","num_feature":"2","num_nodes":"29","size_leaf_vector":"1"}},{"base_weights":[-4.2524096E-3,-1.3481375E0,2.75754E-1,-1.843129E0,-7.3461974E-1,7.1381E-1,-5.0512123E-1,-2.0697276E-1,-1.6163956E0,1.339031E-1,-1.6538272E0,3.7848613E-1,1.4466761E0,-1.3380649E0,5.3815708E-2,-1.4049786E-1,-1.6917107E-1,7.907509E-2,-1.1523127E-2,-1.3570046E-1,-1.9220622E-1,5.923692E-2,-5.6093868E-2,1.9774637E-1,3.732301E-2,-1.9245526E-1,-9.81627E-2,7.384708E-2,-7.154596E-2],"categories":[],"categories_nodes":[],"categories_segments":[],"categories_sizes":[],"default_left":[0,0,0,0,0,0,0,0,0,0,0,0,0,0,0,0,0,0,0,0,0,0,0,0,0,0,0,0,0],"id":17,"left_children":[1,3,5,7,9,11,13,-1,15,17,19,21,23,25,27,-1,-1,-1,-1,-1,-1,-1,-1,-1,-1,-1,-1,-1,-1],"loss_changes":[1.7414956E3,2.4098743E2,1.3104774E3,1.931189E1,2.8603168E2,6.0251685E2,6.411522E2,0E0,1.2058105E0,3.0365139E1,1.1245331E1,3.388944E2,4.379862E2,1.137135E2,4.3504617E2,0E0,0E0,0E0,0E0,0E0,0E0,0E0,0E0,0E0,0E0,0E0,0E0,0E0,0E0],"parents":[2147483647,0,0,1,1,2,2,3,3,4,4,5,5,6,6,8,8,9,9,10,10,11,11,12,12,13,13,14,14],"right_children":[2,4,6,8,10,12,14,-1,16,18,20,22,24,26,28,-1,-1,-1,-1,-1,-1,-1,-1,-1,-1,-1,-1,-1,-1],"split_conditions":[6E0,3E0,1.8E1,5E0,5E0,1.5E1,4E0,-2.0697276E-1,1E0,2E0,7E0,7E0,1.7E1,2E0,6E0,-1.4049786E-1,-1.6917107E-1,7.907509E-2,-1.1523127E-2,-1.3570046E-1,-1.9220622E-1,5.923692E-2,-5.6093868E-2,1.9774637E-1,3.732301E-2,-1.9245526E-1,-9.81627E-2,7.384708E-2,-7.154596E-2],"split_indices":[1,1,1,0,0,1,0,0,1,0,0,0,1,0,0,0,0,0,0,0,0,0,0,0,0,0,0,0,0],"split_type":[0,0,0,0,0,0,0,0,0,0,0,0,0,0,0,0,0,0,0,0,0,0,0,0,0,0,0,0,0],"sum_hessian":[4.626E3,7.97E2,3.829E3,4.4E2,3.57E2,2.453E3,1.376E3,2.16E2,2.24E2,1.84E2,1.73E2,1.684E3,7.69E2,5.52E2,8.24E2,6.4E1,1.6E2,5E1,1.34E2,8.5E1,8.8E1,1.372E3,3.12E2,5.14E2,2.55E2,2.07E2,3.45E2,4.36E2,3.88E2],"tree_param":{"num_deleted":"0","num_feature":"2","num_nodes":"29","size_leaf_vector":"1"}},{"base_weights":[-4.005809E-3,-1.2142977E0,2.481657E-1,-1.6599877E0,-6.6188526E-1,4.990285E-1,-9.2935723E-1,-1.8637086E-1,-1.4561325E0,1.2087739E-1,-1.490329E0,6.479422E-1,-2.559298E-1,-1.453278E0,-5.833715E-1,-1.5516447E-1,-1.2984376E-1,-8.717426E-2,2.9601967E-2,-1.2228823E-1,-1.7320155E-1,-1.3512204E-2,7.854923E-2,-1.9441345E-1,2.349672E-3,-9.738104E-2,-1.7778865E-1,-2.6533732E-2,-1.7006105E-1],"categories":[],"categories_nodes":[],"categories_segments":[],"categories_sizes":[],"default_left":[0,0,0,0,0,0,0,0,0,0,0,0,0,0,0,0,0,0,0,0,0,0,0,0,0,0,0,0,0],"id":18,"left_children":[1,3,5,7,9,11,13,-1,15,17,19,21,23,25,27,-1,-1,-1,-1,-1,-1,-1,-1,-1,-1,-1,-1,-1,-1],"loss_changes":[1.412467E3,1.9537268E2,1.1318331E3,1.5600708E1,2.3233412E2,3.5519965E2,1.2114618E2,0E0,1.374176E0,3.2420254E1,9.129028E0,2.8424658E2,2.4581657E2,3.98244E1,1.4416408E2,0E0,0E0,0E0,0E0,0E0,0E0,0E0,0E0,0E0,0E0,0E0,0E0,0E0,0E0],"parents":[2147483647,0,0,1,1,2,2,3,3,4,4,5,5,6,6,8,8,9,9,10,10,11,11,12,12,13,13,14,14],"right_children":[2,4,6,8,10,12,14,-1,16,18,20,22,24,26,28,-1,-1,-1,-1,-1,-1,-1,-1,-1,-1,-1,-1,-1,-1],"split_conditions":[6E0,3E0,2.1E1,5E0,5E0,7E0,4E0,-1.8637086E-1,2E0,4E0,7E0,2E0,9E0,2.2E1,2.3E1,-1.5516447E-1,-1.2984376E-1,-8.717426E-2,2.9601967E-2,-1.2228823E-1,-1.7320155E-1,-1.3512204E-2,7.854923E-2,-1.9441345E-1,2.349672E-3,-9.738104E-2,-1.7778865E-1,-2.6533732E-2,-1.7006105E-1],"split_indices":[1,1,1,0,0,0,0,0,1,1,0,0,1,1,1,0,0,0,0,0,0,0,0,0,0,0,0,0,0],"split_type":[0,0,0,0,0,0,0,0,0,0,0,0,0,0,0,0,0,0,0,0,0,0,0,0,0,0,0,0,0],"sum_hessian":[4.626E3,7.97E2,3.829E3,4.4E2,3.57E2,3.157E3,6.72E2,2.16E2,2.24E2,1.84E2,1.73E2,2.637E3,5.2E2,2.66E2,4.06E2,1.34E2,9E1,2.7E1,1.57E2,8.5E1,8.8E1,3.94E2,2.243E3,7.3E1,4.47E2,1.09E2,1.57E2,3.17E2,8.9E1],"tree_param":{"num_deleted":"0","num_feature":"2","num_nodes":"29","size_leaf_vector":"1"}},{"base_weights":[-3.9125667E-3,-1.008947E0,2.4376059E-1,-1.495058E0,-5.555073E-1,6.465167E-1,-4.3996114E-1,-1.6781966E-1,-1.311786E0,2.3190647E-1,-1.2771801E0,3.4887272E-1,1.2517885E0,-1.1600893E0,4.32762E-2,-1.1138653E-1,-1.3835444E-1,-7.876816E-2,3.7278485E-2,-9.23858E-2,-1.3426988E-1,5.3441435E-2,-4.7411036E-2,2.0608509E-1,5.510951E-2,-1.6469516E-1,-8.640561E-2,6.5279186E-2,-6.4156085E-2],"categories":[],"categories_nodes":[],"categories_segments":[],"categories_sizes":[],"default_left":[0,0,0,0,0,0,0,0,0,0,0,0,0,0,0,0,0,0,0,0,0,0,0,0,0,0,0,0,0],"id":19,"left_children":[1,3,5,7,9,11,13,-1,15,17,19,21,23,25,27,-1,-1,-1,-1,-1,-1,-1,-1,-1,-1,-1,-1,-1,-1],"loss_changes":[1.151999E3,2.0085565E2,1.0227448E3,1.2600403E1,2.7021735E2,4.205866E2,4.7923633E2,0E0,1.65448E0,3.3043083E1,4.500519E0,2.3968321E2,4.3538098E2,7.827936E1,3.447894E2,0E0,0E0,0E0,0E0,0E0,0E0,0E0,0E0,0E0,0E0,0E0,0E0,0E0,0E0],"parents":[2147483647,0,0,1,1,2,2,3,3,4,4,5,5,6,6,8,8,9,9,10,10,11,11,12,12,13,13,14,14],"right_children":[2,4,6,8,10,12,14,-1,16,18,20,22,24,26,28,-1,-1,-1,-1,-1,-1,-1,-1,-1,-1,-1,-1,-1,-1],"split_conditions":[7E0,3E0,1.8E1,5E0,5E0,1.5E1,4E0,-1.6781966E-1,1E0,4E0,4E0,7E0,5E0,2E0,6E0,-1.1138653E-1,-1.3835444E-1,-7.876816E-2,3.7278485E-2,-9.23858E-2,-1.3426988E-1,5.3441435E-2,-4.7411036E-2,2.0608509E-1,5.510951E-2,-1.6469516E-1,-8.640561E-2,6.5279186E-2,-6.4156085E-2],"split_indices":[1,1,1,0,0,1,0,0,1,1,1,0,0,0,0,0,0,0,0,0,0,0,0,0,0,0,0,0,0],"split_type":[0,0,0,0,0,0,0,0,0,0,0,0,0,0,0,0,0,0,0,0,0,0,0,0,0,0,0,0,0],"sum_hessian":[4.626E3,9.14E2,3.712E3,4.4E2,4.74E2,2.336E3,1.376E3,2.16E2,2.24E2,2.27E2,2.47E2,1.567E3,7.69E2,5.52E2,8.24E2,6.4E1,1.6E2,2.7E1,2E2,4.1E1,2.06E2,1.279E3,2.88E2,3.56E2,4.13E2,2.07E2,3.45E2,4.36E2,3.88E2],"tree_param":{"num_deleted":"0","num_feature":"2","num_nodes":"29","size_leaf_vector":"1"}},{"base_weights":[-3.6658999E-3,-9.8951536E-1,2.0174181E-1,-1.346499E0,-5.470034E-1,4.1375938E-1,-7.9343385E-1,-1.457733E0,-1.0835704E0,8.8337354E-2,-1.2193657E0,5.358469E-1,-2.052052E-1,-3.5359064E-1,-1.1275721E0,-1.2041568E-1,-1.5195632E-1,-7.034602E-2,-1.14355944E-1,7.709162E-2,-1.7018009E-2,-9.785614E-2,-1.4383523E-1,-1.670076E-2,6.59328E-2,4.333697E-3,-1.8900035E-1,-1.1139027E-1,-2.178183E-2,-1.7188458E-1,-8.6646594E-2],"categories":[],"categories_nodes":[],"categories_segments":[],"categories_sizes":[],"default_left":[0,0,0,0,0,0,0,0,0,0,0,0,0,0,0,0,0,0,0,0,0,0,0,0,0,0,0,0,0,0,0],"id":20,"left_children":[1,3,5,7,9,11,13,15,17,19,21,23,25,27,29,-1,-1,-1,-1,-1,-1,-1,-1,-1,-1,-1,-1,-1,-1,-1,-1],"loss_changes":[9.371722E2,1.2532324E2,8.084381E2,1.1318115E1,1.5303781E2,2.3875317E2,9.851099E1,2.9835815E0,2.2738953E0,3.277602E1,7.768036E0,2.2906018E2,2.1824722E2,2.9900349E1,5.748584E1,0E0,0E0,0E0,0E0,0E0,0E0,0E0,0E0,0E0,0E0,0E0,0E0,0E0,0E0,0E0,0E0],"parents":[2147483647,0,0,1,1,2,2,3,3,4,4,5,5,6,6,7,7,8,8,9,9,10,10,11,11,12,12,13,13,14,14],"right_children":[2,4,6,8,10,12,14,16,18,20,22,24,26,28,30,-1,-1,-1,-1,-1,-1,-1,-1,-1,-1,-1,-1,-1,-1,-1,-1],"split_conditions":[6E0,3E0,2.1E1,7E0,5E0,7E0,2.2E1,1E0,1E0,2E0,7E0,2E0,1.8E1,2E0,3E0,-1.2041568E-1,-1.5195632E-1,-7.034602E-2,-1.14355944E-1,7.709162E-2,-1.7018009E-2,-9.785614E-2,-1.4383523E-1,-1.670076E-2,6.59328E-2,4.333697E-3,-1.8900035E-1,-1.1139027E-1,-2.178183E-2,-1.7188458E-1,-8.6646594E-2],"split_indices":[1,1,1,0,0,0,1,1,1,0,0,0,1,0,0,0,0,0,0,0,0,0,0,0,0,0,0,0,0,0,0],"split_type":[0,0,0,0,0,0,0,0,0,0,0,0,0,0,0,0,0,0,0,0,0,0,0,0,0,0,0,0,0,0,0],"sum_hessian":[4.626E3,7.97E2,3.829E3,4.4E2,3.57E2,3.157E3,6.72E2,3.06E2,1.34E2,1.84E2,1.73E2,2.637E3,5.2E2,2.91E2,3.81E2,6.4E1,2.42E2,2E1,1.14E2,5E1,1.34E2,8.5E1,8.8E1,3.94E2,2.243E3,4.54E2,6.6E1,4.3E1,2.48E2,1.15E2,2.66E2],"tree_param":{"num_deleted":"0","num_feature":"2","num_nodes":"31","size_leaf_vector":"1"}},{"base_weights":[-3.5514552E-3,-7.0910877E-1,2.4260291E-1,-8.926509E-2,-1.2975119E0,7.299857E-1,-2.951003E-1,-1.3022035E0,7.789057E-1,-1.0738842E0,-2.0265665E0,3.9759E-1,1.5585893E0,-1.2994106E0,-1.0644054E-1,-1.3628012E-1,-7.860648E-2,3.3274304E-2,1.4094007E-1,-9.010356E-2,-1.09878935E-1,-3.351318E-1,-7.46037E-2,7.428506E-2,-1.1739697E-2,2.4217764E-1,7.9052426E-2,-9.385704E-2,-1.4449342E-1,1.2153103E-2,-8.835409E-2],"categories":[],"categories_nodes":[],"categories_segments":[],"categories_sizes":[],"default_left":[0,0,0,0,0,0,0,0,0,0,0,0,0,0,0,0,0,0,0,0,0,0,0,0,0,0,0,0,0,0,0],"id":21,"left_children":[1,3,5,7,9,11,13,15,17,19,21,23,25,27,29,-1,-1,-1,-1,-1,-1,-1,-1,-1,-1,-1,-1,-1,-1,-1,-1],"loss_changes":[8.0377094E2,4.3645172E2,8.993683E2,6.159884E2,9.79281E1,4.9514398E2,3.0908148E2,6.560272E0,9.5455475E1,1.0418091E0,2.4008264E2,2.2874406E2,3.3952234E2,1.2191589E1,2.4369794E2,0E0,0E0,0E0,0E0,0E0,0E0,0E0,0E0,0E0,0E0,0E0,0E0,0E0,0E0,0E0,0E0],"parents":[2147483647,0,0,1,1,2,2,3,3,4,4,5,5,6,6,7,7,8,8,9,9,10,10,11,11,12,12,13,13,14,14],"right_children":[2,4,6,8,10,12,14,16,18,20,22,24,26,28,30,-1,-1,-1,-1,-1,-1,-1,-1,-1,-1,-1,-1,-1,-1,-1,-1],"split_conditions":[9E0,5E0,1.7E1,4E0,7E0,1.5E1,2E0,3E0,7E0,1E0,8E0,1.2E1,5E0,1.9E1,2.2E1,-1.3628012E-1,-7.860648E-2,3.3274304E-2,1.4094007E-1,-9.010356E-2,-1.09878935E-1,-3.351318E-1,-7.46037E-2,7.428506E-2,-1.1739697E-2,2.4217764E-1,7.9052426E-2,-9.385704E-2,-1.4449342E-1,1.2153103E-2,-8.835409E-2],"split_indices":[1,0,1,1,1,1,0,1,1,1,1,1,0,1,1,0,0,0,0,0,0,0,0,0,0,0,0,0,0,0,0],"split_type":[0,0,0,0,0,0,0,0,0,0,0,0,0,0,0,0,0,0,0,0,0,0,0,0,0,0,0,0,0,0,0],"sum_hessian":[4.626E3,1.196E3,3.43E3,5.83E2,6.13E2,1.799E3,1.631E3,2.43E2,3.4E2,4.71E2,1.42E2,1.285E3,5.14E2,2.57E2,1.374E3,2.16E2,2.7E1,2E2,1.4E2,6.4E1,4.07E2,6.9E1,7.3E1,7.69E2,5.16E2,2.41E2,2.73E2,7.6E1,1.81E2,1.063E3,3.11E2],"tree_param":{"num_deleted":"0","num_feature":"2","num_nodes":"31","size_leaf_vector":"1"}},{"base_weights":[-3.321937E-3,-6.387411E-1,2.183627E-1,-8.040796E-2,-1.1687537E0,6.5720016E-1,-2.6578298E-1,-1.172864E0,7.015265E-1,-9.669195E-1,-1.826775E0,3.5787934E-1,1.4033543E0,-1.1703936E0,-9.585185E-2,-1.22714914E-1,-7.102656E-2,2.9963484E-2,1.2694606E-1,-9.071163E-2,-1.0390969E-1,-3.020974E-1,-6.724411E-2,6.686615E-2,-1.0567997E-2,2.8561172E-1,9.9713445E-2,-8.459326E-2,-1.3012348E-1,1.09389415E-2,-7.9546995E-2],"categories":[],"categories_nodes":[],"categories_segments":[],"categories_sizes":[],"default_left":[0,0,0,0,0,0,0,0,0,0,0,0,0,0,0,0,0,0,0,0,0,0,0,0,0,0,0,0,0,0,0],"id":22,"left_children":[1,3,5,7,9,11,13,15,17,19,21,23,25,27,29,-1,-1,-1,-1,-1,-1,-1,-1,-1,-1,-1,-1,-1,-1,-1,-1],"loss_changes":[6.5191095E2,3.541266E2,7.291293E2,4.9969254E2,7.9779785E1,4.015088E2,2.5076129E2,5.255768E0,7.745218E1,1.0947571E0,1.9509467E2,1.8533954E2,3.010747E2,9.852112E0,1.9752396E2,0E0,0E0,0E0,0E0,0E0,0E0,0E0,0E0,0E0,0E0,0E0,0E0,0E0,0E0,0E0,0E0],"parents":[2147483647,0,0,1,1,2,2,3,3,4,4,5,5,6,6,7,7,8,8,9,9,10,10,11,11,12,12,13,13,14,14],"right_children":[2,4,6,8,10,12,14,16,18,20,22,24,26,28,30,-1,-1,-1,-1,-1,-1,-1,-1,-1,-1,-1,-1,-1,-1,-1,-1],"split_conditions":[9E0,5E0,1.7E1,4E0,7E0,1.5E1,2E0,3E0,7E0,4E0,8E0,1.2E1,3E0,1.9E1,2.2E1,-1.22714914E-1,-7.102656E-2,2.9963484E-2,1.2694606E-1,-9.071163E-2,-1.0390969E-1,-3.020974E-1,-6.724411E-2,6.686615E-2,-1.0567997E-2,2.8561172E-1,9.9713445E-2,-8.459326E-2,-1.3012348E-1,1.09389415E-2,-7.9546995E-2],"split_indices":[1,0,1,1,1,1,0,1,1,1,1,1,0,1,1,0,0,0,0,0,0,0,0,0,0,0,0,0,0,0,0],"split_type":[0,0,0,0,0,0,0,0,0,0,0,0,0,0,0,0,0,0,0,0,0,0,0,0,0,0,0,0,0,0,0],"sum_hessian":[4.626E3,1.196E3,3.43E3,5.83E2,6.13E2,1.799E3,1.631E3,2.43E2,3.4E2,4.71E2,1.42E2,1.285E3,5.14E2,2.57E2,1.374E3,2.16E2,2.7E1,2E2,1.4E2,2.65E2,2.06E2,6.9E1,7.3E1,7.69E2,5.16E2,1.11E2,4.03E2,7.6E1,1.81E2,1.063E3,3.11E2],"tree_param":{"num_deleted":"0","num_feature":"2","num_nodes":"31","size_leaf_vector":"1"}},{"base_weights":[-3.085258E-3,-5.753687E-1,1.9657266E-1,-7.242973E-2,-1.052797E0,5.917255E-1,-2.3937817E-1,-1.0563715E0,6.318348E-1,-8.7064E-1,-1.6466804E0,3.2213557E-1,1.2637663E0,-8.096582E-1,-4.553008E-3,-1.1049997E-1,-6.417755E-2,2.6982138E-2,1.1434155E-1,-8.167457E-2,-9.3568936E-2,-2.7231923E-1,-6.0610592E-2,6.0188252E-2,-9.513191E-3,2.5730553E-1,8.97667E-2,1.4540121E-2,-1.0388533E-1,1.2812759E-2,-1.2436544E-1],"categories":[],"categories_nodes":[],"categories_segments":[],"categories_sizes":[],"default_left":[0,0,0,0,0,0,0,0,0,0,0,0,0,0,0,0,0,0,0,0,0,0,0,0,0,0,0,0,0,0,0],"id":23,"left_children":[1,3,5,7,9,11,13,15,17,19,21,23,25,27,29,-1,-1,-1,-1,-1,-1,-1,-1,-1,-1,-1,-1,-1,-1,-1,-1],"loss_changes":[5.2879834E2,2.8734418E2,5.9119055E2,4.0535333E2,6.498883E1,3.2570868E2,2.1854741E2,4.210144E0,6.284436E1,8.9053345E-1,1.5853671E2,1.5017114E2,2.445451E2,1.0434497E2,1.903756E2,0E0,0E0,0E0,0E0,0E0,0E0,0E0,0E0,0E0,0E0,0E0,0E0,0E0,0E0,0E0,0E0],"parents":[2147483647,0,0,1,1,2,2,3,3,4,4,5,5,6,6,7,7,8,8,9,9,10,10,11,11,12,12,13,13,14,14],"right_children":[2,4,6,8,10,12,14,16,18,20,22,24,26,28,30,-1,-1,-1,-1,-1,-1,-1,-1,-1,-1,-1,-1,-1,-1,-1,-1],"split_conditions":[9E0,5E0,1.7E1,4E0,7E0,1.5E1,3E0,3E0,7E0,4E0,8E0,1.2E1,3E0,1.8E1,7E0,-1.1049997E-1,-6.417755E-2,2.6982138E-2,1.1434155E-1,-8.167457E-2,-9.3568936E-2,-2.7231923E-1,-6.0610592E-2,6.0188252E-2,-9.513191E-3,2.5730553E-1,8.97667E-2,1.4540121E-2,-1.0388533E-1,1.2812759E-2,-1.2436544E-1],"split_indices":[1,0,1,1,1,1,0,1,1,1,1,1,0,1,0,0,0,0,0,0,0,0,0,0,0,0,0,0,0,0,0],"split_type":[0,0,0,0,0,0,0,0,0,0,0,0,0,0,0,0,0,0,0,0,0,0,0,0,0,0,0,0,0,0,0],"sum_hessian":[4.626E3,1.196E3,3.43E3,5.83E2,6.13E2,1.799E3,1.631E3,2.43E2,3.4E2,4.71E2,1.42E2,1.285E3,5.14E2,4.75E2,1.156E3,2.16E2,2.7E1,2E2,1.4E2,2.65E2,2.06E2,6.9E1,7.3E1,7.69E2,5.16E2,1.11E2,4.03E2,9.2E1,3.83E2,1.045E3,1.11E2],"tree_param":{"num_deleted":"0","num_feature":"2","num_nodes":"31","size_leaf_vector":"1"}},{"base_weights":[-2.8512315E-3,-5.182842E-1,1.7697276E-1,-6.524368E-2,-9.4834507E-1,4.8595414E-1,-2.8427175E-1,-9.514503E-1,5.6906617E-1,-7.839473E-1,-1.4843409E0,2.899616E-1,8.12656E-1,-8.2905215E-1,8.124078E-2,-9.9500895E-2,-5.798901E-2,1.4312553E-2,9.317268E-2,-8.805098E-2,-7.430601E-2,-2.4547637E-1,-5.463148E-2,5.4177236E-2,-8.563659E-3,1.4313684E-1,2.7716568E-2,-1.23146355E-1,-7.407509E-2,6.0632955E-2,-5.0884932E-2],"categories":[],"categories_nodes":[],"categories_segments":[],"categories_sizes":[],"default_left":[0,0,0,0,0,0,0,0,0,0,0,0,0,0,0,0,0,0,0,0,0,0,0,0,0,0,0,0,0,0,0],"id":24,"left_children":[1,3,5,7,9,11,13,15,17,19,21,23,25,27,29,-1,-1,-1,-1,-1,-1,-1,-1,-1,-1,-1,-1,-1,-1,-1,-1],"loss_changes":[4.2895547E2,2.3315564E2,4.8911035E2,3.288251E2,5.293988E1,1.3134833E2,2.7426117E2,3.3720856E0,5.254155E1,1.2092896E0,1.2882922E2,1.2167585E2,2.5471545E2,1.8737762E1,2.5593452E2,0E0,0E0,0E0,0E0,0E0,0E0,0E0,0E0,0E0,0E0,0E0,0E0,0E0,0E0,0E0,0E0],"parents":[2147483647,0,0,1,1,2,2,3,3,4,4,5,5,6,6,7,7,8,8,9,9,10,10,11,11,12,12,13,13,14,14],"right_children":[2,4,6,8,10,12,14,16,18,20,22,24,26,28,30,-1,-1,-1,-1,-1,-1,-1,-1,-1,-1,-1,-1,-1,-1,-1,-1],"split_conditions":[9E0,5E0,1.8E1,4E0,7E0,1.5E1,4E0,3E0,5E0,2E0,8E0,1.2E1,5E0,1.9E1,6E0,-9.9500895E-2,-5.798901E-2,1.4312553E-2,9.317268E-2,-8.805098E-2,-7.430601E-2,-2.4547637E-1,-5.463148E-2,5.4177236E-2,-8.563659E-3,1.4313684E-1,2.7716568E-2,-1.23146355E-1,-7.407509E-2,6.0632955E-2,-5.0884932E-2],"split_indices":[1,0,1,1,1,1,0,1,1,1,1,1,0,1,0,0,0,0,0,0,0,0,0,0,0,0,0,0,0,0,0],"split_type":[0,0,0,0,0,0,0,0,0,0,0,0,0,0,0,0,0,0,0,0,0,0,0,0,0,0,0,0,0,0,0],"sum_hessian":[4.626E3,1.196E3,3.43E3,5.83E2,6.13E2,2.054E3,1.376E3,2.43E2,3.4E2,4.71E2,1.42E2,1.285E3,7.69E2,5.52E2,8.24E2,2.16E2,2.7E1,1.57E2,1.83E2,1.34E2,3.37E2,6.9E1,7.3E1,7.69E2,5.16E2,3.56E2,4.13E2,9.7E1,4.55E2,4.36E2,3.88E2],"tree_param":{"num_deleted":"0","num_feature":"2","num_nodes":"31","size_leaf_vector":"1"}},{"base_weights":[-2.6703281E-3,-4.668838E-1,1.5928426E-1,-5.880479E-2,-8.5426366E-1,3.331935E-1,-5.5390286E-1,-8.569507E-1,5.1247495E-1,-7.0589656E-1,-1.3380051E0,-3.7759647E-1,4.3661988E-1,-4.0702453E-1,-1.2630426E0,-8.959666E-2,-5.239719E-2,2.6082674E-2,1.12498045E-1,-5.5588793E-2,-7.2806485E-2,-2.2127938E-1,-4.9242124E-2,1.8745487E-3,-9.408047E-2,5.4402914E-2,-3.4749643E-3,-7.229851E-2,-1.652966E-2,-7.215142E-2,-1.9777234E-1],"categories":[],"categories_nodes":[],"categories_segments":[],"categories_sizes":[],"default_left":[0,0,0,0,0,0,0,0,0,0,0,0,0,0,0,0,0,0,0,0,0,0,0,0,0,0,0,0,0,0,0],"id":25,"left_children":[1,3,5,7,9,11,13,15,17,19,21,23,25,27,29,-1,-1,-1,-1,-1,-1,-1,-1,-1,-1,-1,-1,-1,-1,-1,-1],"loss_changes":[3.4793915E2,1.8917346E2,4.2573093E2,2.667225E2,4.3123108E1,2.0299118E2,6.958374E1,2.7004547E0,5.2266937E1,1.1649017E0,1.0468848E2,7.836893E1,1.219852E2,4.257496E1,4.3080322E1,0E0,0E0,0E0,0E0,0E0,0E0,0E0,0E0,0E0,0E0,0E0,0E0,0E0,0E0,0E0,0E0],"parents":[2147483647,0,0,1,1,2,2,3,3,4,4,5,5,6,6,7,7,8,8,9,9,10,10,11,11,12,12,13,13,14,14],"right_children":[2,4,6,8,10,12,14,16,18,20,22,24,26,28,30,-1,-1,-1,-1,-1,-1,-1,-1,-1,-1,-1,-1,-1,-1,-1,-1],"split_conditions":[9E0,5E0,2.1E1,4E0,7E0,2E0,2.3E1,3E0,4E0,1E0,8E0,1.7E1,7E0,4E0,6E0,-8.959666E-2,-5.239719E-2,2.6082674E-2,1.12498045E-1,-5.5588793E-2,-7.2806485E-2,-2.2127938E-1,-4.9242124E-2,1.8745487E-3,-9.408047E-2,5.4402914E-2,-3.4749643E-3,-7.229851E-2,-1.652966E-2,-7.215142E-2,-1.9777234E-1],"split_indices":[1,0,1,1,1,0,1,1,0,1,1,1,0,0,0,0,0,0,0,0,0,0,0,0,0,0,0,0,0,0,0],"split_type":[0,0,0,0,0,0,0,0,0,0,0,0,0,0,0,0,0,0,0,0,0,0,0,0,0,0,0,0,0,0,0],"sum_hessian":[4.626E3,1.196E3,3.43E3,5.83E2,6.13E2,2.758E3,6.72E2,2.43E2,3.4E2,4.71E2,1.42E2,3.5E2,2.408E3,5.58E2,1.14E2,2.16E2,2.7E1,2.42E2,9.8E1,6.4E1,4.07E2,6.9E1,7.3E1,2.06E2,1.44E2,1.961E3,4.47E2,2.41E2,3.17E2,6.6E1,4.8E1],"tree_param":{"num_deleted":"0","num_feature":"2","num_nodes":"31","size_leaf_vector":"1"}},{"base_weights":[-2.5768664E-3,-4.205316E-1,1.4323904E-1,-5.293016E-2,-7.6948714E-1,4.5115805E-1,-1.9646525E-1,-7.7183753E-1,4.6163386E-1,-6.35579E-1,-1.2060965E0,2.2311553E-1,1.019724E0,-6.475602E-1,-1.0711021E-2,-8.067828E-2,-4.734465E-2,7.618607E-3,7.901073E-2,-7.290065E-2,-5.963829E-2,-1.9946758E-1,-4.4384465E-2,4.493675E-2,-1.1428701E-2,2.1532252E-1,7.0296206E-2,1.5431333E-3,-8.064421E-2,1.0573147E-2,-1.0981051E-1],"categories":[],"categories_nodes":[],"categories_segments":[],"categories_sizes":[],"default_left":[0,0,0,0,0,0,0,0,0,0,0,0,0,0,0,0,0,0,0,0,0,0,0,0,0,0,0,0,0,0,0],"id":26,"left_children":[1,3,5,7,9,11,13,15,17,19,21,23,25,27,29,-1,-1,-1,-1,-1,-1,-1,-1,-1,-1,-1,-1,-1,-1,-1,-1],"loss_changes":[2.820502E2,1.535063E2,3.5897607E2,2.1639185E2,3.5131256E1,2.3315536E2,1.3674292E2,2.1622925E0,4.3113594E1,1.2937012E0,8.507141E1,9.822199E1,1.8339716E2,5.0153015E1,1.4661414E2,0E0,0E0,0E0,0E0,0E0,0E0,0E0,0E0,0E0,0E0,0E0,0E0,0E0,0E0,0E0,0E0],"parents":[2147483647,0,0,1,1,2,2,3,3,4,4,5,5,6,6,7,7,8,8,9,9,10,10,11,11,12,12,13,13,14,14],"right_children":[2,4,6,8,10,12,14,16,18,20,22,24,26,28,30,-1,-1,-1,-1,-1,-1,-1,-1,-1,-1,-1,-1,-1,-1,-1,-1],"split_conditions":[9E0,5E0,1.7E1,4E0,7E0,1.5E1,3E0,3E0,5E0,2E0,8E0,1.2E1,3E0,1.8E1,7E0,-8.067828E-2,-4.734465E-2,7.618607E-3,7.901073E-2,-7.290065E-2,-5.963829E-2,-1.9946758E-1,-4.4384465E-2,4.493675E-2,-1.1428701E-2,2.1532252E-1,7.0296206E-2,1.5431333E-3,-8.064421E-2,1.0573147E-2,-1.0981051E-1],"split_indices":[1,0,1,1,1,1,0,1,1,1,1,1,0,1,0,0,0,0,0,0,0,0,0,0,0,0,0,0,0,0,0],"split_type":[0,0,0,0,0,0,0,0,0,0,0,0,0,0,0,0,0,0,0,0,0,0,0,0,0,0,0,0,0,0,0],"sum_hessian":[4.626E3,1.196E3,3.43E3,5.83E2,6.13E2,1.799E3,1.631E3,2.43E2,3.4E2,4.71E2,1.42E2,1.285E3,5.14E2,4.75E2,1.156E3,2.16E2,2.7E1,1.57E2,1.83E2,1.34E2,3.37E2,6.9E1,7.3E1,7.69E2,5.16E2,1.11E2,4.03E2,9.2E1,3.83E2,1.045E3,1.11E2],"tree_param":{"num_deleted":"0","num_feature":"2","num_nodes":"31","size_leaf_vector":"1"}},{"base_weights":[-2.3789327E-3,-3.7882724E-1,1.2895624E-1,-4.7707666E-2,-6.9315135E-1,3.0765375E-1,-3.8941306E-1,-6.9517857E-1,4.157252E-1,-5.7230175E-1,-1.0871923E0,-3.0730224E-1,3.9816967E-1,-2.777594E-1,-1.1297373E0,-5.8636066E-2,-7.845684E-2,1.8789602E-2,9.707431E-2,-5.1994212E-2,-6.368205E-2,-1.7980576E-1,-4.000604E-2,-6.964043E-3,-7.080292E-2,7.256322E-2,1.8896574E-2,-6.048156E-2,1.873922E-2,-6.2681906E-2,-1.7943452E-1],"categories":[],"categories_nodes":[],"categories_segments":[],"categories_sizes":[],"default_left":[0,0,0,0,0,0,0,0,0,0,0,0,0,0,0,0,0,0,0,0,0,0,0,0,0,0,0,0,0,0,0],"id":27,"left_children":[1,3,5,7,9,11,13,15,17,19,21,23,25,27,29,-1,-1,-1,-1,-1,-1,-1,-1,-1,-1,-1,-1,-1,-1,-1,-1],"loss_changes":[2.2881194E2,1.2454933E2,3.1793784E2,1.7552362E2,2.8616272E1,1.4217513E2,7.2426926E1,1.9134064E0,4.2936802E1,1.2634125E0,6.913022E1,3.1188587E1,1.522897E2,1.1664546E2,3.7313263E1,0E0,0E0,0E0,0E0,0E0,0E0,0E0,0E0,0E0,0E0,0E0,0E0,0E0,0E0,0E0,0E0],"parents":[2147483647,0,0,1,1,2,2,3,3,4,4,5,5,6,6,7,7,8,8,9,9,10,10,11,11,12,12,13,13,14,14],"right_children":[2,4,6,8,10,12,14,16,18,20,22,24,26,28,30,-1,-1,-1,-1,-1,-1,-1,-1,-1,-1,-1,-1,-1,-1,-1,-1],"split_conditions":[9E0,5E0,2E1,4E0,7E0,2E0,2.3E1,2E0,4E0,4E0,8E0,1.7E1,5E0,5E0,6E0,-5.8636066E-2,-7.845684E-2,1.8789602E-2,9.707431E-2,-5.1994212E-2,-6.368205E-2,-1.7980576E-1,-4.000604E-2,-6.964043E-3,-7.080292E-2,7.256322E-2,1.8896574E-2,-6.048156E-2,1.873922E-2,-6.2681906E-2,-1.7943452E-1],"split_indices":[1,0,1,1,1,0,1,0,0,1,1,1,0,0,0,0,0,0,0,0,0,0,0,0,0,0,0,0,0,0,0],"split_type":[0,0,0,0,0,0,0,0,0,0,0,0,0,0,0,0,0,0,0,0,0,0,0,0,0,0,0,0,0,0,0],"sum_hessian":[4.626E3,1.196E3,3.43E3,5.83E2,6.13E2,2.551E3,8.79E2,2.43E2,3.4E2,4.71E2,1.42E2,3.27E2,2.224E3,7.65E2,1.14E2,1.13E2,1.3E2,2.42E2,9.8E1,2.65E2,2.06E2,6.9E1,7.3E1,2.06E2,1.21E2,8.66E2,1.358E3,4.49E2,3.16E2,6.6E1,4.8E1],"tree_param":{"num_deleted":"0","num_feature":"2","num_nodes":"31","size_leaf_vector":"1"}},{"base_weights":[-2.276323E-3,-4.4887772E-1,9.0775944E-2,-4.6414215E-2,-5.314889E-1,2.0380808E-1,-4.3975344E-1,-5.282391E-1,2.2441879E-1,-9.341642E-1,-4.7374216E-1,-2.6973134E-1,2.714073E-1,-3.1982857E-1,-1.0188687E0,-5.726921E-2,-3.712516E-2,-5.2416503E-2,-1.0579678E-1,-6.1277725E-2,-3.8478803E-2,-4.5277269E-4,-7.269477E-2,5.6384694E-2,7.833254E-3,-4.760426E-2,-8.754846E-3,-5.6507256E-2,-1.6185723E-1],"categories":[],"categories_nodes":[],"categories_segments":[],"categories_sizes":[],"default_left":[0,0,0,0,0,0,0,0,0,0,0,0,0,0,0,0,0,0,0,0,0,0,0,0,0,0,0,0,0],"id":28,"left_children":[1,3,5,7,9,11,13,15,-1,17,19,21,23,25,27,-1,-1,-1,-1,-1,-1,-1,-1,-1,-1,-1,-1,-1,-1],"loss_changes":[1.9232625E2,2.6507233E1,2.2976276E2,1.5238812E2,1.495105E1,1.01163635E2,4.6414215E1,5.8294106E-1,0E0,3.6077118E0,6.949875E0,4.7892605E1,1.5601878E2,2.0241863E1,3.0381851E1,0E0,0E0,0E0,0E0,0E0,0E0,0E0,0E0,0E0,0E0,0E0,0E0,0E0,0E0],"parents":[2147483647,0,0,1,1,2,2,3,3,4,4,5,5,6,6,7,7,9,9,10,10,11,11,12,12,13,13,14,14],"right_children":[2,4,6,8,10,12,14,16,-1,18,20,22,24,26,28,-1,-1,-1,-1,-1,-1,-1,-1,-1,-1,-1,-1,-1,-1],"split_conditions":[6E0,2E0,2.1E1,4E0,3E0,2E0,2.3E1,3E0,2.2441879E-1,1E0,2E0,1.7E1,5E0,5E0,6E0,-5.726921E-2,-3.712516E-2,-5.2416503E-2,-1.0579678E-1,-6.1277725E-2,-3.8478803E-2,-4.5277269E-4,-7.269477E-2,5.6384694E-2,7.833254E-3,-4.760426E-2,-8.754846E-3,-5.6507256E-2,-1.6185723E-1],"split_indices":[1,0,1,1,0,0,1,1,0,1,1,1,0,0,0,0,0,0,0,0,0,0,0,0,0,0,0,0,0],"split_type":[0,0,0,0,0,0,0,0,0,0,0,0,0,0,0,0,0,0,0,0,0,0,0,0,0,0,0,0,0],"sum_hessian":[4.626E3,7.97E2,3.829E3,1.36E2,6.61E2,3.157E3,6.72E2,1.13E2,2.3E1,8.1E1,5.8E2,3.94E2,2.763E3,5.58E2,1.14E2,8.6E1,2.7E1,2E1,6.1E1,2.24E2,3.56E2,2.5E2,1.44E2,1.098E3,1.665E3,3.33E2,2.25E2,6.6E1,4.8E1],"tree_param":{"num_deleted":"0","num_feature":"2","num_nodes":"29","size_leaf_vector":"1"}},{"base_weights":[-2.1378368E-3,-3.1936878E-1,1.08537644E-1,-2.663116E-2,-5.972831E-1,3.4962368E-1,-1.5743259E-1,-5.6635875E-1,3.5964495E-1,-4.7770756E-1,-9.8778915E-1,1.444543E-1,8.6127067E-1,-2.5880711E-2,-5.878356E-1,-5.9354324E-2,-3.354519E-2,1.51959155E-2,8.6578645E-2,-4.1832384E-2,-5.5170935E-2,-1.6285421E-1,-3.6832307E-2,3.4625214E-2,-1.5637504E-2,1.8923856E-1,5.732852E-2,7.139388E-3,-1.01576604E-1,-4.4358935E-2,-9.1888055E-2],"categories":[],"categories_nodes":[],"categories_segments":[],"categories_sizes":[],"default_left":[0,0,0,0,0,0,0,0,0,0,0,0,0,0,0,0,0,0,0,0,0,0,0,0,0,0,0,0,0,0,0],"id":29,"left_children":[1,3,5,7,9,11,13,15,17,19,21,23,25,27,29,-1,-1,-1,-1,-1,-1,-1,-1,-1,-1,-1,-1,-1,-1,-1,-1],"loss_changes":[1.6248718E2,9.73672E1,2.2005664E2,1.2195827E2,2.8198822E1,1.8882932E2,9.238917E1,1.3325043E0,3.5713806E1,1.8434143E0,5.61604E1,7.8122955E1,1.518424E2,1.20532166E2,1.7833633E1,0E0,0E0,0E0,0E0,0E0,0E0,0E0,0E0,0E0,0E0,0E0,0E0,0E0,0E0,0E0,0E0],"parents":[2147483647,0,0,1,1,2,2,3,3,4,4,5,5,6,6,7,7,8,8,9,9,10,10,11,11,12,12,13,13,14,14],"right_children":[2,4,6,8,10,12,14,16,18,20,22,24,26,28,30,-1,-1,-1,-1,-1,-1,-1,-1,-1,-1,-1,-1,-1,-1,-1,-1],"split_conditions":[9E0,5E0,1.7E1,4E0,7E0,1.5E1,2.2E1,3E0,4E0,4E0,8E0,1.2E1,3E0,7E0,2.3E1,-5.9354324E-2,-3.354519E-2,1.51959155E-2,8.6578645E-2,-4.1832384E-2,-5.5170935E-2,-1.6285421E-1,-3.6832307E-2,3.4625214E-2,-1.5637504E-2,1.8923856E-1,5.732852E-2,7.139388E-3,-1.01576604E-1,-4.4358935E-2,-9.1888055E-2],"split_indices":[1,0,1,1,1,1,1,1,0,1,1,1,0,0,1,0,0,0,0,0,0,0,0,0,0,0,0,0,0,0,0],"split_type":[0,0,0,0,0,0,0,0,0,0,0,0,0,0,0,0,0,0,0,0,0,0,0,0,0,0,0,0,0,0,0],"sum_hessian":[4.626E3,1.196E3,3.43E3,5.83E2,6.13E2,1.799E3,1.631E3,2.43E2,3.4E2,4.71E2,1.42E2,1.285E3,5.14E2,1.25E3,3.81E2,2.16E2,2.7E1,2.42E2,9.8E1,2.65E2,2.06E2,6.9E1,7.3E1,7.69E2,5.16E2,1.11E2,4.03E2,1.139E3,1.11E2,2.67E2,1.14E2],"tree_param":{"num_deleted":"0","num_feature":"2","num_nodes":"31","size_leaf_vector":"1"}},{"base_weights":[-1.9787906E-3,-2.876723E-1,9.7693935E-2,-2.3952773E-2,-5.38038E-1,2.3514372E-1,-3.0102146E-1,-3.0807656E-1,5.95382E-1,-4.3014225E-1,-8.9040685E-1,-2.9815066E-1,3.13654E-1,-6.092865E-1,-8.238237E-2,-5.101036E-2,5.864361E-4,2.9413605E-2,1.3968383E-1,-2.7665678E-2,-4.5354035E-2,-1.4680144E-1,-3.3198886E-2,-9.072362E-2,-1.9557914E-2,5.681634E-2,1.5105411E-2,-9.027829E-2,-4.9818005E-2,3.646545E-2,-6.2691495E-2],"categories":[],"categories_nodes":[],"categories_segments":[],"categories_sizes":[],"default_left":[0,0,0,0,0,0,0,0,0,0,0,0,0,0,0,0,0,0,0,0,0,0,0,0,0,0,0,0,0,0,0],"id":30,"left_children":[1,3,5,7,9,11,13,15,17,19,21,23,25,27,29,-1,-1,-1,-1,-1,-1,-1,-1,-1,-1,-1,-1,-1,-1,-1,-1],"loss_changes":[1.3178586E2,7.902063E1,1.8810104E2,1.02948586E2,2.2960724E1,1.0694345E2,5.926075E1,2.543623E1,4.401326E1,1.569603E0,4.5636765E1,2.0314308E1,9.199179E1,1.1452652E1,1.258365E2,0E0,0E0,0E0,0E0,0E0,0E0,0E0,0E0,0E0,0E0,0E0,0E0,0E0,0E0,0E0,0E0],"parents":[2147483647,0,0,1,1,2,2,3,3,4,4,5,5,6,6,7,7,8,8,9,9,10,10,11,11,12,12,13,13,14,14],"right_children":[2,4,6,8,10,12,14,16,18,20,22,24,26,28,30,-1,-1,-1,-1,-1,-1,-1,-1,-1,-1,-1,-1,-1,-1,-1,-1],"split_conditions":[9E0,5E0,2E1,5E0,7E0,2E0,4E0,4E0,4E0,1E0,8E0,1E1,5E0,2.1E1,6E0,-5.101036E-2,5.864361E-4,2.9413605E-2,1.3968383E-1,-2.7665678E-2,-4.5354035E-2,-1.4680144E-1,-3.3198886E-2,-9.072362E-2,-1.9557914E-2,5.681634E-2,1.5105411E-2,-9.027829E-2,-4.9818005E-2,3.646545E-2,-6.2691495E-2],"split_indices":[1,0,1,1,1,0,0,1,0,1,1,1,0,1,0,0,0,0,0,0,0,0,0,0,0,0,0,0,0,0,0],"split_type":[0,0,0,0,0,0,0,0,0,0,0,0,0,0,0,0,0,0,0,0,0,0,0,0,0,0,0,0,0,0,0],"sum_hessian":[4.626E3,1.196E3,3.43E3,5.83E2,6.13E2,2.551E3,8.79E2,4E2,1.83E2,4.71E2,1.42E2,3.27E2,2.224E3,3.64E2,5.15E2,2.43E2,1.57E2,1.34E2,4.9E1,6.4E1,4.07E2,6.9E1,7.3E1,4.6E1,2.81E2,8.66E2,1.358E3,9.8E1,2.66E2,2.83E2,2.32E2],"tree_param":{"num_deleted":"0","num_feature":"2","num_nodes":"31","size_leaf_vector":"1"}},{"base_weights":[-1.8543054E-3,-3.3474177E-1,6.750497E-2,4.2471137E-2,-4.122998E-1,1.309957E-1,-5.059166E-1,-3.729593E-1,2.013996E-1,-7.967315E-1,-3.5733303E-1,-2.601261E-1,1.878285E-1,-3.7620786E-1,-8.037951E-1,-4.0698513E-2,-2.5391612E-2,-3.6913533E-2,-9.287119E-2,-4.60733E-2,-2.9116407E-2,4.0600394E-4,-5.417777E-2,3.9017167E-2,5.136733E-3,-6.51627E-2,1.577638E-2,-4.2261798E-2,-1.3085926E-1],"categories":[],"categories_nodes":[],"categories_segments":[],"categories_sizes":[],"default_left":[0,0,0,0,0,0,0,0,0,0,0,0,0,0,0,0,0,0,0,0,0,0,0,0,0,0,0,0,0],"id":31,"left_children":[1,3,5,7,9,11,13,15,-1,17,19,21,23,25,27,-1,-1,-1,-1,-1,-1,-1,-1,-1,-1,-1,-1,-1,-1],"loss_changes":[1.06854645E2,2.3363708E1,1.3950491E2,1.1295844E2,1.3704002E1,7.671511E1,1.4457108E1,3.5842323E-1,0E0,4.284794E0,3.840973E0,3.25931E1,8.314725E1,3.9516495E1,2.1574944E1,0E0,0E0,0E0,0E0,0E0,0E0,0E0,0E0,0E0,0E0,0E0,0E0,0E0,0E0],"parents":[2147483647,0,0,1,1,2,2,3,3,4,4,5,5,6,6,7,7,9,9,10,10,11,11,12,12,13,13,14,14],"right_children":[2,4,6,8,10,12,14,16,-1,18,20,22,24,26,28,-1,-1,-1,-1,-1,-1,-1,-1,-1,-1,-1,-1,-1,-1],"split_conditions":[6E0,2E0,2.2E1,4E0,3E0,2E0,2.3E1,3E0,2.013996E-1,1E0,2E0,1.6E1,5E0,5E0,6E0,-4.0698513E-2,-2.5391612E-2,-3.6913533E-2,-9.287119E-2,-4.60733E-2,-2.9116407E-2,4.0600394E-4,-5.417777E-2,3.9017167E-2,5.136733E-3,-6.51627E-2,1.577638E-2,-4.2261798E-2,-1.3085926E-1],"split_indices":[1,0,1,1,0,0,1,1,0,1,1,1,0,0,0,0,0,0,0,0,0,0,0,0,0,0,0,0,0],"split_type":[0,0,0,0,0,0,0,0,0,0,0,0,0,0,0,0,0,0,0,0,0,0,0,0,0,0,0,0,0],"sum_hessian":[4.626E3,7.97E2,3.829E3,1.36E2,6.61E2,3.448E3,3.81E2,1.13E2,2.3E1,8.1E1,5.8E2,4.37E2,3.011E3,2.67E2,1.14E2,8.6E1,2.7E1,2E1,6.1E1,2.24E2,3.56E2,2.26E2,2.11E2,1.212E3,1.799E3,1.76E2,9.1E1,6.6E1,4.8E1],"tree_param":{"num_deleted":"0","num_feature":"2","num_nodes":"29","size_leaf_vector":"1"}},{"base_weights":[-1.7338947E-3,-2.422319E-1,8.2171045E-2,-8.734148E-3,-4.6392646E-1,2.7664527E-1,-1.3237293E-1,-2.4544615E-1,5.071911E-1,-3.587841E-1,-8.077255E-1,9.194347E-2,7.3732466E-1,-7.317222E-2,-9.351579E-1,-4.145157E-2,1.7202027E-3,2.3879716E-2,1.221711E-1,-2.9817177E-2,-4.3493923E-2,-1.3283737E-1,-3.0430526E-2,2.741078E-2,-1.7954296E-2,1.6893141E-1,4.7158174E-2,-3.9141025E-2,1.7583972E-2,-2.5445303E-2,-1.38855E-1],"categories":[],"categories_nodes":[],"categories_segments":[],"categories_sizes":[],"default_left":[0,0,0,0,0,0,0,0,0,0,0,0,0,0,0,0,0,0,0,0,0,0,0,0,0,0,0,0,0,0,0],"id":32,"left_children":[1,3,5,7,9,11,13,15,17,19,21,23,25,27,29,-1,-1,-1,-1,-1,-1,-1,-1,-1,-1,-1,-1,-1,-1,-1,-1],"loss_changes":[9.338801E1,6.1958885E1,1.4318918E2,7.14459E1,2.1904968E1,1.5309117E2,7.74931E1,1.781386E1,3.4994453E1,2.049038E0,3.707675E1,6.364852E1,1.2949036E2,1.2060056E2,3.4212807E1,0E0,0E0,0E0,0E0,0E0,0E0,0E0,0E0,0E0,0E0,0E0,0E0,0E0,0E0,0E0,0E0],"parents":[2147483647,0,0,1,1,2,2,3,3,4,4,5,5,6,6,7,7,8,8,9,9,10,10,11,11,12,12,13,13,14,14],"right_children":[2,4,6,8,10,12,14,16,18,20,22,24,26,28,30,-1,-1,-1,-1,-1,-1,-1,-1,-1,-1,-1,-1,-1,-1,-1,-1],"split_conditions":[9E0,5E0,1.7E1,5E0,7E0,1.5E1,7E0,4E0,4E0,4E0,8E0,1.2E1,3E0,4E0,1.8E1,-4.145157E-2,1.7202027E-3,2.3879716E-2,1.221711E-1,-2.9817177E-2,-4.3493923E-2,-1.3283737E-1,-3.0430526E-2,2.741078E-2,-1.7954296E-2,1.6893141E-1,4.7158174E-2,-3.9141025E-2,1.7583972E-2,-2.5445303E-2,-1.38855E-1],"split_indices":[1,0,1,1,1,1,0,1,0,1,1,1,0,0,1,0,0,0,0,0,0,0,0,0,0,0,0,0,0,0,0],"split_type":[0,0,0,0,0,0,0,0,0,0,0,0,0,0,0,0,0,0,0,0,0,0,0,0,0,0,0,0,0,0,0],"sum_hessian":[4.626E3,1.196E3,3.43E3,5.83E2,6.13E2,1.799E3,1.631E3,4E2,1.83E2,4.71E2,1.42E2,1.285E3,5.14E2,1.52E3,1.11E2,2.43E2,1.57E2,1.34E2,4.9E1,2.65E2,2.06E2,6.9E1,7.3E1,7.69E2,5.16E2,1.11E2,4.03E2,6.67E2,8.53E2,4.5E1,6.6E1],"tree_param":{"num_deleted":"0","num_feature":"2","num_nodes":"31","size_leaf_vector":"1"}},{"base_weights":[-1.5800416E-3,3.8775187E-2,-4.5013168E-1,-2.1811765E-1,1.3958238E-1,-3.2835063E-1,-7.300203E-1,-7.678876E-3,-4.1791916E-1,-2.9964504E-1,2.0466182E-1,-5.620138E-1,1.2476597E-1,-3.7714216E-1,-1.19762875E-1,-2.2100076E-2,4.5726545E-2,-3.2306112E-2,-7.280946E-2,-8.4566824E-2,-2.2503948E-2,2.9096479E-2,2.3679629E-3,-6.7928486E-2,-4.32891E-2,4.9678445E-2,-2.4199182E-2,-6.471976E-2,-2.009854E-2],"categories":[],"categories_nodes":[],"categories_segments":[],"categories_sizes":[],"default_left":[0,0,0,0,0,0,0,0,0,0,0,0,0,0,0,0,0,0,0,0,0,0,0,0,0,0,0,0,0],"id":33,"left_children":[1,3,5,7,9,11,13,15,17,19,21,23,25,27,-1,-1,-1,-1,-1,-1,-1,-1,-1,-1,-1,-1,-1,-1,-1],"loss_changes":[8.377265E1,1.0998761E2,1.2780823E1,5.0325832E1,8.724457E1,2.8445063E1,1.8524334E1,5.802381E1,1.7830284E1,1.5859825E1,4.149357E1,2.3861427E0,1.267276E1,3.057253E0,0E0,0E0,0E0,0E0,0E0,0E0,0E0,0E0,0E0,0E0,0E0,0E0,0E0,0E0,0E0],"parents":[2147483647,0,0,1,1,2,2,3,3,4,4,5,5,6,6,7,7,8,8,9,9,10,10,11,11,12,12,13,13],"right_children":[2,4,6,8,10,12,14,16,18,20,22,24,26,28,-1,-1,-1,-1,-1,-1,-1,-1,-1,-1,-1,-1,-1,-1,-1],"split_conditions":[2.2E1,9E0,2.3E1,5E0,2E0,5E0,6E0,5E0,7E0,1E1,1.8E1,3E0,6E0,2E0,-1.19762875E-1,-2.2100076E-2,4.5726545E-2,-3.2306112E-2,-7.280946E-2,-8.4566824E-2,-2.2503948E-2,2.9096479E-2,2.3679629E-3,-6.7928486E-2,-4.32891E-2,4.9678445E-2,-2.4199182E-2,-6.471976E-2,-2.009854E-2],"split_indices":[1,1,1,0,0,0,0,1,1,1,1,0,0,0,0,0,0,0,0,0,0,0,0,0,0,0,0,0,0],"split_type":[0,0,0,0,0,0,0,0,0,0,0,0,0,0,0,0,0,0,0,0,0,0,0,0,0,0,0,0,0],"sum_hessian":[4.626E3,4.245E3,3.81E2,1.196E3,3.049E3,2.67E2,1.14E2,5.83E2,6.13E2,3.93E2,2.656E3,1.76E2,9.1E1,6.6E1,4.8E1,4E2,1.83E2,4.71E2,1.42E2,4.6E1,3.47E2,1.798E3,8.58E2,9E1,8.6E1,4.5E1,4.6E1,2.5E1,4.1E1],"tree_param":{"num_deleted":"0","num_feature":"2","num_nodes":"29","size_leaf_vector":"1"}},{"base_weights":[-1.5187168E-3,3.4860693E-2,-4.0587854E-1,-1.9637395E-1,1.2559938E-1,-2.9583547E-1,-6.587974E-1,-6.870502E-3,-3.7629846E-1,-2.6995197E-1,1.8420745E-1,-5.064407E-1,1.1256628E-1,-3.4069383E-1,-1.0803105E-1,-3.512246E-2,2.3954963E-2,-2.9082341E-2,-6.5579444E-2,-5.983138E-3,-4.500563E-2,2.3871854E-2,-8.510883E-3,-6.1210282E-2,-3.900994E-2,4.481856E-2,-2.1830726E-2,-5.8496714E-2,-1.813653E-2],"categories":[],"categories_nodes":[],"categories_segments":[],"categories_sizes":[],"default_left":[0,0,0,0,0,0,0,0,0,0,0,0,0,0,0,0,0,0,0,0,0,0,0,0,0,0,0,0,0],"id":34,"left_children":[1,3,5,7,9,11,13,15,17,19,21,23,25,27,-1,-1,-1,-1,-1,-1,-1,-1,-1,-1,-1,-1,-1,-1,-1],"loss_changes":[6.807904E1,8.9113945E1,1.0436916E1,4.08107E1,7.075635E1,2.3108105E1,1.5051693E1,4.963991E1,1.4477699E1,1.4883461E1,3.9026985E1,1.9370537E0,1.0314216E1,2.5015273E0,0E0,0E0,0E0,0E0,0E0,0E0,0E0,0E0,0E0,0E0,0E0,0E0,0E0,0E0,0E0],"parents":[2147483647,0,0,1,1,2,2,3,3,4,4,5,5,6,6,7,7,8,8,9,9,10,10,11,11,12,12,13,13],"right_children":[2,4,6,8,10,12,14,16,18,20,22,24,26,28,-1,-1,-1,-1,-1,-1,-1,-1,-1,-1,-1,-1,-1,-1,-1],"split_conditions":[2.2E1,9E0,2.3E1,5E0,2E0,5E0,6E0,4E0,7E0,1.6E1,7E0,3E0,6E0,2E0,-1.0803105E-1,-3.512246E-2,2.3954963E-2,-2.9082341E-2,-6.5579444E-2,-5.983138E-3,-4.500563E-2,2.3871854E-2,-8.510883E-3,-6.1210282E-2,-3.900994E-2,4.481856E-2,-2.1830726E-2,-5.8496714E-2,-1.813653E-2],"split_indices":[1,1,1,0,0,0,0,1,1,1,0,0,0,0,0,0,0,0,0,0,0,0,0,0,0,0,0,0,0],"split_type":[0,0,0,0,0,0,0,0,0,0,0,0,0,0,0,0,0,0,0,0,0,0,0,0,0,0,0,0,0],"sum_hessian":[4.626E3,4.245E3,3.81E2,1.196E3,3.049E3,2.67E2,1.14E2,5.83E2,6.13E2,3.93E2,2.656E3,1.76E2,9.1E1,6.6E1,4.8E1,2.43E2,3.4E2,4.71E2,1.42E2,1.82E2,2.11E2,2.209E3,4.47E2,9E1,8.6E1,4.5E1,4.6E1,2.5E1,4.1E1],"tree_param":{"num_deleted":"0","num_feature":"2","num_nodes":"29","size_leaf_vector":"1"}},{"base_weights":[-1.454122E-3,4.4162173E-2,-2.6952395E-1,-8.041156E-2,2.2546649E-1,-1.3357517E-1,-6.2213105E-1,3.1859238E-2,-5.0440735E-1,5.5438346E-1,1.8422047E-3,-2.8629655E-1,4.180583E-1,-4.934446E-1,-9.744839E-2,-2.05501E-2,1.6560998E-2,-2.7306868E-2,-2.7364212E-1,3.0210584E-2,1.4583233E-1,1.1391951E-2,-8.477602E-2,-7.1231984E-3,-4.3604728E-2,5.4091144E-2,-1.7294874E-2,-6.379846E-2,-1.9694114E-2],"categories":[],"categories_nodes":[],"categories_segments":[],"categories_sizes":[],"default_left":[0,0,0,0,0,0,0,0,0,0,0,0,0,0,0,0,0,0,0,0,0,0,0,0,0,0,0,0,0],"id":35,"left_children":[1,3,5,7,9,11,13,15,17,19,21,23,25,27,-1,-1,-1,-1,-1,-1,-1,-1,-1,-1,-1,-1,-1,-1,-1],"loss_changes":[5.6592487E1,8.93448E1,3.2178173E1,1.1164356E2,1.1849418E2,4.1147602E1,7.9982986E0,5.8924908E1,2.5278114E2,1.4824393E2,9.150887E1,1.227166E1,7.7899E0,5.831421E0,0E0,0E0,0E0,0E0,0E0,0E0,0E0,0E0,0E0,0E0,0E0,0E0,0E0,0E0,0E0],"parents":[2147483647,0,0,1,1,2,2,3,3,4,4,5,5,6,6,7,7,8,8,9,9,10,10,11,11,12,12,13,13],"right_children":[2,4,6,8,10,12,14,16,18,20,22,24,26,28,-1,-1,-1,-1,-1,-1,-1,-1,-1,-1,-1,-1,-1,-1,-1],"split_conditions":[2.1E1,1.4E1,6E0,7E0,1.7E1,5E0,2.3E1,7E0,1.3E1,7E0,7E0,2.2E1,2.3E1,2.2E1,-9.744839E-2,-2.05501E-2,1.6560998E-2,-2.7306868E-2,-2.7364212E-1,3.0210584E-2,1.4583233E-1,1.1391951E-2,-8.477602E-2,-7.1231984E-3,-4.3604728E-2,5.4091144E-2,-1.7294874E-2,-6.379846E-2,-1.9694114E-2],"split_indices":[1,1,0,0,1,0,1,1,1,0,0,1,1,1,0,0,0,0,0,0,0,0,0,0,0,0,0,0,0],"split_type":[0,0,0,0,0,0,0,0,0,0,0,0,0,0,0,0,0,0,0,0,0,0,0,0,0,0,0,0,0],"sum_hessian":[4.626E3,3.954E3,6.72E2,2.344E3,1.61E3,4.86E2,1.86E2,1.854E3,4.9E2,6.51E2,9.59E2,3.81E2,1.05E2,1.38E2,4.8E1,6.68E2,1.186E3,4.45E2,4.5E1,5.1E2,1.41E2,8.48E2,1.11E2,1.57E2,2.24E2,8.7E1,1.8E1,9.2E1,4.6E1],"tree_param":{"num_deleted":"0","num_feature":"2","num_nodes":"29","size_leaf_vector":"1"}},{"base_weights":[-1.3946474E-3,3.969469E-2,-2.428611E-1,-7.250063E-2,2.0298353E-1,-1.20246366E-1,-5.6088525E-1,2.867086E-2,-4.5457926E-1,-4.4684E-1,3.0070642E-1,-2.5779977E-1,3.7659937E-1,-4.4470042E-1,-8.790243E-2,-6.1409934E-3,3.5031736E-2,-2.458228E-2,-2.4687274E-1,-3.920718E-2,-8.572395E-2,6.662673E-2,7.135194E-3,-6.4154044E-3,-3.9263632E-2,4.8743468E-2,-1.5656406E-2,-5.7487167E-2,-1.7766578E-2],"categories":[],"categories_nodes":[],"categories_segments":[],"categories_sizes":[],"default_left":[0,0,0,0,0,0,0,0,0,0,0,0,0,0,0,0,0,0,0,0,0,0,0,0,0,0,0,0,0],"id":36,"left_children":[1,3,5,7,9,11,13,15,17,19,21,23,25,27,-1,-1,-1,-1,-1,-1,-1,-1,-1,-1,-1,-1,-1,-1,-1],"loss_changes":[4.591733E1,7.247128E1,2.6175823E1,9.0660095E1,1.0243711E2,3.3380043E1,6.521164E0,5.37686E1,2.0584216E2,4.406521E0,1.1741655E2,9.949032E0,6.340207E0,4.729538E0,0E0,0E0,0E0,0E0,0E0,0E0,0E0,0E0,0E0,0E0,0E0,0E0,0E0,0E0,0E0],"parents":[2147483647,0,0,1,1,2,2,3,3,4,4,5,5,6,6,7,7,8,8,9,9,10,10,11,11,12,12,13,13],"right_children":[2,4,6,8,10,12,14,16,18,20,22,24,26,28,-1,-1,-1,-1,-1,-1,-1,-1,-1,-1,-1,-1,-1,-1,-1],"split_conditions":[2.1E1,1.4E1,6E0,7E0,2E0,5E0,2.3E1,6E0,1.3E1,2E1,5E0,2.2E1,2.3E1,2.2E1,-8.790243E-2,-6.1409934E-3,3.5031736E-2,-2.458228E-2,-2.4687274E-1,-3.920718E-2,-8.572395E-2,6.662673E-2,7.135194E-3,-6.4154044E-3,-3.9263632E-2,4.8743468E-2,-1.5656406E-2,-5.7487167E-2,-1.7766578E-2],"split_indices":[1,1,0,0,0,0,1,0,1,1,0,1,1,1,0,0,0,0,0,0,0,0,0,0,0,0,0,0,0],"split_type":[0,0,0,0,0,0,0,0,0,0,0,0,0,0,0,0,0,0,0,0,0,0,0,0,0,0,0,0,0],"sum_hessian":[4.626E3,3.954E3,6.72E2,2.344E3,1.61E3,4.86E2,1.86E2,1.854E3,4.9E2,2.1E2,1.4E3,3.81E2,1.05E2,1.38E2,4.8E1,1.449E3,4.05E2,4.45E2,4.5E1,1.87E2,2.3E1,5.39E2,8.61E2,1.57E2,2.24E2,8.7E1,1.8E1,9.2E1,4.6E1],"tree_param":{"num_deleted":"0","num_feature":"2","num_nodes":"29","size_leaf_vector":"1"}},{"base_weights":[-1.3565932E-3,-1.574986E-1,5.3118292E-2,1.1546805E-2,-3.1802794E-1,1.9375663E-1,-1.0203007E-1,-2.896644E-1,2.2704235E-1,-2.3389839E-1,-5.934903E-1,4.8469156E-2,5.561759E-1,-3.2226598E-1,5.0529134E-2,-2.1197772E-2,-3.5505842E-2,7.4004985E-2,9.889799E-3,-3.1379774E-2,-1.5984513E-2,-1.0499306E-1,-1.537023E-2,2.0474475E-2,-1.8437548E-2,1.4921515E-1,2.9532088E-2,4.1978396E-2,-4.773393E-2,1.5818696E-2,-7.7081285E-2],"categories":[],"categories_nodes":[],"categories_segments":[],"categories_sizes":[],"default_left":[0,0,0,0,0,0,0,0,0,0,0,0,0,0,0,0,0,0,0,0,0,0,0,0,0,0,0,0,0,0,0],"id":37,"left_children":[1,3,5,7,9,11,13,15,17,19,21,23,25,27,29,-1,-1,-1,-1,-1,-1,-1,-1,-1,-1,-1,-1,-1,-1,-1,-1],"loss_changes":[3.9364788E1,3.248635E1,7.488353E1,3.797301E1,1.4090343E1,9.4752014E1,5.4849876E1,1.1643143E0,2.2343815E1,2.7425747E0,2.8544003E1,4.6832626E1,1.252986E2,7.706855E1,8.545099E1,0E0,0E0,0E0,0E0,0E0,0E0,0E0,0E0,0E0,0E0,0E0,0E0,0E0,0E0,0E0,0E0],"parents":[2147483647,0,0,1,1,2,2,3,3,4,4,5,5,6,6,7,7,8,8,9,9,10,10,11,11,12,12,13,13,14,14],"right_children":[2,4,6,8,10,12,14,16,18,20,22,24,26,28,30,-1,-1,-1,-1,-1,-1,-1,-1,-1,-1,-1,-1,-1,-1,-1,-1],"split_conditions":[9E0,5E0,1.7E1,4E0,7E0,1.5E1,4E0,2E0,2E0,7E0,8E0,1.2E1,3E0,1.8E1,7E0,-2.1197772E-2,-3.5505842E-2,7.4004985E-2,9.889799E-3,-3.1379774E-2,-1.5984513E-2,-1.0499306E-1,-1.537023E-2,2.0474475E-2,-1.8437548E-2,1.4921515E-1,2.9532088E-2,4.1978396E-2,-4.773393E-2,1.5818696E-2,-7.7081285E-2],"split_indices":[1,0,1,1,1,1,0,0,0,0,1,1,0,1,0,0,0,0,0,0,0,0,0,0,0,0,0,0,0,0,0],"split_type":[0,0,0,0,0,0,0,0,0,0,0,0,0,0,0,0,0,0,0,0,0,0,0,0,0,0,0,0,0,0,0],"sum_hessian":[4.626E3,1.196E3,3.43E3,5.83E2,6.13E2,1.799E3,1.631E3,2.43E2,3.4E2,4.71E2,1.42E2,1.285E3,5.14E2,6.67E2,9.64E2,1.13E2,1.3E2,6.7E1,2.73E2,2.25E2,2.46E2,6.9E1,7.3E1,7.69E2,5.16E2,1.11E2,4.03E2,1.15E2,5.52E2,8.53E2,1.11E2],"tree_param":{"num_deleted":"0","num_feature":"2","num_nodes":"31","size_leaf_vector":"1"}},{"base_weights":[-1.2267648E-3,4.0790606E-2,-1.8018116E-1,-6.1108742E-2,2.109567E-1,-3.2314095E-1,6.174307E-3,2.8247619E-2,-3.9857298E-1,4.8698306E-1,-1.6295815E-2,-7.1047074E-1,-2.0366259E-1,7.048844E-1,-4.4666433E-1,-5.4376475E-3,3.232641E-2,-2.1093464E-2,-2.2091846E-1,6.356747E-3,1.7950638E-1,-1.12616375E-1,5.090163E-2,-9.911213E-2,-3.760806E-2,-2.9654454E-3,-3.249498E-2,1.5682136E-1,3.235824E-2,-3.484357E-2,-8.084119E-2],"categories":[],"categories_nodes":[],"categories_segments":[],"categories_sizes":[],"default_left":[0,0,0,0,0,0,0,0,0,0,0,0,0,0,0,0,0,0,0,0,0,0,0,0,0,0,0,0,0,0,0],"id":38,"left_children":[1,3,5,7,9,11,13,15,17,19,21,23,25,27,29,-1,-1,-1,-1,-1,-1,-1,-1,-1,-1,-1,-1,-1,-1,-1,-1],"loss_changes":[3.4798656E1,6.50025E1,2.3446371E1,7.072375E1,8.80776E1,2.29015E1,1.2149718E2,4.5234074E1,1.6634642E2,3.5103427E2,4.5008707E2,1.060733E1,8.05246E0,4.9200104E1,7.997734E0,0E0,0E0,0E0,0E0,0E0,0E0,0E0,0E0,0E0,0E0,0E0,0E0,0E0,0E0,0E0,0E0],"parents":[2147483647,0,0,1,1,2,2,3,3,4,4,5,5,6,6,7,7,8,8,9,9,10,10,11,11,12,12,13,13,14,14],"right_children":[2,4,6,8,10,12,14,16,18,20,22,24,26,28,30,-1,-1,-1,-1,-1,-1,-1,-1,-1,-1,-1,-1,-1,-1,-1,-1],"split_conditions":[2E1,1.4E1,5E0,7E0,5E0,2.1E1,6E0,6E0,1.3E1,4E0,6E0,3E0,2.2E1,2.1E1,2.3E1,-5.4376475E-3,3.232641E-2,-2.1093464E-2,-2.2091846E-1,6.356747E-3,1.7950638E-1,-1.12616375E-1,5.090163E-2,-9.911213E-2,-3.760806E-2,-2.9654454E-3,-3.249498E-2,1.5682136E-1,3.235824E-2,-3.484357E-2,-8.084119E-2],"split_indices":[1,1,0,0,0,1,0,0,1,0,0,0,1,1,1,0,0,0,0,0,0,0,0,0,0,0,0,0,0,0,0],"split_type":[0,0,0,0,0,0,0,0,0,0,0,0,0,0,0,0,0,0,0,0,0,0,0,0,0,0,0,0,0,0,0],"sum_hessian":[4.626E3,3.747E3,8.79E2,2.344E3,1.403E3,4.97E2,3.82E2,1.854E3,4.9E2,6.33E2,7.7E2,1.16E2,3.81E2,1.5E2,2.32E2,1.449E3,4.05E2,4.45E2,4.5E1,4.79E2,1.54E2,2.47E2,5.23E2,6.2E1,5.4E1,1.57E2,2.24E2,4.5E1,1.05E2,1.84E2,4.8E1],"tree_param":{"num_deleted":"0","num_feature":"2","num_nodes":"31","size_leaf_vector":"1"}},{"base_weights":[-1.1450807E-3,-1.383796E-1,4.6733342E-2,1.5867203E-2,-2.8486454E-1,1.7347951E-1,-9.3088865E-2,-1.4506719E-1,3.6651298E-1,-2.0790438E-1,-5.3689486E-1,5.178074E-2,4.7703514E-1,-4.5033526E-2,-7.448664E-1,1.569541E-2,-3.0065907E-2,1.22091295E-2,1.0191213E-1,-2.9986849E-2,-1.2291736E-2,-9.357098E-2,-1.5238215E-2,-1.4510512E-2,2.0384848E-2,1.3379677E-1,2.3718E-2,-2.7358461E-2,1.3379218E-2,-1.4813493E-2,-1.14344515E-1],"categories":[],"categories_nodes":[],"categories_segments":[],"categories_sizes":[],"default_left":[0,0,0,0,0,0,0,0,0,0,0,0,0,0,0,0,0,0,0,0,0,0,0,0,0,0,0,0,0,0,0],"id":39,"left_children":[1,3,5,7,9,11,13,15,17,19,21,23,25,27,29,-1,-1,-1,-1,-1,-1,-1,-1,-1,-1,-1,-1,-1,-1,-1,-1],"loss_changes":[3.0408506E1,2.7050539E1,6.0820084E1,3.300885E1,1.1797703E1,6.647153E1,5.1082966E1,1.8891006E1,2.922571E1,3.6521778E0,2.178638E1,3.8532406E1,1.060297E2,6.2201096E1,2.64692E1,0E0,0E0,0E0,0E0,0E0,0E0,0E0,0E0,0E0,0E0,0E0,0E0,0E0,0E0,0E0,0E0],"parents":[2147483647,0,0,1,1,2,2,3,3,4,4,5,5,6,6,7,7,8,8,9,9,10,10,11,11,12,12,13,13,14,14],"right_children":[2,4,6,8,10,12,14,16,18,20,22,24,26,28,30,-1,-1,-1,-1,-1,-1,-1,-1,-1,-1,-1,-1,-1,-1,-1,-1],"split_conditions":[9E0,5E0,1.7E1,5E0,7E0,1.5E1,7E0,2E0,4E0,7E0,8E0,5E0,3E0,4E0,1.8E1,1.569541E-2,-3.0065907E-2,1.22091295E-2,1.0191213E-1,-2.9986849E-2,-1.2291736E-2,-9.357098E-2,-1.5238215E-2,-1.4510512E-2,2.0384848E-2,1.3379677E-1,2.3718E-2,-2.7358461E-2,1.3379218E-2,-1.4813493E-2,-1.14344515E-1],"split_indices":[1,0,1,1,1,1,0,0,0,0,1,0,0,0,1,0,0,0,0,0,0,0,0,0,0,0,0,0,0,0,0],"split_type":[0,0,0,0,0,0,0,0,0,0,0,0,0,0,0,0,0,0,0,0,0,0,0,0,0,0,0,0,0,0,0],"sum_hessian":[4.626E3,1.196E3,3.43E3,5.83E2,6.13E2,1.799E3,1.631E3,4E2,1.83E2,4.71E2,1.42E2,1.285E3,5.14E2,1.52E3,1.11E2,1.36E2,2.64E2,1.34E2,4.9E1,2.25E2,2.46E2,6.9E1,7.3E1,5.6E2,7.25E2,1.11E2,4.03E2,6.67E2,8.53E2,4.5E1,6.6E1],"tree_param":{"num_deleted":"0","num_feature":"2","num_nodes":"31","size_leaf_vector":"1"}},{"base_weights":[-1.0373535E-3,2.2110749E-2,-2.5833005E-1,-1.24584556E-1,7.967539E-2,-1.7879081E-1,-4.414447E-1,1.4451278E-2,-2.566242E-1,-2.466267E-1,1.2803194E-1,-2.929081E-1,4.2704366E-2,-2.1480794E-1,-7.423267E-2,-2.4676507E-2,2.0132031E-2,-1.8720347E-2,-4.8396662E-2,-7.677588E-2,-1.7553523E-2,1.9621262E-2,-1.49076E-3,-2.0619957E-2,-5.4267105E-2,2.435242E-2,-1.5475132E-2,-3.4558963E-2,-1.2873337E-2],"categories":[],"categories_nodes":[],"categories_segments":[],"categories_sizes":[],"default_left":[0,0,0,0,0,0,0,0,0,0,0,0,0,0,0,0,0,0,0,0,0,0,0,0,0,0,0,0,0],"id":40,"left_children":[1,3,5,7,9,11,13,15,17,19,21,23,25,27,-1,-1,-1,-1,-1,-1,-1,-1,-1,-1,-1,-1,-1,-1,-1],"loss_changes":[2.756337E1,3.586512E1,5.484829E0,2.1978527E1,4.815705E1,6.7865934E0,7.682495E0,2.8556616E1,9.59972E0,1.4462164E1,2.589729E1,3.7213163E0,3.6857631E0,7.097287E-1,0E0,0E0,0E0,0E0,0E0,0E0,0E0,0E0,0E0,0E0,0E0,0E0,0E0,0E0,0E0],"parents":[2147483647,0,0,1,1,2,2,3,3,4,4,5,5,6,6,7,7,8,8,9,9,10,10,11,11,12,12,13,13],"right_children":[2,4,6,8,10,12,14,16,18,20,22,24,26,28,-1,-1,-1,-1,-1,-1,-1,-1,-1,-1,-1,-1,-1,-1,-1],"split_conditions":[2.2E1,9E0,2.3E1,5E0,2E0,5E0,6E0,4E0,7E0,1E1,1.8E1,4E0,6E0,2E0,-7.423267E-2,-2.4676507E-2,2.0132031E-2,-1.8720347E-2,-4.8396662E-2,-7.677588E-2,-1.7553523E-2,1.9621262E-2,-1.49076E-3,-2.0619957E-2,-5.4267105E-2,2.435242E-2,-1.5475132E-2,-3.4558963E-2,-1.2873337E-2],"split_indices":[1,1,1,0,0,0,0,1,1,1,1,0,0,0,0,0,0,0,0,0,0,0,0,0,0,0,0,0,0],"split_type":[0,0,0,0,0,0,0,0,0,0,0,0,0,0,0,0,0,0,0,0,0,0,0,0,0,0,0,0,0],"sum_hessian":[4.626E3,4.245E3,3.81E2,1.196E3,3.049E3,2.67E2,1.14E2,5.83E2,6.13E2,3.93E2,2.656E3,1.76E2,9.1E1,6.6E1,4.8E1,2.43E2,3.4E2,4.71E2,1.42E2,4.6E1,3.47E2,1.798E3,8.58E2,1.32E2,4.4E1,4.5E1,4.6E1,2.5E1,4.1E1],"tree_param":{"num_deleted":"0","num_feature":"2","num_nodes":"29","size_leaf_vector":"1"}},{"base_weights":[-1.0059837E-3,2.7980052E-2,-1.713459E-1,-4.958963E-2,1.4087448E-1,-5.8369286E-2,-4.6465212E-1,2.978864E-2,-3.4938005E-1,-4.3864423E-1,2.2805333E-1,-1.4953311E-1,2.7071515E-1,-3.8905847E-1,-6.6960864E-2,-4.3953373E-3,2.9307961E-2,-1.7503185E-2,-2.0322044E-1,-5.9149023E-2,-3.6499374E-2,5.309079E-2,3.8065512E-3,-6.0463074E-4,-2.4962815E-2,3.666476E-2,-1.8785171E-2,-5.1094282E-2,-1.3960525E-2],"categories":[],"categories_nodes":[],"categories_segments":[],"categories_sizes":[],"default_left":[0,0,0,0,0,0,0,0,0,0,0,0,0,0,0,0,0,0,0,0,0,0,0,0,0,0,0,0,0],"id":41,"left_children":[1,3,5,7,9,11,13,15,17,19,21,23,25,27,-1,-1,-1,-1,-1,-1,-1,-1,-1,-1,-1,-1,-1,-1,-1],"loss_changes":[2.285051E1,3.464165E1,2.2273907E1,5.581401E1,8.149062E1,1.4650771E1,2.636753E0,3.602883E1,1.4370245E2,2.1593742E0,8.059146E1,5.4848957E0,4.7319674E0,4.1548862E0,0E0,0E0,0E0,0E0,0E0,0E0,0E0,0E0,0E0,0E0,0E0,0E0,0E0,0E0,0E0],"parents":[2147483647,0,0,1,1,2,2,3,3,4,4,5,5,6,6,7,7,8,8,9,9,10,10,11,11,12,12,13,13],"right_children":[2,4,6,8,10,12,14,16,18,20,22,24,26,28,-1,-1,-1,-1,-1,-1,-1,-1,-1,-1,-1,-1,-1,-1,-1],"split_conditions":[2.1E1,1.4E1,6E0,7E0,2E0,5E0,2.3E1,6E0,1.3E1,1.7E1,5E0,2.2E1,2.3E1,2.2E1,-6.6960864E-2,-4.3953373E-3,2.9307961E-2,-1.7503185E-2,-2.0322044E-1,-5.9149023E-2,-3.6499374E-2,5.309079E-2,3.8065512E-3,-6.0463074E-4,-2.4962815E-2,3.666476E-2,-1.8785171E-2,-5.1094282E-2,-1.3960525E-2],"split_indices":[1,1,0,0,0,0,1,0,1,1,0,1,1,1,0,0,0,0,0,0,0,0,0,0,0,0,0,0,0],"split_type":[0,0,0,0,0,0,0,0,0,0,0,0,0,0,0,0,0,0,0,0,0,0,0,0,0,0,0,0,0],"sum_hessian":[4.626E3,3.954E3,6.72E2,2.344E3,1.61E3,4.86E2,1.86E2,1.854E3,4.9E2,2.1E2,1.4E3,3.81E2,1.05E2,1.38E2,4.8E1,1.449E3,4.05E2,4.45E2,4.5E1,6.6E1,1.44E2,5.39E2,8.61E2,1.57E2,2.24E2,8.7E1,1.8E1,9.2E1,4.6E1],"tree_param":{"num_deleted":"0","num_feature":"2","num_nodes":"29","size_leaf_vector":"1"}},{"base_weights":[-9.865637E-4,3.1146932E-2,-1.3784492E-1,-4.4714548E-2,1.5783072E-1,-2.5602347E-1,1.6177943E-2,2.6822696E-2,-3.148915E-1,-1.10105835E-2,4.41402E-1,-6.501251E-1,-1.3464674E-1,5.974748E-1,-3.6061177E-1,-1.5085463E-2,1.2694006E-2,-1.5756778E-2,-1.8334019E-1,3.9549615E-2,-1.05018094E-1,1.0487419E-1,4.4670035E-3,-8.78868E-2,-3.7629005E-2,-5.4454565E-4,-2.2477632E-2,1.3994479E-1,2.4381218E-2,-2.9419376E-2,-6.040143E-2],"categories":[],"categories_nodes":[],"categories_segments":[],"categories_sizes":[],"default_left":[0,0,0,0,0,0,0,0,0,0,0,0,0,0,0,0,0,0,0,0,0,0,0,0,0,0,0,0,0,0,0],"id":42,"left_children":[1,3,5,7,9,11,13,15,17,19,21,23,25,27,29,-1,-1,-1,-1,-1,-1,-1,-1,-1,-1,-1,-1,-1,-1,-1,-1],"loss_changes":[2.0352627E1,3.602691E1,1.602208E1,4.5331936E1,6.7226326E1,2.3734177E1,8.410267E1,3.3016975E1,1.1700987E2,3.72576E2,1.26211555E2,6.997917E0,4.447112E0,4.2486603E1,3.589056E0,0E0,0E0,0E0,0E0,0E0,0E0,0E0,0E0,0E0,0E0,0E0,0E0,0E0,0E0,0E0,0E0],"parents":[2147483647,0,0,1,1,2,2,3,3,4,4,5,5,6,6,7,7,8,8,9,9,10,10,11,11,12,12,13,13,14,14],"right_children":[2,4,6,8,10,12,14,16,18,20,22,24,26,28,30,-1,-1,-1,-1,-1,-1,-1,-1,-1,-1,-1,-1,-1,-1,-1,-1],"split_conditions":[2E1,1.4E1,5E0,7E0,6E0,2.1E1,6E0,7E0,1.3E1,5E0,1.6E1,3E0,2.2E1,2.1E1,2.3E1,-1.5085463E-2,1.2694006E-2,-1.5756778E-2,-1.8334019E-1,3.9549615E-2,-1.05018094E-1,1.0487419E-1,4.4670035E-3,-8.78868E-2,-3.7629005E-2,-5.4454565E-4,-2.2477632E-2,1.3994479E-1,2.4381218E-2,-2.9419376E-2,-6.040143E-2],"split_indices":[1,1,0,0,0,1,0,1,1,0,1,0,1,1,1,0,0,0,0,0,0,0,0,0,0,0,0,0,0,0,0],"split_type":[0,0,0,0,0,0,0,0,0,0,0,0,0,0,0,0,0,0,0,0,0,0,0,0,0,0,0,0,0,0,0],"sum_hessian":[4.626E3,3.747E3,8.79E2,2.344E3,1.403E3,4.97E2,3.82E2,1.854E3,4.9E2,8.8E2,5.23E2,1.16E2,3.81E2,1.5E2,2.32E2,6.68E2,1.186E3,4.45E2,4.5E1,6.33E2,2.47E2,2.06E2,3.17E2,6.2E1,5.4E1,1.57E2,2.24E2,4.5E1,1.05E2,1.84E2,4.8E1],"tree_param":{"num_deleted":"0","num_feature":"2","num_nodes":"31","size_leaf_vector":"1"}},{"base_weights":[-9.377693E-4,-8.1768475E-2,4.5688238E-2,5.7669178E-2,-3.693211E-1,3.1498384E-1,-2.0911483E-2,-8.7769456E-2,3.0197996E-1,-1.2049654E0,-1.8892097E-1,-2.7110538E-1,7.3590064E-1,-2.1050836E-1,5.9946854E-2,-3.2903147E-3,-2.0282252E-2,-1.7377852E-2,5.9458096E-2,-3.3198886E-3,-1.6276422E-1,7.0182183E-3,-2.5371158E-2,-3.494003E-3,-4.4648942E-1,1.8915477E-1,-3.4513354E-2,-4.394589E-2,4.893953E-2,-1.9988405E-2,1.663111E-2],"categories":[],"categories_nodes":[],"categories_segments":[],"categories_sizes":[],"default_left":[0,0,0,0,0,0,0,0,0,0,0,0,0,0,0,0,0,0,0,0,0,0,0,0,0,0,0,0,0,0,0],"id":43,"left_children":[1,3,5,7,9,11,13,15,17,19,21,23,25,27,29,-1,-1,-1,-1,-1,-1,-1,-1,-1,-1,-1,-1,-1,-1,-1,-1],"loss_changes":[1.7442036E1,6.790325E1,5.264585E1,4.0568775E1,8.31373E1,1.4377588E2,3.6100586E1,4.513104E0,5.9405678E1,4.8483246E1,7.672884E0,2.4150835E2,4.2416342E2,1.1302636E2,4.5661457E1,0E0,0E0,0E0,0E0,0E0,0E0,0E0,0E0,0E0,0E0,0E0,0E0,0E0,0E0,0E0,0E0],"parents":[2147483647,0,0,1,1,2,2,3,3,4,4,5,5,6,6,7,7,8,8,9,9,10,10,11,11,12,12,13,13,14,14],"right_children":[2,4,6,8,10,12,14,16,18,20,22,24,26,28,30,-1,-1,-1,-1,-1,-1,-1,-1,-1,-1,-1,-1,-1,-1,-1,-1],"split_conditions":[4E0,1.8E1,5E0,1.2E1,1.9E1,1.3E1,6E0,3E0,2E0,2E0,2E1,1.2E1,1.9E1,1.9E1,9E0,-3.2903147E-3,-2.0282252E-2,-1.7377852E-2,5.9458096E-2,-3.3198886E-3,-1.6276422E-1,7.0182183E-3,-2.5371158E-2,-3.494003E-3,-4.4648942E-1,1.8915477E-1,-3.4513354E-2,-4.394589E-2,4.893953E-2,-1.9988405E-2,1.663111E-2],"split_indices":[0,1,0,1,1,1,0,0,0,0,1,1,1,1,1,0,0,0,0,0,0,0,0,0,0,0,0,0,0,0,0],"split_type":[0,0,0,0,0,0,0,0,0,0,0,0,0,0,0,0,0,0,0,0,0,0,0,0,0,0,0,0,0,0,0],"sum_hessian":[4.626E3,1.692E3,2.934E3,1.14E3,5.52E2,5.81E2,2.353E3,7.15E2,4.25E2,9.7E1,4.55E2,2.43E2,3.38E2,7.03E2,1.65E3,4.85E2,2.3E2,1.62E2,2.63E2,2.6E1,7.1E1,9.1E1,3.64E2,2.31E2,1.2E1,1.63E2,1.75E2,5.3E2,1.73E2,4.79E2,1.171E3],"tree_param":{"num_deleted":"0","num_feature":"2","num_nodes":"31","size_leaf_vector":"1"}},{"base_weights":[-9.43212E-4,2.7283082E-2,-1.2116049E-1,-3.4166947E-2,1.298992E-1,-4.1747876E-2,-3.4149617E-1,3.0498432E-2,-2.7840343E-1,-4.0240133E-1,2.120213E-1,-2.0295738E-1,4.9019966E-1,-1.0853891E-2,-3.9822075E-1,-3.392106E-3,2.6049292E-2,-1.3421859E-2,-1.6703172E-1,-5.035555E-2,-2.3243694E-2,6.35884E-2,-3.399511E-3,-5.5962414E-2,-9.318521E-3,1.21466935E-1,1.7118266E-2,-3.379248E-2,-5.611373E-2],"categories":[],"categories_nodes":[],"categories_segments":[],"categories_sizes":[],"default_left":[0,0,0,0,0,0,0,0,0,0,0,0,0,0,0,0,0,0,0,0,0,0,0,0,0,0,0,0,0],"id":44,"left_children":[1,3,5,7,9,11,13,15,17,19,21,23,25,-1,27,-1,-1,-1,-1,-1,-1,-1,-1,-1,-1,-1,-1,-1,-1],"loss_changes":[1.570405E1,2.363844E1,1.5383481E1,3.7044586E1,6.1459267E1,5.5668728E1,3.0357342E0,2.7492752E1,9.831601E1,3.1151657E0,1.26926956E2,1.9445587E1,3.469091E1,0E0,1.647316E0,0E0,0E0,0E0,0E0,0E0,0E0,0E0,0E0,0E0,0E0,0E0,0E0,0E0,0E0],"parents":[2147483647,0,0,1,1,2,2,3,3,4,4,5,5,6,6,7,7,8,8,9,9,10,10,11,11,12,12,14,14],"right_children":[2,4,6,8,10,12,14,16,18,20,22,24,26,-1,28,-1,-1,-1,-1,-1,-1,-1,-1,-1,-1,-1,-1,-1,-1],"split_conditions":[2E1,1.4E1,6E0,7E0,2E0,5E0,2.1E1,6E0,1.3E1,1.8E1,5E0,2.1E1,2.1E1,-1.0853891E-2,2.3E1,-3.392106E-3,2.6049292E-2,-1.3421859E-2,-1.6703172E-1,-5.035555E-2,-2.3243694E-2,6.35884E-2,-3.399511E-3,-5.5962414E-2,-9.318521E-3,1.21466935E-1,1.7118266E-2,-3.379248E-2,-5.611373E-2],"split_indices":[1,1,0,0,0,0,1,0,1,1,0,1,1,0,1,0,0,0,0,0,0,0,0,0,0,0,0,0,0],"split_type":[0,0,0,0,0,0,0,0,0,0,0,0,0,0,0,0,0,0,0,0,0,0,0,0,0,0,0,0,0],"sum_hessian":[4.626E3,3.747E3,8.79E2,2.344E3,1.403E3,6.47E2,2.32E2,1.854E3,4.9E2,1.87E2,1.216E3,4.97E2,1.5E2,4.6E1,1.86E2,1.449E3,4.05E2,4.45E2,4.5E1,1.16E2,7.1E1,4.46E2,7.7E2,1.16E2,3.81E2,4.5E1,1.05E2,1.38E2,4.8E1],"tree_param":{"num_deleted":"0","num_feature":"2","num_nodes":"29","size_leaf_vector":"1"}},{"base_weights":[-8.921008E-4,3.6259413E-2,-8.8603556E-2,-3.0817851E-2,2.0964411E-1,-3.9376125E-2,-1.0505223E0,2.7460385E-2,-2.509305E-1,5.561184E-2,8.0241215E-1,-3.2879212E-1,1.7154142E-1,-1.3261326E-1,-4.656102E-2,-2.2888988E-2,7.824933E-3,-1.2082669E-2,-1.5069169E-1,5.4481544E-2,-4.2302188E-2,1.8700898E-1,-2.5123447E-2,-1.126067E-1,-1.5672693E-2,1.14670955E-1,-3.5586015E-3],"categories":[],"categories_nodes":[],"categories_segments":[],"categories_sizes":[],"default_left":[0,0,0,0,0,0,0,0,0,0,0,0,0,0,0,0,0,0,0,0,0,0,0,0,0,0,0],"id":45,"left_children":[1,3,5,7,9,11,13,15,17,19,21,23,25,-1,-1,-1,-1,-1,-1,-1,-1,-1,-1,-1,-1,-1,-1],"loss_changes":[1.5080817E1,3.781615E1,6.516343E1,3.0088026E1,8.276938E1,8.0083664E1,1.0183456E1,2.4169561E1,8.005156E1,1.6905212E2,2.108364E2,7.5685844E1,1.5334671E2,0E0,0E0,0E0,0E0,0E0,0E0,0E0,0E0,0E0,0E0,0E0,0E0,0E0,0E0],"parents":[2147483647,0,0,1,1,2,2,3,3,4,4,5,5,6,6,7,7,8,8,9,9,10,10,11,11,12,12],"right_children":[2,4,6,8,10,12,14,16,18,20,22,24,26,-1,-1,-1,-1,-1,-1,-1,-1,-1,-1,-1,-1,-1,-1],"split_conditions":[1.8E1,1.4E1,7E0,7E0,7E0,4E0,1.9E1,3E0,1.3E1,5E0,1.6E1,1.9E1,1.9E1,-1.3261326E-1,-4.656102E-2,-2.2888988E-2,7.824933E-3,-1.2082669E-2,-1.5069169E-1,5.4481544E-2,-4.2302188E-2,1.8700898E-1,-2.5123447E-2,-1.126067E-1,-1.5672693E-2,1.14670955E-1,-3.5586015E-3],"split_indices":[1,1,0,0,0,0,1,1,1,0,1,1,1,0,0,0,0,0,0,0,0,0,0,0,0,0,0],"split_type":[0,0,0,0,0,0,0,0,0,0,0,0,0,0,0,0,0,0,0,0,0,0,0,0,0,0,0],"sum_hessian":[4.626E3,3.25E3,1.376E3,2.344E3,9.06E2,1.31E3,6.6E1,1.854E3,4.9E2,7.2E2,1.86E2,5.52E2,7.58E2,4.4E1,2.2E1,3.06E2,1.548E3,4.45E2,4.5E1,3.56E2,3.64E2,9.2E1,9.4E1,9.7E1,4.55E2,1.32E2,6.26E2],"tree_param":{"num_deleted":"0","num_feature":"2","num_nodes":"27","size_leaf_vector":"1"}},{"base_weights":[-8.4639457E-4,-7.333242E-2,4.0966105E-2,3.472075E-2,-2.9614496E-1,2.555308E-1,-1.2100002E-2,-7.607507E-2,2.2085944E-1,-1.0146097E0,-1.4108863E-1,-1.4777009E-1,7.385276E-1,-1.9343433E-1,6.522978E-2,-2.608173E-3,-1.8092653E-2,-1.6069477E-2,4.5560367E-2,1.008173E-2,-1.418803E-1,5.8317888E-3,-1.9096347E-2,3.235075E-2,-5.2984353E-2,2.7820283E-1,-3.1064052E-2,2.5607958E-2,-4.5885015E-2,-1.7424027E-2,1.6325058E-2],"categories":[],"categories_nodes":[],"categories_segments":[],"categories_sizes":[],"default_left":[0,0,0,0,0,0,0,0,0,0,0,0,0,0,0,0,0,0,0,0,0,0,0,0,0,0,0,0,0,0,0],"id":46,"left_children":[1,3,5,7,9,11,13,15,17,19,21,23,25,27,29,-1,-1,-1,-1,-1,-1,-1,-1,-1,-1,-1,-1,-1,-1,-1,-1],"loss_changes":[1.4026617E1,4.077028E1,3.3421333E1,2.3548088E1,6.146243E1,1.1347869E2,3.3021683E1,3.7484636E0,3.8229034E1,4.432615E1,4.5462236E0,5.7431328E1,5.690178E2,8.41104E1,3.8782448E1,0E0,0E0,0E0,0E0,0E0,0E0,0E0,0E0,0E0,0E0,0E0,0E0,0E0,0E0,0E0,0E0],"parents":[2147483647,0,0,1,1,2,2,3,3,4,4,5,5,6,6,7,7,8,8,9,9,10,10,11,11,12,12,13,13,14,14],"right_children":[2,4,6,8,10,12,14,16,18,20,22,24,26,28,30,-1,-1,-1,-1,-1,-1,-1,-1,-1,-1,-1,-1,-1,-1,-1,-1],"split_conditions":[4E0,1.8E1,5E0,1.2E1,1.9E1,1.6E1,6E0,3E0,2E0,2E0,2E1,8E0,1.9E1,1.2E1,9E0,-2.608173E-3,-1.8092653E-2,-1.6069477E-2,4.5560367E-2,1.008173E-2,-1.418803E-1,5.8317888E-3,-1.9096347E-2,3.235075E-2,-5.2984353E-2,2.7820283E-1,-3.1064052E-2,2.5607958E-2,-4.5885015E-2,-1.7424027E-2,1.6325058E-2],"split_indices":[0,1,0,1,1,1,0,0,0,0,1,1,1,1,1,0,0,0,0,0,0,0,0,0,0,0,0,0,0,0,0],"split_type":[0,0,0,0,0,0,0,0,0,0,0,0,0,0,0,0,0,0,0,0,0,0,0,0,0,0,0,0,0,0,0],"sum_hessian":[4.626E3,1.692E3,2.934E3,1.14E3,5.52E2,5.81E2,2.353E3,7.15E2,4.25E2,9.7E1,4.55E2,3.17E2,2.64E2,7.03E2,1.65E3,4.85E2,2.3E2,1.62E2,2.63E2,2.6E1,7.1E1,9.1E1,3.64E2,1.42E2,1.75E2,8.9E1,1.75E2,2.61E2,4.42E2,4.79E2,1.171E3],"tree_param":{"num_deleted":"0","num_feature":"2","num_nodes":"31","size_leaf_vector":"1"}},{"base_weights":[-7.469237E-4,-1.9533645E-1,1.2022765E-2,1.6859559E-3,-2.7768254E-1,5.6661196E-2,-6.2163174E-2,3.069322E-1,-2.7646476E-1,-2.2280289E-1,-3.7502834E-1,4.425219E-3,2.7949232E-1,-1.9227393E-2,-6.4469135E-1,-7.4254423E-3,6.7350306E-2,-7.751955E-2,3.3042725E-2,-4.1695986E-2,-1.3287718E-2,-7.8606375E-2,-1.6169759E-2,5.3537404E-3,-1.5536419E-2,1.1097994E-1,4.861634E-3,-1.8092861E-2,1.0727805E-2,-1.652675E-2,-9.6422575E-2],"categories":[],"categories_nodes":[],"categories_segments":[],"categories_sizes":[],"default_left":[0,0,0,0,0,0,0,0,0,0,0,0,0,0,0,0,0,0,0,0,0,0,0,0,0,0,0,0,0,0,0],"id":47,"left_children":[1,3,5,7,9,11,13,15,17,19,21,23,25,27,29,-1,-1,-1,-1,-1,-1,-1,-1,-1,-1,-1,-1,-1,-1,-1,-1],"loss_changes":[1.1499738E1,4.624316E0,1.4385557E1,7.3017354E0,9.9024487E-1,3.1565903E1,4.080605E1,5.779019E0,1.3876553E1,2.2318163E0,6.0986357E0,1.7257357E1,9.8670494E1,3.1133114E1,1.6998192E1,0E0,0E0,0E0,0E0,0E0,0E0,0E0,0E0,0E0,0E0,0E0,0E0,0E0,0E0,0E0,0E0],"parents":[2147483647,0,0,1,1,2,2,3,3,4,4,5,5,6,6,7,7,8,8,9,9,10,10,11,11,12,12,13,13,14,14],"right_children":[2,4,6,8,10,12,14,16,18,20,22,24,26,28,30,-1,-1,-1,-1,-1,-1,-1,-1,-1,-1,-1,-1,-1,-1,-1,-1],"split_conditions":[2E0,1E0,1.7E1,6E0,5E0,1.5E1,7E0,3E0,7E0,3E0,6E0,1.2E1,3E0,4E0,1.8E1,-7.4254423E-3,6.7350306E-2,-7.751955E-2,3.3042725E-2,-4.1695986E-2,-1.3287718E-2,-7.8606375E-2,-1.6169759E-2,5.3537404E-3,-1.5536419E-2,1.1097994E-1,4.861634E-3,-1.8092861E-2,1.0727805E-2,-1.652675E-2,-9.6422575E-2],"split_indices":[1,1,1,0,0,1,0,0,0,0,0,1,0,0,1,0,0,0,0,0,0,0,0,0,0,0,0,0,0,0,0],"split_type":[0,0,0,0,0,0,0,0,0,0,0,0,0,0,0,0,0,0,0,0,0,0,0,0,0,0,0,0,0,0,0],"sum_hessian":[4.626E3,2.84E2,4.342E3,8.4E1,2E2,2.711E3,1.631E3,4E1,4.4E1,1.3E2,7E1,2.197E3,5.14E2,1.52E3,1.11E2,2E1,2E1,2.4E1,2E1,4E1,9E1,2.3E1,4.7E1,1.681E3,5.16E2,1.11E2,4.03E2,6.67E2,8.53E2,4.5E1,6.6E1],"tree_param":{"num_deleted":"0","num_feature":"2","num_nodes":"31","size_leaf_vector":"1"}},{"base_weights":[-7.043563E-4,-6.5676786E-2,3.6774017E-2,2.3101017E-2,-2.4873248E-1,2.266982E-1,-1.0198223E-2,-6.9660075E-2,1.789551E-1,-8.9658517E-1,-1.0895551E-1,-2.425543E-1,5.6378055E-1,-1.777298E-1,6.12448E-2,-2.4424049E-3,-1.645304E-2,-1.797255E-2,3.9973535E-2,1.08532375E-2,-1.2610517E-1,-2.3296071E-2,-2.0304048E-3,-3.132129E-3,-3.9935932E-1,1.4770459E-1,-2.904199E-2,-3.7913844E-2,4.379352E-2,1.2563667E-2,-3.3117283E-2],"categories":[],"categories_nodes":[],"categories_segments":[],"categories_sizes":[],"default_left":[0,0,0,0,0,0,0,0,0,0,0,0,0,0,0,0,0,0,0,0,0,0,0,0,0,0,0,0,0,0,0],"id":48,"left_children":[1,3,5,7,9,11,13,15,17,19,21,23,25,27,29,-1,-1,-1,-1,-1,-1,-1,-1,-1,-1,-1,-1,-1,-1,-1,-1],"loss_changes":[1.1269443E1,2.7519165E1,2.6185932E1,1.6508125E1,4.997916E1,9.21956E1,2.8185823E1,3.068736E0,3.3806602E1,3.603736E1,5.0081882E0,1.9320667E2,2.6488678E2,8.7462204E1,4.1759903E1,0E0,0E0,0E0,0E0,0E0,0E0,0E0,0E0,0E0,0E0,0E0,0E0,0E0,0E0,0E0,0E0],"parents":[2147483647,0,0,1,1,2,2,3,3,4,4,5,5,6,6,7,7,8,8,9,9,10,10,11,11,12,12,13,13,14,14],"right_children":[2,4,6,8,10,12,14,16,18,20,22,24,26,28,30,-1,-1,-1,-1,-1,-1,-1,-1,-1,-1,-1,-1,-1,-1,-1,-1],"split_conditions":[4E0,1.8E1,5E0,1.2E1,1.9E1,1.3E1,6E0,3E0,2E0,2E0,2.1E1,1.2E1,1.9E1,1.9E1,2E1,-2.4424049E-3,-1.645304E-2,-1.797255E-2,3.9973535E-2,1.08532375E-2,-1.2610517E-1,-2.3296071E-2,-2.0304048E-3,-3.132129E-3,-3.9935932E-1,1.4770459E-1,-2.904199E-2,-3.7913844E-2,4.379352E-2,1.2563667E-2,-3.3117283E-2],"split_indices":[0,1,0,1,1,1,0,0,0,0,1,1,1,1,1,0,0,0,0,0,0,0,0,0,0,0,0,0,0,0,0],"split_type":[0,0,0,0,0,0,0,0,0,0,0,0,0,0,0,0,0,0,0,0,0,0,0,0,0,0,0,0,0,0,0],"sum_hessian":[4.626E3,1.692E3,2.934E3,1.14E3,5.52E2,5.81E2,2.353E3,7.15E2,4.25E2,9.7E1,4.55E2,2.43E2,3.38E2,7.03E2,1.65E3,4.85E2,2.3E2,1.62E2,2.63E2,2.6E1,7.1E1,1.89E2,2.66E2,2.31E2,1.2E1,1.63E2,1.75E2,5.3E2,1.73E2,1.418E3,2.32E2],"tree_param":{"num_deleted":"0","num_feature":"2","num_nodes":"31","size_leaf_vector":"1"}},{"base_weights":[-7.2811014E-4,-5.919022E-2,3.2994915E-2,2.0793747E-2,-2.241134E-1,2.0354056E-1,-9.1845915E-3,9.7341664E-2,-1.435358E-1,-8.081029E-1,-9.81154E-2,-1.4866774E-1,6.254224E-1,-1.8224514E-1,5.1854096E-2,-4.777941E-3,5.0661813E-2,-2.5640218E-2,1.4613853E-1,9.808152E-3,-1.1366985E-1,9.348914E-3,-1.4614144E-2,2.9491251E-2,-5.08232E-2,2.3529828E-1,-2.6154265E-2,-1.1103699E-2,-4.1600738E-2,9.20695E-2,-1.8245882E-3],"categories":[],"categories_nodes":[],"categories_segments":[],"categories_sizes":[],"default_left":[0,0,0,0,0,0,0,0,0,0,0,0,0,0,0,0,0,0,0,0,0,0,0,0,0,0,0,0,0,0,0],"id":49,"left_children":[1,3,5,7,9,11,13,15,17,19,21,23,25,27,29,-1,-1,-1,-1,-1,-1,-1,-1,-1,-1,-1,-1,-1,-1,-1,-1],"loss_changes":[9.124173E0,2.233738E1,2.1114883E1,1.4366707E1,4.061129E1,8.6572525E1,2.4875668E1,4.6292633E1,6.612911E1,2.9292767E1,4.2097774E0,5.0869484E1,4.0667114E2,1.01743145E1,1.0605367E2,0E0,0E0,0E0,0E0,0E0,0E0,0E0,0E0,0E0,0E0,0E0,0E0,0E0,0E0,0E0,0E0],"parents":[2147483647,0,0,1,1,2,2,3,3,4,4,5,5,6,6,7,7,8,8,9,9,10,10,11,11,12,12,13,13,14,14],"right_children":[2,4,6,8,10,12,14,16,18,20,22,24,26,28,30,-1,-1,-1,-1,-1,-1,-1,-1,-1,-1,-1,-1,-1,-1,-1,-1],"split_conditions":[4E0,1.8E1,5E0,3E0,1.9E1,1.6E1,9E0,1.4E1,1.7E1,2E0,2E1,8E0,1.9E1,7E0,1E1,-4.777941E-3,5.0661813E-2,-2.5640218E-2,1.4613853E-1,9.808152E-3,-1.1366985E-1,9.348914E-3,-1.4614144E-2,2.9491251E-2,-5.08232E-2,2.3529828E-1,-2.6154265E-2,-1.1103699E-2,-4.1600738E-2,9.20695E-2,-1.8245882E-3],"split_indices":[0,1,0,0,1,1,1,1,1,0,1,1,1,1,1,0,0,0,0,0,0,0,0,0,0,0,0,0,0,0,0],"split_type":[0,0,0,0,0,0,0,0,0,0,0,0,0,0,0,0,0,0,0,0,0,0,0,0,0,0,0,0,0,0,0],"sum_hessian":[4.626E3,1.692E3,2.934E3,1.14E3,5.52E2,5.81E2,2.353E3,7.78E2,3.62E2,9.7E1,4.55E2,3.17E2,2.64E2,6.13E2,1.74E3,5.75E2,2.03E2,3.39E2,2.3E1,2.6E1,7.1E1,9.1E1,3.64E2,1.42E2,1.75E2,8.9E1,1.75E2,4.71E2,1.42E2,1.29E2,1.611E3],"tree_param":{"num_deleted":"0","num_feature":"2","num_nodes":"31","size_leaf_vector":"1"}}]},"name":"gbtree"},"learner_model_param":{"base_score":"[1.3980329E1]","boost_from_average":"1","num_class":"0","num_feature":"2","num_target":"1"},"objective":{"name":"reg:squarederror","reg_loss_param":{"scale_pos_weight":"1"}}},"version":[3,2,0]}