{"learner":{"attributes":{},"feature_names":["day_of_week","hour_of_day"],"feature_types":[],"gradient_booster":{"model":{"cats":{"enc":[],"feature_segments":[],"sorted_idx":[]},"gbtree_model_param":{"num_parallel_tree":"1","num_trees":"50"},"iteration_indptr":[0,1,2,3,4,5,6,7,8,9,10,11,12,13,14,15,16,17,18,19,20,21,22,23,24,25,26,27,28,29,30,31,32,33,34,35,36,37,38,39,40,41,42,43,44,45,46,47,48,49,50],"tree_info":[0,0,0,0,0,0,0,0,0,0,0,0,0,0,0,0,0,0,0,0,0,0,0,0,0,0,0,0,0,0,0,0,0,0,0,0,0,0,0,0,0,0,0,0,0,0,0,0,0,0],"trees":[{"base_weights":[-3.8748817E-7,-1.0572218E1,1.341155E0,-1.0998596E1,-7.466147E0,2.8889952E0,-4.2810926E0,-1.2109631E0,-9.814315E-1,-3.3706743E-1,-8.931727E-1,-2.5039039E0,3.6501987E0,-7.40526E0,-1.9678009E0,2.5554225E-1,-7.5004315E-1,4.2053843E-1,1.0112896E-1,-4.9506876E-1,-1.0597457E0,-6.4796233E-3,-4.310956E-1],"categories":[],"categories_nodes":[],"categories_segments":[],"categories_sizes":[],"default_left":[0,0,0,0,0,0,0,0,0,0,0,0,0,0,0,0,0,0,0,0,0,0,0],"id":0,"left_children":[1,3,5,7,9,11,13,-1,-1,-1,-1,15,17,19,21,-1,-1,-1,-1,-1,-1,-1,-1],"loss_changes":[6.562035E4,6.07875E2,3.5752883E4,4.8114453E2,3.66042E2,1.3231646E4,6.395876E3,0E0,0E0,0E0,0E0,1.0105514E4,4.1316797E3,2.9015098E3,2.278287E3,0E0,0E0,0E0,0E0,0E0,0E0,0E0,0E0],"parents":[2147483647,0,0,1,1,2,2,3,3,4,4,5,5,6,6,11,11,12,12,13,13,14,14],"right_children":[2,4,6,8,10,12,14,-1,-1,-1,-1,16,18,20,22,-1,-1,-1,-1,-1,-1,-1,-1],"split_conditions":[4E0,3E0,2E1,5E0,2E0,7E0,4E0,-1.2109631E0,-9.814315E-1,-3.3706743E-1,-8.931727E-1,5E0,1.8E1,2.2E1,2.2E1,2.5554225E-1,-7.5004315E-1,4.2053843E-1,1.0112896E-1,-4.9506876E-1,-1.0597457E0,-6.4796233E-3,-4.310956E-1],"split_indices":[1,1,1,0,0,1,0,0,0,0,0,0,1,1,1,0,0,0,0,0,0,0,0],"split_type":[0,0,0,0,0,0,0,0,0,0,0,0,0,0,0,0,0,0,0,0,0,0,0],"sum_hessian":[4.626E3,5.2E2,4.106E3,4.55E2,6.5E1,3.22E3,8.86E2,2.3E2,2.25E2,1.8E1,4.7E1,3.98E2,2.822E3,3.76E2,5.1E2,1.98E2,2E2,2.331E3,4.91E2,2.14E2,1.62E2,2.82E2,2.28E2],"tree_param":{"num_deleted":"0","num_feature":"2","num_nodes":"23","size_leaf_vector":"1"}},{"base_weights":[-1.1644978E-3,-9.521565E0,1.2065613E0,-9.903544E0,-6.7381725E0,2.8237307E0,-3.2057962E0,-1.090391E0,-8.837225E-1,-3.051347E-1,-8.057162E-1,-2.2547529E0,3.5996094E0,-1.5283171E0,-6.2522397E0,2.3011649E-1,-6.7541206E-1,4.710268E-1,2.67569E-1,-3.7446263E-1,9.458927E-3,-9.5442116E-1,-3.8817436E-1],"categories":[],"categories_nodes":[],"categories_segments":[],"categories_sizes":[],"default_left":[0,0,0,0,0,0,0,0,0,0,0,0,0,0,0,0,0,0,0,0,0,0,0],"id":1,"left_children":[1,3,5,7,9,11,13,-1,-1,-1,-1,15,17,19,21,-1,-1,-1,-1,-1,-1,-1,-1],"loss_changes":[5.3212887E4,4.8719922E2,2.9314672E4,3.900586E2,2.9636523E2,1.1852617E4,5.622045E3,0E0,0E0,0E0,0E0,8.194542E3,2.663621E3,2.5613203E3,3.014162E3,0E0,0E0,0E0,0E0,0E0,0E0,0E0,0E0],"parents":[2147483647,0,0,1,1,2,2,3,3,4,4,5,5,6,6,11,11,12,12,13,13,14,14],"right_children":[2,4,6,8,10,12,14,-1,-1,-1,-1,16,18,20,22,-1,-1,-1,-1,-1,-1,-1,-1],"split_conditions":[4E0,3E0,1.9E1,5E0,2E0,7E0,2.2E1,-1.090391E0,-8.837225E-1,-3.051347E-1,-8.057162E-1,5E0,5E0,4E0,4E0,2.3011649E-1,-6.7541206E-1,4.710268E-1,2.67569E-1,-3.7446263E-1,9.458927E-3,-9.5442116E-1,-3.8817436E-1],"split_indices":[1,1,1,0,0,1,1,0,0,0,0,0,0,0,0,0,0,0,0,0,0,0,0],"split_type":[0,0,0,0,0,0,0,0,0,0,0,0,0,0,0,0,0,0,0,0,0,0,0],"sum_hessian":[4.626E3,5.2E2,4.106E3,4.55E2,6.5E1,3.005E3,1.101E3,2.3E2,2.25E2,1.8E1,4.7E1,3.98E2,2.607E3,7.11E2,3.9E2,1.98E2,2E2,1.182E3,1.425E3,3E2,4.11E2,1.62E2,2.28E2],"tree_param":{"num_deleted":"0","num_feature":"2","num_nodes":"23","size_leaf_vector":"1"}},{"base_weights":[-2.0201562E-3,-8.57533E0,1.0855612E0,-8.917519E0,-6.0811863E0,2.5414557E0,-2.886766E0,-9.818239E-1,-7.957413E-1,-2.762272E-1,-7.2682315E-1,-2.0303936E0,3.239932E0,-1.3759977E0,-5.63045E0,2.0722044E-1,-6.0820687E-1,4.2396402E-1,2.408309E-1,-3.3714074E-1,8.5153645E-3,-8.595646E-1,-3.4952644E-1],"categories":[],"categories_nodes":[],"categories_segments":[],"categories_sizes":[],"default_left":[0,0,0,0,0,0,0,0,0,0,0,0,0,0,0,0,0,0,0,0,0,0,0],"id":2,"left_children":[1,3,5,7,9,11,13,-1,-1,-1,-1,15,17,19,21,-1,-1,-1,-1,-1,-1,-1,-1],"loss_changes":[4.315225E4,3.904297E2,2.3759307E4,3.1621484E2,2.3994336E2,9.605725E3,4.560119E3,0E0,0E0,0E0,0E0,6.6449385E3,2.1580312E3,2.0761914E3,2.4454727E3,0E0,0E0,0E0,0E0,0E0,0E0,0E0,0E0],"parents":[2147483647,0,0,1,1,2,2,3,3,4,4,5,5,6,6,11,11,12,12,13,13,14,14],"right_children":[2,4,6,8,10,12,14,-1,-1,-1,-1,16,18,20,22,-1,-1,-1,-1,-1,-1,-1,-1],"split_conditions":[4E0,3E0,1.9E1,5E0,2E0,7E0,2.2E1,-9.818239E-1,-7.957413E-1,-2.762272E-1,-7.2682315E-1,5E0,5E0,4E0,4E0,2.0722044E-1,-6.0820687E-1,4.2396402E-1,2.408309E-1,-3.3714074E-1,8.5153645E-3,-8.595646E-1,-3.4952644E-1],"split_indices":[1,1,1,0,0,1,1,0,0,0,0,0,0,0,0,0,0,0,0,0,0,0,0],"split_type":[0,0,0,0,0,0,0,0,0,0,0,0,0,0,0,0,0,0,0,0,0,0,0],"sum_hessian":[4.626E3,5.2E2,4.106E3,4.55E2,6.5E1,3.005E3,1.101E3,2.3E2,2.25E2,1.8E1,4.7E1,3.98E2,2.607E3,7.11E2,3.9E2,1.98E2,2E2,1.182E3,1.425E3,3E2,4.11E2,1.62E2,2.28E2],"tree_param":{"num_deleted":"0","num_feature":"2","num_nodes":"23","size_leaf_vector":"1"}},{"base_weights":[-2.6946329E-3,-7.723134E0,9.7669464E-1,-8.029665E0,-5.4882655E0,1.9370732E0,-3.952795E0,-8.840666E-1,-7.165193E-1,-2.5005832E-1,-6.556551E-1,-1.8283591E0,2.430649E0,-6.788845E0,-2.0214894E0,1.8660258E-1,-5.476888E-1,3.103111E-1,2.1539936E-2,-5.302167E-1,-7.741355E-1,-1.1714125E-1,-4.8150617E-1],"categories":[],"categories_nodes":[],"categories_segments":[],"categories_sizes":[],"default_left":[0,0,0,0,0,0,0,0,0,0,0,0,0,0,0,0,0,0,0,0,0,0,0],"id":3,"left_children":[1,3,5,7,9,11,13,-1,-1,-1,-1,15,17,19,21,-1,-1,-1,-1,-1,-1,-1,-1],"loss_changes":[3.499375E4,3.128457E2,1.9450918E4,2.5635156E2,1.9425671E2,6.3940586E3,3.6560527E3,0E0,0E0,0E0,0E0,5.3883677E3,4.5279297E3,3.4271094E2,9.4426E2,0E0,0E0,0E0,0E0,0E0,0E0,0E0,0E0],"parents":[2147483647,0,0,1,1,2,2,3,3,4,4,5,5,6,6,11,11,12,12,13,13,14,14],"right_children":[2,4,6,8,10,12,14,-1,-1,-1,-1,16,18,20,22,-1,-1,-1,-1,-1,-1,-1,-1],"split_conditions":[4E0,3E0,2.1E1,5E0,2E0,7E0,4E0,-8.840666E-1,-7.165193E-1,-2.5005832E-1,-6.556551E-1,5E0,1.8E1,2.2E1,2.3E1,1.8660258E-1,-5.476888E-1,3.103111E-1,2.1539936E-2,-5.302167E-1,-7.741355E-1,-1.1714125E-1,-4.8150617E-1],"split_indices":[1,1,1,0,0,1,0,0,0,0,0,0,1,1,1,0,0,0,0,0,0,0,0],"split_type":[0,0,0,0,0,0,0,0,0,0,0,0,0,0,0,0,0,0,0,0,0,0,0],"sum_hessian":[4.626E3,5.2E2,4.106E3,4.55E2,6.5E1,3.437E3,6.69E2,2.3E2,2.25E2,1.8E1,4.7E1,3.98E2,3.039E3,2.7E2,3.99E2,1.98E2,2E2,2.331E3,7.08E2,1.08E2,1.62E2,3.07E2,9.2E1],"tree_param":{"num_deleted":"0","num_feature":"2","num_nodes":"23","size_leaf_vector":"1"}},{"base_weights":[-3.3845762E-3,-6.9556313E0,8.785545E-1,-7.230209E0,-4.953162E0,1.9125354E0,-2.8771737E0,-7.960426E-1,-6.4518446E-1,-2.2636859E-1,-5.914556E-1,-7.939958E-1,2.625036E0,-5.006951E0,-1.3002592E0,2.4822931E-1,-4.1367713E-1,3.1033313E-1,6.1805364E-2,-2.1543634E-1,-6.114774E-1,-6.227454E-2,-4.3387327E-1],"categories":[],"categories_nodes":[],"categories_segments":[],"categories_sizes":[],"default_left":[0,0,0,0,0,0,0,0,0,0,0,0,0,0,0,0,0,0,0,0,0,0,0],"id":4,"left_children":[1,3,5,7,9,11,13,-1,-1,-1,-1,15,17,19,21,-1,-1,-1,-1,-1,-1,-1,-1],"loss_changes":[2.837637E4,2.5065234E2,1.5954426E4,2.0782031E2,1.572638E2,6.2134756E3,2.9724585E3,0E0,0E0,0E0,0E0,7.369945E3,2.4459062E3,1.178207E3,1.0492466E3,0E0,0E0,0E0,0E0,0E0,0E0,0E0,0E0],"parents":[2147483647,0,0,1,1,2,2,3,3,4,4,5,5,6,6,11,11,12,12,13,13,14,14],"right_children":[2,4,6,8,10,12,14,-1,-1,-1,-1,16,18,20,22,-1,-1,-1,-1,-1,-1,-1,-1],"split_conditions":[4E0,3E0,2E1,5E0,2E0,9E0,4E0,-7.960426E-1,-6.4518446E-1,-2.2636859E-1,-5.914556E-1,5E0,1.8E1,2.1E1,2.3E1,2.4822931E-1,-4.1367713E-1,3.1033313E-1,6.1805364E-2,-2.1543634E-1,-6.114774E-1,-6.227454E-2,-4.3387327E-1],"split_indices":[1,1,1,0,0,1,0,0,0,0,0,0,1,1,1,0,0,0,0,0,0,0,0],"split_type":[0,0,0,0,0,0,0,0,0,0,0,0,0,0,0,0,0,0,0,0,0,0,0],"sum_hessian":[4.626E3,5.2E2,4.106E3,4.55E2,6.5E1,3.22E3,8.86E2,2.3E2,2.25E2,1.8E1,4.7E1,6.71E2,2.549E3,3.76E2,5.1E2,3.39E2,3.32E2,2.058E3,4.91E2,1.06E2,2.7E2,4.18E2,9.2E1],"tree_param":{"num_deleted":"0","num_feature":"2","num_nodes":"23","size_leaf_vector":"1"}},{"base_weights":[-3.775693E-3,-6.2644043E0,7.904272E-1,-6.510349E0,-4.4702373E0,1.8684942E0,-2.1510065E0,-7.16783E-1,-5.8095145E0,-2.0492314E-1,-5.335422E-1,-7.1484226E-1,2.6111639E0,-1.0125414E0,-4.218618E0,-5.1507646E-1,-6.0604274E-1,2.2347942E-1,-3.7243363E-1,3.2504162E-1,2.0943849E-1,-2.581273E-1,1.3600396E-2,-6.3642424E-1,-2.672961E-1],"categories":[],"categories_nodes":[],"categories_segments":[],"categories_sizes":[],"default_left":[0,0,0,0,0,0,0,0,0,0,0,0,0,0,0,0,0,0,0,0,0,0,0,0,0],"id":5,"left_children":[1,3,5,7,9,11,13,-1,15,-1,-1,17,19,21,23,-1,-1,-1,-1,-1,-1,-1,-1,-1,-1],"loss_changes":[2.3011363E4,2.0079492E2,1.3027572E4,1.6847852E2,1.2731128E2,5.769075E3,2.58973E3,0E0,6.13916E0,0E0,0E0,5.9736094E3,7.645654E2,1.2832036E3,1.2797012E3,0E0,0E0,0E0,0E0,0E0,0E0,0E0,0E0,0E0,0E0],"parents":[2147483647,0,0,1,1,2,2,3,3,4,4,5,5,6,6,8,8,11,11,12,12,13,13,14,14],"right_children":[2,4,6,8,10,12,14,-1,16,-1,-1,18,20,22,24,-1,-1,-1,-1,-1,-1,-1,-1,-1,-1],"split_conditions":[4E0,3E0,1.9E1,5E0,2E0,9E0,2.2E1,-7.16783E-1,1E0,-2.0492314E-1,-5.335422E-1,5E0,5E0,4E0,4E0,-5.1507646E-1,-6.0604274E-1,2.2347942E-1,-3.7243363E-1,3.2504162E-1,2.0943849E-1,-2.581273E-1,1.3600396E-2,-6.3642424E-1,-2.672961E-1],"split_indices":[1,1,1,0,0,1,1,0,1,0,0,0,0,0,0,0,0,0,0,0,0,0,0,0,0],"split_type":[0,0,0,0,0,0,0,0,0,0,0,0,0,0,0,0,0,0,0,0,0,0,0,0,0],"sum_hessian":[4.626E3,5.2E2,4.106E3,4.55E2,6.5E1,3.005E3,1.101E3,2.3E2,2.25E2,1.8E1,4.7E1,6.71E2,2.334E3,7.11E2,3.9E2,6.8E1,1.57E2,3.39E2,3.32E2,1.041E3,1.293E3,3E2,4.11E2,1.62E2,2.28E2],"tree_param":{"num_deleted":"0","num_feature":"2","num_nodes":"25","size_leaf_vector":"1"}},{"base_weights":[-4.1198456E-3,-5.642909E0,7.111987E-1,-5.863344E0,-4.034402E0,1.4230953E0,-2.9428492E0,-6.45415E-1,-5.233524E0,-1.855094E-1,-4.812995E-1,-1.4864686E0,1.8045075E0,-5.022238E0,-1.5267062E0,-4.6431527E-1,-5.458221E-1,1.2110231E-1,-4.149724E-1,2.3052454E-1,1.5496564E-2,-3.9151892E-1,-5.731723E-1,-8.821035E-2,-3.645103E-1],"categories":[],"categories_nodes":[],"categories_segments":[],"categories_sizes":[],"default_left":[0,0,0,0,0,0,0,0,0,0,0,0,0,0,0,0,0,0,0,0,0,0,0,0,0],"id":6,"left_children":[1,3,5,7,9,11,13,-1,15,-1,-1,17,19,21,23,-1,-1,-1,-1,-1,-1,-1,-1,-1,-1],"loss_changes":[1.866716E4,1.6107617E2,1.0687746E4,1.3590137E2,1.03059814E2,3.817979E3,1.9652891E3,0E0,4.6367188E0,0E0,0E0,2.8714854E3,2.5106465E3,1.9041211E2,5.429944E2,0E0,0E0,0E0,0E0,0E0,0E0,0E0,0E0,0E0,0E0],"parents":[2147483647,0,0,1,1,2,2,3,3,4,4,5,5,6,6,8,8,11,11,12,12,13,13,14,14],"right_children":[2,4,6,8,10,12,14,-1,16,-1,-1,18,20,22,24,-1,-1,-1,-1,-1,-1,-1,-1,-1,-1],"split_conditions":[4E0,3E0,2.1E1,5E0,2E0,7E0,4E0,-6.45415E-1,1E0,-1.855094E-1,-4.812995E-1,5E0,1.8E1,2.2E1,2.3E1,-4.6431527E-1,-5.458221E-1,1.2110231E-1,-4.149724E-1,2.3052454E-1,1.5496564E-2,-3.9151892E-1,-5.731723E-1,-8.821035E-2,-3.645103E-1],"split_indices":[1,1,1,0,0,1,0,0,1,0,0,0,1,1,1,0,0,0,0,0,0,0,0,0,0],"split_type":[0,0,0,0,0,0,0,0,0,0,0,0,0,0,0,0,0,0,0,0,0,0,0,0,0],"sum_hessian":[4.626E3,5.2E2,4.106E3,4.55E2,6.5E1,3.437E3,6.69E2,2.3E2,2.25E2,1.8E1,4.7E1,3.98E2,3.039E3,2.7E2,3.99E2,6.8E1,1.57E2,1.98E2,2E2,2.331E3,7.08E2,1.08E2,1.62E2,3.07E2,9.2E1],"tree_param":{"num_deleted":"0","num_feature":"2","num_nodes":"25","size_leaf_vector":"1"}},{"base_weights":[-4.5263893E-3,-5.0830755E0,6.397221E-1,-5.2806406E0,-3.641065E0,1.521223E0,-1.7653879E0,-5.811529E-1,-4.7146406E0,-1.6793479E-1,-4.3417224E-1,-6.4940846E-1,2.1452672E0,-3.243268E0,-6.9347554E-1,-4.1855666E-1,-4.9158525E-1,1.8458478E-1,-3.1951675E-1,2.7230355E-1,1.6783583E-1,-1.4287287E-1,-4.5235738E-1,1.5002118E-2,-2.2080047E-1],"categories":[],"categories_nodes":[],"categories_segments":[],"categories_sizes":[],"default_left":[0,0,0,0,0,0,0,0,0,0,0,0,0,0,0,0,0,0,0,0,0,0,0,0,0],"id":7,"left_children":[1,3,5,7,9,11,13,-1,15,-1,-1,17,19,21,23,-1,-1,-1,-1,-1,-1,-1,-1,-1,-1],"loss_changes":[1.5142091E4,1.2920117E2,8.709963E3,1.0962109E2,8.342523E1,4.07323E3,1.7434929E3,0E0,3.4838867E0,0E0,0E0,4.2746577E3,6.2533105E2,1.0691621E3,8.1793146E2,0E0,0E0,0E0,0E0,0E0,0E0,0E0,0E0,0E0,0E0],"parents":[2147483647,0,0,1,1,2,2,3,3,4,4,5,5,6,6,8,8,11,11,12,12,13,13,14,14],"right_children":[2,4,6,8,10,12,14,-1,16,-1,-1,18,20,22,24,-1,-1,-1,-1,-1,-1,-1,-1,-1,-1],"split_conditions":[4E0,3E0,1.9E1,5E0,2E0,9E0,4E0,-5.811529E-1,1E0,-1.6793479E-1,-4.3417224E-1,5E0,5E0,2.1E1,2.2E1,-4.1855666E-1,-4.9158525E-1,1.8458478E-1,-3.1951675E-1,2.7230355E-1,1.6783583E-1,-1.4287287E-1,-4.5235738E-1,1.5002118E-2,-2.2080047E-1],"split_indices":[1,1,1,0,0,1,0,0,1,0,0,0,0,1,1,0,0,0,0,0,0,0,0,0,0],"split_type":[0,0,0,0,0,0,0,0,0,0,0,0,0,0,0,0,0,0,0,0,0,0,0,0,0],"sum_hessian":[4.626E3,5.2E2,4.106E3,4.55E2,6.5E1,3.005E3,1.101E3,2.3E2,2.25E2,1.8E1,4.7E1,6.71E2,2.334E3,4.62E2,6.39E2,6.8E1,1.57E2,3.39E2,3.32E2,1.041E3,1.293E3,1.92E2,2.7E2,4.11E2,2.28E2],"tree_param":{"num_deleted":"0","num_feature":"2","num_nodes":"25","size_leaf_vector":"1"}},{"base_weights":[-4.633017E-3,-3.555163E0,7.429948E-1,-4.578786E0,-1.6714337E0,1.6870617E0,-1.5895761E0,-4.755847E0,-3.286081E0,3.4141433E-1,-4.0402884E0,2.4988024E0,1.0201546E0,-7.4197656E-1,-3.1289656E0,-5.2328926E-1,-4.2472038E-1,-1.5202521E-1,-3.916595E-1,1.6337822E-1,9.217302E-3,-2.9718015E-1,-5.047559E-1,2.7315304E-1,5.9605863E-2,-2.1114938E-1,1.5106528E-1,-2.2625624E-1,-4.391286E-3,-5.2311E-1,-2.2449426E-1],"categories":[],"categories_nodes":[],"categories_segments":[],"categories_sizes":[],"default_left":[0,0,0,0,0,0,0,0,0,0,0,0,0,0,0,0,0,0,0,0,0,0,0,0,0,0,0,0,0,0,0],"id":8,"left_children":[1,3,5,7,9,11,13,15,17,19,21,23,25,27,29,-1,-1,-1,-1,-1,-1,-1,-1,-1,-1,-1,-1,-1,-1,-1,-1],"loss_changes":[1.2284896E4,1.5445723E3,8.421321E3,1.0362207E2,1.3603007E3,1.471021E3,1.4355527E3,8.84209E1,6.752881E1,4.9776684E1,1.2598926E2,5.4171387E2,2.301147E3,7.556642E2,7.1486523E2,0E0,0E0,0E0,0E0,0E0,0E0,0E0,0E0,0E0,0E0,0E0,0E0,0E0,0E0,0E0,0E0],"parents":[2147483647,0,0,1,1,2,2,3,3,4,4,5,5,6,6,7,7,8,8,9,9,10,10,11,11,12,12,13,13,14,14],"right_children":[2,4,6,8,10,12,14,16,18,20,22,24,26,28,30,-1,-1,-1,-1,-1,-1,-1,-1,-1,-1,-1,-1,-1,-1,-1,-1],"split_conditions":[6E0,4E0,1.9E1,3E0,5E0,5E0,2.2E1,5E0,2E0,2E0,7E0,1.8E1,9E0,3E0,3E0,-5.2328926E-1,-4.2472038E-1,-1.5202521E-1,-3.916595E-1,1.6337822E-1,9.217302E-3,-2.9718015E-1,-5.047559E-1,2.7315304E-1,5.9605863E-2,-2.1114938E-1,1.5106528E-1,-2.2625624E-1,-4.391286E-3,-5.2311E-1,-2.2449426E-1],"split_indices":[1,1,1,1,0,0,1,0,0,0,0,1,1,0,0,0,0,0,0,0,0,0,0,0,0,0,0,0,0,0,0],"split_type":[0,0,0,0,0,0,0,0,0,0,0,0,0,0,0,0,0,0,0,0,0,0,0,0,0,0,0,0,0,0,0],"sum_hessian":[4.626E3,8.04E2,3.822E3,5.2E2,2.84E2,2.721E3,1.101E3,4.55E2,6.5E1,1.54E2,1.3E2,1.226E3,1.495E3,7.11E2,3.9E2,2.3E2,2.25E2,1.8E1,4.7E1,2.4E1,1.3E2,6.5E1,6.5E1,1.092E3,1.34E2,2.02E2,1.293E3,2.23E2,4.88E2,1.14E2,2.76E2],"tree_param":{"num_deleted":"0","num_feature":"2","num_nodes":"31","size_leaf_vector":"1"}},{"base_weights":[-4.780762E-3,-3.2022815E0,6.6851056E-1,-4.1237707E0,-1.5064985E0,1.5184554E0,-1.431506E0,-4.282341E0,-2.9657106E0,3.083864E-1,-3.6423814E0,2.2491932E0,9.1809857E-1,-2.6584482E0,-5.416534E-1,-4.7118685E-1,-3.8243625E-1,-1.3762282E-1,-3.5330948E-1,1.4769393E-1,8.3026E-3,-2.6791242E-1,-4.5504507E-1,2.4586271E-1,5.368946E-2,-1.9013849E-1,1.3597037E-1,-1.12703696E-1,-3.7392744E-1,-1.4993734E-2,-2.8440058E-1],"categories":[],"categories_nodes":[],"categories_segments":[],"categories_sizes":[],"default_left":[0,0,0,0,0,0,0,0,0,0,0,0,0,0,0,0,0,0,0,0,0,0,0,0,0,0,0,0,0,0,0],"id":9,"left_children":[1,3,5,7,9,11,13,15,17,19,21,23,25,27,29,-1,-1,-1,-1,-1,-1,-1,-1,-1,-1,-1,-1,-1,-1,-1,-1],"loss_changes":[9.963376E3,1.2517178E3,6.82584E3,8.297266E1,1.1058921E3,1.1920859E3,1.201721E3,7.168164E1,5.4659546E1,4.069593E1,1.0239502E2,4.3869873E2,1.8652524E3,7.621382E2,5.767694E2,0E0,0E0,0E0,0E0,0E0,0E0,0E0,0E0,0E0,0E0,0E0,0E0,0E0,0E0,0E0,0E0],"parents":[2147483647,0,0,1,1,2,2,3,3,4,4,5,5,6,6,7,7,8,8,9,9,10,10,11,11,12,12,13,13,14,14],"right_children":[2,4,6,8,10,12,14,16,18,20,22,24,26,28,30,-1,-1,-1,-1,-1,-1,-1,-1,-1,-1,-1,-1,-1,-1,-1,-1],"split_conditions":[6E0,4E0,1.9E1,3E0,5E0,5E0,4E0,5E0,2E0,2E0,7E0,1.8E1,9E0,2.1E1,2.3E1,-4.7118685E-1,-3.8243625E-1,-1.3762282E-1,-3.5330948E-1,1.4769393E-1,8.3026E-3,-2.6791242E-1,-4.5504507E-1,2.4586271E-1,5.368946E-2,-1.9013849E-1,1.3597037E-1,-1.12703696E-1,-3.7392744E-1,-1.4993734E-2,-2.8440058E-1],"split_indices":[1,1,1,1,0,0,0,0,0,0,0,1,1,1,1,0,0,0,0,0,0,0,0,0,0,0,0,0,0,0,0],"split_type":[0,0,0,0,0,0,0,0,0,0,0,0,0,0,0,0,0,0,0,0,0,0,0,0,0,0,0,0,0,0,0],"sum_hessian":[4.626E3,8.04E2,3.822E3,5.2E2,2.84E2,2.721E3,1.101E3,4.55E2,6.5E1,1.54E2,1.3E2,1.226E3,1.495E3,4.62E2,6.39E2,2.3E2,2.25E2,1.8E1,4.7E1,2.4E1,1.3E2,6.5E1,6.5E1,1.092E3,1.34E2,2.02E2,1.293E3,1.92E2,2.7E2,5.47E2,9.2E1],"tree_param":{"num_deleted":"0","num_feature":"2","num_nodes":"31","size_leaf_vector":"1"}},{"base_weights":[-4.8328526E-3,-2.8844278E0,6.0151786E-1,-3.7139742E0,-1.357838E0,1.3666997E0,-1.2890688E0,-3.855979E0,-2.6765778E0,2.7855402E-1,-3.2836618E0,2.024518E0,8.2625204E-1,-5.7233626E-1,-2.5909216E0,-4.2427215E-1,-3.4436187E-1,-1.2458487E-1,-3.187146E-1,1.3351527E-1,7.47867E-3,-2.4152707E-1,-4.1023013E-1,1.07333556E-1,2.3603415E-1,-2.3282556E-1,1.15365565E-1,-1.5651613E-1,1.5439363E-2,-4.3418628E-1,-1.8546432E-1],"categories":[],"categories_nodes":[],"categories_segments":[],"categories_sizes":[],"default_left":[0,0,0,0,0,0,0,0,0,0,0,0,0,0,0,0,0,0,0,0,0,0,0,0,0,0,0,0,0,0,0],"id":10,"left_children":[1,3,5,7,9,11,13,15,17,19,21,23,25,27,29,-1,-1,-1,-1,-1,-1,-1,-1,-1,-1,-1,-1,-1,-1,-1,-1],"loss_changes":[8.080683E3,1.01439014E3,5.5322764E3,6.643115E1,8.9906445E2,9.6604297E2,1.0267716E3,5.811133E1,4.4241302E1,3.3271687E1,8.321973E1,3.8940625E2,1.5477507E3,5.139608E2,4.9601685E2,0E0,0E0,0E0,0E0,0E0,0E0,0E0,0E0,0E0,0E0,0E0,0E0,0E0,0E0,0E0,0E0],"parents":[2147483647,0,0,1,1,2,2,3,3,4,4,5,5,6,6,7,7,8,8,9,9,10,10,11,11,12,12,13,13,14,14],"right_children":[2,4,6,8,10,12,14,16,18,20,22,24,26,28,30,-1,-1,-1,-1,-1,-1,-1,-1,-1,-1,-1,-1,-1,-1,-1,-1],"split_conditions":[6E0,4E0,1.9E1,3E0,5E0,5E0,2.2E1,5E0,2E0,2E0,7E0,2E0,8E0,4E0,3E0,-4.2427215E-1,-3.4436187E-1,-1.2458487E-1,-3.187146E-1,1.3351527E-1,7.47867E-3,-2.4152707E-1,-4.1023013E-1,1.07333556E-1,2.3603415E-1,-2.3282556E-1,1.15365565E-1,-1.5651613E-1,1.5439363E-2,-4.3418628E-1,-1.8546432E-1],"split_indices":[1,1,1,1,0,0,1,0,0,0,0,0,1,0,0,0,0,0,0,0,0,0,0,0,0,0,0,0,0,0,0],"split_type":[0,0,0,0,0,0,0,0,0,0,0,0,0,0,0,0,0,0,0,0,0,0,0,0,0,0,0,0,0,0,0],"sum_hessian":[4.626E3,8.04E2,3.822E3,5.2E2,2.84E2,2.721E3,1.101E3,4.55E2,6.5E1,1.54E2,1.3E2,1.226E3,1.495E3,7.11E2,3.9E2,2.3E2,2.25E2,1.8E1,4.7E1,2.4E1,1.3E2,6.5E1,6.5E1,3.21E2,9.05E2,1.4E2,1.355E3,3E2,4.11E2,1.14E2,2.76E2],"tree_param":{"num_deleted":"0","num_feature":"2","num_nodes":"31","size_leaf_vector":"1"}},{"base_weights":[-4.837667E-3,-2.5981252E0,5.4122597E-1,-3.344903E0,-1.2238466E0,1.0418919E0,-1.8164482E0,-3.4720669E0,-2.4156365E0,2.5160837E-1,-2.9602714E0,1.3253441E0,6.253247E-2,-3.0888548E0,-9.498516E-1,-3.820286E-1,-3.1007805E-1,-1.1278206E-1,-2.8750715E-1,1.2069788E-1,6.7365095E-3,-2.1774034E-1,-3.6982867E-1,8.689754E-2,2.2989869E-1,-1.5624794E-1,5.979998E-2,-2.3700069E-1,-3.5506067E-1,-5.151807E-2,-2.3791932E-1],"categories":[],"categories_nodes":[],"categories_segments":[],"categories_sizes":[],"default_left":[0,0,0,0,0,0,0,0,0,0,0,0,0,0,0,0,0,0,0,0,0,0,0,0,0,0,0,0,0,0,0],"id":11,"left_children":[1,3,5,7,9,11,13,15,17,19,21,23,25,27,29,-1,-1,-1,-1,-1,-1,-1,-1,-1,-1,-1,-1,-1,-1,-1,-1],"loss_changes":[6.5537E3,8.220625E2,4.51459E3,5.317871E1,7.309195E2,8.7547217E2,7.358506E2,4.7109863E1,3.5807465E1,2.7201881E1,6.763501E1,1.0848584E3,6.178642E2,8.153784E1,2.4729153E2,0E0,0E0,0E0,0E0,0E0,0E0,0E0,0E0,0E0,0E0,0E0,0E0,0E0,0E0,0E0,0E0],"parents":[2147483647,0,0,1,1,2,2,3,3,4,4,5,5,6,6,7,7,8,8,9,9,10,10,11,11,12,12,13,13,14,14],"right_children":[2,4,6,8,10,12,14,16,18,20,22,24,26,28,30,-1,-1,-1,-1,-1,-1,-1,-1,-1,-1,-1,-1,-1,-1,-1,-1],"split_conditions":[6E0,4E0,2.1E1,3E0,5E0,1.8E1,4E0,5E0,2E0,2E0,7E0,1.5E1,3E0,2.2E1,2.3E1,-3.820286E-1,-3.1007805E-1,-1.1278206E-1,-2.8750715E-1,1.2069788E-1,6.7365095E-3,-2.1774034E-1,-3.6982867E-1,8.689754E-2,2.2989869E-1,-1.5624794E-1,5.979998E-2,-2.3700069E-1,-3.5506067E-1,-5.151807E-2,-2.3791932E-1],"split_indices":[1,1,1,1,0,1,0,0,0,0,0,1,0,1,1,0,0,0,0,0,0,0,0,0,0,0,0,0,0,0,0],"split_type":[0,0,0,0,0,0,0,0,0,0,0,0,0,0,0,0,0,0,0,0,0,0,0,0,0,0,0,0,0,0,0],"sum_hessian":[4.626E3,8.04E2,3.822E3,5.2E2,2.84E2,3.153E3,6.69E2,4.55E2,6.5E1,1.54E2,1.3E2,2.445E3,7.08E2,2.7E2,3.99E2,2.3E2,2.25E2,1.8E1,4.7E1,2.4E1,1.3E2,6.5E1,6.5E1,1.666E3,7.79E2,1.75E2,5.33E2,1.08E2,1.62E2,3.07E2,9.2E1],"tree_param":{"num_deleted":"0","num_feature":"2","num_nodes":"31","size_leaf_vector":"1"}},{"base_weights":[-4.8320913E-3,-2.3402412E0,4.8693073E-1,-3.0125093E0,-1.1030766E0,1.0255202E0,-1.2969749E0,-3.1263778E0,-2.1801379E0,2.272696E-1,-2.66873E0,1.2519715E0,-3.4397654E-2,-2.302125E0,-5.528682E-1,-3.4399113E-1,-2.7920744E-1,-1.02097414E-1,-2.593554E-1,-3.025033E-3,8.987227E-2,-1.9629626E-1,-3.334062E-1,1.4498004E-1,3.30463E-2,-2.8676572E-1,4.2204328E-2,-1.6124281E-1,-3.1977245E-1,-1.9842293E-2,-2.1438327E-1],"categories":[],"categories_nodes":[],"categories_segments":[],"categories_sizes":[],"default_left":[0,0,0,0,0,0,0,0,0,0,0,0,0,0,0,0,0,0,0,0,0,0,0,0,0,0,0,0,0,0,0],"id":12,"left_children":[1,3,5,7,9,11,13,15,17,19,21,23,25,27,29,-1,-1,-1,-1,-1,-1,-1,-1,-1,-1,-1,-1,-1,-1,-1,-1],"loss_changes":[5.315098E3,6.662002E2,3.6744412E3,4.256543E1,5.942219E2,7.0498096E2,6.621492E2,3.8191406E1,2.8980377E1,2.6828636E1,5.4969055E1,4.4068872E2,6.7109595E2,2.2771375E2,2.877325E2,0E0,0E0,0E0,0E0,0E0,0E0,0E0,0E0,0E0,0E0,0E0,0E0,0E0,0E0,0E0,0E0],"parents":[2147483647,0,0,1,1,2,2,3,3,4,4,5,5,6,6,7,7,8,8,9,9,10,10,11,11,12,12,13,13,14,14],"right_children":[2,4,6,8,10,12,14,16,18,20,22,24,26,28,30,-1,-1,-1,-1,-1,-1,-1,-1,-1,-1,-1,-1,-1,-1,-1,-1],"split_conditions":[6E0,4E0,2E1,3E0,5E0,7E0,4E0,5E0,2E0,4E0,7E0,1.8E1,9E0,2.2E1,2.3E1,-3.4399113E-1,-2.7920744E-1,-1.02097414E-1,-2.593554E-1,-3.025033E-3,8.987227E-2,-1.9629626E-1,-3.334062E-1,1.4498004E-1,3.30463E-2,-2.8676572E-1,4.2204328E-2,-1.6124281E-1,-3.1977245E-1,-1.9842293E-2,-2.1438327E-1],"split_indices":[1,1,1,1,0,0,0,0,0,0,0,1,1,1,1,0,0,0,0,0,0,0,0,0,0,0,0,0,0,0,0],"split_type":[0,0,0,0,0,0,0,0,0,0,0,0,0,0,0,0,0,0,0,0,0,0,0,0,0,0,0,0,0,0,0],"sum_hessian":[4.626E3,8.04E2,3.822E3,5.2E2,2.84E2,2.936E3,8.86E2,4.55E2,6.5E1,1.54E2,1.3E2,2.419E3,5.17E2,3.76E2,5.1E2,2.3E2,2.25E2,1.8E1,4.7E1,1.12E2,4.2E1,6.5E1,6.5E1,1.991E3,4.28E2,7.1E1,4.46E2,2.14E2,1.62E2,4.18E2,9.2E1],"tree_param":{"num_deleted":"0","num_feature":"2","num_nodes":"31","size_leaf_vector":"1"}},{"base_weights":[-4.8261727E-3,-2.1079905E0,4.3803337E-1,-2.7131484E0,-9.9432266E-1,8.4837323E-1,-1.4942801E0,-2.8151069E0,-1.9676005E0,2.0510292E-1,-2.4059E0,1.1378508E0,1.9152586E-1,-2.5267398E0,-7.910529E-1,-3.0974093E-1,-2.5141025E-1,-9.242501E-2,-2.3396015E-1,1.0940137E-1,3.3897795E-3,-1.76964E-1,-3.0057073E-1,6.711631E-2,2.623186E-1,-1.6995469E-1,4.981404E-2,-2.368971E-1,-4.124902E-1,-1.2892569E-2,-1.6161276E-1],"categories":[],"categories_nodes":[],"categories_segments":[],"categories_sizes":[],"default_left":[0,0,0,0,0,0,0,0,0,0,0,0,0,0,0,0,0,0,0,0,0,0,0,0,0,0,0,0,0,0,0],"id":13,"left_children":[1,3,5,7,9,11,13,15,17,19,21,23,25,27,29,-1,-1,-1,-1,-1,-1,-1,-1,-1,-1,-1,-1,-1,-1,-1,-1],"loss_changes":[4.3105405E3,5.3982764E2,3.0325444E3,3.4064697E1,4.8302194E2,5.994917E2,4.8445728E2,3.0960938E1,2.345401E1,2.3551758E1,4.4674866E1,1.5156267E3,5.6096277E2,5.8558228E1,2.1831343E2,0E0,0E0,0E0,0E0,0E0,0E0,0E0,0E0,0E0,0E0,0E0,0E0,0E0,0E0,0E0,0E0],"parents":[2147483647,0,0,1,1,2,2,3,3,4,4,5,5,6,6,7,7,8,8,9,9,10,10,11,11,12,12,13,13,14,14],"right_children":[2,4,6,8,10,12,14,16,18,20,22,24,26,28,30,-1,-1,-1,-1,-1,-1,-1,-1,-1,-1,-1,-1,-1,-1,-1,-1],"split_conditions":[6E0,4E0,2.1E1,3E0,5E0,1.7E1,4E0,5E0,2E0,2E0,7E0,1.5E1,2E0,2.3E1,6E0,-3.0974093E-1,-2.5141025E-1,-9.242501E-2,-2.3396015E-1,1.0940137E-1,3.3897795E-3,-1.76964E-1,-3.0057073E-1,6.711631E-2,2.623186E-1,-1.6995469E-1,4.981404E-2,-2.368971E-1,-4.124902E-1,-1.2892569E-2,-1.6161276E-1],"split_indices":[1,1,1,1,0,1,0,0,0,0,0,1,0,1,0,0,0,0,0,0,0,0,0,0,0,0,0,0,0,0,0],"split_type":[0,0,0,0,0,0,0,0,0,0,0,0,0,0,0,0,0,0,0,0,0,0,0,0,0,0,0,0,0,0,0],"sum_hessian":[4.626E3,8.04E2,3.822E3,5.2E2,2.84E2,3.153E3,6.69E2,4.55E2,6.5E1,1.54E2,1.3E2,2.188E3,9.65E2,2.7E2,3.99E2,2.3E2,2.25E2,1.8E1,4.7E1,2.4E1,1.3E2,6.5E1,6.5E1,1.666E3,5.22E2,1.34E2,8.31E2,2.48E2,2.2E1,2.22E2,1.77E2],"tree_param":{"num_deleted":"0","num_feature":"2","num_nodes":"31","size_leaf_vector":"1"}},{"base_weights":[-4.746807E-3,-1.898747E0,3.9406952E-1,-2.443537E0,-8.9617014E-1,9.045919E-1,-8.6730623E-1,-2.5348265E0,-1.7757856E0,1.8532063E-1,-2.1689556E0,1.4784153E0,4.3334478E-1,-3.6862653E-1,-1.7731696E0,-2.7890092E-1,-2.2638047E-1,-1.2705123E-1,-2.4585687E-1,-5.3127324E-3,8.076299E-2,-1.5953575E-1,-2.709691E-1,1.1637016E-1,2.413669E-1,-2.2469786E-1,7.117314E-2,-1.8115269E-1,-9.626594E-3,-2.974058E-1,-1.2682046E-1],"categories":[],"categories_nodes":[],"categories_segments":[],"categories_sizes":[],"default_left":[0,0,0,0,0,0,0,0,0,0,0,0,0,0,0,0,0,0,0,0,0,0,0,0,0,0,0,0,0,0,0],"id":14,"left_children":[1,3,5,7,9,11,13,15,17,19,21,23,25,27,29,-1,-1,-1,-1,-1,-1,-1,-1,-1,-1,-1,-1,-1,-1,-1,-1],"loss_changes":[3.4957905E3,4.3749634E2,2.4626458E3,2.7258057E1,3.9270605E2,7.3542236E2,4.9715906E2,2.509961E1,1.9645828E1,2.3043104E1,3.6308716E1,3.5834302E2,1.1178636E3,2.7963394E2,2.3333337E2,0E0,0E0,0E0,0E0,0E0,0E0,0E0,0E0,0E0,0E0,0E0,0E0,0E0,0E0,0E0,0E0],"parents":[2147483647,0,0,1,1,2,2,3,3,4,4,5,5,6,6,7,7,8,8,9,9,10,10,11,11,12,12,13,13,14,14],"right_children":[2,4,6,8,10,12,14,16,18,20,22,24,26,28,30,-1,-1,-1,-1,-1,-1,-1,-1,-1,-1,-1,-1,-1,-1,-1,-1],"split_conditions":[6E0,4E0,1.9E1,3E0,5E0,5E0,2.2E1,5E0,7E0,4E0,7E0,4E0,8E0,2E0,3E0,-2.7890092E-1,-2.2638047E-1,-1.2705123E-1,-2.4585687E-1,-5.3127324E-3,8.076299E-2,-1.5953575E-1,-2.709691E-1,1.1637016E-1,2.413669E-1,-2.2469786E-1,7.117314E-2,-1.8115269E-1,-9.626594E-3,-2.974058E-1,-1.2682046E-1],"split_indices":[1,1,1,1,0,0,1,0,0,0,0,0,1,0,0,0,0,0,0,0,0,0,0,0,0,0,0,0,0,0,0],"split_type":[0,0,0,0,0,0,0,0,0,0,0,0,0,0,0,0,0,0,0,0,0,0,0,0,0,0,0,0,0,0,0],"sum_hessian":[4.626E3,8.04E2,3.822E3,5.2E2,2.84E2,2.721E3,1.101E3,4.55E2,6.5E1,1.54E2,1.3E2,1.226E3,1.495E3,7.11E2,3.9E2,2.3E2,2.25E2,3.9E1,2.6E1,1.12E2,4.2E1,6.5E1,6.5E1,9.19E2,3.07E2,1.4E2,1.355E3,1.12E2,5.99E2,1.14E2,2.76E2],"tree_param":{"num_deleted":"0","num_feature":"2","num_nodes":"31","size_leaf_vector":"1"}},{"base_weights":[-4.6271835E-3,-1.7104042E0,3.5455543E-1,-2.2008688E0,-8.07799E-1,6.905065E-1,-1.2274508E0,-2.282452E0,-1.603857E0,1.6727543E-1,-1.9553466E0,8.588911E-1,-1.6802776E-1,-2.0959399E0,-6.3598084E-1,-1.7944482E-1,-2.3992024E-1,-7.163249E-2,-1.9217582E-1,9.940876E-2,8.209942E-4,-1.4382392E-1,-2.4428275E-1,1.1039584E-1,1.0187437E-2,-1.09863006E-1,9.314146E-2,-1.9628303E-1,-3.4458706E-1,-3.3458236E-3,-1.3872537E-1],"categories":[],"categories_nodes":[],"categories_segments":[],"categories_sizes":[],"default_left":[0,0,0,0,0,0,0,0,0,0,0,0,0,0,0,0,0,0,0,0,0,0,0,0,0,0,0,0,0,0,0],"id":15,"left_children":[1,3,5,7,9,11,13,15,17,19,21,23,25,27,29,-1,-1,-1,-1,-1,-1,-1,-1,-1,-1,-1,-1,-1,-1,-1,-1],"loss_changes":[2.835502E3,3.545923E2,2.0326829E3,2.1715332E1,3.1922623E2,4.56099E2,3.4283618E2,2.1675293E1,1.7245117E1,2.0377016E1,2.9509125E1,4.8910376E2,5.3101166E2,4.193213E1,1.8101712E2,0E0,0E0,0E0,0E0,0E0,0E0,0E0,0E0,0E0,0E0,0E0,0E0,0E0,0E0,0E0,0E0],"parents":[2147483647,0,0,1,1,2,2,3,3,4,4,5,5,6,6,7,7,8,8,9,9,10,10,11,11,12,12,13,13,14,14],"right_children":[2,4,6,8,10,12,14,16,18,20,22,24,26,28,30,-1,-1,-1,-1,-1,-1,-1,-1,-1,-1,-1,-1,-1,-1,-1,-1],"split_conditions":[6E0,4E0,2.1E1,3E0,5E0,7E0,4E0,1E0,2E0,2E0,7E0,1.8E1,1.4E1,2.3E1,6E0,-1.7944482E-1,-2.3992024E-1,-7.163249E-2,-1.9217582E-1,9.940876E-2,8.209942E-4,-1.4382392E-1,-2.4428275E-1,1.1039584E-1,1.0187437E-2,-1.09863006E-1,9.314146E-2,-1.9628303E-1,-3.4458706E-1,-3.3458236E-3,-1.3872537E-1],"split_indices":[1,1,1,1,0,0,0,1,0,0,0,1,1,1,0,0,0,0,0,0,0,0,0,0,0,0,0,0,0,0,0],"split_type":[0,0,0,0,0,0,0,0,0,0,0,0,0,0,0,0,0,0,0,0,0,0,0,0,0,0,0,0,0,0,0],"sum_hessian":[4.626E3,8.04E2,3.822E3,5.2E2,2.84E2,3.153E3,6.69E2,4.55E2,6.5E1,1.54E2,1.3E2,2.636E3,5.17E2,2.7E2,3.99E2,9.1E1,3.64E2,1.8E1,4.7E1,2.4E1,1.3E2,6.5E1,6.5E1,1.991E3,6.45E2,2.8E2,2.37E2,2.48E2,2.2E1,2.22E2,1.77E2],"tree_param":{"num_deleted":"0","num_feature":"2","num_nodes":"31","size_leaf_vector":"1"}},{"base_weights":[-4.4993027E-3,-1.5405701E0,3.1894866E-1,-1.9820933E0,-7.280294E-1,6.214891E-1,-1.1057252E0,-2.1553657E0,-1.7427305E0,1.5119435E-1,-1.7627748E0,8.5610044E-1,8.9205794E-2,-1.8883418E0,-5.727382E-1,-1.6169539E-1,-2.3842476E-1,-1.8543315E-1,-1.4474685E-1,-6.9614495E-3,7.279433E-2,-1.5142582E-1,-2.9252312E-1,4.5112252E-2,2.145282E-1,-1.5473874E-1,3.546516E-2,-1.7673354E-1,-3.1162658E-1,-3.0127747E-3,-1.2493078E-1],"categories":[],"categories_nodes":[],"categories_segments":[],"categories_sizes":[],"default_left":[0,0,0,0,0,0,0,0,0,0,0,0,0,0,0,0,0,0,0,0,0,0,0,0,0,0,0,0,0,0,0],"id":16,"left_children":[1,3,5,7,9,11,13,15,17,19,21,23,25,27,29,-1,-1,-1,-1,-1,-1,-1,-1,-1,-1,-1,-1,-1,-1,-1,-1],"loss_changes":[2.2993652E3,2.8735535E2,1.6484822E3,1.785205E1,2.5955176E2,3.937942E2,2.7839185E2,3.2868042E1,4.6970215E0,1.9790123E1,3.3414978E1,1.1418875E3,4.2020502E2,3.475952E1,1.4680785E2,0E0,0E0,0E0,0E0,0E0,0E0,0E0,0E0,0E0,0E0,0E0,0E0,0E0,0E0,0E0,0E0],"parents":[2147483647,0,0,1,1,2,2,3,3,4,4,5,5,6,6,7,7,8,8,9,9,10,10,11,11,12,12,13,13,14,14],"right_children":[2,4,6,8,10,12,14,16,18,20,22,24,26,28,30,-1,-1,-1,-1,-1,-1,-1,-1,-1,-1,-1,-1,-1,-1,-1,-1],"split_conditions":[6E0,4E0,2.1E1,2E0,5E0,1.7E1,4E0,1E0,3E0,4E0,5E0,1.5E1,2E0,2.3E1,6E0,-1.6169539E-1,-2.3842476E-1,-1.8543315E-1,-1.4474685E-1,-6.9614495E-3,7.279433E-2,-1.5142582E-1,-2.9252312E-1,4.5112252E-2,2.145282E-1,-1.5473874E-1,3.546516E-2,-1.7673354E-1,-3.1162658E-1,-3.0127747E-3,-1.2493078E-1],"split_indices":[1,1,1,1,0,1,0,1,1,0,1,1,0,1,0,0,0,0,0,0,0,0,0,0,0,0,0,0,0,0,0],"split_type":[0,0,0,0,0,0,0,0,0,0,0,0,0,0,0,0,0,0,0,0,0,0,0,0,0,0,0,0,0,0,0],"sum_hessian":[4.626E3,8.04E2,3.822E3,5.2E2,2.84E2,3.153E3,6.69E2,2.97E2,2.23E2,1.54E2,1.3E2,2.188E3,9.65E2,2.7E2,3.99E2,9.1E1,2.06E2,1.58E2,6.5E1,1.12E2,4.2E1,1.09E2,2.1E1,1.666E3,5.22E2,1.34E2,8.31E2,2.48E2,2.2E1,2.22E2,1.77E2],"tree_param":{"num_deleted":"0","num_feature":"2","num_nodes":"31","size_leaf_vector":"1"}},{"base_weights":[-4.392034E-3,-1.3878901E0,2.8692898E-1,-1.7852857E0,-6.565531E-1,6.6545814E-1,-6.4831907E-1,-1.9411718E0,-1.5699316E0,1.3649993E-1,-1.5898864E0,1.1643099E0,2.558616E-1,-2.5428805E-1,-1.3641803E0,-2.2408925E-1,-1.5822044E-1,-1.3816679E-1,-1.7394696E-1,9.0533815E-2,-1.1266905E-3,-1.3642092E-1,-2.6460046E-1,8.835837E-2,1.9990622E-1,-1.6778447E-1,5.5901963E-2,-8.389228E-2,1.7345307E-2,-2.2552891E-1,-9.893006E-2],"categories":[],"categories_nodes":[],"categories_segments":[],"categories_sizes":[],"default_left":[0,0,0,0,0,0,0,0,0,0,0,0,0,0,0,0,0,0,0,0,0,0,0,0,0,0,0,0,0,0,0],"id":17,"left_children":[1,3,5,7,9,11,13,15,17,19,21,23,25,27,29,-1,-1,-1,-1,-1,-1,-1,-1,-1,-1,-1,-1,-1,-1,-1,-1],"loss_changes":[1.8652738E3,2.3278516E2,1.3538448E3,1.4442871E1,2.111691E2,5.558827E2,3.1049585E2,2.8516235E1,4.746216E0,1.7619564E1,2.7613068E1,2.857649E2,8.779209E2,1.7819699E2,1.283858E2,0E0,0E0,0E0,0E0,0E0,0E0,0E0,0E0,0E0,0E0,0E0,0E0,0E0,0E0,0E0,0E0],"parents":[2147483647,0,0,1,1,2,2,3,3,4,4,5,5,6,6,7,7,8,8,9,9,10,10,11,11,12,12,13,13,14,14],"right_children":[2,4,6,8,10,12,14,16,18,20,22,24,26,28,30,-1,-1,-1,-1,-1,-1,-1,-1,-1,-1,-1,-1,-1,-1,-1,-1],"split_conditions":[6E0,4E0,1.9E1,2E0,5E0,5E0,2.2E1,5E0,7E0,2E0,5E0,4E0,9E0,4E0,3E0,-2.2408925E-1,-1.5822044E-1,-1.3816679E-1,-1.7394696E-1,9.0533815E-2,-1.1266905E-3,-1.3642092E-1,-2.6460046E-1,8.835837E-2,1.9990622E-1,-1.6778447E-1,5.5901963E-2,-8.389228E-2,1.7345307E-2,-2.2552891E-1,-9.893006E-2],"split_indices":[1,1,1,1,0,0,1,0,0,0,1,0,1,0,0,0,0,0,0,0,0,0,0,0,0,0,0,0,0,0,0],"split_type":[0,0,0,0,0,0,0,0,0,0,0,0,0,0,0,0,0,0,0,0,0,0,0,0,0,0,0,0,0,0,0],"sum_hessian":[4.626E3,8.04E2,3.822E3,5.2E2,2.84E2,2.721E3,1.101E3,2.97E2,2.23E2,1.54E2,1.3E2,1.226E3,1.495E3,7.11E2,3.9E2,1.59E2,1.38E2,1.1E2,1.13E2,2.4E1,1.3E2,1.09E2,2.1E1,9.19E2,3.07E2,2.02E2,1.293E3,3E2,4.11E2,1.14E2,2.76E2],"tree_param":{"num_deleted":"0","num_feature":"2","num_nodes":"31","size_leaf_vector":"1"}},{"base_weights":[-4.2166593E-3,-1.250351E0,2.5817996E-1,-1.6080902E0,-5.9199136E-1,6.626472E-1,-4.5995137E-1,-1.6701791E0,-1.1547463E0,1.2342646E-1,-1.4339591E0,1.1875538E0,2.3843335E-1,-1.1662278E0,4.9442993E-3,-1.8682797E-1,-1.4603058E-1,-7.376698E-2,-1.7298691E-1,-8.106561E-3,6.579422E-2,-9.274309E-2,-1.9187608E-1,7.6098315E-2,2.0122753E-1,-1.9367027E-1,4.9086805E-2,-1.7097725E-1,-8.430227E-2,5.4427635E-2,-6.318194E-2],"categories":[],"categories_nodes":[],"categories_segments":[],"categories_sizes":[],"default_left":[0,0,0,0,0,0,0,0,0,0,0,0,0,0,0,0,0,0,0,0,0,0,0,0,0,0,0,0,0,0,0],"id":18,"left_children":[1,3,5,7,9,11,13,15,17,19,21,23,25,27,29,-1,-1,-1,-1,-1,-1,-1,-1,-1,-1,-1,-1,-1,-1,-1,-1],"loss_changes":[1.513266E3,1.8864221E2,1.1107356E3,1.2736328E1,1.7184924E2,5.4437415E2,4.52465E2,1.6230469E1,1.4555374E1,1.6995493E1,3.0389587E1,3.8298828E2,7.4440485E2,9.4653625E1,2.860752E2,0E0,0E0,0E0,0E0,0E0,0E0,0E0,0E0,0E0,0E0,0E0,0E0,0E0,0E0,0E0,0E0],"parents":[2147483647,0,0,1,1,2,2,3,3,4,4,5,5,6,6,7,7,8,8,9,9,10,10,11,11,12,12,13,13,14,14],"right_children":[2,4,6,8,10,12,14,16,18,20,22,24,26,28,30,-1,-1,-1,-1,-1,-1,-1,-1,-1,-1,-1,-1,-1,-1,-1,-1],"split_conditions":[6E0,4E0,1.8E1,3E0,5E0,5E0,4E0,5E0,7E0,4E0,7E0,1.4E1,8E0,2E0,6E0,-1.8682797E-1,-1.4603058E-1,-7.376698E-2,-1.7298691E-1,-8.106561E-3,6.579422E-2,-9.274309E-2,-1.9187608E-1,7.6098315E-2,2.0122753E-1,-1.9367027E-1,4.9086805E-2,-1.7097725E-1,-8.430227E-2,5.4427635E-2,-6.318194E-2],"split_indices":[1,1,1,1,0,0,0,0,0,0,0,1,1,0,0,0,0,0,0,0,0,0,0,0,0,0,0,0,0,0,0],"split_type":[0,0,0,0,0,0,0,0,0,0,0,0,0,0,0,0,0,0,0,0,0,0,0,0,0,0,0,0,0,0,0],"sum_hessian":[4.626E3,8.04E2,3.822E3,5.2E2,2.84E2,2.445E3,1.377E3,4.55E2,6.5E1,1.54E2,1.3E2,1.092E3,1.353E3,5.46E2,8.31E2,2.3E2,2.25E2,3.9E1,2.6E1,1.12E2,4.2E1,6.5E1,6.5E1,7.21E2,3.71E2,1.4E2,1.213E3,2.02E2,3.44E2,4.5E2,3.81E2],"tree_param":{"num_deleted":"0","num_feature":"2","num_nodes":"31","size_leaf_vector":"1"}},{"base_weights":[-3.9977604E-3,-1.1263179E0,2.3232757E-1,-1.4483937E0,-5.3358865E-1,4.6431354E-1,-8.6008453E-1,-1.5810294E0,-1.2654747E0,1.1145582E-1,-1.292736E0,6.06229E-1,-2.5903654E-1,-1.4340703E0,-4.6905893E-1,-1.12940565E-1,-1.7741133E-1,-1.09932534E-1,-1.4161512E-1,8.262073E-2,-2.579794E-3,-1.0785502E-1,-2.3049043E-1,8.079212E-2,1.8709335E-2,-1.0407398E-1,6.649872E-2,-1.3354935E-1,-2.438922E-1,-1.610066E-2,-1.4842318E-1],"categories":[],"categories_nodes":[],"categories_segments":[],"categories_sizes":[],"default_left":[0,0,0,0,0,0,0,0,0,0,0,0,0,0,0,0,0,0,0,0,0,0,0,0,0,0,0,0,0,0,0],"id":19,"left_children":[1,3,5,7,9,11,13,15,17,19,21,23,25,27,29,-1,-1,-1,-1,-1,-1,-1,-1,-1,-1,-1,-1,-1,-1,-1,-1],"loss_changes":[1.2274932E3,1.5290454E2,9.6924036E2,1.0639648E1,1.39704E2,3.239295E2,1.4970425E2,2.39823E1,4.050995E0,1.5227175E1,2.5913788E1,2.2277136E2,3.7484988E2,2.3586792E1,1.2485158E2,0E0,0E0,0E0,0E0,0E0,0E0,0E0,0E0,0E0,0E0,0E0,0E0,0E0,0E0,0E0,0E0],"parents":[2147483647,0,0,1,1,2,2,3,3,4,4,5,5,6,6,7,7,8,8,9,9,10,10,11,11,12,12,13,13,14,14],"right_children":[2,4,6,8,10,12,14,16,18,20,22,24,26,28,30,-1,-1,-1,-1,-1,-1,-1,-1,-1,-1,-1,-1,-1,-1,-1,-1],"split_conditions":[6E0,4E0,2.1E1,2E0,5E0,7E0,4E0,1E0,7E0,2E0,5E0,1.7E1,1.4E1,2.3E1,2.3E1,-1.12940565E-1,-1.7741133E-1,-1.09932534E-1,-1.4161512E-1,8.262073E-2,-2.579794E-3,-1.0785502E-1,-2.3049043E-1,8.079212E-2,1.8709335E-2,-1.0407398E-1,6.649872E-2,-1.3354935E-1,-2.438922E-1,-1.610066E-2,-1.4842318E-1],"split_indices":[1,1,1,1,0,0,0,1,0,0,1,1,1,1,1,0,0,0,0,0,0,0,0,0,0,0,0,0,0,0,0],"split_type":[0,0,0,0,0,0,0,0,0,0,0,0,0,0,0,0,0,0,0,0,0,0,0,0,0,0,0,0,0,0,0],"sum_hessian":[4.626E3,8.04E2,3.822E3,5.2E2,2.84E2,3.153E3,6.69E2,2.97E2,2.23E2,1.54E2,1.3E2,2.636E3,5.17E2,2.7E2,3.99E2,9.1E1,2.06E2,1.1E2,1.13E2,2.4E1,1.3E2,1.09E2,2.1E1,1.779E3,8.57E2,2.8E2,2.37E2,2.48E2,2.2E1,3.07E2,9.2E1],"tree_param":{"num_deleted":"0","num_feature":"2","num_nodes":"31","size_leaf_vector":"1"}},{"base_weights":[-3.8743655E-3,-1.0146801E0,2.0896961E-1,-1.3045944E0,-4.8113614E-1,4.1790226E-1,-7.748849E-1,-1.357071E0,-9.222625E-1,1.0082674E-1,-1.1660454E0,5.456442E-1,-2.3320498E-1,-1.2920561E0,-4.225642E-1,-1.5327768E-1,-1.1714733E-1,-2.0640835E-2,-1.1864076E-1,-8.857E-3,5.96199E-2,-6.908521E-2,-1.6235714E-1,-9.19162E-3,6.5534554E-2,-9.370359E-2,5.987686E-2,-1.20248035E-1,-2.2056337E-1,-1.4495802E-2,-1.3374045E-1],"categories":[],"categories_nodes":[],"categories_segments":[],"categories_sizes":[],"default_left":[0,0,0,0,0,0,0,0,0,0,0,0,0,0,0,0,0,0,0,0,0,0,0,0,0,0,0,0,0,0,0],"id":20,"left_children":[1,3,5,7,9,11,13,15,17,19,21,23,25,27,29,-1,-1,-1,-1,-1,-1,-1,-1,-1,-1,-1,-1,-1,-1,-1,-1],"loss_changes":[9.95683E2,1.238913E2,7.8617706E2,9.201538E0,1.1371622E2,2.624572E2,1.2153479E2,1.307489E1,1.223502E1,1.4595196E1,2.7359497E1,1.8449518E2,3.0388568E2,1.9524872E1,1.01392265E2,0E0,0E0,0E0,0E0,0E0,0E0,0E0,0E0,0E0,0E0,0E0,0E0,0E0,0E0,0E0,0E0],"parents":[2147483647,0,0,1,1,2,2,3,3,4,4,5,5,6,6,7,7,8,8,9,9,10,10,11,11,12,12,13,13,14,14],"right_children":[2,4,6,8,10,12,14,16,18,20,22,24,26,28,30,-1,-1,-1,-1,-1,-1,-1,-1,-1,-1,-1,-1,-1,-1,-1,-1],"split_conditions":[6E0,4E0,2.1E1,3E0,5E0,7E0,4E0,5E0,2E0,4E0,7E0,2E0,1.4E1,2.3E1,2.3E1,-1.5327768E-1,-1.1714733E-1,-2.0640835E-2,-1.1864076E-1,-8.857E-3,5.96199E-2,-6.908521E-2,-1.6235714E-1,-9.19162E-3,6.5534554E-2,-9.370359E-2,5.987686E-2,-1.20248035E-1,-2.2056337E-1,-1.4495802E-2,-1.3374045E-1],"split_indices":[1,1,1,1,0,0,0,0,0,0,0,0,1,1,1,0,0,0,0,0,0,0,0,0,0,0,0,0,0,0,0],"split_type":[0,0,0,0,0,0,0,0,0,0,0,0,0,0,0,0,0,0,0,0,0,0,0,0,0,0,0,0,0,0,0],"sum_hessian":[4.626E3,8.04E2,3.822E3,5.2E2,2.84E2,3.153E3,6.69E2,4.55E2,6.5E1,1.54E2,1.3E2,2.636E3,5.17E2,2.7E2,3.99E2,2.3E2,2.25E2,1.8E1,4.7E1,1.12E2,4.2E1,6.5E1,6.5E1,3.87E2,2.249E3,2.8E2,2.37E2,2.48E2,2.2E1,3.07E2,9.2E1],"tree_param":{"num_deleted":"0","num_feature":"2","num_nodes":"31","size_leaf_vector":"1"}},{"base_weights":[-3.7153806E-3,-9.139455E-1,1.8795058E-1,-1.1749214E0,-4.3365648E-1,5.555533E-1,-3.043249E-1,-1.2878689E0,-1.0194156E0,9.107161E-2,-1.0512077E0,2.3044708E-1,1.5907284E0,-1.3977028E0,-1.0502172E-1,-8.9278586E-2,-1.4572398E-1,-8.6654805E-2,-1.1593181E-1,7.5539485E-2,-3.6402827E-3,-8.4810354E-2,-2.0189463E-1,4.153114E-2,-5.3710867E-2,2.0136634E-1,1.1930434E-1,-1.2666798E-1,-1.7076677E-1,1.11116385E-2,-8.240282E-2],"categories":[],"categories_nodes":[],"categories_segments":[],"categories_sizes":[],"default_left":[0,0,0,0,0,0,0,0,0,0,0,0,0,0,0,0,0,0,0,0,0,0,0,0,0,0,0,0,0,0,0],"id":21,"left_children":[1,3,5,7,9,11,13,15,17,19,21,23,25,27,29,-1,-1,-1,-1,-1,-1,-1,-1,-1,-1,-1,-1,-1,-1,-1,-1],"loss_changes":[8.073988E2,1.0039227E2,6.919861E2,7.8379517E0,9.244899E1,7.3632355E2,3.561421E2,1.8639862E1,3.7859802E0,1.3153554E1,2.403598E1,2.3675983E2,8.55636E1,8.071289E0,2.1517166E2,0E0,0E0,0E0,0E0,0E0,0E0,0E0,0E0,0E0,0E0,0E0,0E0,0E0,0E0,0E0,0E0],"parents":[2147483647,0,0,1,1,2,2,3,3,4,4,5,5,6,6,7,7,8,8,9,9,10,10,11,11,12,12,13,13,14,14],"right_children":[2,4,6,8,10,12,14,16,18,20,22,24,26,28,30,-1,-1,-1,-1,-1,-1,-1,-1,-1,-1,-1,-1,-1,-1,-1,-1],"split_conditions":[6E0,4E0,1.7E1,2E0,5E0,1.5E1,2E0,1E0,7E0,2E0,5E0,7E0,5E0,2.2E1,2.2E1,-8.9278586E-2,-1.4572398E-1,-8.6654805E-2,-1.1593181E-1,7.5539485E-2,-3.6402827E-3,-8.4810354E-2,-2.0189463E-1,4.153114E-2,-5.3710867E-2,2.0136634E-1,1.1930434E-1,-1.2666798E-1,-1.7076677E-1,1.11116385E-2,-8.240282E-2],"split_indices":[1,1,1,1,0,1,0,1,0,0,1,0,0,1,1,0,0,0,0,0,0,0,0,0,0,0,0,0,0,0,0],"split_type":[0,0,0,0,0,0,0,0,0,0,0,0,0,0,0,0,0,0,0,0,0,0,0,0,0,0,0,0,0,0,0],"sum_hessian":[4.626E3,8.04E2,3.822E3,5.2E2,2.84E2,2.188E3,1.634E3,2.97E2,2.23E2,1.54E2,1.3E2,1.666E3,5.22E2,2.51E2,1.383E3,9.1E1,2.06E2,1.1E2,1.13E2,2.4E1,1.3E2,1.09E2,2.1E1,1.343E3,3.23E2,2.51E2,2.71E2,1.8E2,7.1E1,1.064E3,3.19E2],"tree_param":{"num_deleted":"0","num_feature":"2","num_nodes":"31","size_leaf_vector":"1"}},{"base_weights":[-3.4977093E-3,-8.233613E-1,1.6913992E-1,-1.102698E0,-4.5707306E-1,4.575879E-1,-3.4298843E-1,-1.258845E0,-9.3821716E-1,-1.4076385E-1,-1.3425842E-1,8.8164234E-1,1.14937186E-1,-8.861493E-1,1.4525973E-2,-9.9625E-2,-1.4254816E-1,-4.4252347E-2,-1.062436E-1,1.5626838E-3,-1.8262284E-1,6.316332E-2,1.917616E-1,-1.4255829E-1,3.863006E-2,-1.2330476E-1,-6.794638E-2,5.058344E-2,-5.655647E-2],"categories":[],"categories_nodes":[],"categories_segments":[],"categories_sizes":[],"default_left":[0,0,0,0,0,0,0,0,0,0,0,0,0,0,0,0,0,0,0,0,0,0,0,0,0,0,0,0,0],"id":22,"left_children":[1,3,5,7,9,11,13,15,17,19,-1,21,23,25,27,-1,-1,-1,-1,-1,-1,-1,-1,-1,-1,-1,-1,-1,-1],"loss_changes":[6.550417E2,8.1861755E1,5.6489966E2,1.0530457E1,9.7844376E1,3.5530872E2,2.676037E2,8.687927E0,1.3445694E1,6.82986E1,0E0,2.8187897E2,5.665779E2,3.838147E1,2.3740892E2,0E0,0E0,0E0,0E0,0E0,0E0,0E0,0E0,0E0,0E0,0E0,0E0,0E0,0E0],"parents":[2147483647,0,0,1,1,2,2,3,3,4,4,5,5,6,6,7,7,8,8,9,9,11,11,12,12,13,13,14,14],"right_children":[2,4,6,8,10,12,14,16,18,20,-1,22,24,26,28,-1,-1,-1,-1,-1,-1,-1,-1,-1,-1,-1,-1,-1,-1],"split_conditions":[6E0,3E0,1.8E1,5E0,7E0,5E0,4E0,2E0,6E0,5E0,-1.3425842E-1,1.6E1,9E0,2E0,6E0,-9.9625E-2,-1.4254816E-1,-4.4252347E-2,-1.062436E-1,1.5626838E-3,-1.8262284E-1,6.316332E-2,1.917616E-1,-1.4255829E-1,3.863006E-2,-1.2330476E-1,-6.794638E-2,5.058344E-2,-5.655647E-2],"split_indices":[1,1,1,0,0,0,0,0,0,1,0,1,1,0,0,0,0,0,0,0,0,0,0,0,0,0,0,0,0],"split_type":[0,0,0,0,0,0,0,0,0,0,0,0,0,0,0,0,0,0,0,0,0,0,0,0,0,0,0,0,0],"sum_hessian":[4.626E3,8.04E2,3.822E3,4.55E2,3.49E2,2.445E3,1.377E3,2.3E2,2.25E2,2.58E2,9.1E1,1.092E3,1.353E3,5.46E2,8.31E2,9.2E1,1.38E2,4.6E1,1.79E2,2.37E2,2.1E1,8.81E2,2.11E2,2.02E2,1.151E3,2.02E2,3.44E2,4.5E2,3.81E2],"tree_param":{"num_deleted":"0","num_feature":"2","num_nodes":"29","size_leaf_vector":"1"}},{"base_weights":[-3.310895E-3,-9.559272E-1,1.1753556E-1,-7.0513666E-1,-1.0073615E0,2.5747848E-1,-6.00735E-1,-1.1191263E-1,-5.509209E-1,-1.194179E0,-8.3022505E-1,3.751926E-1,-3.196211E-1,-9.8114365E-1,-3.4150627E-1,-1.3109535E-2,-7.446458E-2,-1.2728693E-1,-5.7040054E-2,-7.174989E-2,-9.3270205E-2,-9.169002E-3,4.5371223E-2,-1.32902E-1,1.4182428E-2,-6.966533E-2,-1.1653664E-1,5.311958E-3,-8.339786E-2],"categories":[],"categories_nodes":[],"categories_segments":[],"categories_sizes":[],"default_left":[0,0,0,0,0,0,0,0,0,0,0,0,0,0,0,0,0,0,0,0,0,0,0,0,0,0,0,0,0],"id":23,"left_children":[1,3,5,7,9,11,13,-1,15,17,19,21,23,25,27,-1,-1,-1,-1,-1,-1,-1,-1,-1,-1,-1,-1,-1,-1],"loss_changes":[5.32774E2,6.0101624E0,4.1297748E2,5.2570724E0,1.323822E1,2.3367284E2,6.573552E1,0E0,5.5141926E0,9.43457E0,1.918396E0,1.0474097E2,2.717396E2,1.3391174E1,7.778122E1,0E0,0E0,0E0,0E0,0E0,0E0,0E0,0E0,0E0,0E0,0E0,0E0,0E0,0E0],"parents":[2147483647,0,0,1,1,2,2,3,3,4,4,5,5,6,6,8,8,9,9,10,10,11,11,12,12,13,13,14,14],"right_children":[2,4,6,8,10,12,14,-1,16,18,20,22,24,26,28,-1,-1,-1,-1,-1,-1,-1,-1,-1,-1,-1,-1,-1,-1],"split_conditions":[4E0,1E0,2.1E1,3E0,2E0,7E0,4E0,-1.1191263E-1,6E0,7E0,7E0,2E0,1E1,2.2E1,6E0,-1.3109535E-2,-7.446458E-2,-1.2728693E-1,-5.7040054E-2,-7.174989E-2,-9.3270205E-2,-9.169002E-3,4.5371223E-2,-1.32902E-1,1.4182428E-2,-6.966533E-2,-1.1653664E-1,5.311958E-3,-8.339786E-2],"split_indices":[1,1,1,0,1,0,0,0,0,0,0,0,1,1,0,0,0,0,0,0,0,0,0,0,0,0,0,0,0],"split_type":[0,0,0,0,0,0,0,0,0,0,0,0,0,0,0,0,0,0,0,0,0,0,0,0,0,0,0,0,0],"sum_hessian":[4.626E3,5.2E2,4.106E3,9.1E1,4.29E2,3.437E3,6.69E2,2.3E1,6.8E1,2.06E2,2.23E2,2.855E3,5.82E2,2.7E2,3.99E2,2.2E1,4.6E1,1.82E2,2.4E1,1.1E2,1.13E2,4.11E2,2.444E3,1.82E2,4E2,1.08E2,1.62E2,2.22E2,1.77E2],"tree_param":{"num_deleted":"0","num_feature":"2","num_nodes":"29","size_leaf_vector":"1"}},{"base_weights":[-3.1737105E-3,-6.807043E-1,1.3949312E-1,-8.9672846E-1,-3.9731082E-1,4.3664855E-1,-2.5843516E-1,-1.0258735E0,-7.6075834E-1,3.543618E-2,-8.156699E-1,1.5714242E-1,1.326706E0,-1.1471343E0,-9.643327E-2,-8.141771E-2,-1.1601317E-1,-3.2807864E-2,-8.695094E-2,-1.1590652E-2,4.9567938E-2,-6.872262E-2,-1.6952151E-1,3.0179774E-2,-4.433943E-2,1.6737032E-1,1.0003459E-1,-1.5791772E-1,-9.788838E-2,-3.4385468E-4,-1.18418396E-1],"categories":[],"categories_nodes":[],"categories_segments":[],"categories_sizes":[],"default_left":[0,0,0,0,0,0,0,0,0,0,0,0,0,0,0,0,0,0,0,0,0,0,0,0,0,0,0,0,0,0,0],"id":24,"left_children":[1,3,5,7,9,11,13,15,17,19,21,23,25,27,29,-1,-1,-1,-1,-1,-1,-1,-1,-1,-1,-1,-1,-1,-1,-1,-1],"loss_changes":[4.4734604E2,4.892569E1,4.521694E2,7.226837E0,6.3394173E1,5.443634E2,2.3528186E2,5.6208954E0,1.034903E1,1.2107671E1,1.8944038E1,1.449475E2,5.7553406E1,1.67724E1,1.3999457E2,0E0,0E0,0E0,0E0,0E0,0E0,0E0,0E0,0E0,0E0,0E0,0E0,0E0,0E0,0E0,0E0],"parents":[2147483647,0,0,1,1,2,2,3,3,4,4,5,5,6,6,7,7,8,8,9,9,10,10,11,11,12,12,13,13,14,14],"right_children":[2,4,6,8,10,12,14,16,18,20,22,24,26,28,30,-1,-1,-1,-1,-1,-1,-1,-1,-1,-1,-1,-1,-1,-1,-1,-1],"split_conditions":[6E0,3E0,1.7E1,5E0,5E0,1.5E1,2E0,2E0,6E0,4E0,5E0,7E0,5E0,1.9E1,7E0,-8.141771E-2,-1.1601317E-1,-3.2807864E-2,-8.695094E-2,-1.1590652E-2,4.9567938E-2,-6.872262E-2,-1.6952151E-1,3.0179774E-2,-4.433943E-2,1.6737032E-1,1.0003459E-1,-1.5791772E-1,-9.788838E-2,-3.4385468E-4,-1.18418396E-1],"split_indices":[1,1,1,0,0,1,0,0,0,0,1,0,0,1,0,0,0,0,0,0,0,0,0,0,0,0,0,0,0,0,0],"split_type":[0,0,0,0,0,0,0,0,0,0,0,0,0,0,0,0,0,0,0,0,0,0,0,0,0,0,0,0,0,0,0],"sum_hessian":[4.626E3,8.04E2,3.822E3,4.55E2,3.49E2,2.188E3,1.634E3,2.3E2,2.25E2,1.72E2,1.77E2,1.666E3,5.22E2,2.51E2,1.383E3,9.2E1,1.38E2,4.6E1,1.79E2,1.3E2,4.2E1,1.56E2,2.1E1,1.343E3,3.23E2,2.51E2,2.71E2,6.8E1,1.83E2,1.275E3,1.08E2],"tree_param":{"num_deleted":"0","num_feature":"2","num_nodes":"31","size_leaf_vector":"1"}},{"base_weights":[-2.9943648E-3,-4.8203713E-1,1.6319364E-1,-5.25715E-2,-8.9863837E-1,5.2241683E-1,-2.3282064E-1,-9.241409E-1,5.0995666E-1,-6.597691E-1,-1.301984E0,2.4738051E-1,1.1945469E0,-1.0334362E0,-8.687561E-2,-7.3363476E-2,-1.04495324E-1,3.2112256E-3,9.516617E-2,-9.298747E-3,-7.756929E-2,-1.6258802E-1,-4.4844188E-2,-6.299867E-2,3.5051942E-2,1.0405375E-1,1.954404E-1,-1.4235486E-1,-8.815275E-2,8.974875E-3,-6.7443214E-2],"categories":[],"categories_nodes":[],"categories_segments":[],"categories_sizes":[],"default_left":[0,0,0,0,0,0,0,0,0,0,0,0,0,0,0,0,0,0,0,0,0,0,0,0,0,0,0,0,0,0,0],"id":25,"left_children":[1,3,5,7,9,11,13,15,17,19,21,23,25,27,29,-1,-1,-1,-1,-1,-1,-1,-1,-1,-1,-1,-1,-1,-1,-1,-1],"loss_changes":[3.6843954E2,2.1322052E2,4.889184E2,2.8875726E2,5.7430817E1,3.3282254E2,1.9095319E2,4.5499725E0,7.5531166E1,2.502658E1,6.1197723E1,1.160489E2,5.9170532E1,1.3678986E1,1.436876E2,0E0,0E0,0E0,0E0,0E0,0E0,0E0,0E0,0E0,0E0,0E0,0E0,0E0,0E0,0E0,0E0],"parents":[2147483647,0,0,1,1,2,2,3,3,4,4,5,5,6,6,7,7,8,8,9,9,10,10,11,11,12,12,13,13,14,14],"right_children":[2,4,6,8,10,12,14,16,18,20,22,24,26,28,30,-1,-1,-1,-1,-1,-1,-1,-1,-1,-1,-1,-1,-1,-1,-1,-1],"split_conditions":[9E0,5E0,1.7E1,3E0,5E0,1.5E1,2E0,2E0,5E0,6E0,8E0,2E0,7E0,1.9E1,2.2E1,-7.3363476E-2,-1.04495324E-1,3.2112256E-3,9.516617E-2,-9.298747E-3,-7.756929E-2,-1.6258802E-1,-4.4844188E-2,-6.299867E-2,3.5051942E-2,1.0405375E-1,1.954404E-1,-1.4235486E-1,-8.815275E-2,8.974875E-3,-6.7443214E-2],"split_indices":[1,0,1,1,1,1,0,0,1,0,1,0,0,1,1,0,0,0,0,0,0,0,0,0,0,0,0,0,0,0,0],"split_type":[0,0,0,0,0,0,0,0,0,0,0,0,0,0,0,0,0,0,0,0,0,0,0,0,0,0,0,0,0,0,0],"sum_hessian":[4.626E3,1.191E3,3.435E3,5.87E2,6.04E2,1.801E3,1.634E3,2.3E2,3.57E2,3.81E2,2.23E2,1.279E3,5.22E2,2.51E2,1.383E3,9.2E1,1.38E2,1.72E2,1.85E2,6.5E1,3.16E2,1.61E2,6.2E1,1.34E2,1.145E3,4.36E2,8.6E1,6.8E1,1.83E2,1.064E3,3.19E2],"tree_param":{"num_deleted":"0","num_feature":"2","num_nodes":"31","size_leaf_vector":"1"}},{"base_weights":[-2.7792433E-3,-4.341468E-1,1.4686945E-1,-4.7449306E-2,-8.092608E-1,4.7032622E-1,-2.0971523E-1,-8.324967E-1,4.5923617E-1,-5.940195E-1,-1.1727114E0,2.2262108E-1,1.0756651E0,-9.310072E-1,-7.82302E-2,-6.610601E-2,-9.412097E-2,2.8919375E-3,8.57008E-2,-8.3829565E-3,-6.983681E-2,-1.4642957E-1,-4.04309E-2,-3.253707E-2,3.653329E-2,1.403357E-1,7.6811366E-2,-1.2832567E-1,-7.9385385E-2,7.0419634E-4,-1.0757444E-1],"categories":[],"categories_nodes":[],"categories_segments":[],"categories_sizes":[],"default_left":[0,0,0,0,0,0,0,0,0,0,0,0,0,0,0,0,0,0,0,0,0,0,0,0,0,0,0,0,0,0,0],"id":26,"left_children":[1,3,5,7,9,11,13,15,17,19,21,23,25,27,29,-1,-1,-1,-1,-1,-1,-1,-1,-1,-1,-1,-1,-1,-1,-1,-1],"loss_changes":[2.987532E2,1.7286795E2,3.9640594E2,2.3427232E2,4.6632294E1,2.699624E2,1.5498909E2,3.6830444E0,6.1253326E1,2.0278214E1,4.959604E1,1.0022112E2,5.1631104E1,1.115596E1,1.1773089E2,0E0,0E0,0E0,0E0,0E0,0E0,0E0,0E0,0E0,0E0,0E0,0E0,0E0,0E0,0E0,0E0],"parents":[2147483647,0,0,1,1,2,2,3,3,4,4,5,5,6,6,7,7,8,8,9,9,10,10,11,11,12,12,13,13,14,14],"right_children":[2,4,6,8,10,12,14,16,18,20,22,24,26,28,30,-1,-1,-1,-1,-1,-1,-1,-1,-1,-1,-1,-1,-1,-1,-1,-1],"split_conditions":[9E0,5E0,1.7E1,3E0,5E0,1.5E1,2E0,2E0,5E0,6E0,8E0,3E0,5E0,1.9E1,7E0,-6.610601E-2,-9.412097E-2,2.8919375E-3,8.57008E-2,-8.3829565E-3,-6.983681E-2,-1.4642957E-1,-4.04309E-2,-3.253707E-2,3.653329E-2,1.403357E-1,7.6811366E-2,-1.2832567E-1,-7.9385385E-2,7.0419634E-4,-1.0757444E-1],"split_indices":[1,0,1,1,1,1,0,0,1,0,1,0,0,1,0,0,0,0,0,0,0,0,0,0,0,0,0,0,0,0,0],"split_type":[0,0,0,0,0,0,0,0,0,0,0,0,0,0,0,0,0,0,0,0,0,0,0,0,0,0,0,0,0,0,0],"sum_hessian":[4.626E3,1.191E3,3.435E3,5.87E2,6.04E2,1.801E3,1.634E3,2.3E2,3.57E2,3.81E2,2.23E2,1.279E3,5.22E2,2.51E2,1.383E3,9.2E1,1.38E2,1.72E2,1.85E2,6.5E1,3.16E2,1.61E2,6.2E1,2.64E2,1.015E3,2.51E2,2.71E2,6.8E1,1.83E2,1.275E3,1.08E2],"tree_param":{"num_deleted":"0","num_feature":"2","num_nodes":"31","size_leaf_vector":"1"}},{"base_weights":[-2.5941008E-3,-3.9101458E-1,1.3215555E-1,-4.2826135E-2,-7.287729E-1,3.1266344E-1,-3.869282E-1,-7.4994063E-1,4.1356012E-1,-5.3482246E-1,-1.0562742E0,-3.145418E-1,4.0024278E-1,-6.242757E-1,-6.567382E-2,-5.9566487E-2,-8.4776595E-2,1.1003192E-1,1.7537516E-2,-7.557378E-3,-6.2875174E-2,-1.3187696E-1,-3.6451977E-2,-9.168016E-2,2.0941547E-3,7.496555E-2,1.82456E-2,-3.7357487E-2,-9.1837764E-2,8.1270605E-2,-6.600386E-2],"categories":[],"categories_nodes":[],"categories_segments":[],"categories_sizes":[],"default_left":[0,0,0,0,0,0,0,0,0,0,0,0,0,0,0,0,0,0,0,0,0,0,0,0,0,0,0,0,0,0,0],"id":27,"left_children":[1,3,5,7,9,11,13,15,17,19,21,23,25,27,29,-1,-1,-1,-1,-1,-1,-1,-1,-1,-1,-1,-1,-1,-1,-1,-1],"loss_changes":[2.4222662E2,1.401522E2,3.220698E2,1.9006793E2,3.7864075E1,1.4019797E2,6.75918E1,2.9812927E0,5.8367123E1,1.6430794E1,4.0193726E1,6.3260258E1,1.7016937E2,3.7260056E1,1.9788191E2,0E0,0E0,0E0,0E0,0E0,0E0,0E0,0E0,0E0,0E0,0E0,0E0,0E0,0E0,0E0,0E0],"parents":[2147483647,0,0,1,1,2,2,3,3,4,4,5,5,6,6,7,7,8,8,9,9,10,10,11,11,12,12,13,13,14,14],"right_children":[2,4,6,8,10,12,14,16,18,20,22,24,26,28,30,-1,-1,-1,-1,-1,-1,-1,-1,-1,-1,-1,-1,-1,-1,-1,-1],"split_conditions":[9E0,5E0,2E1,3E0,5E0,2E0,5E0,2E0,2E0,6E0,8E0,1.3E1,5E0,2.2E1,6E0,-5.9566487E-2,-8.4776595E-2,1.1003192E-1,1.7537516E-2,-7.557378E-3,-6.2875174E-2,-1.3187696E-1,-3.6451977E-2,-9.168016E-2,2.0941547E-3,7.496555E-2,1.82456E-2,-3.7357487E-2,-9.1837764E-2,8.1270605E-2,-6.600386E-2],"split_indices":[1,0,1,1,1,0,0,0,0,0,1,1,0,1,0,0,0,0,0,0,0,0,0,0,0,0,0,0,0,0,0],"split_type":[0,0,0,0,0,0,0,0,0,0,0,0,0,0,0,0,0,0,0,0,0,0,0,0,0,0,0,0,0,0,0],"sum_hessian":[4.626E3,1.191E3,3.435E3,5.87E2,6.04E2,2.549E3,8.86E2,2.3E2,3.57E2,3.81E2,2.23E2,3.12E2,2.237E3,5.09E2,3.77E2,9.2E1,1.38E2,9.1E1,2.66E2,6.5E1,3.16E2,1.61E2,6.2E1,1.11E2,2.01E2,8.58E2,1.379E3,2.76E2,2.33E2,1.52E2,2.25E2],"tree_param":{"num_deleted":"0","num_feature":"2","num_nodes":"31","size_leaf_vector":"1"}},{"base_weights":[-2.4139197E-3,-4.5574015E-1,9.304254E-2,-5.77269E-1,-2.3197779E-1,1.7577557E-1,-6.3359576E-1,-3.744428E-1,-6.193219E-1,-4.7838856E-2,-8.4225945E-2,3.005512E-1,-4.375025E-2,-4.5993876E-1,-1.046373E0,-6.2911235E-2,-2.8043538E-2,-7.52526E-2,-4.9346227E-2,7.010779E-3,-1.11254536E-1,1.0199985E-2,9.3283534E-2,4.673665E-3,-9.872352E-2,-9.187317E-2,5.358634E-2,-4.3028325E-2,-1.928582E-1],"categories":[],"categories_nodes":[],"categories_segments":[],"categories_sizes":[],"default_left":[0,0,0,0,0,0,0,0,0,0,0,0,0,0,0,0,0,0,0,0,0,0,0,0,0,0,0,0,0],"id":28,"left_children":[1,3,5,7,9,11,13,15,17,19,-1,21,23,25,27,-1,-1,-1,-1,-1,-1,-1,-1,-1,-1,-1,-1,-1,-1],"loss_changes":[2.0026619E2,2.1756912E1,2.2993861E2,4.2119293E0,3.1987045E1,9.4048096E1,2.754625E1,2.0261316E0,6.837616E0,2.7705282E1,0E0,2.7471387E2,1.0633556E2,1.2704448E2,6.1674965E1,0E0,0E0,0E0,0E0,0E0,0E0,0E0,0E0,0E0,0E0,0E0,0E0,0E0,0E0],"parents":[2147483647,0,0,1,1,2,2,3,3,4,4,5,5,6,6,7,7,8,8,9,9,11,11,12,12,13,13,14,14],"right_children":[2,4,6,8,10,12,14,16,18,20,-1,22,24,26,28,-1,-1,-1,-1,-1,-1,-1,-1,-1,-1,-1,-1,-1,-1],"split_conditions":[6E0,4E0,2.2E1,1E0,7E0,1.7E1,2.3E1,3E0,2E0,5E0,-8.4225945E-2,1.5E1,7E0,5E0,6E0,-6.2911235E-2,-2.8043538E-2,-7.52526E-2,-4.9346227E-2,7.010779E-3,-1.11254536E-1,1.0199985E-2,9.3283534E-2,4.673665E-3,-9.872352E-2,-9.187317E-2,5.358634E-2,-4.3028325E-2,-1.928582E-1],"split_indices":[1,1,1,1,0,1,1,0,1,1,0,1,0,0,0,0,0,0,0,0,0,0,0,0,0,0,0,0,0],"split_type":[0,0,0,0,0,0,0,0,0,0,0,0,0,0,0,0,0,0,0,0,0,0,0,0,0,0,0,0,0],"sum_hessian":[4.626E3,8.04E2,3.822E3,5.2E2,2.84E2,3.432E3,3.9E2,9.1E1,4.29E2,2.19E2,6.5E1,2.188E3,1.244E3,2.76E2,1.14E2,2.3E1,6.8E1,2.06E2,2.23E2,1.98E2,2.1E1,1.666E3,5.22E2,1.136E3,1.08E2,1.89E2,8.7E1,6.8E1,4.6E1],"tree_param":{"num_deleted":"0","num_feature":"2","num_nodes":"29","size_leaf_vector":"1"}},{"base_weights":[-2.3170921E-3,-3.2500023E-1,1.096272E-1,-1.628235E-2,-6.245062E-1,3.60173E-1,-1.6657653E-1,-3.5597777E-1,7.198119E-1,-4.3190855E-1,-9.501659E-1,1.6394717E-1,8.39731E-1,-7.8479725E-1,-5.3889975E-2,-6.09836E-2,-1.4953349E-3,1.5716021E-1,4.0368553E-2,-3.3436704E-3,-5.135087E-2,-1.18209936E-1,-3.3868372E-2,-3.0167375E-2,2.8523222E-2,6.9142155E-2,1.5750359E-1,-1.1634598E-1,-6.385336E-2,8.04395E-3,-5.0078686E-2],"categories":[],"categories_nodes":[],"categories_segments":[],"categories_sizes":[],"default_left":[0,0,0,0,0,0,0,0,0,0,0,0,0,0,0,0,0,0,0,0,0,0,0,0,0,0,0,0,0,0,0],"id":29,"left_children":[1,3,5,7,9,11,13,15,17,19,21,23,25,27,29,-1,-1,-1,-1,-1,-1,-1,-1,-1,-1,-1,-1,-1,-1,-1,-1],"loss_changes":[1.6717459E2,1.1020553E2,2.3783694E2,1.472844E2,3.753598E1,1.6943349E2,1.13860245E2,3.4879333E1,4.945041E1,1.2403694E1,3.1368042E1,7.237129E1,5.5945557E1,1.32140045E1,8.312377E1,0E0,0E0,0E0,0E0,0E0,0E0,0E0,0E0,0E0,0E0,0E0,0E0,0E0,0E0,0E0,0E0],"parents":[2147483647,0,0,1,1,2,2,3,3,4,4,5,5,6,6,7,7,8,8,9,9,10,10,11,11,12,12,13,13,14,14],"right_children":[2,4,6,8,10,12,14,16,18,20,22,24,26,28,30,-1,-1,-1,-1,-1,-1,-1,-1,-1,-1,-1,-1,-1,-1,-1,-1],"split_conditions":[9E0,5E0,1.7E1,5E0,5E0,1.5E1,2E0,3E0,2E0,6E0,8E0,3E0,7E0,1.9E1,2.2E1,-6.09836E-2,-1.4953349E-3,1.5716021E-1,4.0368553E-2,-3.3436704E-3,-5.135087E-2,-1.18209936E-1,-3.3868372E-2,-3.0167375E-2,2.8523222E-2,6.9142155E-2,1.5750359E-1,-1.1634598E-1,-6.385336E-2,8.04395E-3,-5.0078686E-2],"split_indices":[1,0,1,1,1,1,0,1,0,0,1,0,0,1,1,0,0,0,0,0,0,0,0,0,0,0,0,0,0,0,0],"split_type":[0,0,0,0,0,0,0,0,0,0,0,0,0,0,0,0,0,0,0,0,0,0,0,0,0,0,0,0,0,0,0],"sum_hessian":[4.626E3,1.191E3,3.435E3,5.87E2,6.04E2,1.801E3,1.634E3,4.02E2,1.85E2,3.81E2,2.23E2,1.279E3,5.22E2,2.51E2,1.383E3,2.3E2,1.72E2,4.9E1,1.36E2,6.5E1,3.16E2,1.61E2,6.2E1,2.64E2,1.015E3,4.36E2,8.6E1,6.8E1,1.83E2,1.064E3,3.19E2],"tree_param":{"num_deleted":"0","num_feature":"2","num_nodes":"31","size_leaf_vector":"1"}},{"base_weights":[-2.1000784E-3,-2.925603E-1,9.866555E-2,-1.4424479E-2,-5.623972E-1,3.2428107E-1,-1.5005481E-1,-3.2053497E-1,6.488925E-1,-4.417549E-1,-9.872198E-1,1.475516E-1,7.56192E-1,-7.0703256E-1,-4.853137E-2,-5.4911632E-2,-1.3466631E-3,1.4175856E-1,3.6361113E-2,-3.8886074E-2,-6.5657906E-2,-5.0521016E-2,-1.8584459E-1,3.22376E-2,-1.3403456E-2,6.2243838E-2,1.419343E-1,-1.0487997E-1,-5.7502743E-2,2.401864E-3,-8.973872E-2],"categories":[],"categories_nodes":[],"categories_segments":[],"categories_sizes":[],"default_left":[0,0,0,0,0,0,0,0,0,0,0,0,0,0,0,0,0,0,0,0,0,0,0,0,0,0,0,0,0,0,0],"id":30,"left_children":[1,3,5,7,9,11,13,15,17,19,21,23,25,27,29,-1,-1,-1,-1,-1,-1,-1,-1,-1,-1,-1,-1,-1,-1,-1,-1],"loss_changes":[1.3545381E2,8.945304E1,1.928604E2,1.1960039E2,3.057109E1,1.3743759E2,9.2418884E1,2.827921E1,4.0273193E1,5.119362E0,5.4913025E1,6.3055214E1,4.5506042E1,1.07659E1,8.5254486E1,0E0,0E0,0E0,0E0,0E0,0E0,0E0,0E0,0E0,0E0,0E0,0E0,0E0,0E0,0E0,0E0],"parents":[2147483647,0,0,1,1,2,2,3,3,4,4,5,5,6,6,7,7,8,8,9,9,10,10,11,11,12,12,13,13,14,14],"right_children":[2,4,6,8,10,12,14,16,18,20,22,24,26,28,30,-1,-1,-1,-1,-1,-1,-1,-1,-1,-1,-1,-1,-1,-1,-1,-1],"split_conditions":[9E0,5E0,1.7E1,5E0,7E0,1.5E1,2E0,3E0,2E0,5E0,7E0,1.2E1,7E0,1.9E1,7E0,-5.4911632E-2,-1.3466631E-3,1.4175856E-1,3.6361113E-2,-3.8886074E-2,-6.5657906E-2,-5.0521016E-2,-1.8584459E-1,3.22376E-2,-1.3403456E-2,6.2243838E-2,1.419343E-1,-1.0487997E-1,-5.7502743E-2,2.401864E-3,-8.973872E-2],"split_indices":[1,0,1,1,1,1,0,1,0,1,0,1,0,1,0,0,0,0,0,0,0,0,0,0,0,0,0,0,0,0,0],"split_type":[0,0,0,0,0,0,0,0,0,0,0,0,0,0,0,0,0,0,0,0,0,0,0,0,0,0,0,0,0,0,0],"sum_hessian":[4.626E3,1.191E3,3.435E3,5.87E2,6.04E2,1.801E3,1.634E3,4.02E2,1.85E2,4.72E2,1.32E2,1.279E3,5.22E2,2.51E2,1.383E3,2.3E2,1.72E2,4.9E1,1.36E2,3.81E2,9.1E1,8.6E1,4.6E1,7.89E2,4.9E2,4.36E2,8.6E1,6.8E1,1.83E2,1.275E3,1.08E2],"tree_param":{"num_deleted":"0","num_feature":"2","num_nodes":"31","size_leaf_vector":"1"}},{"base_weights":[-1.9434196E-3,4.494201E-2,-5.100038E-1,-2.6348814E-1,1.6562611E-1,-3.758064E-1,-9.54644E-1,-1.2774903E-2,-5.06721E-1,-2.9030406E-1,2.3150422E-1,-6.748077E-1,6.436447E-1,-1.4407195E-2,-1.6931659E-1,-2.8862113E-2,5.8496058E-2,-3.9780047E-2,-8.902752E-2,-1.2618925E-1,-1.4485845E-2,4.3184306E-2,9.825942E-3,-7.609148E-2,-2.9624885E-2,1.1773553E-1,-3.4278017E-2],"categories":[],"categories_nodes":[],"categories_segments":[],"categories_sizes":[],"default_left":[0,0,0,0,0,0,0,0,0,0,0,0,0,0,0,0,0,0,0,0,0,0,0,0,0,0,0],"id":31,"left_children":[1,3,5,7,9,11,13,15,17,19,21,23,25,-1,-1,-1,-1,-1,-1,-1,-1,-1,-1,-1,-1,-1,-1],"loss_changes":[1.1024096E2,1.5775586E2,2.2972054E1,7.268371E1,9.155629E1,9.2489136E1,5.363234E1,9.712007E1,2.4920898E1,5.422281E1,7.101727E1,7.4021835E0,3.6729687E1,0E0,0E0,0E0,0E0,0E0,0E0,0E0,0E0,0E0,0E0,0E0,0E0,0E0,0E0],"parents":[2147483647,0,0,1,1,2,2,3,3,4,4,5,5,6,6,7,7,8,8,9,9,10,10,11,11,12,12],"right_children":[2,4,6,8,10,12,14,16,18,20,22,24,26,-1,-1,-1,-1,-1,-1,-1,-1,-1,-1,-1,-1,-1,-1],"split_conditions":[2.2E1,9E0,6E0,5E0,2E0,5E0,2.3E1,5E0,7E0,1E1,5E0,2.3E1,2.3E1,-1.4407195E-2,-1.6931659E-1,-2.8862113E-2,5.8496058E-2,-3.9780047E-2,-8.902752E-2,-1.2618925E-1,-1.4485845E-2,4.3184306E-2,9.825942E-3,-7.609148E-2,-2.9624885E-2,1.1773553E-1,-3.4278017E-2],"split_indices":[1,1,0,0,0,0,1,1,1,1,0,1,1,0,0,0,0,0,0,0,0,0,0,0,0,0,0],"split_type":[0,0,0,0,0,0,0,0,0,0,0,0,0,0,0,0,0,0,0,0,0,0,0,0,0,0,0],"sum_hessian":[4.626E3,4.236E3,3.9E2,1.191E3,3.045E3,3.01E2,8.9E1,5.87E2,6.04E2,3.84E2,2.661E3,2.33E2,6.8E1,4.3E1,4.6E1,4.02E2,1.85E2,4.72E2,1.32E2,4.9E1,3.35E2,1.062E3,1.599E3,1.89E2,4.4E1,4.4E1,2.4E1],"tree_param":{"num_deleted":"0","num_feature":"2","num_nodes":"27","size_leaf_vector":"1"}},{"base_weights":[-1.834121E-3,4.040356E-2,-4.5953032E-1,-2.3722261E-1,1.4903454E-1,-3.382995E-1,-8.612212E-1,-1.1447223E-2,-4.562618E-1,-2.6163858E-1,2.0837344E-1,-6.077787E-1,5.8048946E-1,-1.2999226E-2,-1.5274522E-1,-2.5983075E-2,5.2677866E-2,-3.1040043E-2,-7.029706E-2,-1.138226E-1,-1.3041533E-2,3.1161964E-2,-9.4457215E-4,-6.8522386E-2,-2.6728222E-2,1.06223576E-1,-3.0987341E-2],"categories":[],"categories_nodes":[],"categories_segments":[],"categories_sizes":[],"default_left":[0,0,0,0,0,0,0,0,0,0,0,0,0,0,0,0,0,0,0,0,0,0,0,0,0,0,0],"id":32,"left_children":[1,3,5,7,9,11,13,15,17,19,21,23,25,-1,-1,-1,-1,-1,-1,-1,-1,-1,-1,-1,-1,-1,-1],"loss_changes":[8.946786E1,1.27818214E2,1.8749298E1,5.8943542E1,7.428214E1,7.512636E1,4.36465E1,7.874449E1,2.1552895E1,4.4137596E1,5.986866E1,5.9873886E0,2.9925257E1,0E0,0E0,0E0,0E0,0E0,0E0,0E0,0E0,0E0,0E0,0E0,0E0,0E0,0E0],"parents":[2147483647,0,0,1,1,2,2,3,3,4,4,5,5,6,6,7,7,8,8,9,9,10,10,11,11,12,12],"right_children":[2,4,6,8,10,12,14,16,18,20,22,24,26,-1,-1,-1,-1,-1,-1,-1,-1,-1,-1,-1,-1,-1,-1],"split_conditions":[2.2E1,9E0,6E0,5E0,2E0,5E0,2.3E1,5E0,5E0,1E1,1.8E1,2.3E1,2.3E1,-1.2999226E-2,-1.5274522E-1,-2.5983075E-2,5.2677866E-2,-3.1040043E-2,-7.029706E-2,-1.138226E-1,-1.3041533E-2,3.1161964E-2,-9.4457215E-4,-6.8522386E-2,-2.6728222E-2,1.06223576E-1,-3.0987341E-2],"split_indices":[1,1,0,0,0,0,1,1,1,1,1,1,1,0,0,0,0,0,0,0,0,0,0,0,0,0,0],"split_type":[0,0,0,0,0,0,0,0,0,0,0,0,0,0,0,0,0,0,0,0,0,0,0,0,0,0,0],"sum_hessian":[4.626E3,4.236E3,3.9E2,1.191E3,3.045E3,3.01E2,8.9E1,5.87E2,6.04E2,3.84E2,2.661E3,2.33E2,6.8E1,4.3E1,4.6E1,4.02E2,1.85E2,3.81E2,2.23E2,4.9E1,3.35E2,1.805E3,8.56E2,1.89E2,4.4E1,4.4E1,2.4E1],"tree_param":{"num_deleted":"0","num_feature":"2","num_nodes":"27","size_leaf_vector":"1"}},{"base_weights":[-1.7279572E-3,-3.6274287E-1,4.406958E-2,-1.8773946E-1,-3.9934185E-1,1.2752247E-1,-2.5902605E-1,-4.051962E-2,-1.09381475E-1,-5.165619E-1,-2.892352E-1,3.2658893E-1,-4.8130497E-2,-5.131787E-1,-7.101318E-2,7.1926676E-3,-1.9577948E-2,-5.838376E-2,-3.441467E-4,-2.3323549E-2,-3.4122407E-2,1.6658843E-2,7.809248E-2,-5.8566984E-2,5.2924487E-3,-4.7701582E-2,-1.0490333E-1,2.604569E-2,-4.9016993E-2],"categories":[],"categories_nodes":[],"categories_segments":[],"categories_sizes":[],"default_left":[0,0,0,0,0,0,0,0,0,0,0,0,0,0,0,0,0,0,0,0,0,0,0,0,0,0,0,0,0],"id":33,"left_children":[1,3,5,7,9,11,13,-1,15,17,19,21,23,25,27,-1,-1,-1,-1,-1,-1,-1,-1,-1,-1,-1,-1,-1,-1],"loss_changes":[7.651693E1,3.262001E0,1.0391634E2,1.5233104E0,5.400482E0,1.126432E2,4.2347942E1,0E0,1.0949433E0,7.143738E0,5.7256126E-1,1.096378E2,9.30286E1,6.8051147E0,7.1124954E1,0E0,0E0,0E0,0E0,0E0,0E0,0E0,0E0,0E0,0E0,0E0,0E0,0E0,0E0],"parents":[2147483647,0,0,1,1,2,2,3,3,4,4,5,5,6,6,8,8,9,9,10,10,11,11,12,12,13,13,14,14],"right_children":[2,4,6,8,10,12,14,-1,16,18,20,22,24,26,28,-1,-1,-1,-1,-1,-1,-1,-1,-1,-1,-1,-1,-1,-1],"split_conditions":[4E0,1E0,2E1,3E0,2E0,5E0,4E0,-4.051962E-2,6E0,7E0,7E0,4E0,8E0,2.3E1,6E0,7.1926676E-3,-1.9577948E-2,-5.838376E-2,-3.441467E-4,-2.3323549E-2,-3.4122407E-2,1.6658843E-2,7.809248E-2,-5.8566984E-2,5.2924487E-3,-4.7701582E-2,-1.0490333E-1,2.604569E-2,-4.9016993E-2],"split_indices":[1,1,1,0,1,0,0,0,0,0,0,0,1,1,0,0,0,0,0,0,0,0,0,0,0,0,0,0,0],"split_type":[0,0,0,0,0,0,0,0,0,0,0,0,0,0,0,0,0,0,0,0,0,0,0,0,0,0,0,0,0],"sum_hessian":[4.626E3,5.2E2,4.106E3,9.1E1,4.29E2,3.22E3,8.86E2,2.3E1,6.8E1,2.06E2,2.23E2,1.509E3,1.711E3,3.76E2,5.1E2,2.2E1,4.6E1,1.82E2,2.4E1,1.1E2,1.13E2,1.117E3,3.92E2,2.7E2,1.441E3,3.54E2,2.2E1,2.85E2,2.25E2],"tree_param":{"num_deleted":"0","num_feature":"2","num_nodes":"29","size_leaf_vector":"1"}},{"base_weights":[-1.6208128E-3,3.4143656E-2,-3.891718E-1,-1.9428676E-1,1.23524785E-1,-2.6322013E-1,-6.8916696E-1,2.539461E-1,-2.758334E-1,-2.4038301E-1,1.7610967E-1,-5.8863056E-1,4.4236174E-1,-2.4268137E-1,-1.3299827E-1,-2.3878504E-2,9.896111E-2,-1.9476606E-2,-4.695209E-2,-7.2621696E-2,-4.0916684E-3,3.439008E-2,6.4523383E-3,-3.701619E-2,-1.1929395E-1,9.329063E-2,-6.9385204E-3,-9.486911E-2,1.0797616E-2],"categories":[],"categories_nodes":[],"categories_segments":[],"categories_sizes":[],"default_left":[0,0,0,0,0,0,0,0,0,0,0,0,0,0,0,0,0,0,0,0,0,0,0,0,0,0,0,0,0],"id":34,"left_children":[1,3,5,7,9,11,13,15,17,19,21,23,25,27,-1,-1,-1,-1,-1,-1,-1,-1,-1,-1,-1,-1,-1,-1,-1],"loss_changes":[6.414608E1,8.6532394E1,1.4592495E1,4.3639893E1,5.833075E1,6.3860615E1,3.2580467E1,6.6933556E1,1.5751595E1,3.727967E1,4.981894E1,2.4642708E1,2.2155779E1,1.71846E1,0E0,0E0,0E0,0E0,0E0,0E0,0E0,0E0,0E0,0E0,0E0,0E0,0E0,0E0,0E0],"parents":[2147483647,0,0,1,1,2,2,3,3,4,4,5,5,6,6,7,7,8,8,9,9,10,10,11,11,12,12,13,13],"right_children":[2,4,6,8,10,12,14,16,18,20,22,24,26,28,-1,-1,-1,-1,-1,-1,-1,-1,-1,-1,-1,-1,-1,-1,-1],"split_conditions":[2.2E1,9E0,2.3E1,2E0,2E0,5E0,6E0,4E0,7E0,1.3E1,5E0,4E0,6E0,2E0,-1.3299827E-1,-2.3878504E-2,9.896111E-2,-1.9476606E-2,-4.695209E-2,-7.2621696E-2,-4.0916684E-3,3.439008E-2,6.4523383E-3,-3.701619E-2,-1.1929395E-1,9.329063E-2,-6.9385204E-3,-9.486911E-2,1.0797616E-2],"split_indices":[1,1,1,0,0,0,0,1,0,1,0,0,0,0,0,0,0,0,0,0,0,0,0,0,0,0,0,0,0],"split_type":[0,0,0,0,0,0,0,0,0,0,0,0,0,0,0,0,0,0,0,0,0,0,0,0,0,0,0,0,0],"sum_hessian":[4.626E3,4.236E3,3.9E2,1.191E3,3.045E3,2.76E2,1.14E2,1.83E2,1.008E3,3.84E2,2.661E3,1.89E2,8.7E1,6.8E1,4.6E1,1.1E2,7.3E1,7.12E2,2.96E2,1.11E2,2.73E2,1.062E3,1.599E3,1.4E2,4.9E1,4.4E1,4.3E1,2.2E1,4.6E1],"tree_param":{"num_deleted":"0","num_feature":"2","num_nodes":"29","size_leaf_vector":"1"}},{"base_weights":[-1.5266543E-3,5.161808E-2,-2.2566749E-1,-1.7485085E-1,1.5746096E-1,-4.551554E-1,-5.5916786E-2,2.2895962E-1,-2.4831595E-1,-1.9816376E-1,2.0712721E-1,-4.2777693E-1,-8.5794665E-2,2.2950125E-1,-4.168621E-1,-2.1512168E-2,8.919875E-2,-1.753169E-2,-4.2272676E-2,7.5378767E-3,-7.108065E-2,4.660259E-2,4.582208E-3,-5.4569572E-2,-3.7538704E-2,-2.1717578E-2,6.192086E-2,-2.1010876E-2,-1.199814E-1],"categories":[],"categories_nodes":[],"categories_segments":[],"categories_sizes":[],"default_left":[0,0,0,0,0,0,0,0,0,0,0,0,0,0,0,0,0,0,0,0,0,0,0,0,0,0,0,0,0],"id":35,"left_children":[1,3,5,7,9,11,13,15,17,19,21,23,-1,25,27,-1,-1,-1,-1,-1,-1,-1,-1,-1,-1,-1,-1,-1,-1],"loss_changes":[5.5128033E1,8.969977E1,3.4528286E1,3.5418694E1,4.5080547E1,3.790474E0,5.2739044E1,5.4368526E1,1.2772301E1,4.3945442E1,9.344131E1,1.9882507E0,0E0,4.9919453E1,3.633233E1,0E0,0E0,0E0,0E0,0E0,0E0,0E0,0E0,0E0,0E0,0E0,0E0,0E0,0E0],"parents":[2147483647,0,0,1,1,2,2,3,3,4,4,5,5,6,6,7,7,8,8,9,9,10,10,11,11,13,13,14,14],"right_children":[2,4,6,8,10,12,14,16,18,20,22,24,-1,26,28,-1,-1,-1,-1,-1,-1,-1,-1,-1,-1,-1,-1,-1,-1],"split_conditions":[2E1,9E0,4E0,2E0,2E0,2.3E1,6E0,4E0,7E0,1.7E1,5E0,2.1E1,-8.5794665E-2,5E0,2.3E1,-2.1512168E-2,8.919875E-2,-1.753169E-2,-4.2272676E-2,7.5378767E-3,-7.108065E-2,4.660259E-2,4.582208E-3,-5.4569572E-2,-3.7538704E-2,-2.1717578E-2,6.192086E-2,-2.1010876E-2,-1.199814E-1],"split_indices":[1,1,0,0,0,1,0,1,0,1,0,1,0,0,1,0,0,0,0,0,0,0,0,0,0,0,0,0,0],"split_type":[0,0,0,0,0,0,0,0,0,0,0,0,0,0,0,0,0,0,0,0,0,0,0,0,0,0,0,0,0],"sum_hessian":[4.626E3,3.74E3,8.86E2,1.191E3,2.549E3,3.76E2,5.1E2,1.83E2,1.008E3,3.12E2,2.237E3,3.54E2,2.2E1,2.85E2,2.25E2,1.1E2,7.3E1,7.12E2,2.96E2,2.04E2,1.08E2,8.58E2,1.379E3,1.06E2,2.48E2,1.33E2,1.52E2,1.79E2,4.6E1],"tree_param":{"num_deleted":"0","num_feature":"2","num_nodes":"29","size_leaf_vector":"1"}},{"base_weights":[-1.4349178E-3,4.6455406E-2,-2.0341493E-1,-1.6603987E-1,1.3836704E-1,-4.101119E-1,-5.0522227E-2,-1.9083705E-4,-3.453275E-1,2.0405619E-1,-1.614419E-1,-3.8525885E-1,-7.758822E-2,2.0669177E-1,-3.7579957E-1,-1.9371942E-2,4.191221E-2,-2.1383233E-2,-1.2164809E-1,-1.7855039E-2,2.6934937E-2,-6.3309126E-2,3.0097717E-2,-2.7969578E-2,-4.386496E-2,-1.956199E-2,5.5769224E-2,-1.8921439E-2,-1.0823854E-1],"categories":[],"categories_nodes":[],"categories_segments":[],"categories_sizes":[],"default_left":[0,0,0,0,0,0,0,0,0,0,0,0,0,0,0,0,0,0,0,0,0,0,0,0,0,0,0,0,0],"id":36,"left_children":[1,3,5,7,9,11,13,15,17,19,21,23,-1,25,27,-1,-1,-1,-1,-1,-1,-1,-1,-1,-1,-1,-1,-1,-1],"loss_changes":[4.4765907E1,7.3087654E1,2.8010654E1,3.360013E1,5.1474174E1,3.1282043E0,4.2830944E1,4.779682E1,6.1941864E1,5.3583664E1,1.0269739E2,1.8781204E0,0E0,4.0495605E1,2.9590687E1,0E0,0E0,0E0,0E0,0E0,0E0,0E0,0E0,0E0,0E0,0E0,0E0,0E0,0E0],"parents":[2147483647,0,0,1,1,2,2,3,3,4,4,5,5,6,6,7,7,8,8,9,9,10,10,11,11,13,13,14,14],"right_children":[2,4,6,8,10,12,14,16,18,20,22,24,-1,26,28,-1,-1,-1,-1,-1,-1,-1,-1,-1,-1,-1,-1,-1,-1],"split_conditions":[2E1,8E0,4E0,5E0,7E0,2.3E1,6E0,5E0,7E0,2E0,1.4E1,2E0,-7.758822E-2,5E0,2.3E1,-1.9371942E-2,4.191221E-2,-2.1383233E-2,-1.2164809E-1,-1.7855039E-2,2.6934937E-2,-6.3309126E-2,3.0097717E-2,-2.7969578E-2,-4.386496E-2,-1.956199E-2,5.5769224E-2,-1.8921439E-2,-1.0823854E-1],"split_indices":[1,1,0,0,0,1,0,1,1,0,1,0,0,0,1,0,0,0,0,0,0,0,0,0,0,0,0,0,0],"split_type":[0,0,0,0,0,0,0,0,0,0,0,0,0,0,0,0,0,0,0,0,0,0,0,0,0,0,0,0,0],"sum_hessian":[4.626E3,3.74E3,8.86E2,1.129E3,2.611E3,3.76E2,5.1E2,5.87E2,5.42E2,2.142E3,4.69E2,3.54E2,2.2E1,2.85E2,2.25E2,4.02E2,1.85E2,4.72E2,7E1,3.12E2,1.83E3,2.32E2,2.37E2,1.21E2,2.33E2,1.33E2,1.52E2,1.79E2,4.6E1],"tree_param":{"num_deleted":"0","num_feature":"2","num_nodes":"29","size_leaf_vector":"1"}},{"base_weights":[-1.3748786E-3,5.86136E-2,-1.4285614E-1,-4.4365674E-2,3.847715E-1,-4.4546372E-1,5.6265503E-2,2.322612E-2,-2.8104082E-1,8.9660364E-1,-8.1698716E-2,-1.3514816E0,-2.7817002E-1,3.2139882E-1,-2.569057E-1,8.418641E-3,-1.2192672E-1,-4.161525E-2,1.2791309E-1,2.242978E-2,1.4029463E-1,7.257592E-2,-5.928705E-2,-1.7071548E-1,-9.973909E-2,1.2077752E-2,-3.69497E-2,9.897602E-2,1.3061038E-2,-1.5549059E-2,-9.764498E-2],"categories":[],"categories_nodes":[],"categories_segments":[],"categories_sizes":[],"default_left":[0,0,0,0,0,0,0,0,0,0,0,0,0,0,0,0,0,0,0,0,0,0,0,0,0,0,0,0,0,0,0],"id":37,"left_children":[1,3,5,7,9,11,13,15,17,19,21,23,25,27,29,-1,-1,-1,-1,-1,-1,-1,-1,-1,-1,-1,-1,-1,-1,-1,-1],"loss_changes":[3.927886E1,1.0917645E2,8.305744E1,3.9535854E1,1.8630173E2,8.253343E1,6.91653E1,1.4575595E2,1.162601E2,1.26320496E2,1.6924489E2,9.002243E0,1.6913876E1,5.7380283E1,2.7723719E1,0E0,0E0,0E0,0E0,0E0,0E0,0E0,0E0,0E0,0E0,0E0,0E0,0E0,0E0,0E0,0E0],"parents":[2147483647,0,0,1,1,2,2,3,3,4,4,5,5,6,6,7,7,8,8,9,9,10,10,11,11,12,12,13,13,14,14],"right_children":[2,4,6,8,10,12,14,16,18,20,22,24,26,28,30,-1,-1,-1,-1,-1,-1,-1,-1,-1,-1,-1,-1,-1,-1,-1,-1],"split_conditions":[1.8E1,1.5E1,4E0,7E0,5E0,1.9E1,6E0,1.4E1,1.4E1,1.6E1,1.6E1,3E0,2E1,1.9E1,2.3E1,8.418641E-3,-1.2192672E-1,-4.161525E-2,1.2791309E-1,2.242978E-2,1.4029463E-1,7.257592E-2,-5.928705E-2,-1.7071548E-1,-9.973909E-2,1.2077752E-2,-3.69497E-2,9.897602E-2,1.3061038E-2,-1.5549059E-2,-9.764498E-2],"split_indices":[1,1,0,0,0,1,0,1,1,1,1,0,1,1,1,0,0,0,0,0,0,0,0,0,0,0,0,0,0,0,0],"split_type":[0,0,0,0,0,0,0,0,0,0,0,0,0,0,0,0,0,0,0,0,0,0,0,0,0,0,0,0,0,0,0],"sum_hessian":[4.626E3,3.249E3,1.377E3,2.47E3,7.79E2,5.46E2,8.31E2,1.922E3,5.48E2,3.71E2,4.08E2,8.4E1,4.62E2,4.5E2,3.81E2,1.833E3,8.9E1,5.05E2,4.3E1,1.6E2,2.11E2,1.58E2,2.5E2,4E1,4.4E1,8.6E1,3.76E2,9.9E1,3.51E2,3.35E2,4.6E1],"tree_param":{"num_deleted":"0","num_feature":"2","num_nodes":"31","size_leaf_vector":"1"}},{"base_weights":[-1.2695114E-3,-2.4470225E-1,2.9611843E-2,-3.104533E-1,-9.575299E-2,1.22264415E-1,-1.1054682E-1,-3.4784642E-1,-1.67737E-3,-4.795303E-2,-3.312064E-2,1.4760274E-2,5.2306426E-1,-5.8186054E-2,-8.430637E-1,-2.9189825E-2,-6.771898E-2,3.9564334E-3,-3.7218963E-3,5.054605E-3,-1.0113488E-2,9.734939E-3,-3.171203E-2,3.8957264E-2,1.1875788E-1,-4.5071416E-2,1.9380767E-3,-9.513861E-2,-7.520341E-2],"categories":[],"categories_nodes":[],"categories_segments":[],"categories_sizes":[],"default_left":[0,0,0,0,0,0,0,0,0,0,0,0,0,0,0,0,0,0,0,0,0,0,0,0,0,0,0,0,0],"id":38,"left_children":[1,3,5,7,9,11,13,15,17,19,-1,21,23,25,27,-1,-1,-1,-1,-1,-1,-1,-1,-1,-1,-1,-1,-1,-1],"loss_changes":[3.479087E1,5.0727215E0,5.334727E1,4.1675606E0,1.7961185E0,1.06548E2,6.2661606E1,5.73555E0,6.0104378E-2,7.12291E-1,0E0,5.3507233E1,4.5931183E1,4.650154E1,3.593216E-1,0E0,0E0,0E0,0E0,0E0,0E0,0E0,0E0,0E0,0E0,0E0,0E0,0E0,0E0],"parents":[2147483647,0,0,1,1,2,2,3,3,4,4,5,5,6,6,7,7,8,8,9,9,11,11,12,12,13,13,14,14],"right_children":[2,4,6,8,10,12,14,16,18,20,-1,22,24,26,28,-1,-1,-1,-1,-1,-1,-1,-1,-1,-1,-1,-1,-1,-1],"split_conditions":[4E0,7E0,1.7E1,3E0,3E0,1.5E1,7E0,6E0,2E0,2E0,-3.312064E-2,7E0,7E0,2E0,1.8E1,-2.9189825E-2,-6.771898E-2,3.9564334E-3,-3.7218963E-3,5.054605E-3,-1.0113488E-2,9.734939E-3,-3.171203E-2,3.8957264E-2,1.1875788E-1,-4.5071416E-2,1.9380767E-3,-9.513861E-2,-7.520341E-2],"split_indices":[1,0,1,1,1,1,0,0,0,1,0,0,0,0,1,0,0,0,0,0,0,0,0,0,0,0,0,0,0],"split_type":[0,0,0,0,0,0,0,0,0,0,0,0,0,0,0,0,0,0,0,0,0,0,0,0,0,0,0,0,0],"sum_hessian":[4.626E3,5.2E2,4.106E3,3.6E2,1.6E2,2.472E3,1.634E3,3.21E2,3.9E1,1.34E2,2.6E1,1.95E3,5.22E2,1.526E3,1.08E2,2.76E2,4.5E1,1.8E1,2.1E1,4.7E1,8.7E1,1.562E3,3.88E2,4.36E2,8.6E1,2.51E2,1.275E3,4.5E1,6.3E1],"tree_param":{"num_deleted":"0","num_feature":"2","num_nodes":"29","size_leaf_vector":"1"}},{"base_weights":[-1.1885624E-3,2.3240335E-2,-2.6590478E-1,-1.358049E-1,8.105818E-2,-1.8092467E-1,-4.6828386E-1,2.1135034E-1,-2.0311299E-1,1.6676125E-1,-4.732059E-2,-4.3000853E-1,3.5892603E-1,-2.8669633E-2,-7.4031705E-1,-1.593968E-2,7.6461494E-2,-5.1027246E-2,-1.5008668E-2,4.804696E-3,4.710592E-2,2.1073695E-3,-7.603204E-2,-2.0700598E-2,-1.0502756E-1,7.119492E-2,-1.027777E-3,-6.2321234E-2,5.671196E-2,-4.4287562E-2,-8.827791E-2],"categories":[],"categories_nodes":[],"categories_segments":[],"categories_sizes":[],"default_left":[0,0,0,0,0,0,0,0,0,0,0,0,0,0,0,0,0,0,0,0,0,0,0,0,0,0,0,0,0,0,0],"id":39,"left_children":[1,3,5,7,9,11,13,15,17,19,21,23,25,27,29,-1,-1,-1,-1,-1,-1,-1,-1,-1,-1,-1,-1,-1,-1,-1,-1],"loss_changes":[2.992772E1,3.8972992E1,6.6397724E0,2.644691E1,3.420352E1,3.7402E1,1.373159E1,3.786419E1,1.5347706E1,6.731347E1,6.0728584E1,2.6063606E1,1.1477017E1,1.6293434E1,2.6175995E0,0E0,0E0,0E0,0E0,0E0,0E0,0E0,0E0,0E0,0E0,0E0,0E0,0E0,0E0,0E0,0E0],"parents":[2147483647,0,0,1,1,2,2,3,3,4,4,5,5,6,6,7,7,8,8,9,9,10,10,11,11,12,12,13,13,14,14],"right_children":[2,4,6,8,10,12,14,16,18,20,22,24,26,28,30,-1,-1,-1,-1,-1,-1,-1,-1,-1,-1,-1,-1,-1,-1,-1,-1],"split_conditions":[2.2E1,8E0,2.3E1,2E0,1.7E1,5E0,5E0,4E0,3E0,1.5E1,7E0,4E0,6E0,2E0,6E0,-1.593968E-2,7.6461494E-2,-5.1027246E-2,-1.5008668E-2,4.804696E-3,4.710592E-2,2.1073695E-3,-7.603204E-2,-2.0700598E-2,-1.0502756E-1,7.119492E-2,-1.027777E-3,-6.2321234E-2,5.671196E-2,-4.4287562E-2,-8.827791E-2],"split_indices":[1,1,1,0,1,0,0,1,0,1,0,0,0,0,0,0,0,0,0,0,0,0,0,0,0,0,0,0,0,0,0],"split_type":[0,0,0,0,0,0,0,0,0,0,0,0,0,0,0,0,0,0,0,0,0,0,0,0,0,0,0,0,0,0,0],"sum_hessian":[4.626E3,4.236E3,3.9E2,1.129E3,3.107E3,2.76E2,1.14E2,1.83E2,9.46E2,1.863E3,1.244E3,1.89E2,8.7E1,4.4E1,7E1,1.1E2,7.3E1,1.38E2,8.08E2,1.341E3,5.22E2,1.136E3,1.08E2,1.4E2,4.9E1,4.4E1,4.3E1,2.2E1,2.2E1,2.4E1,4.6E1],"tree_param":{"num_deleted":"0","num_feature":"2","num_nodes":"31","size_leaf_vector":"1"}},{"base_weights":[-1.1175362E-3,2.0909796E-2,-2.3980983E-1,-1.2222929E-1,7.2945274E-2,-1.6303277E-1,-4.226571E-1,1.9054413E-1,-1.828714E-1,-1.9148129E-1,1.10291556E-1,-3.8766947E-1,3.2383096E-1,-2.59275E-2,-6.681525E-1,-1.436007E-2,6.8918645E-2,-4.5961216E-2,-1.3509658E-2,-9.842244E-2,-7.294369E-3,2.7349774E-2,4.699717E-3,-1.8645218E-2,-9.473489E-2,6.423365E-2,-9.27316E-4,-5.6360085E-2,5.1287312E-2,-4.0035952E-2,-7.963796E-2],"categories":[],"categories_nodes":[],"categories_segments":[],"categories_sizes":[],"default_left":[0,0,0,0,0,0,0,0,0,0,0,0,0,0,0,0,0,0,0,0,0,0,0,0,0,0,0,0,0,0,0],"id":40,"left_children":[1,3,5,7,9,11,13,15,17,19,21,23,25,27,29,-1,-1,-1,-1,-1,-1,-1,-1,-1,-1,-1,-1,-1,-1,-1,-1],"loss_changes":[2.4332644E1,3.1567408E1,5.4201355E0,2.1467825E1,3.0713707E1,3.042033E1,1.1183134E1,3.0756817E1,1.24584255E1,3.6106606E1,2.812616E1,2.122063E1,9.342362E0,1.3325499E1,2.1191807E0,0E0,0E0,0E0,0E0,0E0,0E0,0E0,0E0,0E0,0E0,0E0,0E0,0E0,0E0,0E0,0E0],"parents":[2147483647,0,0,1,1,2,2,3,3,4,4,5,5,6,6,7,7,8,8,9,9,10,10,11,11,12,12,13,13,14,14],"right_children":[2,4,6,8,10,12,14,16,18,20,22,24,26,28,30,-1,-1,-1,-1,-1,-1,-1,-1,-1,-1,-1,-1,-1,-1,-1,-1],"split_conditions":[2.2E1,8E0,2.3E1,2E0,2E0,5E0,5E0,4E0,3E0,1E1,1.2E1,4E0,6E0,2E0,6E0,-1.436007E-2,6.8918645E-2,-4.5961216E-2,-1.3509658E-2,-9.842244E-2,-7.294369E-3,2.7349774E-2,4.699717E-3,-1.8645218E-2,-9.473489E-2,6.423365E-2,-9.27316E-4,-5.6360085E-2,5.1287312E-2,-4.0035952E-2,-7.963796E-2],"split_indices":[1,1,1,0,0,0,0,1,0,1,1,0,0,0,0,0,0,0,0,0,0,0,0,0,0,0,0,0,0,0,0],"split_type":[0,0,0,0,0,0,0,0,0,0,0,0,0,0,0,0,0,0,0,0,0,0,0,0,0,0,0,0,0,0,0],"sum_hessian":[4.626E3,4.236E3,3.9E2,1.129E3,3.107E3,2.76E2,1.14E2,1.83E2,9.46E2,3.84E2,2.723E3,1.89E2,8.7E1,4.4E1,7E1,1.1E2,7.3E1,1.38E2,8.08E2,4.9E1,3.35E2,7.6E2,1.963E3,1.4E2,4.9E1,4.4E1,4.3E1,2.2E1,2.2E1,2.4E1,4.6E1],"tree_param":{"num_deleted":"0","num_feature":"2","num_nodes":"31","size_leaf_vector":"1"}},{"base_weights":[-1.0604921E-3,4.3597605E-2,-1.06385425E-1,-3.3880875E-2,2.8898957E-1,-3.730943E-1,6.9090694E-2,2.070421E-2,-2.2501609E-1,7.5334704E-1,-1.340666E-1,-1.2149686E0,-2.1773273E-1,2.9059014E-1,-1.9259869E-1,7.6558897E-3,-1.1177202E-1,-3.4638394E-2,1.175828E-1,1.1523401E-2,1.23439826E-1,5.4236777E-2,-5.6203075E-2,-1.5217918E-1,-9.084191E-2,1.2732252E-2,-2.9678334E-2,8.8311605E-2,1.2143337E-2,-1.1847083E-2,-7.184361E-2],"categories":[],"categories_nodes":[],"categories_segments":[],"categories_sizes":[],"default_left":[0,0,0,0,0,0,0,0,0,0,0,0,0,0,0,0,0,0,0,0,0,0,0,0,0,0,0,0,0,0,0],"id":41,"left_children":[1,3,5,7,9,11,13,15,17,19,21,23,25,27,29,-1,-1,-1,-1,-1,-1,-1,-1,-1,-1,-1,-1,-1,-1,-1,-1],"loss_changes":[2.1768248E1,6.180073E1,6.451761E1,2.5784927E1,1.5333145E2,7.128026E1,4.828206E1,1.2236212E2,9.374684E1,1.1404877E2,1.187061E2,6.6123886E0,1.2666954E1,4.5096386E1,1.4804937E1,0E0,0E0,0E0,0E0,0E0,0E0,0E0,0E0,0E0,0E0,0E0,0E0,0E0,0E0,0E0,0E0],"parents":[2147483647,0,0,1,1,2,2,3,3,4,4,5,5,6,6,7,7,8,8,9,9,10,10,11,11,12,12,13,13,14,14],"right_children":[2,4,6,8,10,12,14,16,18,20,22,24,26,28,30,-1,-1,-1,-1,-1,-1,-1,-1,-1,-1,-1,-1,-1,-1,-1,-1],"split_conditions":[1.8E1,1.5E1,4E0,7E0,5E0,1.9E1,6E0,1.4E1,1.4E1,1.6E1,1.6E1,3E0,2E1,1.9E1,2.3E1,7.6558897E-3,-1.1177202E-1,-3.4638394E-2,1.175828E-1,1.1523401E-2,1.23439826E-1,5.4236777E-2,-5.6203075E-2,-1.5217918E-1,-9.084191E-2,1.2732252E-2,-2.9678334E-2,8.8311605E-2,1.2143337E-2,-1.1847083E-2,-7.184361E-2],"split_indices":[1,1,0,0,0,1,0,1,1,1,1,0,1,1,1,0,0,0,0,0,0,0,0,0,0,0,0,0,0,0,0],"split_type":[0,0,0,0,0,0,0,0,0,0,0,0,0,0,0,0,0,0,0,0,0,0,0,0,0,0,0,0,0,0,0],"sum_hessian":[4.626E3,3.249E3,1.377E3,2.47E3,7.79E2,5.46E2,8.31E2,1.922E3,5.48E2,3.71E2,4.08E2,8.4E1,4.62E2,4.5E2,3.81E2,1.833E3,8.9E1,5.05E2,4.3E1,1.6E2,2.11E2,1.58E2,2.5E2,4E1,4.4E1,8.6E1,3.76E2,9.9E1,3.51E2,3.35E2,4.6E1],"tree_param":{"num_deleted":"0","num_feature":"2","num_nodes":"31","size_leaf_vector":"1"}},{"base_weights":[-9.829153E-4,-1.799955E-1,2.172625E-2,-2.4922426E-1,-2.3650331E-2,9.028468E-2,-8.198429E-2,-2.5083626E-2,-3.0115762E-1,1.9493785E-2,-2.3849498E-2,9.4353445E-3,3.9171255E-1,-4.069997E-2,-6.595914E-1,-2.068175E-2,7.027934E-3,-4.126368E-2,-1.1465454E-2,1.074377E-2,-2.8697145E-3,8.042121E-3,-2.7580975E-2,2.654913E-2,1.0212179E-1,-3.818133E-2,2.6699135E-3,-7.335516E-2,-5.9612643E-2],"categories":[],"categories_nodes":[],"categories_segments":[],"categories_sizes":[],"default_left":[0,0,0,0,0,0,0,0,0,0,0,0,0,0,0,0,0,0,0,0,0,0,0,0,0,0,0,0,0],"id":42,"left_children":[1,3,5,7,9,11,13,15,17,19,-1,21,23,25,27,-1,-1,-1,-1,-1,-1,-1,-1,-1,-1,-1,-1,-1,-1],"loss_changes":[1.8813713E1,5.633192E0,2.9209127E1,4.194622E0,1.4970037E0,6.0263916E1,3.8961555E1,1.2103518E0,6.044512E0,5.7522655E-1,0E0,3.9526745E1,4.1284866E1,3.511704E1,7.4344635E-2,0E0,0E0,0E0,0E0,0E0,0E0,0E0,0E0,0E0,0E0,0E0,0E0,0E0,0E0],"parents":[2147483647,0,0,1,1,2,2,3,3,4,4,5,5,6,6,7,7,8,8,9,9,11,11,12,12,13,13,14,14],"right_children":[2,4,6,8,10,12,14,16,18,20,-1,22,24,26,28,-1,-1,-1,-1,-1,-1,-1,-1,-1,-1,-1,-1,-1,-1],"split_conditions":[4E0,7E0,1.7E1,1E0,3E0,1.5E1,7E0,3E0,2E0,2E0,-2.3849498E-2,7E0,7E0,2E0,1.8E1,-2.068175E-2,7.027934E-3,-4.126368E-2,-1.1465454E-2,1.074377E-2,-2.8697145E-3,8.042121E-3,-2.7580975E-2,2.654913E-2,1.0212179E-1,-3.818133E-2,2.6699135E-3,-7.335516E-2,-5.9612643E-2],"split_indices":[1,0,1,1,1,1,0,0,1,1,0,0,0,0,1,0,0,0,0,0,0,0,0,0,0,0,0,0,0],"split_type":[0,0,0,0,0,0,0,0,0,0,0,0,0,0,0,0,0,0,0,0,0,0,0,0,0,0,0,0,0],"sum_hessian":[4.626E3,5.2E2,4.106E3,3.6E2,1.6E2,2.472E3,1.634E3,6.8E1,2.92E2,1.34E2,2.6E1,1.95E3,5.22E2,1.526E3,1.08E2,2.3E1,4.5E1,1.82E2,1.1E2,4.7E1,8.7E1,1.562E3,3.88E2,4.36E2,8.6E1,2.51E2,1.275E3,4.5E1,6.3E1],"tree_param":{"num_deleted":"0","num_feature":"2","num_nodes":"29","size_leaf_vector":"1"}},{"base_weights":[-9.1512303E-4,1.6883705E-2,-1.9378653E-1,-9.99876E-2,5.9370093E-2,-1.2958218E-1,-3.4675017E-1,2.0238608E-2,-2.2999318E-1,-1.780924E-1,9.2910364E-2,-3.2288313E-1,2.8924468E-1,2.4860383E-3,-5.632132E-1,-1.27875535E-2,3.410438E-2,-1.0688015E-2,-1.04692936E-1,-6.3523166E-2,9.417419E-4,2.4740092E-2,3.3001897E-3,-1.2692565E-2,-8.690256E-2,5.6504603E-2,6.014217E-5,-4.4478204E-2,4.49646E-2,-3.7614565E-2,-6.50734E-2],"categories":[],"categories_nodes":[],"categories_segments":[],"categories_sizes":[],"default_left":[0,0,0,0,0,0,0,0,0,0,0,0,0,0,0,0,0,0,0,0,0,0,0,0,0,0,0,0,0,0,0],"id":43,"left_children":[1,3,5,7,9,11,13,15,17,19,21,23,25,27,29,-1,-1,-1,-1,-1,-1,-1,-1,-1,-1,-1,-1,-1,-1,-1,-1],"loss_changes":[1.588723E1,2.1044506E1,3.7950516E0,1.7666641E1,2.4770388E1,2.251921E1,8.695026E0,2.7982895E1,5.450059E1,3.3007454E1,2.5203253E1,2.0223635E1,7.005183E0,9.20001E0,9.1766167E-1,0E0,0E0,0E0,0E0,0E0,0E0,0E0,0E0,0E0,0E0,0E0,0E0,0E0,0E0,0E0,0E0],"parents":[2147483647,0,0,1,1,2,2,3,3,4,4,5,5,6,6,7,7,8,8,9,9,10,10,11,11,12,12,13,13,14,14],"right_children":[2,4,6,8,10,12,14,16,18,20,22,24,26,28,30,-1,-1,-1,-1,-1,-1,-1,-1,-1,-1,-1,-1,-1,-1,-1,-1],"split_conditions":[2.2E1,8E0,2.3E1,5E0,2E0,5E0,5E0,5E0,7E0,1.3E1,1.2E1,4E0,6E0,2E0,6E0,-1.27875535E-2,3.410438E-2,-1.0688015E-2,-1.04692936E-1,-6.3523166E-2,9.417419E-4,2.4740092E-2,3.3001897E-3,-1.2692565E-2,-8.690256E-2,5.6504603E-2,6.014217E-5,-4.4478204E-2,4.49646E-2,-3.7614565E-2,-6.50734E-2],"split_indices":[1,1,1,0,0,0,0,1,1,1,1,0,0,0,0,0,0,0,0,0,0,0,0,0,0,0,0,0,0,0,0],"split_type":[0,0,0,0,0,0,0,0,0,0,0,0,0,0,0,0,0,0,0,0,0,0,0,0,0,0,0,0,0,0,0],"sum_hessian":[4.626E3,4.236E3,3.9E2,1.129E3,3.107E3,2.76E2,1.14E2,5.87E2,5.42E2,3.84E2,2.723E3,1.89E2,8.7E1,4.4E1,7E1,4.02E2,1.85E2,4.72E2,7E1,1.11E2,2.73E2,7.6E2,1.963E3,1.4E2,4.9E1,4.4E1,4.3E1,2.2E1,2.2E1,2.4E1,4.6E1],"tree_param":{"num_deleted":"0","num_feature":"2","num_nodes":"31","size_leaf_vector":"1"}},{"base_weights":[-8.826885E-4,3.5420075E-2,-8.650177E-2,-2.8319523E-2,2.3729844E-1,-3.205538E-1,6.7480154E-2,-1.8772542E-1,2.1224583E-2,6.624447E-1,-1.4996737E-1,-1.0925721E0,-1.7813025E-1,2.6055157E-1,-1.6064206E-1,-2.8282562E-2,5.5316743E-2,1.01661375E-2,-2.731669E-2,4.1559946E-2,1.7598765E-1,4.388485E-2,-5.223648E-2,-5.5194553E-2,-1.2398442E-1,1.2870163E-2,-2.4846513E-2,7.897768E-2,1.0946329E-2,-8.388986E-3,-5.4069377E-2],"categories":[],"categories_nodes":[],"categories_segments":[],"categories_sizes":[],"default_left":[0,0,0,0,0,0,0,0,0,0,0,0,0,0,0,0,0,0,0,0,0,0,0,0,0,0,0,0,0,0,0],"id":44,"left_children":[1,3,5,7,9,11,13,15,17,19,21,23,25,27,29,-1,-1,-1,-1,-1,-1,-1,-1,-1,-1,-1,-1,-1,-1,-1,-1],"loss_changes":[1.4384749E1,4.182657E1,4.9684452E1,1.9519012E1,1.2852216E2,5.9949993E1,3.668636E1,4.144545E1,4.4688072E1,1.0004184E2,8.99121E1,6.083313E0,1.0023971E1,3.5975388E1,1.1097506E1,0E0,0E0,0E0,0E0,0E0,0E0,0E0,0E0,0E0,0E0,0E0,0E0,0E0,0E0,0E0,0E0],"parents":[2147483647,0,0,1,1,2,2,3,3,4,4,5,5,6,6,7,7,8,8,9,9,10,10,11,11,12,12,13,13,14,14],"right_children":[2,4,6,8,10,12,14,16,18,20,22,24,26,28,30,-1,-1,-1,-1,-1,-1,-1,-1,-1,-1,-1,-1,-1,-1,-1,-1],"split_conditions":[1.8E1,1.5E1,4E0,3E0,5E0,1.9E1,6E0,1.3E1,1.2E1,4E0,1.6E1,2E0,2E1,1.9E1,7E0,-2.8282562E-2,5.5316743E-2,1.01661375E-2,-2.731669E-2,4.1559946E-2,1.7598765E-1,4.388485E-2,-5.223648E-2,-5.5194553E-2,-1.2398442E-1,1.2870163E-2,-2.4846513E-2,7.897768E-2,1.0946329E-2,-8.388986E-3,-5.4069377E-2],"split_indices":[1,1,0,0,0,1,0,1,1,0,1,0,1,1,0,0,0,0,0,0,0,0,0,0,0,0,0,0,0,0,0],"split_type":[0,0,0,0,0,0,0,0,0,0,0,0,0,0,0,0,0,0,0,0,0,0,0,0,0,0,0,0,0,0,0],"sum_hessian":[4.626E3,3.249E3,1.377E3,2.47E3,7.79E2,5.46E2,8.31E2,5.85E2,1.885E3,3.71E2,4.08E2,8.4E1,4.62E2,4.5E2,3.81E2,5.19E2,6.6E1,1.481E3,4.04E2,3.04E2,6.7E1,1.58E2,2.5E2,1.9E1,6.5E1,8.6E1,3.76E2,9.9E1,3.51E2,3.18E2,6.3E1],"tree_param":{"num_deleted":"0","num_feature":"2","num_nodes":"31","size_leaf_vector":"1"}},{"base_weights":[-7.824017E-4,-2.0731571E-1,1.3431849E-2,-7.080441E-3,-2.9530764E-1,5.6079637E-2,-7.797044E-2,-1.476384E-2,4.19119E-2,-3.598546E-1,1.8898865E-2,1.9207565E-1,-5.624839E-2,-2.8884783E-1,6.0765013E-2,1.5449943E-2,-1.4075869E-3,-2.488937E-2,-1.1209353E-1,3.292751E-3,1.0357058E-1,-3.5646558E-2,5.7948646E-3,-9.854221E-2,-1.6034316E-2,4.056482E-2,-4.3333764E-3],"categories":[],"categories_nodes":[],"categories_segments":[],"categories_sizes":[],"default_left":[0,0,0,0,0,0,0,0,0,0,0,0,0,0,0,0,0,0,0,0,0,0,0,0,0,0,0],"id":45,"left_children":[1,3,5,7,9,11,13,-1,15,17,-1,19,21,23,25,-1,-1,-1,-1,-1,-1,-1,-1,-1,-1,-1,-1],"loss_changes":[1.3586344E1,5.248397E0,1.688317E1,6.39724E-1,6.538801E0,4.5121315E1,4.0332554E1,0E0,4.371179E-1,1.5175398E1,0E0,1.7934013E2,5.5492027E1,4.8805626E1,2.9887976E1,0E0,0E0,0E0,0E0,0E0,0E0,0E0,0E0,0E0,0E0,0E0,0E0],"parents":[2147483647,0,0,1,1,2,2,3,3,4,4,5,5,6,6,8,8,9,9,11,11,12,12,13,13,14,14],"right_children":[2,4,6,8,10,12,14,-1,16,18,-1,20,22,24,26,-1,-1,-1,-1,-1,-1,-1,-1,-1,-1,-1,-1],"split_conditions":[2E0,1E0,1.8E1,3E0,7E0,5E0,4E0,-1.476384E-2,6E0,6E0,1.8898865E-2,1.6E1,6E0,1.9E1,1.9E1,1.5449943E-2,-1.4075869E-3,-2.488937E-2,-1.1209353E-1,3.292751E-3,1.0357058E-1,-3.5646558E-2,5.7948646E-3,-9.854221E-2,-1.6034316E-2,4.056482E-2,-4.3333764E-3],"split_indices":[1,1,1,0,0,0,0,0,0,0,0,1,0,1,1,0,0,0,0,0,0,0,0,0,0,0,0],"split_type":[0,0,0,0,0,0,0,0,0,0,0,0,0,0,0,0,0,0,0,0,0,0,0,0,0,0,0],"sum_hessian":[4.626E3,2.97E2,4.329E3,9.1E1,2.06E2,2.952E3,1.377E3,2.3E1,6.8E1,1.82E2,2.4E1,1.335E3,1.617E3,5.46E2,8.31E2,2.2E1,4.6E1,1.6E2,2.2E1,1.124E3,2.11E2,4.45E2,1.172E3,8.4E1,4.62E2,1.92E2,6.39E2],"tree_param":{"num_deleted":"0","num_feature":"2","num_nodes":"27","size_leaf_vector":"1"}},{"base_weights":[-7.299572E-4,2.1235874E-2,-1.15583956E-1,-2.1736707E-1,4.2787194E-2,-3.0201396E-1,2.8126127E-1,-1.6641043E-1,-5.194893E-1,1.7527667E-1,-2.633142E-2,-1.8455955E-1,-1.5624052E-1,1.6026806E0,-4.633356E-1,-2.6856929E-2,-6.005415E-3,-2.4210534E-3,-1.0137155E-1,-1.8980933E-2,3.27369E-2,-8.837601E-2,1.1092594E-3,-2.4477227E-2,8.392073E-2,1.1056801E-1,2.0739675E-1,-2.098648E-2,-5.6372877E-2],"categories":[],"categories_nodes":[],"categories_segments":[],"categories_sizes":[],"default_left":[0,0,0,0,0,0,0,0,0,0,0,0,0,0,0,0,0,0,0,0,0,0,0,0,0,0,0,0,0],"id":46,"left_children":[1,3,5,7,9,11,13,15,17,19,21,23,-1,25,27,-1,-1,-1,-1,-1,-1,-1,-1,-1,-1,-1,-1,-1,-1],"loss_changes":[1.1675744E1,1.998678E1,5.505495E1,4.8707848E0,3.2641903E1,7.4619125E1,2.3491664E2,2.9935417E0,1.1235325E1,6.791586E1,7.519297E1,2.8808125E1,0E0,1.7850616E1,3.7750397E0,0E0,0E0,0E0,0E0,0E0,0E0,0E0,0E0,0E0,0E0,0E0,0E0,0E0,0E0],"parents":[2147483647,0,0,1,1,2,2,3,3,4,4,5,5,6,6,7,7,8,8,9,9,10,10,11,11,13,13,14,14],"right_children":[2,4,6,8,10,12,14,16,18,20,22,24,-1,26,28,-1,-1,-1,-1,-1,-1,-1,-1,-1,-1,-1,-1,-1,-1],"split_conditions":[7E0,3E0,1.4E1,6E0,1.2E1,1.3E1,1.6E1,3E0,1E0,3E0,1.3E1,1.2E1,-1.5624052E-1,1.5E1,1.7E1,-2.6856929E-2,-6.005415E-3,-2.4210534E-3,-1.0137155E-1,-1.8980933E-2,3.27369E-2,-8.837601E-2,1.1092594E-3,-2.4477227E-2,8.392073E-2,1.1056801E-1,2.0739675E-1,-2.098648E-2,-5.6372877E-2],"split_indices":[0,1,1,0,1,1,1,0,1,0,1,1,0,1,1,0,0,0,0,0,0,0,0,0,0,0,0,0,0],"split_type":[0,0,0,0,0,0,0,0,0,0,0,0,0,0,0,0,0,0,0,0,0,0,0,0,0,0,0,0,0],"sum_hessian":[4.626E3,3.884E3,7.42E2,3.21E2,3.563E3,5.05E2,2.37E2,2.76E2,4.5E1,1.221E3,2.342E3,4.63E2,4.2E1,8.5E1,1.52E2,1.4E2,1.36E2,2.3E1,2.2E1,3.59E2,8.62E2,9.7E1,2.245E3,4.38E2,2.5E1,4.3E1,4.2E1,4.4E1,1.08E2],"tree_param":{"num_deleted":"0","num_feature":"2","num_nodes":"29","size_leaf_vector":"1"}},{"base_weights":[-6.716639E-4,7.0527513E-3,-3.0379874E-1,-7.767331E-2,3.745203E-2,1.7916849E-2,-5.034241E-1,2.2235316E-1,-1.3230878E-1,-1.5329878E-1,6.609461E-2,-3.6419533E-2,3.9925005E-2,-3.474484E-2,-5.7567883E-2,-5.185058E-3,6.30654E-2,-3.6231413E-2,-9.545109E-3,-7.978108E-2,-6.9197747E-3,2.2734016E-2,1.4621883E-3],"categories":[],"categories_nodes":[],"categories_segments":[],"categories_sizes":[],"default_left":[0,0,0,0,0,0,0,0,0,0,0,0,0,0,0,0,0,0,0,0,0,0,0],"id":47,"left_children":[1,3,5,7,9,11,13,15,17,19,21,-1,-1,-1,-1,-1,-1,-1,-1,-1,-1,-1,-1],"loss_changes":[1.0836167E1,1.1626641E1,7.39462E0,1.956879E1,1.8160194E1,6.7024474E0,6.0014915E-1,2.06329E1,8.519182E0,2.3469389E1,2.3974646E1,0E0,0E0,0E0,0E0,0E0,0E0,0E0,0E0,0E0,0E0,0E0,0E0],"parents":[2147483647,0,0,1,1,2,2,3,3,4,4,5,5,6,6,7,7,8,8,9,9,10,10],"right_children":[2,4,6,8,10,12,14,16,18,20,22,-1,-1,-1,-1,-1,-1,-1,-1,-1,-1,-1,-1],"split_conditions":[2.3E1,9E0,5E0,2E0,2E0,2E0,6E0,4E0,3E0,1E1,1.2E1,-3.6419533E-2,3.9925005E-2,-3.474484E-2,-5.7567883E-2,-5.185058E-3,6.30654E-2,-3.6231413E-2,-9.545109E-3,-7.978108E-2,-6.9197747E-3,2.2734016E-2,1.4621883E-3],"split_indices":[1,1,0,0,0,0,0,1,0,1,1,0,0,0,0,0,0,0,0,0,0,0,0],"split_type":[0,0,0,0,0,0,0,0,0,0,0,0,0,0,0,0,0,0,0,0,0,0,0],"sum_hessian":[4.626E3,4.512E3,1.14E2,1.191E3,3.321E3,4.4E1,7E1,1.83E2,1.008E3,4.33E2,2.888E3,2.2E1,2.2E1,2.4E1,4.6E1,1.1E2,7.3E1,1.38E2,8.7E2,4.9E1,3.84E2,6.98E2,2.19E3],"tree_param":{"num_deleted":"0","num_feature":"2","num_nodes":"23","size_leaf_vector":"1"}},{"base_weights":[-6.346742E-4,1.931997E-2,-1.04972705E-1,-1.8380694E-1,3.7666645E-2,-2.729938E-1,2.526897E-1,-1.3720115E-1,-4.6045914E-1,1.5290008E-1,-2.2449842E-2,-1.6692263E-1,-1.4112273E-1,1.444664E0,-4.1896048E-1,-2.261856E-2,-4.4617145E-3,-1.2742877E-3,-9.076213E-2,-1.6818045E-2,2.8666148E-2,-7.96024E-2,1.1313611E-3,-2.2126852E-2,7.571069E-2,9.961962E-2,1.8699645E-1,-1.9077506E-2,-5.093218E-2],"categories":[],"categories_nodes":[],"categories_segments":[],"categories_sizes":[],"default_left":[0,0,0,0,0,0,0,0,0,0,0,0,0,0,0,0,0,0,0,0,0,0,0,0,0,0,0,0,0],"id":48,"left_children":[1,3,5,7,9,11,13,15,17,19,21,23,-1,25,27,-1,-1,-1,-1,-1,-1,-1,-1,-1,-1,-1,-1,-1,-1],"loss_changes":[9.635573E0,1.4485166E1,4.4719444E1,4.088561E0,2.4692787E1,6.0855717E1,1.9114563E2,2.2719831E0,9.197717E0,5.2530876E1,6.1204727E1,2.3468307E1,0E0,1.4540237E1,3.0575619E0,0E0,0E0,0E0,0E0,0E0,0E0,0E0,0E0,0E0,0E0,0E0,0E0,0E0,0E0],"parents":[2147483647,0,0,1,1,2,2,3,3,4,4,5,5,6,6,7,7,8,8,9,9,10,10,11,11,13,13,14,14],"right_children":[2,4,6,8,10,12,14,16,18,20,22,24,-1,26,28,-1,-1,-1,-1,-1,-1,-1,-1,-1,-1,-1,-1,-1,-1],"split_conditions":[7E0,3E0,1.4E1,6E0,1.2E1,1.3E1,1.6E1,3E0,1E0,3E0,1.3E1,1.2E1,-1.4112273E-1,1.5E1,1.7E1,-2.261856E-2,-4.4617145E-3,-1.2742877E-3,-9.076213E-2,-1.6818045E-2,2.8666148E-2,-7.96024E-2,1.1313611E-3,-2.2126852E-2,7.571069E-2,9.961962E-2,1.8699645E-1,-1.9077506E-2,-5.093218E-2],"split_indices":[0,1,1,0,1,1,1,0,1,0,1,1,0,1,1,0,0,0,0,0,0,0,0,0,0,0,0,0,0],"split_type":[0,0,0,0,0,0,0,0,0,0,0,0,0,0,0,0,0,0,0,0,0,0,0,0,0,0,0,0,0],"sum_hessian":[4.626E3,3.884E3,7.42E2,3.21E2,3.563E3,5.05E2,2.37E2,2.76E2,4.5E1,1.221E3,2.342E3,4.63E2,4.2E1,8.5E1,1.52E2,1.4E2,1.36E2,2.3E1,2.2E1,3.59E2,8.62E2,9.7E1,2.245E3,4.38E2,2.5E1,4.3E1,4.2E1,4.4E1,1.08E2],"tree_param":{"num_deleted":"0","num_feature":"2","num_nodes":"29","size_leaf_vector":"1"}},{"base_weights":[-5.833046E-4,1.3279589E-2,-1.5080453E-1,-6.643335E-2,4.4469524E-2,-9.856915E-2,-2.753123E-1,2.2005925E-1,-1.1861194E-1,-1.4228505E-1,7.146277E-2,-2.6422322E-1,2.6021314E-1,1.5097279E-2,-4.554971E-1,3.4519897E-3,7.1661435E-2,-5.818084E-3,-2.2739418E-2,8.190093E-3,-3.954112E-2,1.9199379E-2,2.8528639E-3,-7.4495934E-3,-7.939697E-2,4.997116E-2,9.3576044E-4,-3.3044126E-2,3.599794E-2,-3.1517886E-2,-5.2044302E-2],"categories":[],"categories_nodes":[],"categories_segments":[],"categories_sizes":[],"default_left":[0,0,0,0,0,0,0,0,0,0,0,0,0,0,0,0,0,0,0,0,0,0,0,0,0,0,0,0,0,0,0],"id":49,"left_children":[1,3,5,7,9,11,13,15,17,19,21,23,25,27,29,-1,-1,-1,-1,-1,-1,-1,-1,-1,-1,-1,-1,-1,-1,-1,-1],"loss_changes":[9.637734E0,1.0537157E1,2.5158138E0,1.7845049E1,1.5365398E1,1.6531902E1,6.0245266E0,1.6927277E1,6.6197643E0,2.188011E1,1.3770093E1,1.903725E1,5.2823215E0,5.481604E0,4.8299694E-1,0E0,0E0,0E0,0E0,0E0,0E0,0E0,0E0,0E0,0E0,0E0,0E0,0E0,0E0,0E0,0E0],"parents":[2147483647,0,0,1,1,2,2,3,3,4,4,5,5,6,6,7,7,8,8,9,9,10,10,11,11,12,12,13,13,14,14],"right_children":[2,4,6,8,10,12,14,16,18,20,22,24,26,28,30,-1,-1,-1,-1,-1,-1,-1,-1,-1,-1,-1,-1,-1,-1,-1,-1],"split_conditions":[2.2E1,9E0,2.3E1,2E0,2E0,5E0,5E0,5E0,5E0,1.7E1,1.2E1,4E0,6E0,2E0,6E0,3.4519897E-3,7.1661435E-2,-5.818084E-3,-2.2739418E-2,8.190093E-3,-3.954112E-2,1.9199379E-2,2.8528639E-3,-7.4495934E-3,-7.939697E-2,4.997116E-2,9.3576044E-4,-3.3044126E-2,3.599794E-2,-3.1517886E-2,-5.2044302E-2],"split_indices":[1,1,1,0,0,0,0,1,1,1,1,0,0,0,0,0,0,0,0,0,0,0,0,0,0,0,0,0,0,0,0],"split_type":[0,0,0,0,0,0,0,0,0,0,0,0,0,0,0,0,0,0,0,0,0,0,0,0,0,0,0,0,0,0,0],"sum_hessian":[4.626E3,4.236E3,3.9E2,1.191E3,3.045E3,2.76E2,1.14E2,1.83E2,1.008E3,3.84E2,2.661E3,1.89E2,8.7E1,4.4E1,7E1,1.34E2,4.9E1,6.49E2,3.59E2,2.04E2,1.8E2,6.98E2,1.963E3,1.4E2,4.9E1,4.4E1,4.3E1,2.2E1,2.2E1,2.4E1,4.6E1],"tree_param":{"num_deleted":"0","num_feature":"2","num_nodes":"31","size_leaf_vector":"1"}}]},"name":"gbtree"},"learner_model_param":{"base_score":"[1.4057934E1]","boost_from_average":"1","num_class":"0","num_feature":"2","num_target":"1"},"objective":{"name":"reg:squarederror","reg_loss_param":{"scale_pos_weight":"1"}}},"version":[3,2,0]}